3598 64
14794 -1.7479801 1.7794102 -0.37326717 -2.649607 -0.15217283 -0.060777437 0.10704499 1.6252011 -0.72790015 -0.34152102 -1.4295678 -0.36511686 0.45257849 0.52330786 -3.1860867 0.22392257 0.115918085 0.15891382 -0.35054478 0.2532454 0.68589 -0.16730204 -0.24354748 0.48324335 0.19309044 0.036218595 0.019629529 0.21154076 -0.1646849 -0.35541755 -0.37727237 0.06304163 0.08200576 -0.2716669 -0.44646388 -0.015127193 0.4982658 0.52369833 0.27793118 0.07843961 0.0047027133 0.45267263 -0.19081464 0.4099332 -0.35761362 -0.29257634 0.20446733 -0.09207472 -0.29147202 0.0036760469 0.15958488 0.7840051 0.10273266 0.12368582 -0.23332332 0.22593465 -0.28634122 -0.28769246 0.42069814 0.15892243 0.027874654 -0.3572149 0.03340273 0.13506386
5750 -1.7165126 1.7261703 -0.38388985 -2.640409 -0.16508405 -0.04042294 0.12688795 1.5924033 -0.6439141 -0.34340155 -1.3438048 -0.34500858 0.51508224 0.55133265 -3.2500372 0.19363831 0.13304378 0.12470153 -0.35643226 0.24431719 0.74355745 -0.12882948 -0.24262352 0.5993092 0.22800864 -0.0066295573 0.1813927 0.25160325 -0.13663882 -0.32979354 -0.35431832 0.05778171 0.052096404 -0.2719203 -0.47210523 -0.01782105 0.4726158 0.5097587 0.335441 0.06200132 0.036081027 0.4358167 -0.1626378 0.4034553 -0.4012596 -0.25319 0.20757684 -0.08132109 -0.3051445 -0.04507308 0.18131699 0.7824076 0.08718408 0.043022823 -0.23969634 0.27083698 -0.2875227 -0.26784715 0.43281618 0.11842687 -0.020988934 -0.34512296 -0.024937067 0.19641982
2168 -1.7077281 1.7446085 -0.3339766 -2.6764581 -0.17774424 -0.029061278 0.084406696 1.6320386 -0.72112894 -0.32141778 -1.4406062 -0.39150774 0.53038156 0.5496572 -3.141588 0.21521363 0.1480228 0.1797053 -0.34295198 0.2463038 0.69592524 -0.13165288 -0.2626111 0.5290124 0.18292326 -0.015708173 0.038655203 0.21365435 -0.14274575 -0.3569259 -0.37597445 0.0839449 0.09715394 -0.27279305 -0.4763488 -0.016944237 0.48481512 0.53406674 0.2722152 0.08556454 -0.025301442 0.45280415 -0.16257358 0.38854435 -0.32529208 -0.29585537 0.2229309 -0.08556124 -0.3105072 -0.0053035235 0.15349698 0.7900264 0.1145218 0.09507189 -0.24509966 0.23255219 -0.23851371 -0.30248204 0.39247742 0.14839546 0.023606677 -0.35654727 0.02052476 0.16806988
2930 -1.7398989 1.6662723 -0.34616858 -2.6878633 -0.17804697 -0.084373645 0.06603308 1.6580845 -0.74287283 -0.34516633 -1.4624153 -0.39566422 0.4727979 0.5231081 -3.1995602 0.27622744 0.12269162 0.1909161 -0.35609782 0.24214831 0.69839436 -0.15432265 -0.26158285 0.52682227 0.18702345 -0.016271992 0.049309563 0.24139142 -0.14566444 -0.36435294 -0.43126714 0.09593452 0.09350571 -0.28311145 -0.4847455 -0.02184721 0.47236684 0.5348019 0.27701014 0.078073725 0.011153479 0.5186441 -0.21797062 0.45926443 -0.35828686 -0.30747047 0.17866533 -0.11771696 -0.30720794 0.0013340885 0.17267501 0.80015653 0.106414355 0.09980938 -0.25786597 0.1984336 -0.27811503 -0.27214527 0.42427358 0.16553351 -0.011950506 -0.38729098 -0.004385068 0.15530159
15481 -1.7577289 1.7686567 -0.34853503 -2.6978354 -0.1786465 -0.08810818 0.06377694 1.6597706 -0.78612614 -0.31266946 -1.4907558 -0.4266088 0.46844885 0.5440947 -3.0825503 0.23058541 0.13234197 0.20883897 -0.31874043 0.20346731 0.661716 -0.13194805 -0.25866517 0.45539212 0.1752231 0.010493463 -0.0326848 0.22216915 -0.19767088 -0.3765573 -0.37043083 0.09346503 0.094006725 -0.2922755 -0.4574667 0.020014726 0.516169 0.49097335 0.23034742 0.07033622 0.03530836 0.4636703 -0.21040224 0.4278099 -0.37692526 -0.31443366 0.20770521 -0.11568085 -0.29750937 -0.0040651704 0.18610282 0.7732852 0.0936159 0.099173285 -0.25492987 0.24228676 -0.29242507 -0.27400994 0.39409494 0.16294427 0.055269316 -0.39362454 0.035910524 0.13241115
15534 -1.7254634 1.680176 -0.37736058 -2.698968 -0.20392732 -0.118936226 -0.020248128 1.6086712 -0.8556854 -0.15912685 -1.5567982 -0.42768288 0.387243 0.38529167 -3.2431822 0.36997673 0.15755574 0.3272742 -0.24356806 0.18271318 0.60104084 -0.13608661 -0.41506654 0.38518324 0.069575705 0.12231219 -0.24723789 0.15486227 -0.1673063 -0.4089179 -0.4682879 0.07489573 0.13763593 -0.24967456 -0.49816668 0.024089228 0.47975028 0.5457233 0.12763524 0.13767137 0.015045775 0.55493087 -0.29527038 0.5808981 -0.34339324 -0.37836266 0.16883717 -0.14483742 -0.3364542 0.088760994 0.14361931 0.78318197 0.05429915 0.14595282 -0.25765228 0.21952473 -0.28585398 -0.17379604 0.45546407 0.24292184 0.030629871 -0.39538562 0.04809838 -0.032800626
2924 -1.6694193 1.6292429 -0.3441748 -2.6528473 -0.18617259 -0.15107025 -0.018636398 1.6021234 -0.7909694 -0.20071568 -1.5856334 -0.40131363 0.41852328 0.32255727 -3.291783 0.3845784 0.14162537 0.3486989 -0.29178306 0.21470097 0.61471355 -0.13609865 -0.3683437 0.43640095 0.11367478 0.0978874 -0.13753356 0.21336362 -0.17216478 -0.3879496 -0.49629277 0.10839009 0.12739013 -0.24815889 -0.54667723 0.0146633815 0.50566167 0.50475335 0.1577249 0.106828526 0.09018581 0.6176435 -0.2595205 0.60630107 -0.35666502 -0.34309345 0.15869147 -0.15553741 -0.35809907 0.06815831 0.15819736 0.7901947 0.019367758 0.12151473 -0.24652846 0.17568615 -0.292667 -0.13457078 0.49785456 0.26663783 -0.028449003 -0.3394682 0.020542094 0.033854943
15520 -1.5752871 1.5257453 -0.33419877 -2.6066654 -0.14584982 -0.15417495 0.065241344 1.6102614 -0.71273595 -0.3306136 -1.5882535 -0.37135082 0.49571106 0.27840298 -3.292459 0.36726958 0.116267204 0.32614097 -0.4079231 0.28659883 0.6844013 -0.16817743 -0.30237496 0.56742424 0.18189184 0.027763957 0.04209199 0.28022584 -0.1253474 -0.31079942 -0.49955276 0.13358255 0.10217121 -0.24549964 -0.59320104 -0.02088998 0.4748228 0.5504373 0.244441 0.04776272 0.103026286 0.6259238 -0.2073031 0.58431506 -0.34271812 -0.3259581 0.108288266 -0.13390978 -0.37462062 0.065283135 0.18386357 0.80205876 0.008667388 0.045243952 -0.22558738 0.12875812 -0.2307923 -0.17429869 0.50291675 0.22965321 -0.11057635 -0.39637464 -0.0067406334 0.1825685
6575 -1.6863443 1.5245786 -0.32653877 -2.6540716 -0.18151651 -0.11677226 0.030417513 1.5900798 -0.7917583 -0.22586778 -1.4904476 -0.39925393 0.38710105 0.4053356 -3.246557 0.35848454 0.12709929 0.26451752 -0.27402645 0.19338986 0.6053095 -0.13193634 -0.3309972 0.38409638 0.09829383 0.11462193 -0.15955773 0.2067766 -0.16918913 -0.39771628 -0.47739518 0.11103731 0.10589841 -0.24646272 -0.52093667 0.0050791213 0.48065236 0.54041934 0.16516861 0.11616547 0.026853077 0.56430274 -0.2566244 0.56415856 -0.339411 -0.34581026 0.12727022 -0.13942449 -0.34891248 0.0523835 0.16065192 0.7909618 0.046557274 0.1302812 -0.24860995 0.14912987 -0.2817405 -0.2113685 0.4420252 0.24388775 0.0023178076 -0.43024567 0.041077297 0.025473079
6503 -1.7098575 1.7841938 -0.3401378 -2.711026 -0.21348758 -0.052835908 0.022107607 1.6457305 -0.81264645 -0.28518334 -1.4867538 -0.3935793 0.4415313 0.5005284 -3.0290241 0.21071528 0.15485512 0.21078381 -0.3093546 0.20792076 0.6457455 -0.1249286 -0.29812977 0.4535826 0.16707467 0.0049643386 -0.058523852 0.19665757 -0.20422314 -0.34642693 -0.3599146 0.07018141 0.085545525 -0.27379006 -0.44114333 -1.0552797e-06 0.48637736 0.49353978 0.22200736 0.10665534 0.009016132 0.4632775 -0.18787764 0.41896725 -0.34003636 -0.2938897 0.24051917 -0.089713305 -0.27816358 -0.009064647 0.150581 0.8106308 0.105317965 0.107910186 -0.24390012 0.23848243 -0.2585403 -0.25814778 0.3738859 0.1737566 0.03893275 -0.34413767 0.021628419 0.108333595
2928 -1.5673867 1.4806286 -0.28910124 -2.599933 -0.13443978 -0.14870085 0.08906629 1.6191666 -0.6681478 -0.3816768 -1.6141053 -0.3537679 0.54413116 0.278749 -3.2883973 0.38913196 0.1115899 0.31311136 -0.4622688 0.28947872 0.74875027 -0.16439883 -0.28370634 0.597667 0.19921361 -0.009360889 0.07294921 0.3134007 -0.097666964 -0.32050395 -0.48095906 0.12409069 0.09084286 -0.24507539 -0.63296056 -0.029620392 0.44759044 0.55700517 0.29429355 0.031040585 0.12889358 0.60448015 -0.21280363 0.5630233 -0.35172245 -0.31574193 0.112993605 -0.13264933 -0.38430887 0.047321808 0.19216232 0.77501434 0.00481857 0.02927331 -0.23167841 0.094468646 -0.22336717 -0.22648919 0.50365394 0.2288504 -0.13435109 -0.37989452 -0.048913516 0.2215259
14943 -0.42012045 0.07178684 0.67906845 -0.17417085 0.3525868 -1.0132676 0.798281 0.26704168 -0.34525058 0.90606767 -0.1899397 0.78211564 1.0688725 -0.88586265 -0.21549226 -0.9327908 -0.5026522 -0.69451153 0.85835636 0.74630624 0.97903717 -0.7032016 0.8132709 0.32224587 0.68343854 -1.1233566 -0.5096767 -0.8846826 0.72238475 -0.5730755 0.83957404 -0.87811834 -0.43421033 0.79930794 0.8536358 -0.99166906 1.0561723 0.9334343 0.88467467 0.74156904 -0.20435174 -0.94483435 0.6204125 -0.9052133 -0.9385885 -0.93107563 -0.78208077 -1.51419 -1.0799432 -0.55093294 0.5025362 -0.85367525 -0.7393305 0.6065753 0.7256517 -1.046784 0.7691438 -0.84425265 -0.97114617 1.2536019 -0.75404364 -0.4742225 0.54721594 0.8586074
5998 -0.38102695 0.044564508 0.7998251 -0.15250267 0.5870441 -1.0998778 0.8640932 0.24924497 -0.3139229 0.98868465 -0.15237921 0.86206335 1.0866541 -0.9896426 -0.2040155 -1.0368946 -0.7229027 -0.83044523 0.8980811 0.8016554 1.0161207 -0.7708691 0.95926714 0.37672123 0.8167634 -1.1629232 -0.44205365 -0.9899771 0.82296705 -0.5847182 0.93801033 -0.94279563 -0.63533723 0.95660025 0.98174495 -1.060859 1.1614999 0.9751695 0.9380972 0.8278719 -0.30270854 -1.0207057 0.7669335 -0.9972607 -0.8756726 -0.9860147 -0.9078431 -1.3118349 -1.1519675 -0.5431086 0.6466748 -0.9328962 -0.8392884 0.70522314 0.85986674 -1.1450924 0.91257966 -0.92279077 -1.1087906 1.2531432 -0.8595597 -0.4616453 0.7748459 0.9330018
15559 -0.41199893 0.03654656 0.44843388 -0.17430826 0.1535475 -1.0809782 0.6348085 0.28569487 -0.24843237 0.8748396 -0.13638537 0.6775848 1.1477481 -0.8576123 -0.2703469 -0.86515665 -0.34011388 -0.54033095 0.67664516 0.6131775 0.912554 -0.5823863 0.70596397 -0.0203609 0.46307054 -1.1971432 -0.4644307 -0.8483315 0.5197234 -0.73883146 0.7924372 -0.8369081 -0.20152903 0.77697974 0.775634 -1.004698 1.2003384 0.9143328 0.82173264 0.55957913 0.11139673 -0.9069576 0.40683937 -0.836434 -1.1671599 -0.88463354 -0.7138835 -1.8348054 -1.1432056 -0.6886097 0.21727297 -0.78149945 -0.5576692 0.41238877 0.48132902 -1.1773704 0.91870594 -0.67219543 -1.0389817 1.3986125 -0.6052486 -0.6494363 0.49494877 0.75294286
3154 -0.39572722 0.08197723 0.43713394 -0.18169942 0.16241817 -1.0941417 0.6174149 0.28486001 -0.22870071 0.88117224 -0.14933947 0.6748099 1.1440016 -0.8405857 -0.30244902 -0.8651394 -0.3683745 -0.52552426 0.6663042 0.6226899 0.9027959 -0.58539385 0.72128445 -0.020753078 0.443171 -1.2142794 -0.459639 -0.84786445 0.51181376 -0.76062304 0.808673 -0.81921995 -0.23750034 0.7701096 0.773463 -1.040525 1.2288538 0.91820055 0.8013626 0.5583501 0.09973973 -0.9264361 0.39721084 -0.8611189 -1.1513058 -0.9056449 -0.7323434 -1.863488 -1.1315446 -0.71170336 0.20538113 -0.77289575 -0.56658274 0.42766732 0.48622328 -1.2108239 0.95349497 -0.63647157 -1.0617067 1.4048218 -0.59407675 -0.6502878 0.5222334 0.7385354
14969 -0.43212095 -0.12904872 0.32604373 -0.36248162 0.3158484 -0.07796892 0.24107508 0.6013162 -0.24771294 0.15486853 -0.28652993 0.24109608 0.1030145 -0.23984185 -0.5371877 -0.22349578 -0.4669122 -0.45208538 0.14239965 0.25391856 0.39671046 -0.064349204 0.3930732 0.3881474 0.22025779 -0.35508862 0.17777866 -0.20825715 0.29982057 0.26222625 0.34702912 -0.4129202 -0.37721813 0.15974759 0.27534077 -0.09595779 0.6082562 0.770049 0.20580722 0.33509767 -0.45393836 -0.5467272 0.38273656 -0.42925546 0.29451054 -0.4273738 -0.27659687 0.18180583 0.06223643 0.30402714 0.2512601 -0.5020722 -0.3231263 0.331216 0.1914359 -0.40835494 0.37368384 -0.27666143 0.019357242 0.39496827 -0.28523195 -0.44874483 0.29587498 0.42272645
4824 -0.43001226 -0.11783628 0.32279173 -0.35973686 0.30455586 -0.073764525 0.21638814 0.6085361 -0.25356713 0.14384106 -0.26760516 0.23282062 0.10044872 -0.23509975 -0.52275 -0.2260982 -0.44996008 -0.43982807 0.116296455 0.24796467 0.38818315 -0.036536705 0.38250092 0.3650611 0.2143739 -0.3427432 0.19936803 -0.17963974 0.29520065 0.25850478 0.35692328 -0.40518522 -0.3681013 0.14335972 0.26756287 -0.095932886 0.6070296 0.7600833 0.19058782 0.31323227 -0.46996778 -0.5503399 0.37383595 -0.4270082 0.2796422 -0.40858346 -0.25199017 0.16598603 0.076304555 0.300459 0.2278271 -0.4794984 -0.30866116 0.3062684 0.18874386 -0.3984634 0.3693875 -0.26621518 0.016704904 0.36950412 -0.26079065 -0.44895354 0.27993035 0.4065271
15502 -0.39237192 -0.14739871 0.3307817 -0.3989281 0.2883295 -0.022789503 0.19891904 0.6036577 -0.275442 0.13503864 -0.27269465 0.21696071 0.08747954 -0.26369712 -0.5595936 -0.249517 -0.44241595 -0.44701165 0.12051398 0.2517048 0.3760033 -0.03192239 0.40933454 0.3374499 0.21290816 -0.3750118 0.2270017 -0.17501318 0.28607613 0.24619417 0.37638482 -0.39141965 -0.35379344 0.12076118 0.23721345 -0.112497024 0.61578584 0.7920365 0.19604528 0.34059125 -0.47831547 -0.5437075 0.34879002 -0.44585666 0.28242445 -0.43669885 -0.26721773 0.16379513 0.08201185 0.28070953 0.19816414 -0.49293151 -0.3005189 0.30976376 0.1969069 -0.39267075 0.3652494 -0.2331903 0.0018013075 0.34075743 -0.25995883 -0.44827348 0.28809738 0.43218374
6528 -0.39360824 -0.12649876 0.33874315 -0.40810445 0.32143512 -0.018106805 0.20165895 0.60936767 -0.29316422 0.15877017 -0.28878766 0.24314864 0.090622865 -0.2380147 -0.54535306 -0.2544019 -0.45608371 -0.4479383 0.13407746 0.28112778 0.39643 -0.030634154 0.41505083 0.33131433 0.23289266 -0.37322405 0.22138153 -0.18778673 0.29044977 0.26872432 0.3903552 -0.40034643 -0.37801597 0.1487709 0.25214213 -0.10999159 0.62376845 0.81657493 0.22351617 0.34737113 -0.5059074 -0.55192906 0.36054698 -0.45862338 0.2934978 -0.45610368 -0.2837741 0.15722832 0.07641997 0.3018566 0.22111468 -0.49533555 -0.29727274 0.33283424 0.2307026 -0.399012 0.3617647 -0.2392194 0.007512238 0.35389856 -0.25063124 -0.477266 0.28186575 0.43153378
6530 -0.4172118 -0.119200684 0.3724264 -0.41662008 0.3305987 -0.03609016 0.22853145 0.6476451 -0.30616271 0.1480634 -0.32291222 0.24620336 0.08716449 -0.27141 -0.55226547 -0.2849743 -0.48720518 -0.46255797 0.12713094 0.30038765 0.41652694 -0.032477707 0.45049247 0.3410158 0.2545266 -0.41091353 0.22397768 -0.20671284 0.31606197 0.2697577 0.39889753 -0.41708663 -0.40343693 0.12549646 0.27152678 -0.117047064 0.655419 0.8419675 0.21185414 0.36277604 -0.52592963 -0.5876861 0.40252283 -0.46311286 0.30191946 -0.46348244 -0.2991259 0.16540454 0.07436056 0.31546208 0.21527953 -0.52061963 -0.3232685 0.3601061 0.22707042 -0.4178049 0.39260963 -0.24606211 0.0053700646 0.36697608 -0.2627635 -0.49488786 0.30806786 0.46283695
6532 -0.40770936 -0.10762408 0.3418041 -0.39138094 0.31825143 -0.015778529 0.21732053 0.63092285 -0.2764219 0.12577012 -0.288486 0.23747224 0.080663554 -0.2479813 -0.5390969 -0.26893753 -0.4675206 -0.45572862 0.11811452 0.25894254 0.38765326 -0.043172695 0.43102708 0.32034135 0.22050355 -0.3909001 0.22991794 -0.18689393 0.29455692 0.25577247 0.4032314 -0.41535884 -0.38740817 0.11708247 0.2656602 -0.1353157 0.62798715 0.81521785 0.2224356 0.35938302 -0.5051536 -0.55389524 0.36747137 -0.46281654 0.28754303 -0.4519742 -0.26376706 0.15139742 0.077652045 0.2908764 0.1936553 -0.51641285 -0.30736995 0.3335707 0.21920268 -0.42151976 0.37445253 -0.23186877 0.017494816 0.3586285 -0.23698813 -0.47793835 0.29216704 0.43814838
6531 -0.39078498 -0.14022072 0.31948733 -0.39822015 0.30545247 -0.00508284 0.19124186 0.61439455 -0.26955336 0.12396078 -0.25180832 0.2286732 0.08173453 -0.2605085 -0.54200906 -0.23972237 -0.44920927 -0.4322214 0.104019105 0.24302016 0.37766176 -0.02273575 0.4228855 0.3014933 0.19813256 -0.37129846 0.24720985 -0.1755558 0.2777998 0.23266684 0.37592423 -0.4003469 -0.3629577 0.120965146 0.23399217 -0.09766937 0.6017851 0.79538393 0.1964545 0.3419289 -0.48236832 -0.54616576 0.35787112 -0.43319508 0.2624868 -0.41039255 -0.24491921 0.1364937 0.09294351 0.2811611 0.18263192 -0.4964819 -0.28973785 0.3011187 0.20424815 -0.39826506 0.35422227 -0.22250561 0.039380454 0.36428207 -0.22950579 -0.47428778 0.27744138 0.42603955
14974 -0.37996706 -0.01573566 -0.16213733 -0.51140803 -0.0457393 -0.027966725 0.37948385 -0.5068375 0.15255798 0.06452022 0.29133186 0.07850648 -0.018752793 0.17422451 -1.425066 0.13659881 -0.035562728 0.19008783 -0.08708513 -0.09751907 -0.11643948 0.11036689 0.028381946 -0.3304141 -0.084219255 0.13087478 -0.41383615 -0.22364391 0.08211331 0.096784905 0.50139135 -0.0302489 -0.07175927 -0.056630768 0.03463453 -0.23092675 -0.09577761 0.046793792 -0.14345475 0.033854235 0.2577771 0.22177778 0.027381638 0.019188588 0.024439638 -0.092648156 0.040139265 0.17342709 -0.09786553 0.068908095 -0.009703952 -0.1919827 -0.040132415 0.27639177 -0.21040954 -0.2357778 -0.0071873516 -0.2762929 0.062012523 0.16285329 0.08633617 0.057912752 -0.06955819 0.037627384
6045 -0.46050957 -0.0025916905 -0.18426251 -0.62302965 -0.044049744 0.025771495 0.41928712 -0.4462494 0.22035635 0.0681294 0.28440496 0.08870112 -0.0024493928 0.22438648 -1.5009241 0.11187089 0.018539798 0.20424628 -0.10433307 -0.11515468 -0.09471315 0.12679507 0.04058299 -0.32808635 -0.09431528 0.10633592 -0.46238366 -0.2799848 0.060530208 0.061773308 0.48292205 -0.03337422 -0.027341167 -0.1407369 0.025938397 -0.18893276 -0.14359632 0.13938725 -0.20791936 0.046678342 0.21594456 0.27752635 0.024453504 -0.016041866 -0.007678878 -0.12256288 0.049553458 0.27382112 -0.09869665 0.13358861 -0.05998271 -0.24777867 -0.0683647 0.37367845 -0.24355844 -0.20399855 0.056032997 -0.2928941 0.012350209 0.15146443 0.07387467 -0.023197448 -0.07167943 0.07815519
5984 -0.2576354 -0.012442628 -0.09457403 -0.4359275 -0.106404394 -0.048102826 0.33271238 -0.5023153 0.08812731 0.08627567 0.25572938 -0.0071540135 -0.12913994 0.17597687 -1.3418243 0.040986482 0.024244452 0.0541574 -0.043692566 0.062060587 -0.11378507 -0.021253405 0.004460399 -0.24594767 -0.14920256 0.10330292 -0.40767473 -0.14074998 0.015806291 0.0487011 0.44133943 0.004079898 -0.031678658 0.051196404 0.15334667 -0.31965753 0.0076112347 -0.07104107 -0.0013351977 0.04117096 0.21996444 0.069192395 -0.14307155 0.01869183 0.013729127 -0.065346636 -0.0024421231 0.090964444 -0.10857033 -0.004167538 -0.021098157 -0.17310567 0.037701 0.13605581 -0.19167987 -0.2391702 -0.009551062 -0.31723276 0.0930891 0.10426663 0.01457231 0.088474154 0.01615063 -0.01729038
15522 -0.37352213 -0.08742272 0.15101653 -0.5756919 -0.0005920763 0.017002836 0.39046565 -0.48591793 0.050241224 0.16073912 0.088164166 0.08652852 -0.13464391 0.039846484 -1.1220517 0.08298189 0.04713994 0.0015974671 -0.14201528 0.014750371 -0.15188578 0.006248834 -0.028517196 -0.17557026 0.01089266 0.06545256 -0.31777412 -0.12564708 -0.010463293 0.065526016 0.20726505 -0.096171096 -0.006764715 0.001147812 0.17250486 -0.2955552 -0.08094433 -0.33774748 -0.03698944 0.12500027 0.1326973 0.1590915 -0.1972792 0.101468824 -0.0039462126 -0.037015494 0.09860982 0.074225426 -0.0632573 -0.019476794 -0.043373354 -0.10746673 0.03260019 0.103779174 0.042158097 -0.13880491 0.059110124 -0.40123156 0.020695101 0.06956105 0.0761114 0.029524788 0.043655146 -0.047568634
6561 -0.397783 -0.11039363 0.13284995 -0.5313845 0.028259434 -0.033892907 0.4041582 -0.5379756 0.08352654 0.20458752 0.07921868 0.08120519 -0.13566992 0.048335217 -1.1263717 0.15503252 0.016577242 0.0320124 -0.13556962 0.030411778 -0.12325523 0.009992057 -0.04899227 -0.16107771 0.015158364 0.047563758 -0.33713973 -0.12887128 -0.0014954013 0.10358089 0.20841095 -0.18386938 -0.00740919 0.034500964 0.18219931 -0.3526825 -0.05680201 -0.3697067 -0.07476281 0.15039812 0.19816683 0.1733109 -0.24477768 0.16876778 0.04432086 -0.087884 0.06155202 0.06680662 -0.004389787 -0.005876829 -0.07932418 -0.12020123 0.008391165 0.060941193 0.092695445 -0.10708632 0.10270755 -0.45238099 0.018226715 0.069356695 0.053442422 -0.006159753 0.016389776 -0.058686513
21842 -0.34838456 -0.15169029 0.01154366 -0.08703696 -0.06529441 -0.022982577 0.2926744 -0.29830587 0.012544235 0.043127906 0.3435675 0.051744137 -0.1886573 0.0983732 -1.3468522 -0.01718639 0.053677417 0.016776063 -0.0809917 0.009976527 -0.058072116 -0.11950961 -0.028656421 -0.26382774 -0.10906582 0.0869449 -0.49274644 -0.066748396 -0.08343255 0.1284001 0.35907674 -0.058963783 0.02866208 -0.0011276008 0.20102869 -0.31224084 0.057057913 0.011181395 0.12174877 0.0736316 0.21117893 0.08947057 -0.17953192 -0.006356466 0.027944269 -0.030623112 0.052412543 0.041686002 -0.10379789 0.04173074 -0.060278624 -0.1634699 -0.008937264 0.20245543 -0.47158623 -0.2102474 -0.032578703 -0.41448832 0.09888902 0.15930597 -0.12455318 0.016698297 -0.024923505 0.00237276
5203 -0.3448945 -0.17322302 0.06122534 -0.07700614 -0.05321081 0.0973641 0.3163017 -0.29353753 0.06485295 0.054252688 0.32405004 0.076543316 -0.12675823 0.061783955 -1.4592106 -0.008527505 0.07198495 -0.00026027765 -0.15099613 -0.009878346 0.01796574 -0.17355971 0.04587375 -0.2634867 -0.10335436 0.14244322 -0.527775 -0.11655395 -0.099513344 0.18620567 0.37258014 -0.09463275 -0.04811638 -0.068330385 0.17910476 -0.32033262 0.048518185 0.051409718 0.15637325 0.07932905 0.16649969 0.04747693 -0.20455489 0.03343067 0.05662879 -0.007123975 0.06836588 0.04773132 -0.18471576 0.09516198 0.009435635 -0.16863805 -0.07296104 0.24472053 -0.5196709 -0.1622128 0.021077538 -0.51071954 0.045426708 0.08949384 -0.12319329 0.009884049 -0.013246842 -0.03388163
15581 -0.34138158 -0.109502696 -0.09878123 -0.40741503 -0.04027053 -0.2123035 0.43531933 -0.4525219 0.08471935 0.013264034 0.3906861 -0.0029500534 -0.013919672 0.023191381 -1.3409433 0.024839183 0.17283635 0.009363772 -0.08585537 -0.1306676 -0.028126257 -0.1017074 0.09113934 -0.26337436 -0.14408246 0.07041414 -0.5480599 -0.1467859 0.01044717 0.006662258 0.5122726 0.08459706 -0.05836099 0.03997655 0.13402422 -0.37510803 -0.040993035 0.10106795 -0.008810239 0.018883448 0.14518495 0.14679462 -0.17920047 0.036566958 0.04330966 -0.19987999 0.0921605 0.09630034 -0.21094432 0.021314276 -0.009931861 -0.098890774 0.044436477 0.13831764 -0.1268258 -0.2007976 0.01856605 -0.26289457 -0.03771955 0.08149038 0.06965399 -0.01827233 0.114399716 -0.09656361
14231 -0.3570928 -0.15598342 -0.13792624 -0.49698755 -0.07490987 -0.21811433 0.43612605 -0.42634416 0.1151367 -0.017518023 0.4643485 -0.03532179 0.01665314 0.04748194 -1.3615538 0.066421084 0.20484594 0.022230655 -0.08761234 -0.16115431 -0.024591545 -0.16778253 0.057282995 -0.24765946 -0.15753962 0.07888854 -0.60159034 -0.14292422 0.118331075 0.002348579 0.5547267 0.09481752 -0.067658156 0.09305601 0.21104321 -0.35798 -0.021634353 0.15889774 0.007403569 -0.01948226 0.09148025 0.13114882 -0.16149175 0.13513583 0.031552278 -0.32577008 0.08733717 0.111396305 -0.20093 0.068911605 -0.03750952 -0.034445204 0.02152001 0.13131471 -0.07772597 -0.1992983 0.022763465 -0.29449254 -0.028403617 0.03104516 0.06995722 0.03214149 0.066569924 -0.11601296
18836 -0.06429787 0.2194225 -0.17229089 -0.34825167 -0.18663917 -0.074446656 0.27591363 -0.57222503 0.15069848 0.14380336 0.094134994 -0.05465265 -0.09176704 0.1712779 -1.5139191 0.0128217405 -0.044637505 0.022122575 -0.088061854 0.14071006 -0.19554858 -0.077044524 0.016155135 -0.17799173 -0.019268364 0.04609376 -0.31932113 -0.115276486 -0.032062612 0.106339216 0.37911528 0.0018926719 -0.040137116 0.118672356 0.122908786 -0.28050438 -0.037902724 0.20470636 0.023149038 0.072452605 0.101083465 0.09223661 -0.10311633 0.056865714 0.079536036 -0.13493396 0.08245195 0.08577199 -0.12109413 -0.052741107 -0.10219643 -0.15306647 0.06704843 0.034909807 -0.10631377 -0.18737648 0.057440605 -0.23407003 0.029487632 0.122155026 0.070114635 0.022667337 -0.008788438 0.0024406742
21830 -0.27946246 -0.025695056 -0.18808413 -0.48449025 -0.07438908 0.021091433 0.4616477 -0.52462345 0.028212601 0.30359384 0.27679443 0.09513291 -0.17285503 0.28244022 -1.4011642 -0.043839637 -0.035377532 0.04814745 -0.07557683 -0.11002066 -0.08964659 0.0069892188 -0.021280315 -0.2917108 -0.24207568 0.16277859 -0.5079418 -0.2169467 0.10954869 -0.09127296 0.4513909 0.03366965 0.0012586536 -0.015207752 0.25123322 -0.36972338 -0.040434733 -0.010084198 0.008037522 -0.0059122033 0.31716362 -0.082588054 -0.13660423 0.1446474 -0.041812073 -0.06082909 -0.007409261 0.045705408 -0.16185316 -0.13073018 -0.046686016 -0.10877625 -0.06727618 0.13517688 -0.24615549 -0.08313683 -0.036341168 -0.24552853 0.1042037 0.19667237 0.07550699 0.17537872 0.064173624 -0.026757775
5981 -0.37351006 -0.052094825 -0.20409031 -0.530349 -0.03586045 0.0911208 0.51570714 -0.5016862 0.07196633 0.37789914 0.24679638 0.13781337 -0.21191238 0.31835246 -1.4946487 -0.0606202 0.017940558 0.027866896 -0.056514457 -0.027227227 -0.042913344 0.03443311 0.03413889 -0.30329543 -0.266489 0.2324668 -0.59549016 -0.27234134 0.16142704 -0.13845746 0.5066044 -0.022608943 0.035129316 -0.07225174 0.28033942 -0.4008851 -0.0437369 0.05392169 -0.06432107 -0.05603007 0.37540802 -0.070533864 -0.15965837 0.20554845 -0.09015352 -0.067203626 0.027043568 0.073890224 -0.09613081 -0.2367738 -0.087178476 -0.09724974 -0.067367606 0.17640601 -0.24937847 0.053314522 -0.058302157 -0.21935731 0.07308382 0.19474193 0.11387494 0.15957278 0.09110641 -0.04874791
5996 -0.36655453 -0.21730839 0.01105151 0.18362291 0.034181457 -0.13128078 0.29837385 -0.028119676 0.022083225 0.063935764 0.26008505 0.1300706 -0.17139612 0.11253895 -1.2482477 -0.055284195 0.020369435 0.037564766 -0.071267106 -0.030929903 0.003913438 -0.12099415 -0.07625204 -0.30509186 -0.10239199 0.052154925 -0.47055557 -0.0019178622 -0.045259815 0.12767735 0.37969002 -0.083502784 0.07105681 0.08701879 0.093017355 -0.26381597 0.08602153 0.03469962 0.09759596 0.072863616 0.27295113 0.14498505 -0.17864296 0.05518491 0.051967658 -0.026154045 0.10733378 0.044524685 -0.11989135 -0.036349393 -0.07678686 -0.18000576 -0.021333905 0.21332593 -0.5373768 -0.17467093 -0.10791642 -0.400065 0.02099429 0.22621697 -0.17920731 0.009879162 -0.020746537 0.014433344
22798 -0.28117552 -0.2881719 -0.06950553 0.29866013 0.08510422 -0.15288045 0.27042568 0.36251095 0.10361437 0.02092988 0.21563607 0.13990387 -0.10958896 0.054646987 -1.0153441 -0.031429876 0.01558861 0.00820632 -0.032377325 -0.026286896 0.0080914 -0.16327177 -0.10741053 -0.30736318 -0.07054657 0.015611754 -0.35368535 0.010549845 -0.03106158 0.0673338 0.41200364 -0.039641876 0.09029109 0.13734025 0.07957005 -0.23035002 0.049212053 0.06374293 0.13123898 0.0044479487 0.26516348 0.18403257 -0.15731369 0.037845924 -0.037952643 -0.006640733 0.104629904 -0.062684976 -0.052345328 -0.075227834 -0.030183814 -0.17199954 -0.007953491 0.26531014 -0.605823 -0.23316169 -0.07167054 -0.3522426 -0.04205146 0.21875581 -0.12645437 0.036021788 0.00900591 0.044942483
8346 -0.3511221 -0.40310636 -0.14105043 0.16282126 0.058968104 -0.08703802 0.29087317 0.53172106 0.12975788 0.06431493 0.15200104 0.055000544 -0.116004385 -0.037111886 -1.1021941 -0.10976657 -0.045918792 0.12689744 -0.049297385 0.05602457 -0.016770147 -0.16662657 -0.09543651 -0.22656666 -0.14161532 -0.07420341 -0.30870312 0.10285354 -0.07654422 0.07836003 0.3738137 -0.07167 -0.031900976 0.15192015 0.18013808 -0.23638074 0.04971792 0.13370024 0.08767551 0.03932508 0.29991427 0.19573379 -0.19162905 -0.026974663 -0.02852316 0.10004285 0.04517527 -0.12745775 -0.12752385 -0.03170139 -0.01812765 -0.11194305 0.05531934 0.3100926 -0.83996856 -0.2558456 -0.13898532 -0.380973 -0.11111448 0.14410287 -0.16165744 0.054014973 -0.031613547 -0.05009868
18833 -0.40533552 -0.4784596 -0.1717764 -0.076661564 -0.0034425166 -0.046370532 0.29154468 0.77593696 0.18795094 0.062208112 0.09229757 -0.03342113 -0.16506158 -0.16183849 -1.2055556 -0.14984523 0.056211308 0.22207972 -0.07028291 0.106794275 -0.018125022 -0.21826851 -0.12033376 -0.19921456 -0.17663331 -0.11147881 -0.20202634 0.18263462 -0.110407755 0.106043465 0.29435205 -0.08314695 -0.11356702 0.18332842 0.24349672 -0.24229214 0.025714936 0.22785012 0.09214396 0.08010128 0.4112639 0.20324896 -0.21179098 -0.08584755 -0.06624601 0.21275629 0.027505241 -0.21575952 -0.17163745 0.118815646 0.08594136 -0.13680553 0.054366916 0.31282583 -1.0489715 -0.35362375 -0.1312179 -0.40332577 -0.18141565 0.0656001 -0.22587593 0.09764894 -0.13077219 0.0016041676
13516 -0.42725107 -0.5168744 -0.10920164 -0.15727344 0.08165299 -0.11303558 0.32702538 0.83430934 0.19519874 0.094739564 0.02280256 -0.09660883 -0.14562225 -0.17412089 -1.27359 -0.28895536 0.019159127 0.2738548 -0.039357305 0.020976247 -0.050375108 -0.32367975 -0.10607873 -0.21129937 -0.09917157 -0.09203724 -0.242286 0.22459489 -0.15280169 0.16502863 0.36011916 -0.09297267 -0.2391632 0.15894668 0.2045264 -0.28096738 0.106116064 0.20985201 0.17543435 0.092838295 0.3854212 0.20302027 -0.21391857 -0.14630143 0.023204781 0.25660622 -0.010565738 -0.18305856 -0.0025444843 0.03199935 0.111502364 -0.1532415 0.0050376626 0.38351613 -1.1337544 -0.36961037 -0.21998906 -0.4403634 -0.19997175 -0.005559755 -0.28826022 0.0549558 -0.080399506 -0.03139502
1880 -0.42273313 -0.53500444 -0.122390434 -0.24363087 0.13748778 -0.12148149 0.35249633 0.9041605 0.22683431 0.16828044 0.046775863 -0.083094 -0.17401408 -0.08211532 -1.2450709 -0.2362517 0.057763454 0.2275756 0.017178107 0.053037073 0.017292116 -0.13440777 -0.014590386 -0.25989336 -0.14343539 -0.09539575 -0.16095686 0.34243855 -0.026262175 0.17225544 0.32220307 -0.072827026 -0.21218666 0.17336862 0.22944951 -0.2869945 -0.0377338 0.20641819 0.02303785 0.12672304 0.4203203 0.17322108 -0.2524712 -0.048130635 0.028553508 0.2881756 -0.0352788 -0.24281113 -0.16012277 0.082299836 0.10088639 -0.050777107 0.015301698 0.38082755 -1.1804693 -0.30750176 -0.05300992 -0.5334225 -0.1760477 0.0853447 -0.2905456 -0.015462538 -0.12926045 -0.034964222
13345 -0.31635606 -0.31078392 -0.1100025 0.2578197 0.09227498 -0.12035399 0.257446 0.41663864 0.1270108 0.08416799 0.19770628 0.14034756 -0.14252084 0.052385267 -1.064437 -0.01331663 0.047179714 -0.012596638 -0.06485843 0.03680503 0.020169515 -0.17994976 -0.059394546 -0.2588932 -0.03647377 0.05354696 -0.33285147 -0.0650595 -0.061560288 0.0991737 0.41755745 -0.023749635 0.08541656 0.09539669 0.14140694 -0.22844781 0.003005565 0.10820727 0.115189895 -0.03400599 0.3403867 0.18915476 -0.14824352 0.074682996 -0.043390337 0.043912444 0.090991236 -0.041387245 -0.15353927 -0.1035447 0.04630187 -0.109606825 -0.063804075 0.25477046 -0.70672554 -0.2778606 -0.050328825 -0.38193312 -0.08229742 0.28202128 -0.09690188 0.03527729 -0.039481 0.06544274
592 -0.0899729 -0.28795987 0.022482676 0.40958303 0.0029206374 -0.115971334 0.02266267 0.65893215 0.071625724 -0.027234819 0.28764433 0.2876213 -0.03535977 -0.042791124 -0.75529027 -0.046683777 -0.052620005 0.05225498 0.017360596 -0.03263071 0.08424915 -0.040803395 -0.019766029 -0.17477255 -0.049240798 0.0798933 -0.3252776 0.015586536 -0.053037807 -0.040243395 0.2722866 -0.026994942 0.09041169 -0.0015802899 -0.060493022 -0.014304689 0.15225779 0.016841771 0.07795015 -0.20522274 0.08029295 0.028821882 -0.015267035 0.19065425 0.02227522 0.094121546 -0.012011115 -0.10580521 -0.06627485 -0.011595156 -0.066159345 -0.057927508 -0.029693708 0.15704757 -0.3926118 -0.13390993 0.07019217 -0.21208498 0.0004993029 0.19232015 -0.18153623 0.010229468 -0.03548565 0.12653957
21459 -0.033101425 -0.35013178 0.15281853 0.35891116 0.0015022722 0.0034790323 0.036210354 0.8464997 0.005471864 -0.21452305 0.23670083 0.15468435 -0.08594375 -0.034593355 -0.79242796 -0.12658179 -0.00064193894 -0.04801791 0.18396156 -0.23259081 0.21234202 -0.13697407 0.13291883 -0.14555064 -0.03312912 -0.012608312 -0.33496302 -0.29350024 -0.12870415 -0.024829607 0.2539948 -0.09063929 0.13690563 0.1932011 -0.029125938 0.14201432 0.18892866 0.055280413 -0.11633172 -0.01868073 0.027580678 -0.076925494 -0.015990907 0.06703065 -0.040242244 0.0145168705 0.037891928 0.05346039 0.18803315 0.05500696 -0.14506099 -0.07601542 0.06309121 0.1837067 -0.44029343 -0.15120816 0.07344627 -0.0655341 -0.090372995 0.34261265 -0.1985553 0.018958628 -0.147416 -0.0070186304
8072 -0.041495994 -0.35544533 0.17583519 0.29251143 0.031771835 -0.019792713 0.076648585 0.9204547 -0.036509078 -0.163633 0.20547125 0.1488527 -0.12960222 -0.071876526 -0.8101811 -0.13450134 -0.027758867 -0.057339028 0.13323605 -0.2552972 0.266233 -0.14750901 0.14314568 -0.21719873 -0.0020639875 -0.027126169 -0.40673035 -0.41544876 -0.2020839 -0.013042509 0.20521477 -0.03436045 0.17608458 0.21375635 -0.0070828972 0.14591724 0.2387103 0.05974254 -0.1383504 -0.077974014 -0.02587187 -0.15336141 -0.0371913 0.03151371 -0.027622556 -0.031059317 0.02933248 0.09718278 0.1400141 0.008785994 -0.15085351 -0.07161528 0.073781855 0.174189 -0.48352784 -0.15348639 0.08195705 0.025813311 -0.14194547 0.31457457 -0.28480458 -0.00047063897 -0.12979123 -0.0032693315
7931 -0.08824708 -0.38110203 0.12575601 0.3439557 0.025422651 0.013644867 0.04035339 0.9421659 6.361791e-05 -0.17383972 0.2857981 0.109411694 -0.09752276 -0.08235232 -0.79850096 -0.16433536 -0.022724507 -0.012267502 0.17005093 -0.23513502 0.26696613 -0.133812 0.14444679 -0.18210189 -0.021190865 0.031585764 -0.36729342 -0.35282668 -0.13017485 0.011738673 0.27708796 -0.07933954 0.11199437 0.16479293 -0.01902725 0.1430802 0.24580422 0.044411026 -0.16229786 -0.0040242155 -1.526747e-05 -0.058952015 -0.05889349 0.08315941 -0.007817121 -0.04807998 0.059772585 0.11308837 0.14395663 -0.010729211 -0.1329213 -0.08587767 0.09510884 0.20385097 -0.44960237 -0.10694138 0.08072088 -0.05735611 -0.1518276 0.33504888 -0.2238315 -0.00078861805 -0.16833745 0.026612943
25562 -1.1020963 1.3079164 -0.15065232 -0.9847948 -0.1333095 -0.16348463 0.11956068 1.1216545 -0.62373585 0.08563114 -0.76162285 -0.025022758 0.44294932 0.010145401 -1.2856231 -0.034481976 0.33134687 -0.0344952 0.031359844 0.14748317 0.4742499 0.1824708 -0.1649827 0.48001102 -0.04521115 -0.1614798 -0.4136152 0.09885839 0.15536961 -0.091347404 0.10738909 -0.23447491 0.198097 0.00323065 -0.085759506 -0.19150263 0.23901503 0.55497956 0.19601072 -0.04439976 -0.034407135 0.013704689 -0.0688269 0.15754212 0.04826616 -0.026682854 -0.059576206 -0.030836785 -0.032084595 -0.16645373 -0.32633072 -0.1006062 0.10546468 0.060635075 -0.41694576 -0.09659393 0.31571308 -0.25519717 0.070723064 0.29184142 -0.09955857 -0.12231913 -0.2516719 -0.088727616
9726 -0.22320619 -0.053277377 -0.027176412 0.112188496 0.13545464 -0.13345706 0.053809755 0.7972626 -0.032189183 -0.23116852 0.09190387 0.59984356 -0.1623266 -0.12806626 -0.6995672 -0.08428395 -0.23424684 0.054469384 0.026636505 0.035381492 0.18324432 -0.0031056406 -0.0772537 -0.35824206 -0.15067749 0.15930526 -0.15873799 -0.03234624 0.026820675 0.010010746 0.22823976 -0.041218095 0.044779703 -0.09361365 -0.03426629 0.10850118 0.020295745 0.18389988 -0.10444901 -0.25164542 -0.05157456 0.0998148 0.009312802 0.18628553 0.0035738035 0.1525331 0.07495471 0.022973962 -0.1318847 -0.04578469 -0.0049191965 -0.13175367 0.056145947 0.21946332 -0.4822068 -0.29506564 -0.05548623 0.0109121455 0.022575894 0.30147907 -0.14993833 0.01740178 -0.029307315 0.006187301
26664 -0.040469993 -0.33687 0.13509415 0.4530632 -0.06884516 -0.015996903 -0.1522784 0.6949587 -0.042811733 -0.08249241 0.31023535 0.30247453 -0.033103246 -0.14294828 -0.6288024 -0.19001386 -0.038805824 -0.06805957 0.19625497 0.030854728 0.14839873 -0.14041685 0.02912072 -0.17211151 0.07361867 -0.16751294 -0.34165898 -0.028584672 0.013031748 0.012997197 0.24574478 0.023614122 0.07414433 -0.03527552 0.060031995 0.07948673 0.20387152 -0.029630978 -0.026100658 -0.11253009 0.17887004 0.05081529 0.16572857 0.09082942 -0.001861592 -0.053228397 0.20594215 -0.024920393 0.06857549 0.09745791 -0.2164413 0.12374428 -0.086776085 0.104967184 -0.50981104 -0.15199207 -0.06990494 -0.13932353 0.0025730052 0.3783782 0.050579328 -0.110354014 -0.051239286 0.1678212
4973 -0.17497313 -0.32438263 0.21409944 0.32074955 -0.039228037 -0.085126035 -0.30710432 0.6002943 0.00037148196 -0.1027484 0.3529388 0.2487081 -0.054066118 -0.16595711 -0.5572586 -0.0031154298 -0.13535002 -0.035586726 0.149921 -0.05981717 0.15772216 -0.0003667993 0.016552186 -0.03426741 -0.072883986 -0.2392848 -0.32985502 -0.03142273 -0.01116577 -0.0061860513 0.11663137 0.071562394 0.054459516 0.041571192 -0.015623672 -0.064611755 0.19662254 0.05543525 0.103069015 -0.26061177 -0.0006514862 -0.026618186 0.22445168 0.15330634 0.0308646 -0.05280455 0.13951732 -0.08252121 0.072314434 0.048531037 -0.07410768 0.10693954 -0.00241375 0.31867042 -0.55380374 0.06563525 -0.05792716 -0.19903775 -0.008818285 0.44161105 -0.03534926 -0.054248728 -0.009565907 0.3525812
21477 -0.39005923 -0.24073718 -0.053456206 0.28891647 -0.04127882 -0.12058876 -0.12882847 0.63191813 0.09618938 -0.27934784 0.4696122 0.24008642 -0.14275374 -0.11658485 -0.7723767 0.030415155 -0.23359668 0.04614925 0.16088396 -0.08994247 0.0023512552 -0.088778846 0.06167888 -0.0519013 0.061202623 -0.16861387 -0.28213194 -0.103141844 -0.009692646 -0.03701161 -0.051122 0.10468069 -0.049840737 0.00070350996 -0.14061663 -0.18534979 0.24466747 -0.0021941336 0.15041485 -0.21522237 -0.011149348 -0.12068756 0.045759927 0.24133037 -0.005193606 0.121545486 0.04765935 -0.1805395 -0.018035699 -0.04706595 -0.14686282 -0.07008146 -0.015847474 0.17768814 -0.6036934 0.04896707 -0.031528458 -0.10970789 -0.010104097 0.26745418 -0.077053085 -0.058042713 -0.08650803 0.5006556
9224 -0.45875698 -0.22963475 -0.040319517 0.23559207 -0.053828478 -0.13924414 -0.1650697 0.6470016 0.12606703 -0.27319545 0.433968 0.24446684 -0.12630986 -0.17769657 -0.7860193 0.04732883 -0.29425237 0.026303878 0.12515378 -0.12562816 -0.0006294117 -0.08771401 0.069889024 -0.08648171 0.054042395 -0.1471105 -0.2866593 -0.13959402 -0.03321351 -0.024550844 -0.04036735 0.10569482 -0.039407983 -0.036502462 -0.17344765 -0.17641754 0.26032203 -0.022436282 0.220783 -0.17276445 -0.039335113 -0.13238622 0.07029389 0.22997326 0.03835406 0.073608756 0.06467694 -0.20418121 -0.051841743 -0.09455984 -0.17266738 -0.042693965 -0.01582902 0.17645368 -0.638333 0.07108011 -0.07793738 -0.13477571 -0.02971882 0.26610452 -0.10169885 -0.15020533 -0.04174948 0.4994944
7164 -0.48661634 -0.20281559 -0.13214038 0.28030875 -0.088439554 -0.13761911 -0.1634466 0.6779102 0.13675293 -0.26764238 0.5200019 0.24113175 -0.15703076 -0.098913275 -0.82778156 0.03980922 -0.34718823 0.006183587 0.1510364 -0.036752045 0.037714195 -0.1376129 0.078025684 -0.046933893 0.043822207 -0.20630316 -0.289831 -0.1365409 -0.02531545 -0.00037085253 -0.06731049 0.092483774 -0.05030034 0.015571861 -0.13787064 -0.18834877 0.2568822 0.022894958 0.16752777 -0.27677307 -0.061851118 -0.07140648 0.056767456 0.11609778 0.01749034 0.12293327 0.11563011 -0.13332136 -0.07580697 -0.11376796 -0.22422828 -0.041846007 -0.031389594 0.2025992 -0.66073835 0.010251093 -0.021712415 -0.07389541 -0.021243127 0.30758825 -0.08608974 -0.003204969 -0.15022594 0.48974374
9227 -0.47128046 -0.19879462 -0.03702159 0.2674436 -0.033576142 -0.16139254 -0.115413375 0.67989755 0.107200965 -0.28167447 0.45756498 0.19830857 -0.15889065 -0.14813842 -0.79608023 0.019754663 -0.30156216 -0.002413814 0.16338342 -0.071483195 0.05367243 -0.037125643 0.08699053 -0.03326133 0.055899046 -0.08649061 -0.33016926 -0.18060574 -0.0055565787 -0.005477113 -0.0947295 0.12886375 -0.08287399 -0.025368199 -0.20969763 -0.18798338 0.20992187 -0.021139152 0.16738941 -0.22667012 -0.004883243 -0.11190945 0.06763596 0.1940371 0.016687263 0.12681486 0.0868104 -0.21055615 -0.08143666 -0.10627519 -0.15942194 0.013333853 -0.0791913 0.2539272 -0.691029 0.030689446 0.05893766 -0.07416972 -0.022402277 0.19899191 -0.08437515 -0.07930234 -0.09177785 0.5145132
9228 -0.48893985 -0.2239761 -0.10006818 0.25270987 -0.06796277 -0.12126199 -0.14422981 0.72325087 0.10408887 -0.31631124 0.50445294 0.23444836 -0.13058585 -0.12554958 -0.8013663 0.049015068 -0.25903285 0.07468105 0.15340152 -0.122459404 0.0019528124 -0.15389451 0.10443278 0.0028380281 0.06233765 -0.13960636 -0.31708026 -0.16290839 -0.06577457 -0.023115939 -0.123153605 0.12961623 -0.07819181 0.034231182 -0.13427036 -0.21361938 0.25225738 0.024126468 0.103479065 -0.2195964 -0.02681252 -0.13499837 0.062142562 0.18008618 0.06565725 0.105773136 0.0931648 -0.18107413 -0.10823576 -0.0175127 -0.19838402 0.034832705 -0.032047957 0.22524588 -0.6097739 0.0037804905 -0.094967976 -0.08704255 0.064093046 0.27165538 -0.1007294 -0.06849155 -0.1280256 0.47546118
21442 -0.1255123 -0.18406926 0.11405623 0.30228308 0.06764156 -0.13444309 -0.23204243 0.60320675 0.11746476 0.018107451 0.2084064 0.15893985 -0.045405645 -0.07182174 -0.4283462 0.053823456 -0.10579567 -0.068557836 0.008620237 0.012512829 0.28259435 -0.07750159 -0.08887558 0.03427048 -0.07264248 0.041225556 -0.4867968 0.22455592 -0.040384747 -0.03242378 0.15350829 -0.17102563 0.094848685 -0.009449847 0.04625105 -0.15492171 0.21495035 -0.09213058 0.08330035 -0.3724806 0.059129484 0.0029447454 0.11753536 0.14438969 0.046117313 -0.037654947 -0.0696736 -0.12739336 0.23591518 0.042497963 -0.0021559373 0.000890232 -0.08294699 0.32074574 -0.50442964 0.053664163 -0.05612925 -0.23478246 -0.06659546 0.54076576 -0.19999471 0.013948136 0.009816261 0.1762148
21480 -0.27309313 -0.18898012 -0.1701248 0.3997874 -0.06051389 -0.06362965 0.14168853 0.7199295 0.012724061 0.121216096 0.29097888 0.43739882 0.13504301 0.0052305222 -0.6653775 0.01964109 -0.05585314 0.022768406 0.2597723 -0.2145883 0.05422448 -0.10690168 -0.07838274 -0.17057385 -0.28426063 0.10447399 -0.3760772 -0.013719711 -0.011684401 -0.03360647 0.019564835 0.0036151365 0.093355775 0.123462684 0.06716099 0.022209443 0.1080725 0.04392272 0.07826374 -0.37405977 0.13415504 0.01011909 -0.0021336619 -0.07639598 0.10683605 0.4074736 -0.11072757 0.10478458 0.052571237 0.03879361 -0.14370863 0.00892441 -0.14416789 -0.06097657 -0.40864784 -0.1035543 0.09988084 -0.329686 -0.175083 0.04747103 -0.33728498 0.08012662 0.016208703 0.17173228
8145 -0.32368466 -0.22491811 -0.06051194 0.36611414 -0.005226102 -0.077699855 0.17271498 0.77081656 0.030813523 0.20797634 0.26495042 0.49558535 0.15305753 0.06902008 -0.71384615 0.04219288 -0.13744676 0.043379053 0.21433601 -0.17372507 0.020057224 -0.03279767 -0.07643807 -0.20306984 -0.29262167 0.08170941 -0.39897847 -0.048841853 -0.056420278 0.06348667 -0.008922577 -0.023363454 0.11956455 0.10122403 0.13264468 -0.036433764 0.13684176 0.08464892 0.008732734 -0.42699635 0.1688565 0.06556989 -0.057963252 -0.036915135 0.17706697 0.41589388 -0.163125 0.11513386 0.055141326 -0.03598887 -0.13996105 0.109848544 -0.16779096 -0.1421442 -0.40970954 -0.13245316 0.14319602 -0.39210254 -0.19692327 0.09243387 -0.2971939 0.029814344 0.007514391 0.17826696
8554 -0.31126803 -0.22419272 -0.060882505 0.35066876 -0.057835065 -0.12191301 0.18450592 0.7630884 0.026066335 0.17873822 0.24575028 0.5160094 0.10158857 0.03282556 -0.6530727 0.01686227 -0.04064898 0.007504394 0.20653297 -0.17562766 0.052900113 -0.1533732 -0.09519956 -0.13551562 -0.31051865 0.12361981 -0.4501028 -0.06856151 -0.0064375643 0.04028129 -0.08505672 -0.026733356 0.115418 0.14138186 0.09654787 0.008519003 0.09003288 0.09338722 0.047674425 -0.3986302 0.17600328 0.020950058 -0.05853526 -0.05197295 0.11512484 0.44539768 -0.17453489 0.106409386 0.059212133 0.06287082 -0.16051261 0.04920955 -0.11215364 -0.18485565 -0.38990793 -0.11717377 0.08619851 -0.34249273 -0.18352553 0.036481 -0.33812302 0.08468612 0.027746746 0.2492882
4850 -0.34640384 -0.17852397 -0.12892176 0.34443724 -0.031623848 -0.0735612 0.2223825 0.79982924 0.0066147028 0.112836435 0.22039433 0.46553838 0.12763214 0.010117015 -0.72820914 0.02564554 -0.077614695 0.040373743 0.2320006 -0.15950584 0.083357446 -0.03357101 -0.10517843 -0.16017908 -0.2822115 0.113189034 -0.46792167 -0.028016191 -0.018751277 0.020480838 0.005747944 -0.043420844 0.05699926 0.148344 0.068288036 0.042129673 0.13228959 0.048121564 0.10712954 -0.4541625 0.16989633 0.050376978 -0.08574399 -0.13416389 0.16583468 0.43391657 -0.159657 0.15186244 -0.0030416 0.03276382 -0.14917725 0.08227419 -0.1391894 -0.13969727 -0.42992908 -0.08978275 0.0608051 -0.3383729 -0.19717401 0.08061963 -0.33302632 0.040229123 0.06402657 0.24494004
17601 -0.19532369 -0.42069873 0.25233018 0.3124499 -0.039881557 -0.13923982 -0.32558987 0.61994195 -0.056698143 -0.07725869 0.32966077 0.24511145 0.00078373274 0.009594925 -0.672531 -0.01182337 -0.0101420805 0.036302157 -0.002507107 -0.1260406 0.15359032 0.023914736 0.06504074 -0.06513789 -0.053156175 -0.14917392 -0.20284146 -0.02938341 0.005977368 0.02819317 0.3438773 0.04968894 0.028801639 0.077131025 -0.022346059 -0.056973163 0.074374184 0.2078749 0.07582069 -0.35097277 -0.04882916 0.051844258 0.20254001 0.13871226 -0.011701732 -0.06391207 0.09187924 0.048527576 -0.14888449 -0.016552504 -0.050092667 0.09432703 0.053370424 0.41024464 -0.4675124 0.02351909 0.040631626 -0.21300608 0.0052298554 0.19263868 -0.24298567 -0.08697354 -0.013907875 0.39409724
4975 -0.24642749 -0.49161392 0.25214761 0.22925583 -0.052341435 -0.05985407 -0.43555382 0.6516122 -0.08842695 -0.1920225 0.23423347 0.18538104 -0.03723454 0.013023067 -0.6343433 0.0070330673 0.022714859 0.1043908 0.01832589 -0.036900662 0.19156308 0.04978843 0.030677704 0.02712284 0.069077805 -0.2059898 -0.0982989 -0.05065805 0.0012526602 0.034958683 0.35840833 0.115121536 0.05822726 0.050548088 0.035737235 -0.022613507 -0.009999407 0.301676 0.026298437 -0.4893192 -0.011027647 0.01562418 0.26733625 0.15450168 -0.040539134 -0.05344243 0.12603559 0.04945546 -0.28333512 0.021819443 0.0122210765 0.038013708 0.04639998 0.4224183 -0.517235 -0.008998256 0.09156917 -0.24747121 -0.054335322 0.11056206 -0.36122197 -0.175841 -0.0070556095 0.47203043
21839 -0.12343323 -0.33492327 0.010458591 0.39785293 0.026493406 -0.065519765 0.014028255 0.7329857 0.022546345 -0.034512825 0.30012232 0.2712903 0.012440952 -0.016368069 -0.7672258 -0.07160102 -0.004496727 0.04732574 0.06823275 -0.08983417 0.04661496 -0.14613004 -0.03604574 -0.20370626 -0.04949874 0.09786859 -0.37698364 0.035731524 -0.054257095 0.025589947 0.2770097 0.0036323576 0.050296597 -0.052621897 -0.08949256 -0.038552914 0.10790314 -0.01140588 -0.012340766 -0.21430369 0.12742884 -0.046391428 0.008066701 0.21161042 -0.0103112245 0.09168373 -0.055059556 -0.077419974 -0.06350415 -0.025670717 0.0065177344 -0.061828 -0.095652536 0.14401218 -0.45367765 -0.11705713 0.1303555 -0.19407417 -0.0067536463 0.19484074 -0.1982306 -0.0019273773 -0.012159161 0.1455543
21452 0.13993496 -0.19424969 0.036660854 0.53772116 0.04042831 -0.042266045 0.015514626 0.801132 0.012397152 -0.09006961 0.14078398 0.1525267 -0.067771375 -0.0438835 -0.7088562 -0.19979014 -0.118735015 0.043404993 0.112416916 -0.11354583 0.01379756 0.008672851 0.111950174 -0.04644503 0.066350825 -0.05209397 -0.24211551 0.007206736 0.034487326 0.063528165 0.22510092 0.05011525 0.1306599 -0.103653304 -0.0015934092 0.101203084 0.12499328 -0.07106411 0.1063943 0.053688 0.09030736 0.01798687 0.04205909 0.07998748 -0.032597914 0.010539048 -0.09924404 -0.11682416 0.07568542 0.016078271 -0.028977808 -0.039070442 -0.040384796 0.04434332 -0.18271829 -0.15421207 -0.037072733 -0.13297802 0.040419556 0.19370697 -0.311076 -0.018895846 0.009911737 0.048202246
21476 -0.20864695 -0.2733086 0.07239621 0.3820485 -0.003922502 -0.17525846 0.010270327 0.7046273 0.08383797 -0.20868644 0.4317167 0.21526632 0.07278114 -0.08859555 -0.94785124 0.09210437 0.11467196 0.00986104 -0.055854127 -0.025852127 0.16818723 0.10202726 0.12688991 -0.061234105 -0.07723477 0.11480699 -0.31076413 0.089083575 -0.27719122 -0.16303922 0.38552988 -0.057860784 0.10890356 -0.061697867 0.14340079 0.025756283 0.38666055 0.032736596 0.09603874 -0.16248395 0.2757198 0.019772822 -0.17416373 0.15765065 -0.12351993 0.19887696 -0.05913977 -0.008757449 -0.17414176 0.012336495 0.07634809 0.045926563 -0.211806 0.07485817 -0.490737 -0.06655537 -0.046202287 -0.06528296 0.05045644 0.13594031 -0.19823487 -0.2314886 -0.10297269 0.2158206
22855 0.1224199 -0.18165551 -0.018798849 0.5090481 0.023405075 -0.036582634 -0.01458925 0.79170895 0.024016678 -0.10753645 0.073620185 0.17014511 -0.011834494 -0.09163996 -0.77756345 -0.092321075 0.009110569 -0.04593174 0.12319489 -0.05321094 0.014408897 -0.02900251 0.04783255 -0.13472597 0.027478794 -0.044673473 -0.18266277 0.040615015 0.010650572 0.006756315 0.10383534 -0.006174452 0.10460603 -0.04033874 0.039934304 0.030785225 0.042340912 0.045452066 0.098009154 0.07854319 0.054317676 0.044132262 0.036253918 0.1278366 -0.06283068 -0.013993426 -0.044009037 -0.062408146 0.054585136 -0.039588872 -0.09981247 0.007233805 -0.013108145 0.0777248 -0.21542484 -0.08750365 0.051288266 -0.11622699 0.029758658 0.21901503 -0.2264381 -0.06408068 -0.011523496 0.03545272
27378 -0.26808545 -0.18638442 0.40687343 0.20751762 -0.07992314 -0.0678199 -0.40212744 0.5877765 0.052380458 -0.061874345 0.40154296 0.3901752 0.04445589 -0.22132303 -0.54650795 0.07487266 -0.022486718 0.048892673 0.24450877 -0.011487546 0.23451418 0.1510306 0.15856202 0.12441029 -0.077447034 -0.31808016 -0.36993128 -0.07776159 0.04329972 -0.17731969 0.04384546 0.2668816 0.10615137 0.12991697 0.017591234 -0.054051347 0.036914956 0.041618943 0.1404754 -0.2724693 -0.052417565 0.1109717 0.16950437 0.19378269 0.019175528 -0.100606725 0.27669984 -0.091584384 0.043970164 0.04024695 -0.03699425 0.13431631 0.03298239 0.19286674 -0.8190615 0.15110867 -0.10640972 -0.18135375 0.005677651 0.43414718 0.08521871 0.01537892 -0.011467107 0.18260992
12944 -0.36473012 -0.17262569 0.5067451 0.13280983 -0.20279333 -0.14788201 -0.513549 0.56007695 -0.02489576 -0.04097446 0.4712935 0.35139847 0.023626363 -0.31156626 -0.61608475 0.11758263 0.018217966 0.096283756 0.26138932 0.0019913877 0.23321123 0.19603024 0.15558574 0.20511736 -0.1628244 -0.3934648 -0.35110885 -0.04122799 0.15157355 -0.12030869 0.025167808 0.35718712 0.043226067 0.1987696 0.118531846 -0.042902034 0.01725354 -0.07740081 0.07766714 -0.29574442 -0.10659776 0.056532472 0.16507609 0.235303 -0.12630127 -0.09085248 0.24782026 -0.08231334 -0.085943915 0.04437767 -0.0124424575 0.12699734 0.04310263 0.123495705 -0.90455884 0.19731928 -0.1033921 -0.07645779 0.12115543 0.5951135 0.13929294 0.08533102 -0.057185773 0.06745659
21396 -0.42206442 0.0023442237 0.5097032 0.09001856 -0.2594216 -0.2140335 -0.6218631 0.4432133 -0.14056501 0.0016555457 0.5767188 0.39535198 0.0027048793 -0.41567308 -0.67111135 0.15947475 -0.06569621 0.0553982 0.28526866 0.00031947432 0.1852139 0.28182414 0.08908923 0.2886857 -0.26204824 -0.38469112 -0.3599882 -0.15955426 0.27040705 -0.04846214 -0.10611847 0.41216508 0.04965473 0.21570767 0.16660374 -0.042411864 0.04793225 -0.10918765 0.047491975 -0.3322408 -0.08438579 0.04209646 0.12673445 0.21965112 -0.1796844 -0.15051773 0.27380162 -0.014290127 -0.17715126 0.054204285 0.05943277 0.17793807 0.063519984 0.13936272 -0.92513245 0.20544007 -0.12525032 -0.078808375 0.22779335 0.71407133 0.21920319 0.03761225 -0.15476339 0.041289575
10148 -0.48376358 0.049742416 0.43619832 0.046717934 -0.28735116 -0.20312303 -0.70276415 0.49284518 -0.12774152 -0.045294385 0.56959313 0.5291395 0.07152458 -0.34353796 -0.715406 0.15265039 -0.1094592 -0.054215442 0.30359665 0.035084948 0.12809992 0.29161203 0.018601678 0.36243054 -0.20405415 -0.33219743 -0.3423089 -0.3490593 0.3155904 0.019680824 -0.05463295 0.35179636 -0.0143506965 0.21426487 0.22550993 0.044603564 -0.039130487 -0.086573906 0.10006778 -0.3323974 -0.1368732 0.037698857 0.19318902 0.2138639 -0.08582686 -0.10100031 0.32547885 0.009045947 -0.19749482 -0.012805029 0.12352261 0.21894518 0.02407766 0.13956718 -1.0332847 0.3237734 -0.08493989 -0.059726276 0.27686694 0.73339593 0.26258838 0.0043402202 -0.20922667 -0.030491075
12943 -0.47119614 0.032587588 0.42107287 -0.026312573 -0.27535298 -0.23230186 -0.6811745 0.46689117 -0.22721662 -0.005912829 0.56799424 0.42179787 0.035857275 -0.34172392 -0.69587326 0.15155405 -0.14322339 -0.020797431 0.24394867 0.006464812 0.19633827 0.20283249 0.08804628 0.23920462 -0.28511873 -0.368365 -0.40659103 -0.23547181 0.31476113 -0.0496679 -0.16465147 0.37539944 -0.047289573 0.05182625 0.22828318 -0.07069728 0.058843106 -0.14781703 0.052758615 -0.32659638 -0.12799366 0.06830766 0.19293752 0.27501217 -0.13917093 -0.3166307 0.3256293 0.093139425 -0.111997545 0.0040441966 -0.024067407 0.26151928 0.004886785 0.12535934 -0.9377051 0.21825682 -0.15132965 -0.0699444 0.29123753 0.7852634 0.23532425 -0.022151902 -0.13181807 -0.027519211
15969 -0.25535884 -0.07350153 -0.04181674 -0.4047118 -0.088219054 -0.028120177 0.32992816 -0.49621624 0.13043758 0.03795789 0.21004811 0.031024968 -0.07395502 0.23288135 -1.392712 0.08916804 0.22605455 0.1512893 -0.061068892 0.08574003 -0.0088074235 -0.047592152 -0.063034795 -0.20002685 -0.20632724 0.15311463 -0.53978086 -0.03545695 0.064493515 0.08952383 0.62438005 0.02063856 -0.08718201 0.10218228 0.052967872 -0.47636148 0.10878853 -0.08151051 -0.01749005 0.16001473 0.29794255 0.048231076 -0.1411204 0.0017091495 0.0917129 -0.14269929 -0.05483585 0.10309926 -0.2021634 -0.03131333 0.105962776 -0.25185323 -0.015950358 0.083046146 -0.2610075 -0.22719496 -0.044194046 -0.34086946 0.09528296 0.10049204 0.12521638 0.006279526 0.06886531 -0.04239
5995 -0.2685677 -0.11120368 -0.016925061 -0.46952072 -0.18370299 0.051589645 0.26020443 -0.48389655 0.21182375 0.0032083658 0.19298364 0.043475565 0.005929132 0.24318457 -1.551574 0.08603689 0.27943096 0.12230142 -0.107614666 0.074973986 0.08580775 -0.03442345 -0.12166967 -0.19174324 -0.18735424 0.20788386 -0.7006648 -0.049131244 0.033623837 0.050869644 0.6506229 -0.011013666 -0.046337456 0.13001707 0.032341827 -0.54938287 0.13213834 -0.08645436 -0.018719165 0.251445 0.29768094 -0.010771753 -0.14375195 -0.015048565 0.1429771 -0.10790232 -0.09431465 0.13532323 -0.1643768 0.07710764 0.12379263 -0.25805828 0.012209499 -0.0048012855 -0.23892203 -0.21447992 -0.14713569 -0.3988498 0.08137281 0.107026376 0.11992004 -0.036131844 0.07811207 -0.071680784
2834 -0.28643855 -0.26806554 0.030587792 -0.7570608 0.025154756 -0.0045674243 0.25712302 -0.2910215 -0.18274036 0.14671612 0.03686296 0.053571362 -0.11571339 0.042958964 -0.6259486 -0.017937278 0.07035295 -0.0012399679 -0.1273976 0.039597914 -0.15194233 -0.068815544 0.17924911 -0.011558705 0.057630964 0.012923774 -0.12333098 -0.049689926 0.07280141 0.077172205 0.061356254 -0.16834919 0.017003765 0.0036111998 -0.019640893 -0.02733997 -0.14616556 -0.6444979 0.08025362 0.03392771 -0.10235308 0.14423291 -0.059366282 -0.08738054 -0.0066732834 -0.08108417 0.0038704644 0.022849625 -0.13090362 -0.010742907 0.04030382 -0.12871973 -0.08903195 0.040952288 0.14910677 0.0023532799 -0.017517943 -0.2676794 0.010725953 0.070122086 0.04841029 0.0258627 -0.04033001 0.023527084
18860 -0.29124808 -0.33007717 0.18361983 -0.77368844 -0.0018835812 0.034696892 0.4072526 -0.17575026 -0.2679018 0.21339527 0.23286696 0.058334243 -0.06435972 0.0063205743 -0.6763041 -0.12504385 0.0871422 -0.03834119 -0.0025428575 0.123076245 -0.14440417 0.089089505 0.14709623 0.12133871 0.1947848 -0.034730267 -0.29183117 -0.045653723 -0.15107217 -0.04629556 -0.021966072 0.07351001 0.07508289 -0.03784046 -0.34776115 0.042095914 -0.07901166 -0.762437 0.16361839 0.06722439 -0.05919133 0.0023806912 0.033606224 -0.041076627 0.0830518 -0.09234858 -0.033074915 0.118044935 0.03822642 -0.019751985 -0.032688122 -0.19112612 -0.12428468 -0.047958087 0.173606 0.17417763 0.13548768 -0.33323342 0.0076215737 -0.003870173 0.0653335 0.07013448 -0.17279255 -0.040125996
10330 -0.25993744 -0.38044757 0.2322557 -0.68739974 -0.0028105136 0.059584975 0.34011623 -0.16361603 -0.25580424 0.2859276 0.30611143 0.0538995 -0.06161436 -0.021885986 -0.75088763 -0.11186066 0.088378854 -0.057546314 -0.09388802 0.17783155 -0.11814874 0.08840633 0.2476043 0.08840816 0.24268112 -0.12837243 -0.40011767 -0.01711412 -0.15335417 -0.05097404 0.022221697 0.025642557 0.047335763 0.0090875 -0.39592138 0.010637286 -0.0988732 -0.77334327 0.15924239 0.09358766 -0.02310506 -0.00054833316 0.020974424 0.008462038 0.12511012 -0.14011171 -0.003464756 0.17170875 0.041846346 -0.014006045 -0.0090522375 -0.15474817 -0.15874238 -0.11065509 0.1484553 0.17885485 0.10946894 -0.43365014 0.036299545 -0.01851147 0.097545266 0.027690437 -0.2073455 -0.10222327
8548 -0.33943126 -0.31327882 0.18908067 -0.7458143 -0.012388599 0.08685716 0.39014506 -0.185555 -0.25701144 0.18473752 0.22304717 0.01897798 -0.05127233 -0.028336102 -0.759058 -0.11772275 0.17733558 -0.06260219 -0.014471614 0.19400395 -0.10300272 0.17338724 0.22209275 0.11247867 0.16250306 -0.046344854 -0.2665604 -0.02780965 -0.15629472 -0.026034473 -0.005437077 0.083411396 0.050503984 0.007919886 -0.41307977 -0.01050009 -0.1193136 -0.77039087 0.15482959 0.06270172 0.046743687 0.048323803 0.031718273 -0.17508765 0.05603329 -0.03355878 -0.04105368 0.13701788 0.026486365 -0.027622238 -0.07798454 -0.16176225 -0.04381375 -0.03853565 0.18554772 0.15374686 0.18653965 -0.3823503 0.06627322 -0.04406276 0.08952943 0.0073409416 -0.277977 -0.072861195
18829 -0.3298428 -0.26433748 0.2296249 -0.69164 0.044525128 0.042673387 0.44522682 -0.19569644 -0.20639624 0.1571665 0.1606218 0.015968457 -0.091105 -0.05507064 -0.730076 -0.06561647 0.12052004 -0.10233682 -0.039452504 0.1218884 -0.14693332 0.1436164 0.17509836 0.08367454 0.09088924 0.0035699434 -0.2294837 0.01751264 -0.03999791 0.003315931 0.011601995 0.112554274 0.026463602 -0.04396052 -0.33356136 -0.030820472 -0.080150425 -0.7632479 0.14071038 0.08102282 -0.025174856 0.061621446 0.032144103 -0.123213105 0.008499686 -0.044859707 -0.034130946 0.09089458 0.07091319 -0.031516053 0.010054454 -0.16949031 -0.05846536 -0.04196724 0.16754025 0.19320759 0.14295734 -0.3421089 0.07401602 -0.015680926 -0.01720752 0.019615855 -0.22529647 -0.008687364
18831 -0.4358362 -0.13093768 0.08575679 -0.80398524 0.06250685 -0.07902425 0.04764224 -0.32157502 -0.22183749 0.20735718 0.050116893 0.10497483 -0.1172993 -0.07052433 -0.3660057 -0.026293682 0.07000821 0.060759943 0.018151661 -0.037137482 -0.045861658 -0.052069515 0.192055 -0.04611326 0.10860412 -0.07135872 -0.0009344301 -0.022259055 0.04583811 0.09127609 -0.01907436 -0.021102073 0.058646124 0.046789482 0.029870441 0.0042970437 -0.047757957 -0.51785916 -0.15352128 0.106789656 0.0036360694 0.0031254776 -0.0076790736 -0.28322542 0.021043092 0.009308705 0.009583473 -0.00026728283 -0.04336149 -0.01607004 -0.022366537 0.0059339437 -0.06423272 -0.017453805 0.16181837 0.018024635 0.079910256 -0.40070158 0.13197775 0.019855795 0.13750216 0.112711236 0.0501714 0.058358423
1490 -0.44570214 -0.03738014 0.12764944 -0.95132565 0.1187896 0.01799192 -0.057538003 -0.28277394 -0.15964861 0.0906132 -0.09945652 0.016096935 -0.103711314 0.015682008 -0.11546343 -0.009023827 0.03160288 -0.035910383 0.024140486 -0.090901755 0.00073737395 -0.03426478 0.11345087 -0.015626881 0.10168711 0.07601242 0.037120122 -0.259471 0.031479277 0.021789929 0.035595775 0.034636922 0.1251755 -0.03970117 -0.08930937 -0.038858607 -0.061029356 -0.38732237 -0.017222513 0.0649051 -0.11648442 0.043367155 -0.07191415 -0.15816608 -0.010508029 0.011912373 -0.044569533 -0.1114397 -0.035058316 -0.061694447 0.009262002 0.04103685 -0.058279287 -0.0058669797 0.19291395 0.02072209 -0.029243147 -0.53291655 0.1483156 -0.015230606 0.026062882 -0.042241894 0.061058745 0.12033576
27379 -0.43590233 -0.0793425 0.11291784 -0.8149404 0.102196254 -0.08503926 0.16671433 -0.3400765 -0.3322653 0.107365385 -0.054345116 -0.060723595 -0.14807156 -0.019598534 -0.31775463 -0.037759088 -0.050350636 0.030405147 0.0109343985 0.08584873 -0.14022535 -0.10547335 0.17003995 -0.045740075 0.12637392 -0.07063794 0.059427187 -0.07873559 0.061769463 0.12482931 0.0887256 0.05233482 0.16917485 -0.19714898 0.0045447885 0.0952509 0.11014951 -0.48344746 -0.14173628 0.016447851 -0.05459568 -0.060185846 -0.23260501 -0.3542993 0.028085958 0.03085924 -0.03281801 -0.020305345 -0.043894272 -0.023128211 -0.11659387 -0.13694243 -0.07026638 0.11080794 0.11912322 0.054213237 -0.15766962 -0.47361034 -0.005024574 0.021171806 0.04630168 -0.0011863336 -0.014520142 0.049427964
24152 -0.34617564 -0.22799294 0.034318436 -0.808512 0.06676528 0.016473284 0.1793507 -0.33254007 -0.31362584 0.06766344 0.018746717 0.034521576 -0.12306619 -0.12387807 -0.3416603 -0.055714067 0.11593842 -0.12756127 -0.11396849 -0.04246782 -0.037265193 -0.2274635 0.20859762 -0.064247586 -0.02284966 0.06774455 0.06869466 -0.09941418 0.033912085 -0.03692306 0.09413248 -0.006868206 0.07392363 0.06646556 -0.07637181 -0.031824775 -0.013695741 -0.47003523 -0.035515774 0.124358855 -0.015386169 0.08142269 -0.09884005 -0.06452485 -0.11574085 0.013203309 -0.039468676 0.05739365 -0.104072444 -0.014905587 -0.020873314 0.09169792 -0.09778752 -0.10557836 0.20425732 -0.015612881 0.106191315 -0.4265066 0.080986075 -0.03706218 -0.038625494 -0.09845421 0.034960378 0.15933383
24135 -0.17342708 -0.13079989 -0.07707838 -0.77959436 0.17535435 0.12150501 0.21144503 -0.062045842 -0.23433378 0.08094611 -0.032553356 0.14299242 0.21747242 0.0040040324 -0.6913596 0.06599831 -0.04146463 0.097825736 -0.19668646 0.09231598 0.00018815043 0.074399814 0.28045958 0.03980705 -0.04556075 0.084359504 -0.10056344 -0.002959361 0.14006287 -0.19879253 -0.14693908 -0.072422534 0.140058 -0.1594138 0.14459848 -0.057729144 -0.077944286 -1.0204923 0.049653083 0.046178445 0.0770509 0.18083797 -0.10235421 -0.107482016 -0.13201097 0.036287628 0.1432235 -0.11705415 -0.19858181 0.14051409 -0.13080843 -0.19128774 -0.2268328 -0.040935773 0.08602071 -0.19128415 -0.026133705 -0.11097253 0.017774012 -0.10820548 -0.034346417 0.057767313 -0.017641868 0.08539745
6199 0.04203048 -0.18208852 -0.028637404 -0.7760094 0.19921783 0.11193893 0.16526496 -0.024162449 -0.30280453 0.07341377 0.025422115 0.04984463 0.14674918 -0.026921088 -0.8429315 0.039537214 -0.041117657 0.11190652 -0.21419095 -0.007776335 -0.030075826 0.10675349 0.25407696 0.10387689 -0.07533732 0.08091561 -0.16961497 0.019318096 0.0867598 -0.09405188 -0.18805972 -0.075116105 0.052669894 -0.103456214 0.13757505 0.052744173 -0.032105964 -0.9376757 0.027286708 0.14212766 0.08286258 0.159221 -0.055366714 -0.06601848 -0.20230123 0.012843869 0.0818055 -0.10400076 -0.09821657 0.010646321 -0.048166774 -0.25561756 -0.14877108 -0.028324809 0.26688322 -0.13252643 -0.06388294 -0.10728149 -0.030970572 0.02619137 -0.036495734 2.3088392e-06 0.048616778 -0.021641497
24052 0.12977795 -0.28053823 -0.036510997 -0.81762624 0.19042225 0.08584884 0.21345882 -0.062286325 -0.31770158 0.03246996 0.010825593 -0.017574199 0.06454945 -0.0058447374 -0.9507543 0.053083472 -0.1108999 0.11375874 -0.10462844 -0.046073575 -0.02810389 0.07873929 0.1914432 0.11595763 -0.117071055 0.07874537 -0.16566737 -0.015041022 0.024571676 0.050288677 -0.20476405 -0.10088149 -0.034178883 -0.07323516 0.16846767 0.10311208 0.0052288068 -0.8235478 0.022887448 0.22916734 0.03141413 0.16504924 -0.010383473 0.024900844 -0.16630669 0.03235501 -0.050889257 -0.06332911 -0.08742132 -0.0050662085 -0.013015469 -0.17359366 -0.028517675 -0.009362821 0.39385593 0.016944844 0.023174629 -0.1802849 -0.03177635 0.13362682 -0.04598254 -0.0077721784 -0.0027045489 -0.035572417
15444 -0.33240217 -0.33995873 -0.17627652 -0.88541776 -0.12036156 -0.06781283 0.33660868 -0.21946509 -0.19739437 -0.07615148 -0.17105143 -0.023010101 -0.046562113 0.1196679 -0.57799757 -0.07333469 0.051726203 -0.013976617 -0.13969153 -0.1770708 -0.1934404 -0.106037684 0.34466642 -0.07570099 0.0532479 -0.041805338 -0.17184952 -0.020122178 -0.03639575 0.033921868 0.069716476 -0.2684317 0.23538883 0.13779213 0.13665779 -0.2581673 -0.021340702 -0.77017677 -0.023212329 0.028091216 -0.24340092 0.2223563 -0.07485219 0.003964384 0.07547211 0.22989441 -0.024190163 -0.028730942 0.13712242 0.034190003 -0.0051018433 0.026910035 -0.08081548 -0.041967362 -0.017851245 0.18151817 0.046812862 -0.2838376 -0.09295375 0.10722775 0.17292517 -0.074213006 -0.11928934 -0.057299268
6151 -0.47861636 -0.27922115 -0.1304762 -0.96217704 -0.1717384 -0.12618726 0.24828862 -0.16327621 -0.17532502 -0.06400778 -0.13199413 -0.0046587046 -0.10022902 0.04871048 -0.6704186 -0.07521031 -0.119665526 -0.08959828 -0.19051123 -0.29568666 -0.18068454 0.027812216 0.35353458 -0.06611161 0.06753981 0.015827 -0.11181416 0.011623194 -0.026619798 0.05398321 0.1476774 -0.2732827 0.1760575 0.11583285 0.115370296 -0.20826456 -0.07430807 -0.7766146 -0.00020336953 0.11509009 -0.26725644 0.11188911 -0.13950616 -0.005024956 0.10149181 0.1306539 0.06940553 -0.018530402 0.15354635 0.067718916 -0.07508838 0.019043151 -0.108895116 -0.021261884 0.028215686 0.05487079 0.06191643 -0.11082766 -0.12876959 0.051670805 0.13325629 -0.05275752 -0.22104739 -0.12906829
5405 -0.41217348 -0.3635907 -0.16512027 -1.0052127 -0.14597115 -0.06935292 0.27103138 -0.19456373 -0.1627506 -0.10309101 -0.17158239 -0.06488055 0.04590921 0.22125313 -0.67217946 -0.049381617 0.03169188 -0.11213642 -0.18245153 -0.1673606 -0.2030677 -0.13639235 0.3776673 -0.08701065 0.13212109 -0.04006111 -0.2073203 0.07154522 0.005750295 0.016392374 0.042614706 -0.34309396 0.24259232 0.18625854 0.12522823 -0.33659527 -0.0177213 -0.80484027 -0.11037506 -0.014344901 -0.2321492 0.19098827 -0.038981352 0.036756568 0.048606467 0.28274214 -0.11252485 0.04222607 0.24857515 0.055912472 -0.029776677 -0.015685678 -0.086179554 -0.035843514 -0.026845006 0.12518452 0.0495637 -0.30198076 -0.059654176 0.091017276 0.18909281 -0.11026832 -0.12036319 -0.060566645
15499 -0.5304623 -0.27531853 0.0631551 -0.966219 -0.1739342 -0.05614611 0.25591773 -0.16977043 -0.21383986 0.026115432 7.998701e-05 -0.034898017 -0.17103773 -0.0013664059 -0.6747956 -0.06670451 -0.15678649 -0.11488704 -0.2893232 -0.22963195 -0.15948404 0.12008546 0.26316983 -0.12815446 0.090113975 0.037798632 -0.07116117 0.055030942 0.04885926 0.017768018 0.15499233 -0.25721157 0.035507284 0.11028704 0.05193491 -0.115868255 0.0020477916 -0.74341327 0.06607687 0.07539267 -0.22730082 0.020526506 -0.1257602 -0.059052154 0.07841837 0.042692702 0.16557826 -0.044671286 0.037757564 0.05213955 -0.0044979625 -0.06008422 -0.037946526 0.04058496 0.07124058 0.0055358284 0.08404669 -0.037968945 -0.09697159 0.0954872 0.12322957 -0.04919184 -0.1713236 -0.04918588
6028 -0.57256943 -0.32705745 0.08830321 -0.95680505 -0.23525904 -0.035908557 0.2897809 -0.11421923 -0.23153652 0.072402686 -0.055773433 -0.14075479 -0.15716913 0.035732485 -0.6293402 0.08201309 -0.06710054 -0.0555663 -0.30078056 -0.05055906 -0.16682869 -0.05472732 0.04126994 -0.11123062 0.06529133 0.051304486 -0.11826828 0.065881565 0.0039478713 0.049237467 0.05880211 -0.3168888 -0.03207059 0.13749093 0.0035555526 -0.17293832 0.1472771 -0.8112386 0.11181622 0.004988021 -0.16421174 0.06050256 -0.060037863 -0.20330906 0.02173871 0.068884335 0.13249643 -0.19373156 0.07715228 0.03297307 0.040249676 0.0048668548 -0.04078982 0.12931305 0.10418091 0.0730322 0.11714852 0.024554659 -0.06078542 0.10083163 0.20819376 -0.05411531 -0.1436336 -0.04215635
27419 -0.5083321 -0.29377848 0.12744085 -0.9030677 -0.11416163 -0.013587182 0.33012733 -0.08538935 -0.1792719 0.17108494 0.015873738 -0.23933369 -0.18348579 -0.014245344 -0.601475 0.016108315 -0.041440055 -0.09308712 -0.23588546 0.095825255 -0.1323587 -0.11523963 -0.12783556 -0.13882722 0.05193528 0.03590081 -0.15607186 0.068059064 -0.047804885 0.06867485 0.048794307 -0.38462156 -0.070954256 -0.02478516 -0.06469949 -0.11059323 0.14838693 -0.82503045 0.10122919 0.076252356 -0.015358576 0.054848697 -0.059441447 -0.26293182 -0.08622015 -0.09343422 0.033072945 -0.286884 -0.009568011 -0.03060982 0.11516845 -0.05328177 -0.07208439 0.06841428 0.1661003 0.114890344 0.10645452 0.081008896 -0.017562635 0.017183863 0.096484825 0.055545017 -0.11358689 0.058984
14315 -0.62015456 -0.2675925 0.14273222 -1.0307921 -0.15418799 -0.10938608 0.40354264 0.10321362 -0.15516907 0.11910244 0.14899415 -0.32077396 -0.18698223 -0.030994548 -0.6940336 0.011956799 -0.02579868 -0.066151306 -0.22062948 0.28638607 -0.11042725 -0.19796796 -0.2246415 -0.1855149 0.10083543 -0.012466599 -0.100477576 0.09982906 -0.009885822 0.17642339 0.017466826 -0.5898523 -0.112416476 -0.16795476 -0.17266189 -0.1620848 0.03928231 -0.8183015 0.025463713 0.04521591 -0.027917227 0.124557346 -0.08796612 -0.19835505 -0.04242961 -0.11369782 0.012678044 -0.33134875 0.00030132578 0.0011916896 0.11640876 -0.13262753 -0.114468925 0.13994199 0.22931658 0.07976042 0.16995102 0.2310067 0.06606404 -0.05847647 0.018721994 0.06104709 -0.13184126 0.045280196
12319 -0.5810724 -0.28401902 0.04235426 -0.97078353 -0.090395145 0.015531337 0.3788413 -0.038675167 -0.1876963 0.18878108 -0.016477471 -0.26755872 -0.20794044 0.0070922216 -0.64700025 -0.007907533 -0.09355879 -0.045110915 -0.24475285 0.143212 -0.08564186 -0.10030167 -0.15656312 -0.09855305 0.10364359 0.043609682 -0.12342072 0.08417531 0.039431483 0.024946747 0.036371347 -0.4028508 0.002820589 -0.050455075 -0.09211965 -0.08737258 0.13959321 -0.8157647 0.113211945 0.14174718 0.061225653 0.04386601 -0.016167443 -0.27157336 -0.013268302 -0.17119502 0.12200126 -0.34399864 -0.0049808514 0.00860312 0.12758957 -0.021156993 -0.049984716 0.060757805 0.11486879 0.15804861 0.11271346 0.13320382 -0.05269691 0.049891032 0.1922923 -0.036903087 -0.1180073 0.07884452
24131 -0.32384577 -0.26669246 0.038362324 -0.86895204 -0.079928696 -0.03961375 0.29823458 -0.17894809 -0.17595349 -0.018077914 0.07519306 0.08904189 -0.11495042 0.17769274 -0.8386322 0.057298157 0.05403676 -0.06896545 -0.13776521 -0.07865722 -0.12763354 0.047475588 0.22006544 -0.02690104 0.13680635 -0.19745448 -0.012291324 -0.21714538 0.10308338 0.088806465 -0.04422783 -0.07039207 0.063591324 0.07023803 0.024324624 -0.14065893 -0.15986064 -0.807573 0.072313994 -0.09216925 0.12608603 0.06280977 -0.16127591 -0.14088285 -0.11069971 -0.30188128 0.03412758 0.08938895 -0.31707156 -0.13034807 0.19416247 0.004194106 -0.04271543 -0.060794063 0.102296725 0.12064086 -0.053729862 -0.2557554 -0.090088256 0.110709935 0.07005228 0.12610327 -0.0898844 0.052065466
6562 -0.35799915 -0.057840217 0.08555516 -0.55212665 -0.025924416 -0.028690314 0.44082937 -0.5196218 0.062416386 0.17030513 0.1223839 0.109384455 -0.17554317 -0.019974975 -1.1575264 0.17328933 0.013035815 0.029273272 -0.14241466 0.055428546 -0.13294154 -0.008987718 0.00083900837 -0.12553185 -0.045712367 0.11948511 -0.35017985 -0.1582233 -0.057176065 0.108455524 0.20085235 -0.13431433 0.0032469041 -0.05466627 0.13112585 -0.37703925 -0.047019344 -0.341795 -0.05905104 0.1763701 0.11809964 0.1984934 -0.27339885 0.09943757 0.020022301 -0.045407787 0.12462502 0.109957494 -0.11062061 -0.028838996 -0.041540947 -0.047521815 -0.0014608519 0.111806735 0.029440502 -0.14183944 0.12362025 -0.46690217 -0.064285465 0.07252585 0.08001615 -0.053640753 0.06804776 -0.09491778
13341 0.077723205 0.624304 -0.102692634 -0.19234377 -0.16963653 0.00529141 0.25344193 -0.5627849 0.11793689 0.18239859 0.031155324 -0.09159446 -0.031614255 0.038707353 -1.5596063 -0.028695336 0.020230103 0.007809196 -0.092029594 0.039547265 -0.18662517 -0.14073892 -0.036076777 -0.097125985 -0.008007957 -0.018551068 -0.18918876 -0.016542215 0.052936733 0.026397558 0.1803448 -0.038533423 -0.086247794 0.1270069 0.1601534 -0.30056033 -0.0070535685 0.4299933 0.003035446 0.14972909 0.07804004 0.17339507 0.06189498 -0.04784588 0.00016326089 -0.060086675 -0.0042590625 0.06330843 -0.048466947 -0.0013762217 -0.056939624 -0.124908246 0.054360323 -0.0952544 -0.02572199 -0.0074544274 0.06887598 -0.0040406417 -0.022117022 0.15039146 -0.0033226302 0.04308339 -0.03379024 -0.054069165
17624 -0.194968 0.792261 -0.13615635 -0.17962135 -0.29427576 0.06252396 0.25029495 -0.63861024 0.012100428 0.20626812 0.009468753 -0.049778074 0.24885993 0.08291991 -1.9191037 0.037127975 0.09468857 0.007701532 0.050829332 0.18520261 -0.23369719 -0.1805814 -0.06617487 -0.12914902 0.046487425 0.035598226 -0.12265013 -0.006167388 -0.057623528 -0.053700253 0.3271314 -0.13533391 -0.10691811 0.1524861 0.06990629 -0.2717175 -0.0030116532 0.31945974 -0.042551007 0.05230239 0.048737302 0.35993066 0.044763822 0.06470662 -0.01658747 -0.13949779 -0.1257073 0.08756374 0.039047908 -0.09349805 -0.10544443 0.1356676 -0.05965754 -0.31837806 -0.3164108 -0.08150817 0.16072376 0.069792636 -0.013436448 0.1245266 -0.040016152 -0.040100165 0.051226266 -0.15111004
13570 -0.22079085 0.8581469 -0.22338578 -0.14999032 -0.33046237 0.0535422 0.23661402 -0.6270537 0.01493705 0.0583989 0.03267014 -0.02418345 0.31330365 0.03257838 -2.0164814 0.051666565 0.116864346 -0.039698135 0.024321526 0.29597273 -0.2624899 -0.16671531 -0.08111894 -0.12193786 0.1403951 0.03185822 -0.02648862 -0.07225666 -0.047505133 -0.02362814 0.26791835 -0.16443248 -0.05390576 0.21879011 0.05738885 -0.3390731 -0.037569523 0.2993638 -0.018890891 0.03776106 -0.009098079 0.31231877 0.008854404 0.10010604 -0.044536296 -0.122808255 -0.11406154 0.08970385 0.04682731 -0.10733224 -0.15331292 0.09627806 0.02151204 -0.34021166 -0.3229509 -0.16176079 0.16878691 0.09132826 -0.0019168957 0.010766812 -0.10048894 -0.07706457 0.056462165 -0.13271685
2590 -0.2724716 0.7988215 -0.1008412 -0.15619984 -0.38401517 0.0725897 0.24170057 -0.61353064 -0.03281944 0.100844875 0.023749107 -0.0997072 0.32201675 0.052465435 -2.0283532 0.15206951 0.15883286 0.028971726 0.03629084 0.2459937 -0.23317908 -0.13111345 -0.059738085 -0.1387606 0.032300945 -0.0051138243 -0.052082658 0.042266086 0.0064187837 -0.098031655 0.35710233 -0.17866266 -0.069009826 0.23176043 0.093528114 -0.32350817 -0.015794557 0.28141832 0.014133665 -0.04321624 -0.011537756 0.29915732 0.043149836 0.07759021 -0.06772082 -0.1025362 -0.18005048 0.0425127 -0.019711396 -0.051136803 -0.14237499 0.15243478 0.05976621 -0.33457103 -0.39514256 -0.05602856 0.14059994 0.10413517 0.0359244 0.10969371 -0.08083629 0.034493297 0.050732054 -0.16192974
25566 -0.058607757 0.75917673 0.20613216 -0.2556938 -0.0834953 -0.0024368432 0.31758925 -0.59838676 0.06070468 0.10441943 -0.039370246 -0.10337487 -0.04727292 0.2462105 -1.5702081 0.064189084 0.1714342 0.057606205 0.0029877168 0.005130607 -0.16950166 -0.1198133 0.123079754 -0.014822847 0.012066386 -0.053183086 -0.32898894 0.044631813 0.019786684 0.1158909 0.12002508 0.0084488625 -0.12472408 0.1434269 0.16250494 -0.29045486 -0.027697058 0.61322814 0.073840976 0.08859116 0.111951426 0.09248046 0.1445099 0.05722458 0.040637404 0.053896446 0.07147013 0.061162073 0.0053180903 0.12660486 -0.082131766 -0.23864672 -0.04861411 -0.12872408 0.008645363 -0.08171177 -0.07904689 -0.025678312 -0.004536578 0.20810126 0.087928176 0.0944961 0.03576223 -0.09779381
13388 -0.041439418 0.83798206 0.18392892 -0.23963112 -0.15409611 -0.019580841 0.31100234 -0.62095875 0.084506094 0.0694959 -0.13774039 -0.068313554 -0.07550819 0.13403635 -1.5645685 0.035248905 0.12107652 0.022718746 -0.12037906 0.21980052 -0.1327142 -0.20083448 0.14734991 -0.023422139 -0.06897891 -0.06324331 -0.28760335 0.044375267 0.07669384 0.14573325 0.05726481 0.0048043383 -0.15816416 0.10680217 0.1749634 -0.26138648 -0.006471819 0.61684203 0.091236115 0.12830542 0.13029516 0.030465059 0.15980251 -0.006420443 0.08219378 0.11594355 0.18097563 -0.008888207 0.042830095 0.15357544 -0.21329898 -0.29872566 -0.07131078 -0.14990819 -0.06434038 -0.09712942 -0.03788872 -0.024370601 0.06891379 0.15013236 0.1209407 0.072650135 0.0039741644 -0.04357618
6316 -0.07242186 0.84715873 0.22368668 -0.20052718 -0.03201377 -0.044945434 0.35486972 -0.6366335 0.06559987 0.075673126 -0.04051131 -0.114173695 -0.07363118 0.20703115 -1.6827011 0.07299028 0.20976137 0.089178674 -0.051656753 0.1383418 -0.14917867 -0.019878706 0.07419299 0.037144072 -0.0012756129 -0.08797062 -0.32816482 -0.0046148445 0.054340906 0.14346533 0.11920347 -0.033019714 -0.11370403 0.20494351 0.12399048 -0.28036702 -0.11806732 0.68529636 0.06946001 0.094778396 0.04689697 0.052615255 0.17050081 0.077319436 0.031157117 0.13527451 0.1707933 -0.0011604927 0.0033841194 0.113064416 -0.13722686 -0.2493893 -0.052315626 -0.06107604 0.0424667 -0.17216843 -0.11482204 0.016299006 0.03675187 0.10364706 0.09467414 0.08946924 0.04608097 -0.062905155
17661 -0.036640555 0.7783966 0.16379102 -0.19844182 -0.07487014 -0.04607 0.28486478 -0.63008744 0.09052663 0.1148612 -0.06277361 -0.08506346 -0.08175284 0.21322292 -1.6158538 0.02279618 0.1117298 0.07238068 -0.108068265 0.12223482 -0.14872032 -0.08476658 0.08962216 0.032335997 -0.03346731 -0.12443534 -0.29571974 0.044593234 0.025090234 0.13723159 0.13166842 -0.02952752 -0.1601061 0.13984202 0.093344584 -0.28634456 -0.06835162 0.60519385 0.036073342 0.112740606 0.04679758 0.042056575 0.14458114 -0.0044721323 0.10043165 0.031246493 0.1423194 0.0045930073 -0.03565429 0.11529404 -0.13783334 -0.2216345 -0.042312093 -0.14010318 0.025562312 -0.19231842 -0.012483535 -0.021342417 0.071378745 0.061837427 -0.00019694194 0.15514389 -0.012845842 -0.029492123
17674 -0.012253432 0.8070069 0.18941548 -0.18812525 -0.12168341 -0.037554726 0.35749838 -0.603833 0.09497142 0.085991226 -0.06910128 -0.082471386 -0.048866555 0.20151217 -1.6778358 -0.00056606584 0.14423399 0.04098352 -0.1325638 0.18596126 -0.1497727 -0.07919321 0.049774073 -0.011345066 -0.08433227 -0.08387594 -0.2655626 -0.07485414 0.013908103 0.09725821 0.08679209 -0.05349861 -0.07827943 0.1677292 0.10625876 -0.26257235 -0.018669609 0.6110043 0.038144983 0.12358912 0.067261115 0.025541797 0.10225257 -0.019245103 0.07213691 0.11152247 0.20827942 0.025059277 0.013148959 0.08785823 -0.20351818 -0.22389561 -0.06380959 -0.0746393 0.02072549 -0.1446472 -0.065008104 0.017003898 0.03501246 0.11885674 0.022364909 0.039362606 -0.0041005774 -0.05328038
21837 -0.0697565 0.807602 -0.22572094 -0.15051736 -0.13809633 -0.04677893 0.20403872 -0.7024002 0.08316287 0.31528687 0.095028624 -0.17203352 0.07567283 0.048270907 -1.5187098 0.117727034 -0.031182561 0.048884258 -0.041760545 -0.06352864 -0.0095476685 -0.22402433 0.18411207 -0.048041087 0.050954558 0.11494045 -0.1446192 0.117385134 0.18859082 -0.01562705 0.15980358 -0.1984802 0.20535658 -0.07176649 0.027648825 -0.24104495 -0.0108194705 0.51889694 0.1330507 0.20061705 0.070565104 0.006308989 -0.10715943 -0.01812103 0.07235047 -0.04656118 0.11996756 0.18069574 -0.117766365 -0.07272828 -0.05514964 -0.15452126 0.10432983 0.04072639 -0.093727045 -0.19273284 0.066618614 -0.0939265 -0.18107866 0.06228497 0.073322505 0.13026488 -0.11692577 -0.25918508
7951 -0.04960847 0.9031225 -0.3590471 -0.16804692 -0.14077848 -0.03382848 0.2218007 -0.6752033 0.047886148 0.3696979 0.14564192 -0.14874353 0.050753858 0.14186604 -1.59487 0.09739885 0.05181665 0.13876487 -0.12433352 -0.08740145 0.019124102 -0.18290122 0.31473106 -0.013750944 0.09887133 0.16781892 -0.17285828 0.07625129 0.21483675 -0.005802649 0.25052568 -0.20185351 0.16510531 -0.043982007 -0.0019091784 -0.24925195 0.04350184 0.5523102 0.19591418 0.15086152 0.0362053 -0.015330314 -0.23514822 0.05874427 0.075147964 -0.11660431 0.145243 0.24625829 -0.22606564 -0.06843447 -0.036253892 -0.11198359 0.10503093 -0.000111565154 -0.12403595 -0.197574 0.05498273 -0.13688955 -0.09284743 0.086300984 0.054116614 0.11824744 -0.17304426 -0.2615243
14083 -0.08862398 0.86013997 -0.21117869 -0.117819384 -0.17718375 -0.07726251 0.13924433 -0.7575112 0.037223767 0.2478843 0.25911394 -0.13173178 0.014629472 0.03481556 -1.5908674 0.21941628 -0.13096757 0.04825934 -0.06753554 -0.10511108 -0.0133866 -0.2715711 0.1361641 0.10736235 -0.023264641 0.05763426 -0.061212514 0.14635605 0.120815136 -0.13596268 0.17475447 -0.21492204 0.07733098 -0.020935725 0.05925154 -0.10264329 -0.051056217 0.5496551 0.0962208 0.11724274 0.12676854 -0.039650757 -0.14782052 -0.018606748 0.11612602 -0.022855515 0.070770144 0.21905111 -0.20077889 -0.025509598 0.047633983 -0.1566028 0.17040728 0.12647012 -0.052030556 -0.12133779 0.15184408 -0.14718217 -0.12573962 0.0810213 0.1154247 -0.004585836 -0.1460287 -0.28681388
14275 -0.11707345 0.8672437 -0.32295826 -0.20299071 -0.21258053 -0.084101595 0.24563321 -0.6843667 0.10339614 0.21455419 0.17759082 -0.15518825 0.043440264 0.032275774 -1.639203 0.20190945 0.048629384 0.11835327 -0.09356659 -0.0627462 0.024102854 -0.21818292 0.24872759 0.01265281 0.010641787 0.14933985 -0.13043451 0.09311732 0.26426354 -0.022791458 0.12440439 -0.24679568 0.24374387 -0.07250942 -0.03300849 -0.2300759 -0.117582984 0.5724509 0.17297459 0.14916463 -0.011977844 -0.015133881 -0.16251296 0.10497536 0.047046393 0.0140450485 0.16620055 0.24325779 -0.19570868 -0.046348423 -0.020923557 -0.07255282 0.04529679 0.030676523 -0.12023122 -0.21206501 0.13342644 -0.12988468 -0.18889844 0.079840794 0.05571314 0.124492146 -0.10160759 -0.22895318
9694 -0.24071448 0.87711406 -0.1501929 -0.16150777 -0.3476874 0.06932694 0.21839565 -0.5940148 0.020919718 0.09226042 0.14288574 -0.07851066 0.26639187 0.05200507 -2.0019708 0.109163836 0.12548769 -0.0076606404 0.048777662 0.22085346 -0.24562107 -0.17770936 -0.02395738 -0.11922153 0.048772663 0.022201438 -0.06624329 -0.021417025 -0.028885107 -0.10500657 0.33538216 -0.174722 -0.048492923 0.21219198 0.050860632 -0.27023977 -0.12631945 0.30912712 -0.01579195 0.008351434 0.023298495 0.32595077 0.029257286 -0.014593754 -0.03688758 -0.20474824 -0.13405807 0.04072015 0.08226136 -0.07592875 -0.16550519 0.114145815 -0.00956095 -0.36023206 -0.36012217 -0.045465436 0.11895019 0.048021324 0.029593632 0.04786999 -0.08638221 -0.0506939 0.04716923 -0.13374375
17536 -0.088437065 0.8444728 -0.21032889 -0.15437679 -0.24359345 -0.06739365 0.097741276 -0.7397852 0.08034868 0.17392486 0.29640755 -0.060069192 -0.07236196 0.17645437 -1.6354128 0.1823214 -0.24504189 0.047784485 -0.1456789 -0.115740076 -0.031015156 -0.19859524 -0.025678385 0.23376271 -0.046892866 0.047457974 -0.063991465 0.12734911 -0.016947199 -0.13711259 0.13272707 -0.17521273 -0.15295202 0.013286976 0.12115102 -0.11388383 -0.035115853 0.52466697 0.0047461265 0.13061707 0.14986235 -0.012676402 -0.06907166 -0.0025820776 0.172978 -0.11038301 0.08891056 0.15595914 -0.2601209 -0.027036112 0.06489926 -0.23618409 0.051667262 0.12713066 -0.0028840841 0.07150134 0.10842804 -0.11070074 -0.038769398 0.21365817 0.011524898 -0.121071495 -0.13039593 -0.24194449
6975 -0.026011584 0.7795537 -0.17252493 -0.2135903 -0.21203807 -0.0024970789 0.12432343 -0.686864 -0.008862733 0.10223153 0.15912543 -0.093843244 -0.13655005 0.08754036 -1.8441817 0.10996318 -0.15458097 0.11740794 -0.2483347 -0.055043593 -0.008285342 -0.19297905 -0.12851952 0.17055202 0.06290854 -0.035673667 -0.09768542 0.078912124 -0.16740511 -0.15800183 0.25253713 -0.019153764 -0.15953425 -0.09862778 0.1512749 -0.20760098 -0.011441216 0.60728747 0.039965913 0.096530445 0.12273044 0.014640248 -0.15306064 -0.052462704 0.13023905 -0.1554233 0.039160363 0.15353556 -0.11896712 0.028815476 0.18737142 -0.23431316 0.084654994 0.10923127 -0.11278493 0.16723141 0.12374026 -0.092943065 -0.07945933 0.1623913 0.01281982 -0.07926337 -0.04634786 -0.09339576
17579 0.021489827 0.68118435 -0.13787967 -0.23945636 -0.22271624 -0.0118453335 0.20529257 -0.62182266 0.0015219996 0.0071532247 -0.020341814 -0.093004234 -0.08010141 0.0872377 -1.924688 0.033804305 -0.08917313 0.15445593 -0.17718637 -0.013859291 -0.06063113 -0.20654038 -0.17039543 0.109688275 0.036232315 -0.022586545 -0.10040495 0.059666634 -0.06962631 -0.08482457 0.29348794 0.09159729 -0.14679693 -0.023033598 0.17568739 -0.27258718 -0.016945614 0.52537537 0.024435077 0.06947763 0.044403054 0.091381565 -0.11913303 -0.012857944 0.10529378 -0.12755522 0.09606633 0.18522575 0.009538118 0.039036315 0.18057726 -0.13323952 0.040368106 0.032470275 -0.13334279 0.1419023 0.1187024 -0.033627655 -0.1132042 0.17890334 -0.053085987 0.014855235 0.015162394 0.049710736
13065 -0.15972576 0.9376782 -0.25814217 -0.11228164 -0.19508842 -0.13110322 0.03899549 -0.77204007 0.1046702 0.19228953 0.28129113 -0.012598913 -0.05410629 0.19291632 -1.7176889 0.15266907 -0.12790954 0.0319783 -0.15858044 -0.013766652 -0.058166716 -0.22345503 -0.1090992 0.33430526 -0.13105856 0.025771994 -0.009969298 0.24571116 -0.02439175 -0.1688633 0.113381855 -0.24386838 -0.008784977 -0.018689627 0.08700933 -0.15884699 -0.054143835 0.5519586 0.08102093 0.080487184 0.17822587 -0.06253036 -0.116306335 -0.08091358 0.15662536 -0.0529977 0.048104767 0.09450483 -0.29696387 -0.037974056 0.11514276 -0.24558239 0.030509643 0.15329076 -0.0021050752 0.038020715 0.17950724 -0.12794799 -0.028884277 0.25539172 0.077635184 -0.08266306 -0.1398321 -0.29930907
14062 -0.18467401 0.9128258 -0.25013044 -0.1485859 -0.22791633 0.024360739 -0.062408347 -0.6899954 0.05885514 0.3132575 0.36517838 -0.030438708 -0.12954019 0.1545739 -1.7475724 0.27028307 -0.31266412 -0.011024413 -0.1353155 -0.036327098 -0.015575643 -0.292149 0.08406663 0.31249017 -0.14556554 0.09547997 -0.017312258 0.17509045 0.039634332 -0.18449484 0.115717635 -0.17635427 -0.1493463 0.075009145 0.16280887 -0.15849504 -0.009809306 0.53621024 -0.08058292 0.06347955 0.05089861 -0.013555102 -0.029405938 0.036040474 0.24858631 -0.088801704 0.056005564 0.1665645 -0.21112956 0.038167305 0.111912265 -0.15942708 0.109554484 0.19591817 -0.029019324 0.11134913 0.19203398 -0.20456865 -0.019623226 0.14256258 0.049757384 -0.23557948 -0.15961775 -0.26749623
1936 0.052309204 0.7523847 -0.19214633 -0.31520894 -0.1555261 -0.01226948 0.1457371 -0.62360907 -0.033800192 -0.06324443 -0.087174326 -0.09122249 -0.10824787 0.1344781 -1.9654257 0.06541358 0.08503689 0.07520663 -0.10578296 -0.045617577 0.04392757 -0.24055654 -0.12979896 0.120943144 0.16562164 0.0439379 -0.09846628 0.027230093 -0.10093272 0.0028633862 0.35436174 0.06563511 -0.11000057 0.02750121 0.30295607 -0.30933133 -0.1313448 0.5497153 0.0054957233 0.21315838 0.09012871 0.03837641 -0.042390294 -0.06798508 0.013551928 -0.16883534 0.2657143 0.22310609 0.05719154 0.03238384 0.19254573 -0.13952997 0.07920945 0.009013887 -0.21588156 0.21017438 0.15662871 0.009779088 -0.051808205 0.16828921 -0.09331154 0.039878663 -0.0044382475 0.08006467
17587 0.11509321 0.72347105 -0.17901734 -0.30487153 -0.16711624 -0.006349096 0.2545864 -0.61229783 0.0012983076 0.024810726 -0.08550839 -0.09750154 -0.09426221 0.13143972 -1.8357697 0.067744 0.18021713 0.019471806 -0.044956017 -0.008764654 -0.002317009 -0.22661148 -0.14380106 0.03519442 0.18452072 0.05786148 -0.15278453 0.09319244 -0.064208366 0.16330169 0.37151474 0.015122109 -0.040482435 0.050004024 0.26626563 -0.3035074 -0.10449814 0.511785 0.004010888 0.27926007 -0.0064827036 0.08402459 0.0243771 -0.057660736 0.0025066354 -0.118287995 0.21912491 0.18927975 0.085544705 0.05005608 0.14418721 -0.05494377 0.05052874 -0.032406222 -0.13616455 0.14326514 0.11318257 0.0143324435 0.001659667 0.25206363 -0.0976016 0.14356211 -0.032473274 0.094983816
13163 0.10523615 0.7886369 -0.2041373 -0.36697635 -0.15946503 -0.054760527 0.26674226 -0.5555804 -0.026482325 0.012706985 -0.08671344 -0.13759999 -0.1820306 0.12783504 -2.073462 0.06525774 0.26391014 0.08443077 -0.08433222 0.006207218 0.02959691 -0.19562972 -0.057046663 0.08763289 0.19849184 0.081521794 -0.1711513 0.07738425 -0.068795495 0.11545823 0.5177124 0.039023124 0.066063404 -0.08304781 0.24324284 -0.33362606 -0.11146641 0.5206383 -0.027202139 0.23891392 0.0044770753 0.007205842 0.008841769 -0.04844405 0.024961136 -0.24278718 0.25622794 0.19331259 0.17613554 0.07511801 0.15912765 -0.037941575 -0.020497644 0.00034682118 -0.24749576 0.08589835 0.03392247 0.0631053 0.03814138 0.23650734 -0.098998025 0.10745858 -0.04221859 0.09909155
10184 -0.27869412 -0.28737518 0.023476746 0.37941632 -0.055741798 -0.16092257 0.0068354704 0.7955537 0.08089559 -0.23035626 0.42269114 0.2049474 0.072579004 -0.067130715 -1.025081 0.0975694 0.114961654 -0.05164971 -0.07021517 -0.077670276 0.18177158 0.15657283 0.15969226 -0.062215373 -0.0663666 0.13826522 -0.3414274 0.11588309 -0.28850055 -0.18371584 0.42923307 -0.07978023 0.13419029 -0.026429337 0.12658112 0.07944119 0.41072875 -0.04636053 0.11732126 -0.2061432 0.2611326 0.05916943 -0.20786096 0.15441841 -0.10755677 0.24589063 -0.07296993 -0.023765255 -0.15746155 0.063575 0.12539552 0.06544924 -0.2512388 0.08262897 -0.5282032 -0.084032886 -0.066168405 -0.010258788 0.04789708 0.1804867 -0.20411521 -0.2638002 -0.18473858 0.23758952
10185 -0.27511492 -0.30658063 0.051510647 0.39124033 -0.0044110115 -0.16515882 -0.017980691 0.7256874 0.114910066 -0.15647617 0.46336007 0.18152599 0.064567365 -0.050855238 -1.0494835 0.052070063 0.09093337 -0.012031865 -0.052071325 -0.07190192 0.15047018 0.095489465 0.14439619 0.0475402 -0.07663648 0.12802868 -0.34577128 0.096566856 -0.28221646 -0.19529742 0.41145378 -0.032660145 0.092960976 -0.01867309 0.20676446 0.04865875 0.45291096 0.079582095 0.055127427 -0.2003527 0.22631305 0.01282709 -0.16820063 0.147456 -0.1255807 0.27603194 -0.06554158 -0.048105218 -0.16884859 -0.038771708 0.08804072 0.09949989 -0.25008595 0.026377343 -0.5598923 -0.0828232 -0.09718316 -0.035931543 0.031866174 0.09075338 -0.20800121 -0.24044347 -0.16441727 0.2093621
3835 0.18756591 -0.02580829 -0.02065828 0.56285024 0.027085947 -0.038449492 -0.03952882 0.7567481 -0.105668634 0.006834991 -0.11951695 0.078711815 0.027588306 0.024185885 -0.7608414 -0.061849385 0.015633186 0.040238496 0.01099715 -0.0799277 -0.029131342 -0.0071889544 0.041798934 -0.046628676 0.16816388 -0.095138475 -0.012759405 0.051631957 0.092197016 -0.011664921 -0.05052561 -0.13418043 0.035327185 -0.09653825 0.01416568 0.010380744 0.07792296 0.015464658 0.08940196 0.107788734 0.053992346 0.041200224 0.017260142 -0.08969762 -0.0531264 -0.007876986 -0.0065864148 -0.15935695 -0.09403168 -0.08392003 0.008849451 -0.04379238 0.028497556 -0.026456099 0.05219527 -0.08001992 0.07433748 0.056531925 -0.009291735 0.101184845 -0.11979131 -0.008071547 0.00045487206 0.0024254539
17717 0.19769457 -0.03482142 -0.10762685 0.4127216 0.18290895 0.20169652 0.056122154 0.8091841 -0.14522861 0.056043975 0.13124879 -0.05546322 0.09484543 0.1011287 -1.0010074 -0.03855822 -0.13002782 -0.009734399 0.09121197 -0.0853067 0.010839289 0.063234575 -0.12748718 0.049330108 -0.08399605 -0.2458337 0.07172849 0.07138475 0.28434357 0.06533108 0.23567347 -0.1629286 -0.12026458 0.0039196103 0.057460956 -0.0010908857 0.18731415 0.10203572 0.14605942 0.12328116 0.11121728 0.073929586 -0.17404199 -0.009981084 0.0372713 -0.03138028 -0.08236794 -0.4128091 0.15747482 0.006724125 0.03735107 0.023502016 0.0059847194 -0.029066974 0.44479623 -0.058227584 -0.005312534 0.22179642 0.12258589 0.19117127 -0.020966101 -0.08605657 0.063197225 0.13594265
7659 0.16547777 -0.045518257 -0.10835161 0.41987783 0.17521699 0.23452261 0.07570342 0.85344857 -0.16264877 0.074447565 0.13304682 -0.041504085 0.09023032 0.1473043 -1.0431887 0.0012078361 -0.18096457 -0.0408382 0.08799881 -0.1537067 0.014395355 0.06571559 -0.20302835 0.03959893 -0.139786 -0.2678567 0.09527264 0.09012985 0.30016235 0.08057145 0.27309865 -0.2302806 -0.1314252 -0.007576635 0.07446729 0.024743149 0.23209986 0.11892592 0.10036067 0.17931445 0.049617022 0.070651904 -0.15428592 -0.01791323 0.0017804342 0.0013205151 -0.08135811 -0.36845392 0.18508534 0.073485546 0.08639977 0.0047517526 0.023777943 -0.08148996 0.50395215 -0.030907702 -0.033302017 0.19160472 0.10464794 0.22423491 -0.011122876 -0.0628368 0.08756841 0.18047799
3834 0.41818056 0.0768704 -0.1523589 0.19769636 0.18566297 0.036410447 -0.034290474 0.5807106 -0.11154695 -0.16687067 0.3196001 -0.042095274 0.19527835 0.015746811 -1.145578 0.021325449 0.026484359 0.11627996 0.12291788 -0.0018425523 0.02179267 -0.16420352 0.11167017 0.17597127 0.051285274 -0.16587621 -0.01311154 0.06765415 0.14706416 0.056145314 0.20013587 -0.21263458 -0.035871424 -0.034640398 0.04226657 -0.028690716 -0.11068996 0.13024285 0.12199754 0.17791104 0.062626205 0.03497416 -0.17321867 0.0055719744 0.13737053 0.095752716 -0.07097538 -0.31180397 0.050052967 0.023954593 -0.124939695 0.05916622 -0.0064588995 -0.100366905 0.5399341 -0.008063038 0.120855995 0.12083513 0.062997185 0.096837275 -0.02248453 -0.022494208 0.01195984 0.09942939
17570 0.059607446 0.09652747 -0.21755527 0.64858824 -0.13243008 -0.07743024 -0.042249653 0.7693164 -0.09683201 0.03730668 0.004636778 0.061283242 0.026507748 0.09171087 -0.9272098 0.1206758 0.111078575 0.3901244 -0.060336925 -0.12888639 0.062418763 -0.051972732 -0.09768288 -0.16317104 0.12917966 -0.20908993 -0.0073183943 0.041460466 0.10337377 0.09893599 -0.118460216 -0.46587753 0.27931026 -0.029528124 -0.153567 0.06860477 0.06262464 -0.11780599 0.03896618 0.24207309 0.131343 0.06930244 0.08227706 -0.022097496 -0.07571131 -0.05177014 -0.09236958 -0.105406545 -0.008356878 -0.18084398 0.07397764 0.12762901 -0.0126163745 -0.0022585555 0.09836466 -0.19802326 -0.17540829 0.1143491 -0.128811 0.10729088 0.012049521 -0.08863586 0.019423828 -0.004108059
17715 0.14796211 -0.03457247 0.046416476 0.60314965 0.133064 0.053314414 0.042658154 1.0043002 0.01140888 -0.20199645 -0.040840454 0.094158754 -0.021454511 -0.046428535 -0.7109455 0.010277566 0.1043842 -0.050228782 -0.023276098 -0.12964582 -0.046291303 0.0034390923 0.17091398 -0.2173252 0.050295338 -0.00529974 -0.18681541 0.08759679 0.25951785 0.16802895 0.082659036 0.039401326 0.11626143 -0.15044923 0.011599 -0.05160324 -0.104147434 0.08297159 0.22527942 0.22955 -0.047106773 -0.07215502 0.06676261 -0.044191495 -0.22015882 -0.15072426 -0.2574517 -0.09594362 0.013975555 -0.012672335 -0.06205021 -0.003244076 -0.1620323 -0.08274369 -0.13655251 -0.10215808 0.00533875 -0.048242506 -0.0028038954 0.119311586 -0.32180598 0.028289698 -0.051213518 0.09613381
7823 0.13680597 -0.05683545 0.07374005 0.5951951 0.18448265 0.04686448 0.04089864 1.1022829 -0.023977278 -0.19879942 -0.030359419 0.07766076 -0.007979312 -0.04033665 -0.7378797 0.062338445 0.14566189 -0.085309826 -0.037717085 -0.12480931 -0.02420796 -0.028509533 0.15195683 -0.2607292 0.045971427 0.010536118 -0.25641316 0.011732291 0.26691008 0.22935213 0.053802274 0.07864575 0.04492109 -0.146343 -0.0825459 -0.048748896 -0.14583252 0.08098336 0.2776523 0.2949917 -0.038292583 -0.10682214 0.11990331 -0.10023721 -0.23750088 -0.17510585 -0.25895262 -0.09938014 -0.014316768 0.011060494 -0.07262135 0.039565478 -0.16794975 -0.08987781 -0.1251187 -0.15295388 -0.07254706 -0.014660916 -0.051689938 0.12383069 -0.38164744 0.057725266 -0.08633893 0.14120959
6878 0.10834142 -0.06697713 0.019742932 0.5904242 0.14555843 0.13038176 0.050447263 1.1040739 0.013663679 -0.21140262 -0.05746766 0.08836213 -0.026329974 -0.12433557 -0.80534786 0.06907833 0.09208284 -0.048273142 -0.10275997 -0.15907715 -0.02303525 0.03152833 0.118205905 -0.24020657 -0.009388447 -0.026054002 -0.19688126 0.0638332 0.33117875 0.17897503 0.111064084 0.054019593 0.111492686 -0.096722834 -0.07022225 -0.0682244 -0.12646368 0.1453612 0.22452419 0.21528314 -0.08594412 -0.10281176 0.1185949 0.00965605 -0.22204643 -0.1882413 -0.27018633 -0.11956607 -0.055936944 -0.015151151 -0.07045674 0.019973367 -0.15001132 -0.16500789 -0.18348366 -0.08672177 -0.016378913 -0.06794538 0.0010283875 0.10483955 -0.32076287 0.0793728 -0.11954421 0.12648354
7544 0.113621466 -0.15564214 0.016842391 0.548744 0.101893626 0.013886548 0.007397508 0.9340825 0.024349485 -0.14522661 0.073105 0.13385342 -0.021318717 -0.05535846 -0.7494558 -0.0825025 -0.0051213065 -0.04337734 0.06761533 -0.12525658 -0.020012513 0.007720544 0.17559822 -0.18524146 0.068325385 0.002064789 -0.21454401 0.03338354 0.1439355 0.10345811 0.15788187 0.0664608 0.15608814 -0.12606841 -0.012525083 -0.0058948295 -0.009060751 0.020447344 0.14796679 0.14537667 0.013183551 -0.033938378 0.08434721 0.07391304 -0.14813612 -0.071599334 -0.17899573 -0.085753836 0.07350635 -0.0066220583 -0.07294726 0.022732435 -0.12114998 -0.008625605 -0.19292673 -0.11124269 -0.03839881 -0.118426464 0.027584553 0.16055013 -0.4011004 0.029346332 -0.021066936 0.090711646
21851 0.054440513 -0.012445116 -0.25072646 0.62096256 0.015478043 -0.04937649 -0.017662441 0.7921775 0.06992517 0.05836386 -0.48722574 0.008196346 0.00067209674 0.010040563 -0.5234615 -0.15888008 -0.0107423095 -0.03339202 -0.073961936 -0.14933605 0.08534371 -0.08899132 0.36044896 0.021809813 -0.045398295 0.06544039 0.0059471927 -0.05325938 0.14759941 -0.049691346 0.0205437 0.019693675 -0.10773571 -0.16157071 0.049751062 -0.019289084 0.095700726 -0.06286688 0.17039847 0.17194355 0.21962331 0.00033341438 0.0879881 0.07049465 0.0723253 -0.016418578 0.09596621 -0.11483117 -0.021682102 0.09604231 0.15089385 -0.02261084 0.1664566 -0.115784034 0.23774591 -0.12152384 -0.01705166 -0.10264825 -0.22911234 0.12379482 0.10719015 -0.07725341 -0.11344922 0.17188416
2507 -0.023269616 0.13419567 -0.35676578 0.71984345 0.038841024 0.035696488 -0.076560415 0.8307665 0.09818667 0.10502985 -0.57098234 0.091892175 -0.02800048 -0.09198018 -0.48186007 0.005230296 0.031626884 -0.06474343 0.037715524 0.00770807 0.09826667 -0.13269092 0.28813204 0.07016748 -0.039681092 0.032406215 -0.03617048 -0.16326663 0.08974555 -0.02959614 0.038716167 0.16952106 -0.13589358 -0.14837925 0.12336342 -0.027095212 0.04322464 -0.12016002 0.007424923 0.13713934 0.13327219 -0.12510507 0.03963642 0.007027331 -0.00053563475 0.010049669 0.12706754 0.043928634 -0.16860826 0.07983163 0.19256134 -0.063837335 0.1559575 -0.12714325 0.32226178 -0.04955666 -0.095394306 -0.06490183 -0.22735368 0.121616304 0.042623524 0.027321707 -0.10811904 0.10650929
17626 0.16414745 0.14859416 0.080955856 0.66814035 -0.01746964 0.10187686 -0.027027383 0.7730199 -0.18594779 -0.04960472 -0.19127415 -0.025981085 0.2020459 0.071211636 -0.6675695 -0.22371762 0.030304423 0.10052845 -0.061234653 -0.16444263 0.055233624 0.12622117 0.08801501 -0.10752257 0.14915873 -0.12972666 0.09354303 0.087753795 -0.012116035 0.12175806 -0.053575996 -0.15755224 0.028676495 -0.1486468 0.031021357 -0.015179432 -0.021344563 -0.041728426 0.21072002 0.025034133 0.011817317 0.11987907 -0.055033553 -0.12548855 -0.25134918 0.120897256 0.10207582 -0.13103159 -0.059420884 -0.067571886 -0.1091059 -0.25138128 0.1008578 -0.01597445 -0.016464533 0.0019750474 0.0875064 -0.08345024 0.16152468 0.21771078 0.054447904 -0.05130888 -0.110777125 -0.047135312
13045 0.17008916 0.20871873 0.14884312 0.6603383 0.043345094 0.08378457 0.0065308292 0.80864024 -0.29437953 -0.062574595 -0.21015766 -0.08839866 0.23514967 0.08527489 -0.5966886 -0.25196937 0.047546387 0.059896212 -0.16150309 -0.17433941 0.09700533 0.15029559 0.07391644 -0.11724997 0.16385992 -0.11404301 0.134363 0.040577743 -0.023460941 0.1677033 -0.025729405 -0.18062112 0.026369976 -0.09004629 0.000935357 0.042558417 0.054049786 -0.06887443 0.22823241 0.0036013352 0.030575985 0.16722491 -0.037670903 -0.118987896 -0.25432438 0.11757349 0.10394418 -0.12089739 -0.035687532 -0.06417902 -0.074344285 -0.3009022 0.11798399 0.01482257 -0.06450753 0.01060127 0.14221264 -0.09141859 0.16679186 0.31891805 0.07310596 -0.027756695 -0.16511652 -0.02094073
21486 0.31352428 0.04441709 0.05519959 0.47214943 -0.43183586 -0.109464504 -0.11442311 0.8526301 -0.090678 -0.114907496 -0.08293058 0.06311722 -0.116374634 0.11660069 -0.689787 -0.1618038 -0.075980976 -0.115017556 0.05025828 -0.029575739 -0.0069004633 0.4215918 -0.03781904 -0.089623064 0.045359693 -0.0933444 0.06466601 -0.12854661 0.07418022 0.060073234 0.094184816 -0.12112324 0.019716963 -0.09993438 0.049689896 -0.21578628 0.15088588 0.006765568 0.16561414 0.19025251 0.06647101 0.005834294 -0.0076439036 -0.27640873 0.03171064 -0.0058378 -0.12614103 -0.030125847 -0.053615123 -0.2026094 0.04815667 -0.123451725 0.03343696 -0.11010231 0.19889736 -0.15354219 -0.0105382735 -0.016609045 -0.06552208 0.02549742 0.064248465 0.011217448 0.07770849 -0.03307267
9794 0.31792125 0.1652146 0.054747835 0.40292397 -0.60010237 -0.09782401 -0.0900364 0.78450835 -0.10267458 -0.14865303 -0.11420206 0.013052379 -0.16044949 0.18424676 -0.6763813 -0.0905552 -0.030416245 -0.1062843 0.07507249 0.07113424 -0.027342655 0.4966625 -0.030652398 -0.13405116 -0.007564594 -0.1283646 -0.011044877 -0.13133912 0.10175749 -0.031397577 0.12192313 -0.097229116 0.012063283 -0.11321385 0.041948278 -0.2203437 0.1600151 0.05204055 0.24407525 0.17582019 0.16689819 -0.018527223 0.014072742 -0.30581796 -0.045912296 -0.007903416 -0.21597789 0.08386427 -0.07195685 -0.17119499 -0.031457588 -0.16833816 0.090450026 -0.06439321 0.16511077 -0.069066316 -0.068653755 0.008383884 -0.04008728 -0.0007502627 0.08944762 0.040893994 0.076409474 0.024140436
