3617 64
14794 -1.7678542 0.096951455 0.08707594 0.004200779 0.30008355 0.14107388 0.3090028 0.06826765 -0.35045135 -0.0569824 -0.1431752 -0.072546795 0.042608 -0.2817023 -0.07474209 0.17381215 0.27848804 -0.17330183 -0.39825904 0.2279008 0.18725772 -0.3096091 -0.11461548 0.093557484 -0.21084577 0.18293296 0.0017474989 -0.044349693 0.17130935 0.122914985 -0.23165187 0.036244016 -0.22623082 0.5476815 -0.09572897 0.07492575 0.17917979 -0.15731646 0.0063986415 0.065655805 -0.006056309 -0.40868828 0.19814365 0.100004524 0.09152965 0.32357836 -0.049966443 0.36670762 0.115548365 0.019106556 -0.041379463 -0.40520328 -0.09163568 -0.027232477 -0.088110715 0.1334153 0.11309225 0.31199166 -0.05575776 0.034428846 -0.1361785 0.15797572 -0.1547479 0.16488755
2930 -1.7547565 0.106679834 0.10235724 0.022858579 0.30941138 0.1315701 0.30647403 0.064362116 -0.30649635 -0.05036444 -0.09782862 -0.1087278 0.08948985 -0.2867024 -0.088694386 0.06597141 0.28859285 -0.12955962 -0.39788553 0.15378335 0.17816313 -0.28618494 -0.06265209 0.066885225 -0.115547344 0.18052967 -0.007993198 -0.05878719 0.17837577 0.10716366 -0.19406453 0.038376223 -0.20313749 0.55609727 -0.053033713 0.059628364 0.19981827 -0.16295196 -0.023040807 0.063947566 -0.047529705 -0.3782138 0.14903824 0.08925469 0.08654779 0.3100316 -0.025760528 0.3659304 0.07402931 -0.03800506 -0.082844876 -0.34686363 -0.14603859 0.0462624 -0.032044373 0.110121414 0.012384851 0.30074677 -0.019799612 0.012987038 -0.0368986 0.16815343 -0.1607423 0.29513228
15534 -1.7742875 0.10307788 0.09184482 0.032983053 0.40466112 0.25016943 0.36894694 0.0686584 -0.35617712 -0.12871967 -0.028699035 -0.22731179 0.16656487 -0.35420746 -0.006507715 0.02921647 0.275079 -0.011096432 -0.3502748 0.097955085 0.15705624 -0.21478465 0.01446167 0.07839946 -0.052319344 0.16468881 -0.104481146 -0.0599029 0.21713005 -0.09692239 -0.14313601 0.021846054 -0.1701682 0.56805444 0.12887774 0.10022566 0.28961372 -0.108456485 -0.067561105 0.053491283 -0.07246445 -0.27783152 0.1834986 0.09675751 0.009808551 0.33176726 -0.0024419453 0.27353293 0.25414935 -0.16347334 -0.05345678 -0.25363195 -0.14957483 0.0808673 0.014387846 0.25306377 0.031227972 0.23373178 -0.050353706 -0.007846683 -0.06169217 0.22664045 -0.20459624 0.3992662
37786 -1.6904838 -0.30295083 0.07948525 0.057920065 -0.02198843 0.11666888 -0.103112295 0.23362657 0.03889719 0.01979902 -0.041949686 -0.1463415 0.091106564 -0.22052816 0.021782858 0.008514859 0.04635537 -0.00062733755 0.018995322 0.06299079 -0.08758058 0.2701512 -0.064382024 -0.046267632 -0.15962866 0.013597048 -0.11641265 0.1473068 0.117702834 0.10351514 -0.15884784 0.043175522 0.16454309 -0.018570093 0.10723105 -0.31900352 -0.11044105 0.03607916 0.053555388 0.06579705 0.09008949 -0.03789041 0.21254554 0.19444127 -0.049065273 0.2984435 0.25574353 0.022952052 -0.07657487 0.07591958 0.0095386775 0.029595604 -0.24312823 -0.088017136 -0.27619737 0.07637517 0.12260495 0.0878388 -0.04344763 0.021904374 0.16659096 0.04575923 0.19360276 0.07919585
15546 -1.052653 0.210664 0.33837005 0.16951038 0.14791138 0.09340139 -0.17096658 -0.050249353 -0.047519594 0.029055169 0.06930409 -0.13116416 -0.008142814 -0.015412068 -0.037803326 0.03549038 0.042997018 0.20971657 -0.066251166 -0.08129119 -0.055547938 0.15588859 0.08816638 -0.05526704 0.24635717 -0.07184409 -0.053908207 -0.17974143 -0.33658737 0.08452442 -0.5507498 0.12404808 0.061200026 -0.019602083 -0.0034596182 0.2164793 0.09099198 -0.08406163 -0.17834322 -0.17748255 0.18510848 0.06283805 0.010121338 1.0636487 0.28630432 0.21622497 -0.23712464 -0.035971195 0.10576659 0.042474996 -0.004657036 0.075504705 0.0075905873 -0.093471535 0.27707213 0.10040762 -0.16822854 0.018295132 0.13285288 -0.41987932 -0.037331015 -0.025039908 -0.14060666 -0.13159192
6198 -0.9183421 0.17035408 0.22324723 0.31676045 0.14810106 0.13077278 -0.107868165 -0.1105778 -0.01649777 0.022816129 0.06467878 -0.068647474 0.024567926 -0.08004164 -0.04427285 -0.02210446 0.029036852 0.17771395 -0.003741092 -0.11360736 -0.044432048 0.09422596 0.02497621 -0.04316558 0.2040959 -0.06674974 -0.15396245 -0.10098405 -0.20679995 0.04056071 -0.69043916 0.107986994 0.015174077 0.09547189 -0.03241584 0.2503951 0.08627963 -0.01341262 -0.018107247 -0.18197104 0.18434413 0.14556092 0.0042554163 0.6505716 0.23880693 0.3328803 -0.11129341 -0.02496168 0.05036372 0.051439583 -0.15230073 0.07565648 -0.0041002827 -0.056930307 0.22871223 0.10248405 -0.18263355 -0.072974555 0.30299276 -0.8234667 -0.06893331 -0.10377647 -0.14156525 -0.14279027
15585 -1.4220847 0.13111521 0.2289918 0.03397657 0.07824042 0.11135668 -0.06234502 0.06700573 0.07175614 0.1740423 -0.16254768 0.18293628 -0.036899295 -0.00093857315 0.12846966 0.117508456 -0.06263438 -0.17149113 -0.0759863 0.029092148 -0.12719601 -0.26343426 0.054866154 0.02589706 0.3039936 -0.22498597 0.3985676 0.17015222 0.07453741 -0.09495279 0.20992596 -0.32690278 0.015584519 -0.10215701 -0.07254376 -0.12820561 0.09863268 0.1344398 0.13797045 1.0562106 -0.112386696 0.1430593 -0.17376283 0.10650958 0.26199812 0.23903996 -0.23217247 0.0028310488 -0.3429544 0.22402631 0.0855397 -0.2718686 0.034735717 -0.041328456 -0.078716464 0.23664194 0.17315292 0.008694002 0.13617598 -0.11642849 -0.13595094 0.3065916 0.13811791 -0.03806661
6634 -1.7983029 0.11978196 0.14280677 0.10850948 0.1262347 0.1212394 -0.16255255 0.13326073 0.0752188 0.25687584 -0.10450813 0.16778608 0.026657881 0.10133958 0.13130808 0.1866264 -0.007178583 -0.19538464 -0.0058989124 0.06793212 -0.22318573 -0.22014043 0.14130765 -0.06313168 0.2971219 -0.35951832 0.46830705 0.26570874 0.19691952 -0.07381263 0.025266044 -0.099326305 0.014065382 -0.12694453 -0.12846525 -0.20496406 0.038851496 0.100478746 0.040652946 0.253693 -0.18273194 0.1584078 -0.08892883 0.22732872 0.2364383 0.32514605 -0.2689065 0.04837388 -0.45927966 0.21380845 0.14351441 -0.33890614 0.21651353 -0.070576146 -0.086365774 0.3012699 0.2106101 0.031775225 0.1498819 -0.1000297 -0.11399496 0.3651105 0.120461114 -0.007809934
15509 -1.0086393 0.054877132 0.518298 -0.48654917 0.20704912 -0.15412106 0.0763752 0.06791059 0.019248191 -0.06799988 -0.1202338 0.08042153 0.022467371 0.1556589 -0.24560758 0.11807711 -0.14037253 -0.12453543 -0.10564008 -0.15990031 0.06262241 -0.28550753 -0.19109417 0.10645763 -0.094467476 0.20729893 0.060165484 0.00068852317 -0.07049743 -0.072547525 -0.041362476 0.0015760586 0.009066502 0.054417495 -0.053135134 0.20326227 0.14109585 -0.10780609 0.13627811 0.16056079 -0.25544915 0.15437618 -0.07640729 -0.39974052 0.59187657 0.6200938 -0.11177242 -0.016819242 -0.2995891 -0.003006494 -0.097113594 -0.08206766 -0.10118491 0.20021345 0.23787001 -0.01735166 0.040707365 -0.20688237 0.02052258 0.45509914 0.212794 -0.027208548 -0.031743914 -0.113639824
6063 -0.9802581 -0.033896532 0.5295281 -0.75971943 0.14193065 -0.12290686 0.0970439 -0.021492511 0.02111925 -0.011623377 -0.081378765 0.034957096 0.043059267 0.052101396 -0.20270747 0.067113176 -0.114925645 -0.058976457 -0.089977525 -0.15571098 -0.0055750553 -0.16518843 -0.06463242 0.03762516 0.017435648 0.14365461 0.009494319 0.016167061 -0.07740424 -0.029389003 -0.4995553 -0.0019890617 -0.0130131375 0.07720299 0.4112793 0.21632701 0.09582717 -0.06956287 -0.062092867 -0.03336045 -0.13142706 0.073741265 -0.08795683 -0.2846131 0.54665154 0.5590718 -0.037059862 -0.044180464 -0.16159075 -0.07370807 -0.0500009 -0.045894325 -0.06603582 0.09785506 0.2512005 -0.029090254 -0.00013225603 -0.13997342 0.08358404 0.7057947 0.03531152 -0.001412026 -0.02037684 -0.084121615
15498 -1.4462564 0.05642932 0.38457727 0.18120323 -0.5180064 0.05747925 -0.21852954 -0.16180418 -0.10926028 0.16034347 -0.011877891 -0.12804458 0.013883713 0.16844718 0.046848863 0.008329064 0.060109187 0.09938825 -0.258732 -0.02358741 -0.21591486 0.116736986 -0.016646044 -0.20879157 0.30413583 0.04819502 0.16821778 -0.13423486 -0.32153666 -0.058776304 -0.061137106 0.020850183 0.04170893 0.047611263 0.03754404 0.052027106 -0.1774328 -0.15004957 -0.26016662 -0.11259829 0.23934823 -0.31067544 0.14306998 -0.20261216 0.28557006 -0.10690722 -0.10982599 -0.08296784 0.16741337 0.028894335 -0.010152307 -0.27048895 -0.08922159 -0.114421204 0.011921472 -0.11558656 -0.105836526 0.19650902 -0.5684106 -0.25500932 0.039227046 -0.1959108 -0.067404345 0.17764793
12167 -1.6385788 -0.014457042 0.3256465 -0.0073609874 -0.58851373 0.035964813 -0.21116339 -0.071764864 -0.1765585 0.17262822 0.038813777 -0.01743117 0.0011103948 0.25750008 -0.0068588327 0.0365782 0.13389513 0.029463043 -0.17143261 0.014605186 -0.26887628 0.114550844 -0.0046365825 -0.27605662 0.25486243 0.16304263 0.06775426 -0.035186455 -0.22012942 -0.13361086 0.07716159 0.019495068 0.08611984 -0.021176435 0.06964285 -0.032855578 -0.2728738 -0.1288723 -0.13421898 -0.22202823 0.15009844 -0.26895246 0.18868826 -0.3545444 0.26475295 -0.7312441 0.015680734 -0.10346885 0.2400779 0.055579044 0.06276581 -0.29613373 -0.21178877 0.0058856313 -0.11876823 -0.037626844 -0.019521894 0.16959077 -0.31969613 0.07219413 0.051987443 -0.22086036 -0.115132526 0.2855627
15499 -1.4300344 0.08138985 0.4101807 0.15836447 -0.4231626 0.048846837 -0.09032646 -0.03391095 -0.16692753 0.18671519 0.013905019 -0.044531852 -0.009804535 0.17985052 0.034443572 -0.0061345864 0.01723317 0.046244945 -0.22412069 -0.0582266 -0.1619123 0.12001001 0.026126878 -0.2144171 0.18056026 0.111779466 0.13284539 -0.02613678 -0.24271442 -0.030604433 -0.07360555 0.0143130785 0.038328614 0.0013758197 -0.06965085 -0.017666716 -0.21764076 -0.14078988 -0.23528396 -0.12343423 0.18921505 -0.27022263 0.14365783 -0.12445338 0.33897918 -0.015626075 -0.054949958 -0.08252823 0.20591302 0.020150928 0.04167994 -0.19310907 -0.14858972 -0.024081562 0.032465685 -0.096984826 -0.023534313 0.12003091 -1.0110931 -0.2402419 -0.00433438 -0.16088717 -0.04747098 0.16813171
15397 -1.6565754 -0.0858901 -0.537323 -0.0068412847 0.24455765 -0.23518184 0.18294802 0.2991894 0.28873548 -0.053472515 0.05476214 0.29484057 0.23723528 -0.12733214 0.05482179 0.11598643 0.15319954 0.037495855 -0.19822112 -0.021415267 -0.3416112 -0.05011475 0.02303833 -0.2010582 -0.008314089 0.14442754 -0.20500277 -0.27714634 -0.39204872 0.19416204 0.043329544 0.15748459 -0.084148206 0.096201725 -0.05097959 -0.15396646 -0.07817215 -0.20520863 -0.6110432 -0.02961625 -0.1785064 0.086178966 -0.19845861 0.057747446 -0.1579761 -0.017540526 -0.116057575 -0.19475625 -0.17823139 0.27156112 0.5965394 -0.055856798 -0.20342782 -0.12683028 -0.01823354 -0.23518269 -0.14535755 0.14598371 0.1053816 0.09285959 -0.057961855 -0.11631063 -0.0153223565 0.14808439
3862 -1.2786436 -0.019739835 -1.2174649 -0.20821464 0.14038369 -0.10100507 0.18452576 0.06068164 0.17154269 -0.015034021 -0.020483246 0.15177086 0.21534468 -0.09273268 0.14320375 0.0075595547 0.057329446 0.058288313 -0.19990964 -0.08056388 -0.1732641 -0.14281936 0.020549703 -0.09743811 -0.006080507 0.112891056 -0.12562425 0.028909616 -0.31856877 0.10511622 0.33889493 0.050096724 -0.091053136 0.06072378 -0.06502249 -0.06645269 0.0123622455 -0.1524449 -0.8931641 -0.008090082 -0.1674515 0.01727296 -0.20509277 0.15986703 -0.016893514 0.4885067 -0.1410163 -0.1688129 -0.14666595 0.26355204 0.45131096 0.014325128 -0.18075499 -0.11414912 -0.0021908197 -0.23689272 -0.07979295 -0.0033485123 0.011179815 0.0880132 -0.15359946 -0.05490228 -0.089061424 0.11068231
15455 -1.7778159 -0.06167595 0.02346865 0.023191102 0.1796873 0.10656263 0.09761139 -0.13919665 0.025357112 -0.26667252 -0.013257005 0.3201211 -0.024621168 0.08597825 0.2704868 -0.26520386 -0.078874245 0.2263467 0.015284266 0.2182061 0.11824358 -0.03701571 0.2554894 0.16106793 0.0072101667 -0.36043513 0.045029264 -0.030386606 -0.50166744 0.10353809 -0.19583596 0.14208987 -0.08124531 0.28333518 -0.00072245713 0.012838761 -0.16147366 -0.02246759 0.07983914 0.108832195 0.20449422 -0.006879519 0.12222265 0.0014557707 -0.061404813 0.2821935 -0.10680771 0.13311613 0.017387325 -0.1256348 0.07215743 0.16316944 -0.13406368 0.18350473 -0.20744449 0.40040463 0.24945614 0.055417463 0.015023707 0.029236946 0.25894272 -0.5887636 -0.16751339 -0.1409619
4291 -1.7607601 -0.18628244 0.061266083 0.026405077 0.041321542 0.04683305 0.104446486 -0.107062325 0.060070667 -0.20726402 -0.08015567 0.41964176 -0.103969574 0.13568696 0.29761857 -0.19016916 -0.0049438872 0.3095 0.101830766 0.2803797 0.10420834 0.09950903 0.27558428 0.1561389 0.035324227 -0.45030826 0.012511888 0.1281583 -0.5239944 0.093248144 -0.21033368 0.0979371 -0.11239581 0.3365115 -0.05739565 0.06331441 -0.16082646 0.09035537 0.07583273 0.12711482 0.034234174 -0.010201404 0.14759307 0.03924441 0.041834857 0.27469504 -0.12808251 0.19717698 -0.07055928 -0.14370961 0.13477667 0.06227744 -0.04478281 0.20950378 -0.10022283 0.38558248 0.22242412 0.117411934 0.035918348 0.018209482 0.21608534 -0.45665377 -0.1258346 -0.061875544
15556 -1.7630394 -0.11838062 0.036619563 0.031853795 0.0062476667 0.13119619 0.06692014 -0.114466436 -0.021858936 -0.08650548 -0.12249723 0.45083642 -0.2593057 0.10583787 0.2495002 -0.27894977 -0.08621163 0.25826856 0.21811832 0.3794553 0.023198644 0.16861889 0.18507451 0.09166971 -0.14475487 -0.41204944 -0.035226602 0.088221356 -0.48837084 0.09381381 -0.23040926 0.05096515 -0.11270924 0.35394695 -0.002315063 0.07887991 -0.04278394 0.015433255 0.077178605 0.10163171 -0.0592999 0.03287007 0.18625301 0.19653428 0.083386876 0.27023315 -0.056059692 0.21924925 -0.07629839 -0.05886086 0.12907533 0.048657864 -0.038666006 0.2420291 -0.1069503 0.3707165 0.2751535 0.12213866 -0.015553884 0.013426965 0.16242045 -0.47010761 -0.0154474545 -0.12406246
15483 -1.7813747 -0.18693541 0.06598925 0.009629851 0.27306485 -0.2611893 -0.29442656 0.3757096 0.092296325 0.16247861 0.12783672 -0.016619844 -0.48064175 0.0026012012 0.14475416 0.2938705 -0.20782705 0.30238134 -0.15377834 0.07261879 -0.16682003 -0.0145392325 -0.035415288 -0.2982599 0.21542537 0.122003056 0.39551157 0.26929027 0.0850474 0.3324779 -0.23446621 0.060854364 0.09712227 0.09754796 -0.2378544 -0.103937425 0.13953583 -0.16987225 0.0011097742 0.1075238 0.304527 -0.26151136 -0.014672737 0.07345266 0.09170474 0.2758369 0.19191428 0.0022191678 0.18553187 -0.1817029 0.1603027 0.027267057 -0.027672958 0.023799758 0.02568218 0.07092372 0.12601785 -0.3607555 0.12862834 0.028229149 -0.48145553 0.040722802 -0.041844223 0.027322989
12156 -1.7759355 -0.20294978 0.07016749 0.0067732846 0.21088722 -0.21342602 -0.30881897 0.36852172 0.11762688 0.18168432 0.16619496 0.01865889 -0.44487783 0.013329477 0.12978278 0.2148393 -0.17574272 0.33616647 -0.14253485 0.12869585 -0.17428239 -0.08331041 -0.027928017 -0.30436367 0.19017473 0.13156094 0.3960657 0.251817 0.07380575 0.29659957 -0.21168894 -0.0009247147 0.06046146 0.089178786 -0.17520888 -0.0746621 0.17458834 -0.158544 -0.016313817 0.10635064 0.29192507 -0.25629386 -0.0161707 0.08346826 0.119888715 0.29161087 0.1840401 -0.011209198 0.16635886 -0.19877288 0.15561019 0.02828002 -0.069757104 0.052023437 0.065249026 0.02894951 0.109892696 -0.29489765 0.15183578 0.035485227 -0.42370394 0.10334598 -0.04088787 0.06495228
15533 -1.7895286 -0.26609465 0.052345745 -0.006614087 0.16079065 -0.26186162 -0.36401993 0.3523746 0.089229055 0.20647402 0.21303698 0.073297665 -0.48419872 0.042023823 0.1155219 0.18130319 -0.08324361 0.27963474 -0.19620356 0.1535975 -0.18712154 -0.10179108 -0.04251076 -0.3299345 0.21200228 0.120225586 0.46699092 0.2972356 0.037325602 0.32977173 -0.23723774 0.03782482 0.041241452 0.12589611 -0.1508451 -0.04283083 0.13924754 -0.14831914 -0.04167991 0.08482588 0.3350294 -0.27822816 0.025127338 0.14005467 0.082453884 0.28749192 0.21174264 0.045408677 0.15195733 -0.2049589 0.13481507 0.075186096 -0.09781129 0.10144564 0.10934294 -0.06188473 0.032466915 -0.21455067 0.23335633 0.047451586 -0.45453012 0.04830713 0.03559963 0.11159649
15456 -1.7887344 0.21154651 0.120543525 0.021633988 0.24728307 -0.14765733 -0.30036396 -0.22913057 -0.13494317 -0.49049315 0.08578291 0.46805727 -0.013639387 -0.10793249 -0.2543029 -0.30393887 0.14129275 -0.3366938 -0.12799121 -0.050938312 0.09827303 0.12365223 -0.47899142 0.0382258 0.31137177 0.008527656 -0.06647474 0.19202739 0.071436055 0.11268121 -0.16042599 0.08843582 -0.06343808 0.06337937 -0.13355416 -0.04499235 -0.26760986 0.07004356 -0.050482016 0.041649133 -0.0025410182 0.024120282 0.01834215 -0.017982168 0.009625196 0.28608218 -0.11449898 -0.11911549 0.23110345 -0.100244716 0.061182927 0.34252676 -0.2708414 -0.21328092 0.024029844 0.13659321 -0.28673005 0.011657215 0.009371095 0.013612708 0.17148054 0.3432968 0.22150317 0.013804511
12177 -1.7738165 0.076688714 0.10967836 0.0057243244 0.32648188 -0.15366988 -0.39238045 -0.32000455 -0.1239171 -0.41949284 0.21730833 0.39813843 -0.016047565 -0.05858307 -0.23831625 -0.28262603 0.13602334 -0.36633253 -0.1680427 0.040782437 -0.022159498 0.10453269 -0.38072366 0.16174692 0.34754193 0.015146453 0.075472906 0.2457155 0.034751475 0.085107 -0.19718276 0.0752768 -0.02764317 0.054118462 -0.061783627 0.008232117 -0.3189136 0.090001404 -0.026854413 0.09742642 0.0030727999 0.032486845 -0.06296472 -0.022748265 0.033704054 0.29896387 -0.025068726 0.038030814 0.21996617 -0.072226085 0.055119712 0.22833218 -0.24242307 -0.22000581 -0.0718678 0.077598386 -0.22195457 0.0231676 -0.05883914 0.03839997 0.18792956 0.28989667 0.23225091 0.14962594
15575 -1.7660822 0.053358804 0.11560538 0.016236706 0.19475247 -0.23098816 -0.43799305 -0.16536056 -0.097942315 -0.4001687 0.35546893 0.37002787 0.09005022 -0.12567388 -0.1150236 -0.37192234 0.12778462 -0.3362006 -0.32319656 -0.02755542 0.025920764 0.19858585 -0.27699983 0.05281582 0.3200116 0.13714822 0.06771533 0.19924906 0.019899363 0.022219718 -0.16805819 0.02903508 -0.024023863 -0.020758592 0.17559633 0.143117 -0.049628038 0.114457436 0.0023989452 0.07015451 -0.067975484 -0.07358733 0.08053314 -0.026921077 0.014704855 0.314086 -0.07886836 0.01924978 0.13742942 -0.008014851 0.089014605 0.1611231 -0.4286471 -0.27885693 -0.123122856 0.26515347 -0.18697448 -0.05275979 0.05978261 0.014567649 0.081017554 0.3561403 0.3476312 -0.010883164
15367 -1.784203 -0.32148057 0.117406726 0.018098278 -0.057758432 0.18485379 -0.16074082 -0.21245624 -0.17611395 0.30592716 0.2698659 -0.11299842 -0.06527059 0.4402927 -0.120987736 -0.13913468 0.38970128 -0.008173915 -0.19561337 0.34724894 0.36224833 0.08287632 -0.060905118 0.013423318 -0.4065763 -0.01200596 -0.08973315 -0.22070691 -0.19081564 -0.08546792 -0.21272248 0.013014024 -0.29986802 -0.37310824 -0.05064391 -0.044752326 0.21206659 0.15893318 -0.008641759 0.06623723 -0.24102503 0.02104413 0.17671938 0.09869848 0.047270335 0.28022537 0.16193151 0.06979432 -0.25131145 0.07929384 0.1278936 0.066165626 -0.24554142 0.065616794 0.23433354 0.2033902 0.03840818 -0.23318306 -0.042063206 0.011596552 -0.32495892 0.012235854 0.25121263 -0.2270079
6167 -1.7861077 -0.35065672 0.074777275 0.026459282 -0.06846875 0.2163343 -0.13422576 -0.17471567 -0.15098456 0.28400517 0.26139858 -0.13859458 -0.05485797 0.3852777 -0.11352209 -0.15196578 0.3819488 0.020531014 -0.14103687 0.22704312 0.39294863 0.055804793 -0.022874426 0.033064052 -0.39365163 -0.016399879 -0.063624464 -0.19880357 -0.2396482 -0.028957183 -0.19819991 0.048387226 -0.35202807 -0.36603525 -0.09621837 -0.02625741 0.16640685 0.18896699 0.01927186 0.05626308 -0.22949964 0.013054268 0.18495224 0.08999312 -0.011265758 0.28381404 0.13797995 0.1316351 -0.264122 0.011053354 0.087663874 0.022084296 -0.24224709 0.08275449 0.20620446 0.16166013 0.02084985 -0.2188005 -0.01636246 0.014888781 -0.3325612 -0.051857095 0.23152848 -0.17788742
15469 -1.4366599 -0.33085793 0.10616975 0.22754513 0.11979553 0.28441328 0.17416315 -0.21299335 -0.09416462 -0.118956335 0.08014357 0.044102363 0.09337105 0.02208802 -0.13987292 -0.03876636 -0.362279 -0.111612044 0.2911844 0.12966764 -0.15235177 0.14050294 0.2756448 -0.014114468 -0.2924112 0.34240597 -0.25325215 0.11998645 0.18143004 0.18806525 -0.50016737 -0.14455767 -0.10593764 -0.05873632 -0.025104446 -0.03540326 -0.17139424 0.026504947 -0.09683289 -0.14725287 -0.15871125 0.14688666 -0.08171633 -0.10442609 0.6762629 -0.20885819 -0.25998813 -0.09925911 0.041121557 -0.2673575 0.1282324 0.05549417 0.07939659 -0.15417251 0.10286653 -0.0047112787 -0.02802144 -0.14487337 0.29119593 -0.34462425 -0.16535029 -0.072918065 -0.033980753 0.18805043
3598 -1.7649324 -0.25280017 0.12611149 0.029479604 0.16424602 0.34468707 0.22916871 -0.3358536 0.048358537 -0.16430824 0.038378596 -0.035414923 0.122849815 -0.07388099 -0.13691281 -0.07774353 -0.48941842 0.07521566 0.14706135 0.14083546 -0.15092763 0.1739738 0.29044294 -0.011105809 -0.28954586 0.36482206 -0.29773468 0.159009 0.17909294 0.24982826 -0.26342776 -0.19155459 -0.10873448 -0.109909534 -0.20918952 -0.028052462 -0.20722023 -0.05936694 -0.08543901 0.04150608 -0.20718797 0.071043044 -0.12621644 0.102270514 0.4706008 0.28564167 -0.33408695 -0.147081 -0.12626256 -0.2983139 0.015538579 0.019898262 0.048985437 -0.27005234 -0.026358787 -0.015439215 -0.003766974 -0.17942025 0.040590443 -0.0014260459 -0.13494006 -0.1821067 -0.035546318 0.20320633
15377 -1.7760156 -0.16341068 0.11586612 0.011821582 0.1838799 0.40568563 0.2752238 -0.37493354 0.14152735 -0.0729556 0.018800328 -0.0893414 0.08243802 -0.10333975 -0.16408704 -0.06806525 -0.5106225 0.09865095 0.10471151 0.09453926 -0.18751435 0.12526834 0.25289205 -0.008562536 -0.33733225 0.31022987 -0.24839713 0.08275425 0.23518175 0.29123262 -0.19741893 -0.20757185 0.0029175428 -0.15378845 -0.2902579 -0.031138005 -0.25189784 -0.13245526 -0.10195075 0.025790064 -0.21780166 0.04435908 -0.10170996 0.18091235 0.41723257 0.34946236 -0.37325513 -0.11617489 -0.17022683 -0.34189576 -0.018009799 0.018226976 0.075405106 -0.26112252 -0.0784489 0.020723691 -0.039255805 -0.19916958 0.014831245 0.02298299 -0.1197903 -0.16383028 -0.031188853 0.26320532
15542 -1.8240597 0.06293539 0.12476953 0.020010667 0.04791765 -0.2590789 -0.02873522 -0.083356924 0.13569091 -0.00918603 -0.114767425 0.46400517 -0.05544176 -0.23490937 0.085136056 0.04655407 0.29787555 -0.084724754 0.44044426 0.17968908 -0.070440136 0.15672302 -0.02403781 -0.5399762 -0.07955835 0.37977964 -0.15235811 -0.19702622 0.15493537 -0.1274471 -0.19171323 0.11700387 -0.21684632 -0.22092485 -0.17383063 -0.06822396 -0.13945302 0.27307525 0.059087597 0.04062116 0.046799906 -0.02361087 0.19758311 0.08639411 -0.024461018 0.23193882 -0.11847136 -0.07149288 0.18517387 0.045331787 0.098494396 -0.2761596 0.29260755 -0.11384889 -0.0546426 0.0040316647 0.5320317 0.5175954 -0.14449151 0.029255554 -0.014580344 0.23838751 0.13039441 -0.27253702
5976 -1.799662 0.15285178 0.096800014 0.038910586 0.06027239 -0.36147955 0.0025160334 -0.098958835 0.19443908 -0.02121609 -0.04077505 0.38742793 -0.0004482921 -0.33228162 -0.02790716 -0.018581185 0.28137377 -0.1050992 0.31706667 0.19442013 -0.07825509 0.09039033 -0.040021487 -0.51361316 -0.07180974 0.3283818 -0.12759088 -0.099593595 0.17524812 -0.08320818 -0.2055059 0.17767958 -0.23301725 -0.2401838 -0.11133447 -0.09521513 -0.098729946 0.22574235 0.07201115 0.039085623 0.114300884 -0.015632397 0.1559183 0.07489269 -0.023683334 0.2736049 -0.13774404 -0.03866839 0.20032395 -0.011343637 0.1303482 -0.30362388 0.2561932 -0.07250464 -0.069586284 -0.004364843 0.513127 0.47589296 -0.18355025 -0.0031999717 0.017810548 0.16800621 0.06810126 -0.23370583
15398 -1.7908626 0.002566743 0.083010726 0.0153432675 -0.1269658 0.16997838 0.13200636 0.27092654 0.2923373 -0.05883042 -0.08037087 0.07503921 -0.09271567 -0.22712941 0.13305336 -0.0025102259 -0.022038199 -0.07266098 -0.20445423 0.3382139 -0.17286837 0.059271988 -0.012571087 0.3636843 -0.10937088 -0.0537708 -0.29575709 -0.053211324 -0.2083674 0.14644259 -0.18187387 0.124124266 0.04016696 -0.27690083 -0.15593892 0.06272986 0.4829704 -0.22769612 -0.057364464 0.07353149 -0.28814852 0.42972326 0.23397346 -0.025882637 -0.066086486 0.31779566 0.30621177 0.21727489 0.043384723 -0.22695138 -0.11839634 0.35255763 0.43504468 -0.32189417 0.03257617 0.06818885 -0.32134804 0.06877081 -0.016633924 0.024391232 0.29449505 0.14651817 -0.11594821 0.08572256
6148 -1.8051552 -0.06525647 0.11894697 0.046801705 -0.12923215 0.1517556 0.066440426 0.25842607 0.3305514 0.0050740736 -0.009041485 0.10043372 -0.10253975 -0.179304 0.13174377 0.052647747 -0.036919475 -0.047375493 -0.2270969 0.3019958 -0.05612755 0.045411352 0.025936283 0.27745932 -0.085073926 -0.021916931 -0.2527853 -0.08851363 -0.21282034 0.14740096 -0.14171578 0.13022509 -0.027513318 -0.20108213 -0.042425755 0.12159349 0.4738888 -0.24236174 -0.084528595 0.09563453 -0.25292704 0.40056852 0.19638786 -0.038961504 -0.12353946 0.3097385 0.35945904 0.24020506 0.04787158 -0.14756715 -0.06925511 0.36589316 0.4094934 -0.30817363 -0.035838846 0.0938034 -0.29274917 0.051332816 -0.039401844 -0.0066495184 0.34209812 0.15795662 -0.13924079 0.08152396
15596 -1.7571906 0.31614393 0.14778772 0.04133484 -0.19270264 -0.18784687 -0.19168347 -0.423718 -0.4956537 0.1318517 -0.09193107 -0.049505178 -0.3015738 -0.14226586 0.11196726 0.08891734 -0.25239584 -0.028993575 -0.2617331 -0.025052853 0.009613534 0.017448246 0.12785141 0.32837555 -0.024069631 0.22875349 -0.14358073 0.07975419 0.16345505 0.050721437 -0.12236337 0.07727084 -0.39949587 0.04073854 0.08898267 0.004397966 0.11121864 -0.07031274 -0.035529796 0.063634865 -0.27009103 0.14255802 -0.018156834 0.14591935 -0.1528459 0.34484 0.118644215 -0.13446683 -0.2128144 0.037138544 -0.07597809 0.019205388 -0.36161435 0.34539044 -0.16976492 0.26284024 -0.10732709 -0.25753373 -0.026539795 -0.017507149 -0.15573509 0.061691802 -0.21458331 -0.42388627
6650 -1.7798605 0.31938925 0.14312845 0.042689588 -0.10620617 -0.16772236 -0.12782784 -0.4287367 -0.44674972 0.08478755 -0.08609346 -0.02160871 -0.30110234 -0.12228678 0.15700498 -0.028396085 -0.22599457 0.01983997 -0.26094735 -0.011731988 0.021030888 0.045356665 0.11112348 0.38182834 -0.011516205 0.22660698 -0.108158685 0.06736053 0.15722571 0.043609913 -0.104951 0.047948714 -0.3823804 0.044826437 0.046192523 0.04048232 0.14817744 -0.048748333 -0.024123821 0.05760064 -0.2902391 0.16895609 0.006686174 0.18488894 -0.16215314 0.35624456 0.13807338 -0.0844879 -0.21486676 0.006582614 -0.12836805 -0.016809708 -0.32586935 0.37296453 -0.17479081 0.22044957 -0.110736445 -0.26690355 -0.040651392 -0.006578632 -0.19922788 0.052477177 -0.19626778 -0.40506265
14943 -1.774875 -0.1598355 0.042415947 -0.0029747705 0.09149335 -0.16320066 0.045152254 -0.16410074 0.10362096 -0.14555009 -0.25222182 -0.025644673 0.25431848 -0.04029729 0.433731 0.004647996 0.07079994 -0.0040648794 0.198395 -0.17800492 0.025035372 0.017171646 -0.23610266 0.03045177 0.121565625 0.34811696 -0.10406069 -0.21107252 -0.11340753 0.02032548 -0.2545567 0.009171639 0.16490996 0.13427342 -0.16389011 -0.054789152 0.34057626 -0.19596285 -0.06413405 0.12820143 0.3236357 0.04239287 0.23722014 -0.14591767 0.16671242 0.24270566 0.026325367 -0.35952494 0.054472525 0.32857376 0.17336108 0.045595434 -0.05152646 0.3734497 0.16777727 0.17849477 -0.17506966 0.02906237 0.020599801 0.044255592 -0.3732448 -0.27609634 0.47824863 0.142426
5998 -1.7835165 -0.15169975 0.04461738 -0.0019095809 0.07975893 -0.1938309 0.04650536 -0.13651305 0.08093394 -0.12746038 -0.23584576 -0.039995324 0.23586072 -0.05472712 0.414633 0.010662593 0.046714284 -0.022857828 0.22348115 -0.17521419 0.04843313 0.045038585 -0.24102534 0.046594054 0.14676833 0.31370693 -0.13522942 -0.19438507 -0.09001602 0.005361005 -0.24478413 0.0020410437 0.18179779 0.113492966 -0.15384255 -0.106206104 0.31632978 -0.20961198 -0.045297362 0.11324616 0.3473306 0.054710593 0.23011822 -0.12428234 0.14477155 0.2320376 0.026057692 -0.37850556 0.050742015 0.3124439 0.16365474 0.06793016 -0.044435702 0.37188086 0.19844612 0.14089976 -0.17243657 0.050070923 0.026205853 0.051647756 -0.36277887 -0.26531133 0.45242083 0.10896794
15559 -1.7859974 -0.13456932 0.08444419 -0.0036675553 0.12026422 -0.17390026 -0.017780755 -0.13093504 0.059622064 -0.18040717 -0.19425377 -0.04271023 0.27836078 -0.062996015 0.43084848 -0.016938562 0.04404425 -0.054905396 0.2630944 -0.2617175 0.11687396 0.058229014 -0.22423097 0.06359022 0.18265975 0.3059038 -0.13344033 -0.16821525 -0.07555031 -0.04024818 -0.22922206 0.04246763 0.20472363 0.12507086 -0.1571301 -0.074374 0.32159826 -0.20494296 -0.023558905 0.0877122 0.39047852 0.08283001 0.23526703 -0.079640105 0.09055858 0.24153192 -0.0040715686 -0.44922185 3.5370722e-05 0.3421278 0.11678189 0.094634674 -0.0223776 0.32279894 0.16222207 0.15544035 -0.24784024 0.004291973 0.012079944 0.048750173 -0.36936715 -0.34575137 0.45315638 0.10072399
15458 -1.7808007 -0.12442642 0.1559358 0.017129106 -0.33497268 -0.23287831 0.010147165 0.10245594 0.35912424 0.1948784 -0.34347925 -0.19939741 0.002007188 0.27514446 -0.36057785 -0.23519357 0.03317597 -0.30973002 -0.1172177 -0.13479005 0.01868277 -0.1429622 -0.04079169 -0.1015351 -0.2849565 -0.12152475 0.109758824 -0.047923762 -0.22604908 -0.08095657 -0.116684854 -0.074013166 -0.031087844 0.17529088 -0.08940666 -0.29072765 -0.08072471 -0.03731324 -0.100819394 0.042620704 -0.35244277 -0.16588631 -0.19707799 0.33004585 0.09963762 0.36090568 0.17712837 0.2553591 0.27348405 0.15551655 0.35530588 -0.004843695 0.10049866 -0.18844084 0.044059593 0.30406526 0.026032731 -0.24331029 0.06499954 0.009084527 0.32318956 0.16315906 0.059793126 0.066259526
13501 -1.7786418 -0.1271298 0.15672308 0.022194542 -0.31869534 -0.24027522 0.018894393 0.088754386 0.35140705 0.16717316 -0.3499053 -0.19799362 -0.033165235 0.26536638 -0.33233678 -0.18889181 0.05736211 -0.2998691 -0.11935946 -0.14770916 0.009180496 -0.12847744 -0.02737458 -0.076726004 -0.26378986 -0.11927563 0.14047286 -0.02605015 -0.2145465 -0.07970375 -0.11020167 -0.051821224 -0.042114258 0.17304355 -0.091019265 -0.28244272 -0.105725095 -0.020451562 -0.09861829 0.058300942 -0.3328043 -0.1653324 -0.19547504 0.31634474 0.11291259 0.35816082 0.13887773 0.24070938 0.21859165 0.14945582 0.32095873 -0.00036048878 0.06718152 -0.18959408 0.05084885 0.27460992 0.04520384 -0.2524698 0.0673083 0.011344637 0.30907714 0.147633 0.041284934 0.0599606
15391 -1.7526064 -0.12973665 0.13834152 0.029562376 0.12524621 0.34499347 0.0042875516 0.10665704 -0.076032475 -0.11773235 -0.24320462 -0.0018885593 -0.15171814 0.23718794 0.024406243 0.29889014 -0.1888355 0.3923557 0.09150445 0.15987624 -0.24659896 0.069639586 -0.3569405 -0.12482835 0.16962473 -0.036158312 -0.06544667 0.029145421 -0.10207349 -0.23235482 -0.12121678 -0.006906521 -0.3775069 0.03437523 0.049947463 -0.03446359 -0.006348039 -0.06437266 -0.086777605 0.05889697 -0.5380439 -0.05621692 -0.10513276 -0.1927777 0.030190308 0.33206427 0.10313451 -0.18370463 -0.106291264 0.39561516 -0.23932676 0.2848121 -0.10609331 0.133227 -0.18193384 -0.027332814 -0.14029007 0.1075656 0.0043426724 0.007952315 -0.18083748 0.35120475 -0.19941778 0.020338478
6387 -1.7742144 -0.15690657 0.17093353 0.025160125 0.14465171 0.37269503 0.012520458 0.122313716 -0.09839806 -0.12961672 -0.25090227 -0.05776471 -0.16726302 0.24523091 0.031627353 0.30641693 -0.16158108 0.42350644 0.0857071 0.20130591 -0.24055213 0.09646527 -0.4220065 -0.14615981 0.17167175 0.0026027174 -0.05877601 -0.02933056 -0.16984679 -0.24116673 -0.109033205 -0.008191894 -0.3689914 0.039194245 0.07205193 -0.005401881 -0.027656076 -0.06843322 -0.11685734 0.034266435 -0.5518551 -0.02965649 -0.074672826 -0.19343328 0.043922067 0.34559914 0.083805285 -0.19888413 -0.04707604 0.44633603 -0.2699626 0.27485934 -0.13002473 0.13370015 -0.16085428 0.046746727 -0.106365755 0.14184017 0.004667106 0.008796607 -0.22590297 0.32430124 -0.22066504 0.06332935
15595 -1.7429392 -0.15636058 0.14709586 0.024827924 0.1370258 0.35951415 0.002464833 0.09241899 -0.03285281 -0.07188811 -0.21813282 -0.02403873 -0.18413332 0.25459555 0.006556075 0.34618053 -0.16646242 0.39128697 0.10447275 0.24605782 -0.21871106 0.08433292 -0.34054086 -0.1572337 0.19991864 0.035021897 -0.05648996 -0.023748195 -0.1648492 -0.25191116 -0.13661617 0.022923227 -0.33928126 0.03589559 0.065395266 0.016034901 -0.023846503 -0.060206745 -0.11278758 0.036631197 -0.54319197 -0.007987633 -0.06881716 -0.12586875 0.0076044416 0.3255584 0.061457146 -0.17282821 -0.018239448 0.39136004 -0.19695133 0.25231603 -0.18685055 0.12592363 -0.12090203 0.033890888 -0.08495056 0.14949451 0.01231556 0.009731602 -0.22700693 0.29103383 -0.26911002 0.037193853
15500 -1.7919915 -0.39137393 -0.026495803 -0.008895357 -0.14799114 -0.18955576 0.0069366186 -0.19512905 -0.28156543 0.15410249 -0.36478692 -0.40440065 0.26677635 -0.21153322 0.14978115 0.33148485 -0.0543962 0.2943219 0.14379281 0.14814243 -0.007943875 0.13730228 0.060406968 0.025196008 0.2698905 0.052474078 0.013142822 0.24490379 -0.23654518 0.068757206 -0.3425654 0.005925544 -0.2544923 -0.21349439 -0.3294006 0.24967037 -0.15324785 0.10935261 0.053138793 0.12039429 0.3483233 0.27349436 -0.18374932 -0.15254867 0.12239746 0.26313013 0.10248588 0.27509367 -0.019891724 -0.17147999 0.0026057044 0.171565 -0.08668089 -0.31239057 0.026849117 0.09219322 -0.1637458 -0.27037054 -0.091656506 0.06600274 0.022661086 0.33370247 -0.1210875 -0.14251798
6177 -1.7830106 -0.3990944 0.0374536 0.017802384 -0.08441344 -0.0883121 0.042399377 -0.2115176 -0.20865086 0.27792174 -0.39572576 -0.409868 0.29450464 -0.113236204 0.12924339 0.28683618 -0.16304995 0.27082315 0.18115266 0.15896097 0.056447785 0.06701804 0.08251999 -0.045361757 0.26605073 0.031968098 0.050744295 0.17776595 -0.13515675 0.08318536 -0.2584689 0.019137213 -0.31016812 -0.2580183 -0.36513934 0.21948865 -0.16376266 0.10598072 -0.033935923 0.12805822 0.35288134 0.24407274 -0.18159612 -0.08743519 0.15166362 0.25917193 0.16445786 0.30503637 0.010546061 -0.15097542 -0.03377554 0.22062878 -0.12099149 -0.3579941 0.058895573 0.083673455 -0.035486955 -0.20649262 -0.06610469 0.031435136 0.0064822305 0.2596318 -0.06351535 -0.09843417
15448 -1.7857901 0.002488517 -0.0063159578 0.0347273 -0.5393379 0.078009106 -0.52010405 -0.059381247 0.20173298 -0.043784227 0.34773666 -0.08846074 -0.026763728 -0.037939925 0.12220742 0.4638077 0.019632658 -0.09353251 -0.106053285 0.06913417 0.13245343 0.19002394 -0.038264383 0.13777229 0.027903063 0.12645897 0.14151125 -0.4731861 0.33787 0.2655456 -0.24493757 0.08402208 -0.020483173 0.21857245 -0.024939036 0.18640506 -0.100175254 -0.20969701 0.0696416 0.098705515 -0.13332972 -0.058692027 -0.056939736 -0.038453326 -0.11395878 0.25892597 -0.1620244 0.34236625 -0.3461266 -0.13923001 0.27811044 0.114131555 0.12406181 0.3748228 -0.058249727 0.15690555 -0.16045742 -0.13780774 -0.1056363 0.011633097 0.02981309 -0.14565371 -0.010025442 -0.00022987518
6370 -1.7682592 0.04420994 0.049273286 0.020811388 -0.46495724 0.031491578 -0.5083483 -0.059041247 0.29131564 0.045494746 0.26504996 0.0039707986 -0.007560243 -0.008604186 0.071984224 0.3617416 0.008010501 -0.105110005 -0.13152418 0.14373091 0.16355918 0.2309388 -0.054304443 0.12484639 0.09160182 0.09971998 0.1827488 -0.46227762 0.31712332 0.17446631 -0.22726372 0.046432566 -0.04013417 0.1527876 0.024012884 0.27412665 -0.13148814 -0.30885202 -0.001112892 0.09244933 -0.0991444 0.04556124 0.005662586 -0.028584817 -0.05699366 0.2996976 -0.19907787 0.35727033 -0.26523653 -0.12230865 0.2859477 0.0705645 0.08768011 0.25600424 -0.1264943 0.23232986 -0.18386653 -0.07517798 0.0030031803 0.02597386 -0.07448356 -0.101435475 0.08397184 0.015135717
15576 -1.7577251 0.38081834 0.1751274 0.027683506 0.36214763 -0.18756782 -0.016878897 0.07501339 0.140217 0.073374175 -0.17116648 -0.03930353 0.08765116 0.43689728 0.30234274 0.12784964 -0.30603197 0.21653073 0.09718363 0.12741135 0.15044071 -0.011558658 -0.1286913 0.035777763 -0.17115615 -0.0365202 0.02304923 -0.23816554 -0.05808039 0.1486239 -0.15394562 0.17344604 0.23766185 0.09720656 0.1375915 0.23233333 -0.045228634 -0.13749102 0.01076035 -0.034427058 0.0215447 0.22666402 0.41602302 -0.040362686 0.10971788 -0.29177228 0.06980075 -0.21694505 0.32462615 0.029470336 0.12165618 -0.3137451 -0.22639288 -0.11343859 -0.0222902 -0.07927601 -0.26351243 0.028639833 0.1614007 0.05604417 0.45913833 0.34716162 -0.28644407 -0.039214145
287 -1.7735544 0.29491106 0.04928018 0.02756315 0.31643936 -0.13356484 0.013040939 0.05718198 0.16824193 0.105715856 -0.21813238 0.0050936667 0.03395723 0.42355496 0.25786158 0.119055666 -0.37819037 0.20294932 0.040093936 0.093590036 0.0819396 -0.030120695 -0.1476547 0.011463078 -0.15764166 0.024798045 -0.019307842 -0.13691856 -0.027097497 0.25828588 -0.21603273 0.06384343 0.21474561 0.12418825 0.11928346 0.21995671 0.06947888 -0.12474306 0.04628696 0.114546485 0.038087625 0.18735994 0.4072625 -0.009127926 0.091040924 0.21430212 0.0912861 -0.18021195 0.281443 0.13025467 0.11914837 -0.30380625 -0.21882915 -0.10751954 -0.053274866 -0.09082086 -0.2951562 -0.017838363 0.23666945 0.020096071 0.43178767 0.2093451 -0.38677776 -0.09714033
2168 -1.756624 0.110051975 0.07022941 0.010052163 0.24276783 0.10167188 0.29107356 0.09280392 -0.32152033 -0.015808398 -0.09672409 -0.020221066 -0.0147628365 -0.27752385 -0.065593004 0.18928938 0.29858264 -0.19343443 -0.31373638 0.22063276 0.1815818 -0.2434317 -0.14775987 0.111488886 -0.20239916 0.15770622 0.011560192 -0.020601086 0.19715886 0.0978278 -0.23446524 0.037578713 -0.25250837 0.5547029 -0.10568958 0.0994077 0.12916236 -0.1035385 -0.02991424 0.018449768 -0.017631175 -0.3831635 0.20692615 0.0831899 0.08954652 0.3215306 -0.08174603 0.45039517 0.09242053 0.05552249 -0.03232703 -0.36829546 -0.13422334 -0.04901436 -0.03361106 0.07228278 0.0052983975 0.30252212 0.051255025 0.029596876 -0.12686688 0.09310471 -0.1772655 0.17826241
15481 -1.7770021 0.085255615 0.07048704 0.0029083095 0.27742904 0.13339674 0.27861053 0.08432539 -0.31740057 0.013176664 -0.103897996 -0.118933536 0.063932754 -0.30152106 -0.05979594 0.11605429 0.33616316 -0.15624498 -0.36635295 0.23017952 0.16851173 -0.31164202 -0.12008648 0.08081018 -0.14612043 0.18550251 -0.05008848 0.0036589452 0.17007351 0.10992061 -0.2617266 0.024989767 -0.25823155 0.58284396 -0.10969184 0.07275328 0.1226583 -0.1881654 -0.029102486 0.061361536 0.000849748 -0.41358608 0.26071477 0.039090186 0.1076455 0.30681884 -0.02253181 0.45733398 0.12220429 0.028500574 -0.04960133 -0.3583384 -0.14893217 -0.017731676 -0.06322 0.009967567 0.010095936 0.33150062 0.053910695 0.035301134 -0.035265166 0.16869266 -0.17537053 0.25516772
15587 -1.7722132 0.38605452 0.11447451 0.01980489 0.014109121 0.09466479 0.1592797 -0.082123525 0.09092326 0.28850767 0.040465757 -0.018869014 0.089772984 -0.10795597 -0.20280199 0.30487713 0.0030884494 0.13368058 -0.36320797 0.4506036 -0.14435695 0.14160818 0.16639817 -0.016654138 0.20498677 -0.03527381 -0.08482223 0.6979692 0.29337475 -0.0801913 -0.18935864 0.075219296 0.04292642 -0.27255645 0.1132753 0.10904117 -0.00029531153 -0.16100861 -0.09997837 0.1050344 0.062017724 -0.05817088 -0.14745837 -0.17237908 -0.041267436 0.29107332 -0.081979915 0.046302095 0.08000228 0.1283589 -0.013011416 0.10409597 -0.11914015 -0.038249858 0.03354413 0.13022394 -0.035996687 0.21367855 0.015638314 0.011634023 0.1559668 -0.45480484 0.2742076 -0.40248153
12475 -1.778654 0.33472368 0.114246935 0.021335261 0.0490572 0.07661887 0.17556578 0.013501606 0.11307268 0.33197322 -0.0021069131 -0.039893765 0.0426962 -0.06320129 -0.24343194 0.35101458 0.015858183 0.08982354 -0.34755483 0.4588434 -0.12719935 0.116734676 0.08838435 -0.06895806 0.19391684 -0.052039705 -0.09518419 0.682916 0.29547572 -0.09920894 -0.15519544 0.050383236 0.10417588 -0.15266922 0.102227055 0.11401791 0.035434987 -0.12042567 -0.08998041 0.06735341 0.025012344 0.029343681 -0.094300635 -0.17142929 -0.030191168 0.32767028 -0.15754785 0.06781983 0.06272959 0.10789934 -0.051646776 0.08125834 -0.12716644 -0.07362126 0.052268025 0.063156225 -0.02520183 0.25214168 0.053466063 0.0126032485 0.13374779 -0.45706332 0.31840193 -0.36718395
15471 -1.7639192 0.2755666 0.1243272 0.023029963 0.07631969 0.067571305 0.14190897 0.027150804 0.11524873 0.34989518 -0.029754875 -0.05541441 0.07704907 -0.039088476 -0.2508997 0.30816624 -0.016548553 0.10108333 -0.35227293 0.45663258 -0.13519382 0.12080658 0.07415059 -0.07546718 0.2148759 -0.078503 -0.07723158 0.6754907 0.2834213 -0.13706666 -0.16693316 0.026693473 0.09981784 -0.13363098 0.11497509 0.118205294 0.020420494 -0.10692344 -0.10514565 0.0655828 0.06840083 0.048886508 -0.07558646 -0.19394682 -0.035636522 0.3329915 -0.14723378 0.079617634 0.025142431 0.10015123 -0.024561513 0.06660916 -0.13085379 -0.09655577 0.058756895 0.06128424 -0.04754858 0.3073683 0.09280331 0.0063220127 0.1391879 -0.43143433 0.32042736 -0.346195
15525 -1.789362 -0.16778244 0.13636874 0.035228316 0.28640375 -0.18362702 -0.13231267 -0.033146866 -0.057139184 0.26120877 -0.071836665 -0.39642733 -0.24838881 -0.33660695 -0.22010715 -0.08650092 -0.41083732 -0.13933942 -0.035263456 0.19824614 0.14996637 -0.25071236 -0.38982806 0.236202 -0.10902364 -0.03936833 -0.05110592 -0.22027807 0.002338233 0.16616055 -0.14459254 0.0395107 -0.31838533 0.16578318 0.007751212 -0.144931 -0.25017706 0.14666288 -0.15050115 0.02933592 0.08703058 -0.0151167335 -0.16391006 -0.10759632 -0.16121344 0.3522242 0.31371248 -0.28572083 -0.11521238 -0.024009554 0.2835572 -0.059398063 0.19123483 -0.061647445 0.017341822 0.5300001 -0.26360703 -0.15781102 -0.08452804 -0.017611923 0.0020358642 -0.27332932 0.026462404 -0.25455153
3020 -1.787483 -0.15083191 0.19232416 0.049019095 0.26723993 -0.14574671 -0.14668219 -0.059964336 -0.008317828 0.27865568 -0.09505711 -0.30932102 -0.2916558 -0.27229106 -0.2058919 -0.08966295 -0.4342314 -0.08283936 -0.06340689 0.18553585 0.13024709 -0.21591233 -0.3601857 0.16811235 -0.10272743 0.022483114 -0.05355675 -0.20300946 0.0018115569 0.1349781 -0.13455805 0.05588535 -0.21035048 0.12626733 -0.027656866 -0.15368618 -0.21753287 0.044146854 -0.20522617 0.069876306 0.10155867 -0.04568801 -0.1666317 -0.17115887 -0.17729749 0.35341376 0.2965719 -0.26778343 -0.108011626 -0.05512385 0.25700897 -0.053449843 0.23079532 -0.009266569 0.012338569 0.49708873 -0.3056797 -0.14575003 -0.07243473 -0.03136758 -0.12387516 -0.24203424 0.09864831 -0.2966819
15568 -1.5010058 -0.2179648 0.15754153 0.031470723 -0.02923556 -0.0023234931 0.0968077 -0.11662212 0.060621873 -0.25292742 -0.08352911 0.317488 0.15956078 0.056998264 0.27157116 -0.21241625 -0.027009813 0.1910212 0.017215615 0.21575536 0.13556543 0.05233474 0.1434386 -0.023288758 0.13981298 -0.36578244 0.052931197 0.0880036 -0.40692246 0.06722428 0.09031326 0.33295152 -0.13896911 0.2938881 -0.06904407 0.14865907 -0.037814334 0.07882698 0.18106772 0.84504545 -0.0028011426 -0.010685956 0.122211486 -0.037239175 0.21218297 0.27931783 -0.20502491 0.1398734 0.04144779 -0.20855178 0.019314008 0.1937919 0.023750335 0.14727695 -0.008489341 0.39626974 0.09453906 0.11368187 0.11261663 -0.07807182 0.13545017 -0.26123333 -0.09926747 0.046076365
15573 -1.2562013 0.07249439 -0.5431035 -0.26658735 -0.13698052 0.15890856 -0.25707477 -0.12814103 -0.17622364 -0.122002885 -0.011646934 -0.19015236 -0.15374126 0.022827107 0.14667997 -0.021722676 -0.17216566 -0.041380286 0.077924296 0.0631694 0.27207562 0.018910717 0.01978205 0.115173124 -0.19585533 -0.195866 -0.08918156 0.060739335 0.008666509 -0.012749171 -0.05232346 -0.032797106 -0.058784492 -0.10614749 0.34262097 0.13935223 0.1955367 0.2207868 -0.5497561 0.48768598 0.09039754 -0.12647183 -0.0694328 -0.2507363 0.354354 0.47191808 -0.059303984 -0.0684981 0.2650317 0.08297435 0.5050299 0.10649312 0.16557793 0.01823915 0.10061093 -0.13484058 0.14159867 0.1803337 -0.028442463 0.28527504 -0.28888267 0.17895812 -0.12277353 0.03392973
6121 -1.4440125 -0.015091236 -1.042342 -0.12818435 -0.07724737 0.14467828 -0.09951869 -0.08032036 -0.13782954 -0.07056992 -0.054012537 -0.13251199 -0.11621631 0.0008295103 0.088687465 -0.01735604 -0.055721026 -0.030395128 0.005413838 0.046465818 0.14013596 -0.005433631 0.03519609 0.105222344 -0.2121634 -0.11227203 -0.12692992 0.123689555 0.10231094 -0.056176435 0.21744506 -0.07496486 -0.021319063 -0.091495916 -0.022563081 0.09747287 0.08689587 0.19964802 -0.8185422 -0.012010443 -0.03634469 -0.06713157 -0.05633353 0.04416345 0.09327 0.51279885 -0.09912836 0.014849506 0.16024634 0.12637663 0.52065754 0.06345312 0.0826834 0.059232578 0.1260524 -0.1130918 0.1170762 0.112301126 -0.04439412 0.1143096 -0.1877803 0.19380146 -0.08229409 -0.030037256
15584 -1.752656 0.095407516 0.08296882 0.043782078 -0.026613167 -0.14757615 0.023784343 -0.0055462364 0.120109625 -0.020786207 0.21686359 -0.01664554 -0.006405809 0.043275483 -0.06982655 0.026649287 -0.017253032 0.04232169 0.060801405 -0.07606173 0.0049018753 -0.22635072 0.012999372 -0.014143097 -0.004227309 0.076045044 0.015771672 0.008211766 -0.0092121735 0.109306335 -0.1518569 -1.1724665 -0.115094684 0.10421203 0.0006075013 0.11300766 0.065478384 0.049572002 -0.05667269 0.31430548 0.12856951 -0.0106966 0.119930424 -0.046771243 -0.4875345 0.11685205 -0.14193408 0.09239125 0.04604806 0.1497725 -0.015197592 0.14392477 0.042379737 -0.038900804 0.07638826 -0.16559651 0.08196804 -0.013509561 -0.0047516455 -0.0074882717 0.11439142 0.02387769 -0.047117285 -0.008899903
3061 -1.7475222 0.09586858 0.103157826 -0.0007560178 -0.084751934 -0.1420679 0.04173753 0.014407159 0.14682381 -0.04325106 0.16866559 -0.0021804452 0.021007458 0.018650685 -0.06500205 0.006942232 -0.015301716 0.03628464 0.08312279 -0.043733634 -0.008554888 -0.22915669 0.019338934 0.013183423 0.00076598884 0.03685118 0.026772764 -0.01098442 0.014371301 0.1395283 -0.20436947 -1.4215661 -0.076269545 0.06991539 -0.0532461 0.10827895 0.110673465 0.047753997 -0.011559428 0.43422523 0.12072547 -0.0699259 0.13569468 -0.05215456 -0.700444 -0.015629452 -0.11878135 0.053135537 0.09728921 0.13587381 0.001589964 0.10573442 -0.0018270604 -0.02813697 0.104701795 -0.1390555 0.07599192 0.04190126 -0.0077397036 -0.02819449 0.16637786 0.027005646 -0.06182194 -0.0048779575
19241 -1.1726032 0.11965884 0.1552349 0.01580656 0.08196291 -0.12359675 -0.07014147 0.004298351 0.06472543 0.03033529 0.042007953 0.032990173 0.04503352 0.024310775 0.010707777 0.047712244 0.047340922 -0.038904954 0.07458707 -0.17221363 0.2177257 -0.18880124 -0.048153892 0.021705443 -0.010427506 0.1666863 -0.03879382 -0.09307372 -0.017125754 0.14968945 -0.30627182 -1.6572282 -0.016225379 -0.03852379 -0.085036255 0.13694252 0.074765146 -0.069987744 0.019817969 0.84678286 0.10333849 -0.024904802 -0.115727924 -0.07526753 -0.9067224 -0.41032875 -0.107887864 0.13261949 0.1380199 -0.034326 0.029404057 0.12557493 0.053753577 -0.16868556 0.1447116 -0.14068763 -0.08190189 0.12485788 0.24861257 -0.57987344 0.20934874 0.03140392 -0.09010612 0.07222525
37777 -1.4393028 0.09011679 0.26381424 -0.18182284 -0.0049471883 0.056393243 0.09238101 -0.023890037 0.009814837 -0.08068952 -0.010967467 0.04865273 0.02852936 0.06521762 -0.046563745 -0.046152983 0.0074283658 -0.10217926 0.14979342 -0.00028904868 0.06910547 -0.031037625 -0.06178249 0.0064603165 -0.06219013 -0.08581675 -0.05818558 -0.028827434 -0.012375836 -0.025626538 -0.19128181 -1.7552953 0.00027204718 -0.03673031 -0.24801375 -0.052058987 -0.08466154 0.051568124 0.15853947 0.8720347 0.049503684 -0.060825765 -0.021425124 0.13214192 -1.097058 -0.7049762 -0.008177356 -0.0675705 -0.06889941 -0.015927393 0.035928056 0.0006676654 -0.03202766 -0.080445245 -0.16700792 0.06562695 0.023356054 0.033002958 0.21708603 -0.30751508 0.1075728 0.06032662 -0.10311128 0.049315367
19041 -1.4939644 -0.13077462 0.26268747 -0.24881543 -0.05123695 -0.041526224 0.14223616 -0.08388768 -0.16063228 0.18287124 -0.09149172 0.18763196 0.13555454 0.2179543 -0.035187658 -0.055348042 -0.2364934 -0.040518783 0.0706898 0.13026993 0.036114734 0.03570391 -0.1455232 0.28794003 0.16877268 -0.063373655 -0.07940729 0.32595977 0.07615389 -0.0692135 -0.24268457 -1.943389 0.005329776 -0.10586129 -0.3319751 0.08714984 0.17451942 0.10409541 0.13799094 0.8484942 -0.22106361 -0.19172706 -0.0005514561 0.11948202 -1.0668392 -0.6865505 -0.113489226 0.15516815 0.0036774797 0.21542281 -0.119828366 0.0057732854 0.084912434 0.1478368 -0.18583307 -0.007331233 -0.07142583 0.022737643 0.24981381 -0.3209229 0.10119208 -0.13288532 0.08409915 0.1392079
3046 -1.4822903 -0.1062827 0.27921993 -0.2411759 -0.10131846 -0.06623462 0.096931554 -0.07304724 -0.13302866 0.21750371 -0.084653184 0.18239881 0.14002092 0.17944434 0.013795621 -0.05438556 -0.18212283 -0.06209257 0.06152962 0.099754214 -0.025986599 0.013584024 -0.14627975 0.23826776 0.1651248 -0.061024066 -0.10033813 0.29407352 0.0319968 -0.063199535 -0.2318553 -1.9091202 0.041100666 -0.055210613 -0.27877033 0.0925804 0.11865034 0.083560005 0.16777726 0.8495611 -0.19145927 -0.11991681 0.00029539177 0.13303007 -1.0755429 -0.6850228 -0.11168922 0.1291251 0.0078353705 0.1809646 -0.08073065 0.039393574 0.07193024 0.080571055 -0.14441855 -0.009327176 -0.0873256 0.029859379 0.25432885 -0.31636092 0.11858193 -0.073661104 0.08794183 0.15148531
19782 -1.4931397 -0.0597687 0.2120479 -0.26634437 0.02822851 -0.08035195 -0.14096831 0.10839153 0.18142742 0.0143226115 0.022689587 0.22756389 0.00021128576 0.089000665 0.067487545 -0.051776156 -0.13080852 0.050506305 -0.1075921 0.04387732 -0.14588141 0.22550778 -0.072542325 0.06251945 -0.017936703 0.10763027 -0.24942437 0.1251764 -0.3828677 0.05607711 -0.23706274 -1.9045238 -0.07445527 -0.02001474 -0.20173922 0.05481129 -0.009938099 -0.10801552 0.17606083 0.8637886 0.20309962 0.120742045 -0.09918666 0.16018926 -1.1384856 -0.7386462 0.13351715 -0.16389321 -0.06798401 0.05232148 0.033185646 0.11161243 -0.16048653 -0.1737244 -0.07539342 0.081188194 0.10421687 -0.23262618 0.19796297 -0.30046818 0.19920546 0.27814928 0.24238291 -0.046930593
8197 -1.4939691 -0.057950657 0.24871549 -0.23696898 0.10385345 -0.10065333 -0.08813716 0.10927794 0.10193215 -0.0015555938 -0.0129826525 0.16599709 -0.08665189 -0.0019918156 0.0071431007 0.05506644 -0.20388049 0.009485064 -0.032517023 -0.039109536 -0.12118538 0.32599664 -0.03020731 0.009066876 0.03231539 0.0021009445 -0.18356963 0.026426408 -0.3052766 0.16553351 -0.2021039 -1.9211073 -0.077254735 0.028524254 -0.17129917 0.068606 0.0411964 -0.048303127 0.1285163 0.8361999 0.1271319 0.045635156 -0.012086292 0.18899108 -1.1196948 -0.7118769 0.1708725 -0.23212318 -0.14384823 0.03296081 0.01804837 0.08826636 -0.15134963 -0.033466417 -0.12145346 0.05199814 0.10780323 -0.21621121 0.2712733 -0.32318142 0.2706404 0.35676822 0.22910601 -0.019243548
18933 -1.6635568 -0.06579347 0.22791186 -0.09792476 0.19896099 -0.007118558 0.044128157 -0.16312303 -0.11933366 0.014013422 -0.13353966 0.021842765 0.100477435 -0.112558275 0.10014153 0.061275285 -0.013003792 0.06125505 -0.053617515 0.054064136 0.056411352 0.1782581 -0.038036056 -0.049150027 0.0754831 -0.064338915 -0.06813082 0.03696778 -0.05840261 -0.14149314 -0.24374464 -1.6348097 0.280445 0.03955621 -0.29774714 -0.070007704 -0.14875478 -0.24012132 0.12566498 0.7006235 -0.019910146 -0.061081838 -0.19419348 0.0814329 -0.97991115 -0.34203702 0.096438676 -0.11547369 -0.119999126 -0.1267476 0.08849747 -0.052742273 0.14296246 -0.21427973 -0.022650225 -0.014566256 -0.23911029 0.080715016 0.20692362 -0.1583813 -0.17515965 -0.008212629 -0.10217986 0.026904726
2684 -1.7162207 -0.08643419 0.10328853 -0.027715817 0.16196044 -0.0030226752 0.079587415 -0.15273125 -0.1778174 0.012248792 -0.11278903 0.002400151 0.07094879 -0.083096035 0.024637036 0.0394519 -0.0056431494 -0.0056196377 -0.117830195 0.0056918166 0.035742644 0.20437416 -0.03130954 -0.054822966 0.040588617 -0.060769454 -0.052061178 0.046559274 -0.049296588 -0.1721837 -0.28066146 -1.4524668 0.2444281 0.024506057 -0.24901038 -0.124874376 -0.17033859 -0.1988256 0.113267526 0.57153016 -0.06196496 -0.08142548 -0.16929184 0.08911374 -0.82367873 -0.18453363 0.06640426 -0.06381514 -0.09593752 -0.08442155 0.10901598 -0.0006581162 0.11883363 -0.1980108 -0.0024306725 -0.059803057 -0.25001746 0.062699996 0.1969937 -0.073097266 -0.18225813 0.0055497643 -0.10344815 0.0028084277
15487 -1.765386 -0.18876377 -0.014765517 0.030465282 0.24753809 -0.023537278 0.12770982 -0.1988294 -0.23161681 0.010148376 -0.09623638 0.027375693 0.17873612 -0.108347036 0.0065784166 0.14847481 -0.047653817 0.011126226 -0.17574306 -0.053844236 0.100902654 0.29815552 -0.013984774 -0.035812628 0.018604757 -0.098443694 -0.065144 0.036741197 -0.14801665 -0.27337375 -0.3352344 -1.0358678 0.28381085 0.022861168 -0.26719314 -0.17873077 -0.24895139 -0.25535125 0.120403804 0.31674245 -0.050051585 -0.11337437 -0.16910584 0.06439051 -0.4431768 0.05116996 0.038730677 -0.09666368 -0.221617 -0.12578334 0.11959203 -0.068645574 0.12785845 -0.21011682 0.06238257 -0.13721795 -0.27871516 0.05874019 0.053085275 0.019321155 -0.27406216 -0.08233211 -0.08577646 0.007990105
15375 -1.7986397 0.06533158 -0.0046694255 0.021271082 -0.028366724 0.1595818 0.10683633 0.050401103 -0.17385477 0.2994906 0.40949562 0.11375183 0.13234225 -0.33410802 0.37581053 0.108595505 0.25509825 -0.13943055 0.23403423 0.2456391 -0.16405383 -0.30497032 -0.15463556 0.16016866 -0.10300065 0.14454474 0.10494613 -0.13958104 -0.37984556 -0.07769088 -0.29725325 -0.05192055 0.3264216 -0.27827743 0.17197587 -0.08751714 -0.3181411 -0.094031274 0.11100942 0.09461209 -0.15618983 -0.20428452 -0.27489334 0.26980323 0.17672744 0.2624418 0.0025915715 0.057236824 0.2594994 0.1402513 -0.0062135966 -0.045537908 -0.34996533 0.036938485 -0.07048472 0.018234575 -0.35640836 -0.23164843 -0.0053348546 0.021697916 0.024686346 0.0062094596 -0.07908293 -0.34183362
3175 -1.7897103 0.07017588 0.011260067 0.032441236 -0.03522794 0.20423956 0.12140703 0.0711958 -0.13408886 0.3132352 0.3687591 0.097041614 0.07300729 -0.3367343 0.35818753 0.023891926 0.25210503 -0.12716742 0.27190858 0.21982858 -0.21148354 -0.32928053 -0.17204264 0.2128456 -0.041844416 0.09745057 0.06641274 -0.15709274 -0.3782293 -0.0295038 -0.24069487 -0.0049219565 0.24264343 -0.3066283 0.16665192 -0.012236121 -0.29792535 -0.09165824 0.08562022 0.10446675 -0.117745854 -0.23747315 -0.24724714 0.23900332 0.10411265 0.24930297 0.045418147 -0.037330303 0.28321925 0.10303347 -0.026541842 -0.10976293 -0.26865673 0.03649554 -0.05926549 0.04726478 -0.3709094 -0.14473471 0.080245554 0.016327534 0.046738587 0.029892048 -0.01360529 -0.28022525
15565 -1.8079878 0.01551903 0.034738086 0.03216631 -0.06278373 0.20633298 0.050026137 0.09494606 -0.14421795 0.29841086 0.32986736 0.15198874 -0.001492093 -0.31333077 0.3863538 -0.03279142 0.25116405 -0.15021396 0.33342153 0.21101235 -0.2660228 -0.31620812 -0.12542585 0.2711726 -0.10230296 0.02689572 0.070215665 -0.17694078 -0.3931498 -0.018447267 -0.21427019 -0.010945972 0.24343514 -0.34465227 0.18316014 -0.05356428 -0.3533374 -0.14000092 0.07709018 0.08066198 -0.21427123 -0.24010794 -0.21825053 0.2814382 0.110710904 0.27257827 0.013723784 -0.07786329 0.27157617 0.11955577 -0.018819232 -0.14094205 -0.25461635 0.106269084 -0.068950206 0.053012177 -0.41442576 -0.13610426 0.108001076 0.0074912244 0.038859475 0.06493912 0.01597616 -0.28143254
15581 -1.6687837 -0.05622373 -0.5376324 -0.00794414 -0.08329125 -0.113691285 0.018966835 -0.20302185 0.017303549 0.05007064 -0.11021944 0.008889183 -0.11453644 -0.0041228393 -0.19687308 -0.048289064 0.18896027 0.036535118 0.031408988 0.052150447 -0.16562639 -0.09530838 -0.096366175 -0.010562289 0.040926173 0.10055728 0.16241752 -0.27675197 0.025865836 0.030856445 -0.02994034 -0.044381436 -0.21827038 0.053186283 0.11535704 0.05886115 -0.14121684 -0.056831487 -0.68530005 0.016383328 0.14642099 -0.065196425 0.021695655 0.2090823 0.10464598 0.057043582 0.0038435059 0.14647146 -0.07220622 -0.17621763 -0.6771132 -0.025297763 0.18659912 -0.03502039 0.1887232 0.078284666 -0.15598164 0.121658996 0.5132937 0.08974931 -0.07108898 -0.29130197 0.1292409 0.0355193
5984 -1.4518996 -0.017446667 -0.94669014 -0.12371826 0.0049601314 -0.087151304 -0.006338873 -0.13212918 -0.043876175 0.08295671 -0.09977241 0.114697605 -0.035277314 0.04040947 -0.10118064 -0.038369782 0.14714602 -0.021512818 0.05981663 0.034596723 -0.09843817 -0.10318843 -0.047015335 -0.041175496 0.063513525 0.013643633 0.13813022 -0.10503231 -0.008078685 -0.032011315 0.24848567 0.06740106 -0.16439138 -0.009332886 -0.0571593 0.07550165 -0.012105435 -0.06536951 -0.9002799 -0.09484242 0.1440779 0.12924787 -0.04283807 0.08623464 0.11180001 -0.40449756 0.03542058 0.05536337 -0.07972945 -0.18284243 -0.88785017 -0.057263903 0.24341743 -0.02166589 0.07919363 0.1016767 -0.04987987 -0.027066343 0.19364297 0.14112215 0.03436838 -0.14962722 0.12039595 -0.07991162
21842 -0.9854795 0.17778924 -1.5878717 -0.3801966 0.0872029 0.15898347 0.10865731 -0.009406181 -0.256338 0.01779975 -0.17648618 -0.014713529 0.06278617 0.04927639 0.04938538 -0.1991174 0.14599207 0.009597566 -0.005633766 0.13192987 -0.033966813 -0.040082052 0.1423046 -0.15740277 0.0032822206 0.09752274 0.13435106 0.1229259 -0.12735815 0.06700581 0.52978915 0.019183164 -0.29359072 -0.120126955 -0.07838939 -0.1589966 0.10431332 -0.14932646 -0.5412153 -0.14546522 0.156889 -0.011592066 -0.15872437 0.1485292 0.09728625 -0.06842226 -0.14455973 0.008754419 -0.32879543 -0.15405333 -0.66430926 -0.19232099 0.32333946 0.27795118 0.0537134 -0.0227886 -0.023305833 0.04424877 0.061460096 -0.033741698 0.039947797 0.04520808 0.15219858 -0.20480363
37779 -0.7121721 0.11199195 -1.6912022 -0.5109828 -0.095942274 0.11210636 0.002389788 0.034675363 -0.010358722 -0.19145341 -0.06913569 0.014059208 0.08911926 -0.07149963 0.17399944 0.052584045 -0.02793895 -0.0132647455 -0.035912283 0.03220778 -0.08320362 0.1570756 -0.06295715 0.061408184 -0.17247908 -0.1362093 0.075271934 0.10682109 -0.10975807 -0.008257704 0.63081014 -0.120350614 -0.020126792 0.099251665 -0.0110743325 -0.09114711 -0.007696865 -0.016149927 -0.7443748 0.011340331 0.102657944 -0.006819367 0.22016065 0.09048225 0.12828079 -0.007962275 -0.062414233 -0.09906434 -0.018329987 -0.080316514 -0.000515279 0.06361372 -0.027167039 0.010751317 -0.14151242 0.09490205 -0.0460134 -0.22265716 -0.00921792 -0.1997411 -0.03158217 0.07622648 -0.026888542 0.03485354
21852 -0.88489646 0.03374531 -1.5295672 -0.45483994 0.13641442 0.19286257 0.0032305392 -0.11509159 -0.090316996 -0.056425825 -0.09650104 -0.0919391 0.10961078 0.098406546 -0.06663522 0.046667647 -0.02639882 0.094333455 -0.13249037 0.10525639 0.03133868 -0.04891946 0.03490951 0.078265265 -0.08800721 -0.12768264 -0.19344395 0.21175489 0.09685127 -0.042277697 0.53677315 -0.04442715 0.057352003 -0.015864475 -0.05416105 0.0071824132 -0.12755783 -0.07991657 -0.7939921 -0.08936771 -0.04516034 -0.033768665 0.08411507 0.098798156 0.11462643 -1.1228958 0.015626691 0.13356508 -0.009362036 0.0038534538 0.40723437 -0.039127573 -0.08488831 -0.0663977 -0.14625908 -0.19128655 -0.06462309 -0.10835312 0.12153531 -0.124051675 -0.1736793 -0.0013886497 0.03792243 0.043196145
4956 -0.9994392 -0.014284703 -1.2891734 -0.36430734 0.08961177 0.17447978 0.024661284 -0.13561432 -0.058708027 0.007850902 -0.09010382 -0.13104163 0.059688684 0.08615503 -0.07667111 0.03752816 -0.1074278 0.16525467 -0.17716828 0.09094803 -0.0105332965 0.050757788 -0.059579227 0.051393498 -0.06545703 -0.13352123 -0.18367416 0.18919203 0.025780143 -0.059014134 0.49309975 -0.062844135 0.027716316 -0.010640869 0.00050301966 0.091930375 -0.16285536 -0.10150309 -0.79071105 -0.1646623 -0.018598124 -0.04695821 0.1107171 0.071880564 0.13514043 -1.3657104 0.010295029 0.081723765 0.0013432985 -0.047005843 0.47099653 -0.056368183 -0.033877265 -0.07161052 -0.05101596 -0.20837943 -0.030431103 -0.0853325 0.08479099 -0.08647268 -0.12191599 -0.008703642 0.05074679 0.04609756
18812 -1.1561935 0.008898853 -0.8367136 -0.26735738 0.0917488 0.20716424 0.024616297 -0.06971816 -0.008970861 0.10147488 -0.062600456 -0.17537197 0.025551513 0.051972013 -0.103704534 0.061413486 -0.069634855 0.2788961 -0.116272725 0.08897401 0.0044910437 -0.016854307 0.019322926 -0.021671342 -0.1443259 -0.21186084 -0.26528648 0.20256053 0.16874951 -0.12779249 0.42922655 -0.06748898 0.040091183 -0.037553597 0.03710265 -0.001373531 -0.2798797 -0.105530694 -0.67480433 -0.30425167 0.06204604 -0.087404236 0.17136462 0.013025624 0.06366854 -1.6040639 -0.0047944114 -0.0056779305 0.026802488 0.024817636 0.48806906 0.004447529 -0.12609349 -0.03310215 -0.014562198 -0.19772966 0.025704095 -0.109848864 0.042940676 -0.12619679 -0.13815674 0.031418208 0.02397792 0.098010026
37776 -1.1787139 -0.10281606 0.06917616 -0.2091531 -0.12103035 -0.047839798 0.15772595 0.1038016 -0.07422396 0.042724475 -0.08158415 -0.16574693 0.007556298 -0.07210415 0.15944585 0.046146054 -0.10438988 0.1545212 0.1243946 0.2595608 0.16550934 0.03223451 -0.020809885 -0.073571 0.02222333 -0.023583898 -0.10355616 -0.033475403 0.101155356 0.09098411 0.28894562 0.02675034 0.040588256 -0.061926708 0.06468473 -0.17578477 0.10641004 -0.1059626 -0.034248337 -0.4080988 -0.21480393 -0.10030033 -0.13202712 -0.07346079 0.01767769 -1.6136837 -0.045808997 0.13712037 0.020611346 -0.04070581 -0.0975779 -0.061101165 0.023595471 0.09181539 -0.1293826 -0.01595788 0.021970876 -0.041522063 -0.050541755 -0.104255944 0.025561556 -0.22928146 -0.05221071 -0.22338344
18810 -0.9722691 0.20560412 0.17401862 -0.5548789 0.13363788 0.16985004 0.0032233293 0.16583127 0.022615239 -0.15310162 -0.0022969756 0.08507264 0.2535191 -0.16340855 0.021738682 0.35682157 -0.0058005387 -0.015146582 -0.13213013 -0.09578231 0.15426664 0.039230853 -0.11549442 0.034757487 0.1516631 0.14446698 -0.09257036 0.22092612 -0.11035658 0.34827676 -0.024489785 0.08814725 -0.035172805 -0.16028333 0.5396019 -0.020905543 -0.21593304 -0.11245093 -0.038129203 -0.41945195 0.15528478 -0.25366348 0.12762229 -0.1883236 0.03563041 -1.6388526 0.4291452 -0.010976611 0.07811119 0.2070488 -0.04547476 0.09411876 0.2535975 -0.20782733 0.046427935 0.049020063 -0.10510198 -0.048175793 -0.14509538 0.20914382 -0.16887443 0.053642895 0.007713655 -0.094100155
4916 -1.2337353 0.322248 0.06840773 -0.26639658 0.037948612 0.07616221 0.03162234 0.20482908 -0.020768462 -0.17207924 0.07775432 0.14916542 0.26804784 -0.12606186 0.046398852 0.4485223 0.004499392 -0.18065692 -0.0881203 -0.081250496 0.12695795 0.056094173 -0.14533617 -0.0072157923 0.16863623 0.12418475 -0.13007556 0.22676168 -0.1277073 0.28016776 0.24232298 0.10173852 0.05481679 -0.15271734 0.246607 -0.09148319 -0.30113247 -0.12337118 -0.08127146 -0.48065168 0.15981331 -0.2413478 0.06815958 -0.108710445 -0.0722233 -1.7004944 0.5650438 0.01576841 0.09268992 0.2318052 -0.14078414 0.14868434 0.2749493 -0.17604567 -0.0890389 0.105885595 -0.07644621 -0.05811103 -0.107620664 -0.105079114 -0.08692512 0.20408238 0.016948996 -0.06011942
18868 -1.2210059 -0.044701 -0.18963967 -0.2414229 -0.17989935 0.013060855 0.057527892 -0.068812445 -0.20717987 0.2460984 -0.027392043 0.19822185 -0.28056195 -0.384022 -0.09928429 0.17554642 -0.057789657 0.24553081 0.2632273 -0.4054184 0.0850529 0.43979293 0.2699806 -0.07940406 0.1069239 0.055938713 -0.016988661 -0.04879468 -0.07368342 0.16115667 0.30217785 0.1792942 0.206631 -0.068607844 0.00014419302 0.024752665 0.14138569 -0.2851804 0.41621292 -0.5469958 0.17651649 0.021455752 0.29729548 -0.04001028 -0.11335649 -1.6134565 0.06648779 -0.12070201 -0.3447155 -0.5055753 0.08620835 0.139431 -0.061601095 -0.1522459 -0.0019566002 -0.11269958 0.02821255 -0.20873909 -0.08147158 -0.13251716 0.12679596 -0.1308995 0.07363147 -0.014823618
12854 -1.2315706 -0.07032954 0.016308567 -0.23539391 -0.1674593 0.16498332 0.023629379 -0.05783453 -0.07862603 0.16382176 -0.09307801 0.21899506 -0.35341787 -0.31566393 -0.05846471 0.080163054 0.06409983 0.19505073 0.2747701 -0.3349126 0.086682566 0.42464152 0.23492953 -0.13410798 0.049692906 0.0007034386 -0.07384588 -0.057421997 -0.016519547 0.11085069 0.27137142 0.17717539 0.17449333 -0.19932947 0.023403058 -0.047996078 0.12806936 -0.2830716 0.032717098 -0.43101338 0.05957451 0.06884992 0.3257647 0.02677101 -0.05832995 -1.6986206 0.051213242 -0.0951666 -0.311383 -0.49489868 0.12605417 0.16158596 -0.07891847 -0.058005262 -0.03533891 -0.12067409 -0.043996334 -0.18035601 -0.086758226 -0.14786524 0.166933 -0.0758722 0.07380797 0.0055781463
18808 -1.1270611 0.024855664 0.3128491 -0.2747529 0.16977368 0.08400284 -0.5371227 -0.22032201 0.07357485 0.093082905 -0.029263653 -0.06363785 0.07037179 -0.0030658436 -0.045115013 -0.061538696 -0.3926303 0.03072237 -0.10494759 -0.040090706 -0.1174648 0.17392993 0.100007854 0.08501239 0.01122456 0.024889719 -0.10119337 0.2676168 -0.32642907 0.072947405 0.5884503 -0.035330098 0.34758946 0.010322193 0.032291293 -0.07361708 0.16856323 0.056128923 -0.21352777 -0.5290877 0.2697299 0.060928665 -0.059779614 -0.046369053 0.011976327 -1.5306544 -0.103670254 0.12105115 -0.17790651 0.301112 -0.05033051 0.0680107 -0.006016057 0.38404372 -0.18441254 0.29073104 0.0543692 -0.40061614 0.13140461 -0.15996552 -0.20414707 -0.30332065 -0.0035262315 -0.046286084
4048 -0.75618976 -0.17491227 0.5754333 -0.37087288 0.09512063 -0.01581163 -0.35059965 -0.20711182 0.09531297 0.16697496 -0.034810368 -0.044335544 0.0713738 0.06980032 -0.026815163 -0.028753044 -0.38730296 0.062117077 -0.12537834 -0.035707846 0.038349904 -0.03095099 0.041414037 0.06608969 0.027979333 0.20306735 -0.10162673 0.33577958 -0.21652997 0.07455941 0.9533512 0.019887319 0.23913509 0.093908474 -0.04231753 -0.01636796 0.043529566 0.009892394 -0.3258472 -0.5790853 0.2804419 0.14498416 0.10635754 0.030715203 0.00092899264 -1.1587813 -0.15746647 0.10282381 -0.14769188 0.24013966 -0.0043349834 0.1461852 -0.11593925 0.3253785 0.017628206 0.19657362 0.1634673 -0.16336212 0.22935715 -0.24300118 -0.14542499 -0.06352618 0.02248354 -0.035625406
21481 -0.3680713 -0.26062942 0.53978693 -0.5530553 0.11900766 0.0004400304 -0.46697164 -0.22213076 0.07007611 0.15103035 -0.011072586 -0.041210998 0.009974587 0.12695143 -0.08325194 0.023177125 -0.38476327 0.13143238 -0.06568595 0.016074123 0.055546787 -0.054924313 0.1496146 0.11694635 0.017683636 0.2374903 -0.08220466 0.41830546 -0.23919007 0.028252918 1.1795359 -0.03352667 0.32233033 0.07415927 -0.048830263 -0.07559354 -0.0097747585 0.034714986 -0.22274207 -0.58109295 0.26509723 0.19853237 0.13746685 0.07226715 -0.06787017 -0.7007193 -0.18571217 0.18543918 -0.12148457 0.28832573 -0.0118739875 0.142811 -0.14847226 0.43434134 0.04934395 0.19753237 0.21636774 -0.14863715 0.1803306 -0.47378132 -0.14258948 -0.0071571725 0.023379123 -0.04706352
37778 -0.15875398 0.09993378 0.4052824 -0.597526 -0.10487769 0.12142276 0.08578097 0.10804588 0.009908698 -0.14370225 -0.047713615 0.11716663 0.029464921 -0.12484338 -0.09440168 0.08180303 0.17534944 -0.04079465 0.13659614 0.11020255 0.08022288 -0.04240881 0.0035949673 -0.13239922 -0.15100875 -0.0026712497 0.1599991 0.09369749 0.06942625 -0.036744174 1.2634096 -0.12266288 0.13038343 -0.12601131 -0.008726383 -0.0050065797 -0.14843458 -0.10067114 -0.14368735 -0.51009846 0.14037612 0.16924977 0.011642494 0.037077058 -0.06598613 0.01889586 0.30966654 -0.09724937 -0.26400548 0.053312913 -0.22257629 0.1801164 -0.10287161 -0.07136209 -0.049051065 0.0586366 0.07546868 0.033016972 0.055984028 -0.6124013 -0.12979446 -0.016084071 0.113383554 -0.111895666
21490 -0.0016016914 0.18097728 0.40492663 -0.3678787 0.01671794 -0.28016913 -0.08212938 0.10217269 -0.17780544 -0.2642851 -0.08970564 -0.1222685 0.15040202 -0.1322436 -0.28140268 0.06788582 -0.12190435 0.098003484 0.11369239 -0.09343111 0.08338387 -0.32345536 -0.0695233 0.15488994 -0.31124088 0.25142795 -0.25797635 0.06335343 -0.15690689 -0.0014199502 1.0147971 -0.19916555 -0.08230179 -0.09915205 0.023194907 0.30515388 -0.33519265 0.054544345 -0.1288672 -0.3374964 -0.34461823 0.10151677 -0.2317546 0.01140448 0.03823345 0.049572036 -0.1997822 -0.242215 0.21050277 0.044982444 -0.032037638 0.07591649 0.16156627 0.34006053 0.2125448 0.1440374 0.058288872 -0.31713614 -0.28701878 -1.0245097 0.4566546 -0.16510795 -0.01793886 -0.21797292
10192 -0.17622012 0.21316212 0.42990175 -0.65594804 -0.07467937 -0.14514217 0.017437099 -0.04614576 -0.10837545 -0.30909848 -0.241497 -0.14561573 0.11065338 -0.17932478 -0.2709435 -0.08370311 -0.19308887 0.030642582 0.062154993 -0.07196917 0.11939647 -0.33836836 -0.101993546 0.1288974 -0.20370013 0.28406933 -0.19878614 0.13361499 -0.16682418 -0.040298536 1.2892239 -0.22813965 -0.0370131 -0.05672832 -0.017999832 0.37931913 -0.15666755 0.04297729 -0.15610072 -0.60165894 -0.3475636 0.015351165 -0.3097161 0.03518228 -0.09935833 0.012526941 -0.14843222 -0.21231437 0.11641088 0.04403801 -0.07474018 0.057891842 0.3302027 0.061174415 0.056124028 0.14944367 -0.11089341 -0.3819402 -0.084162526 -0.663035 0.18237619 -0.092864566 -0.123831384 -0.17945336
21485 -0.19316928 0.15920918 0.44486347 -0.66947156 0.014159786 0.14420709 -0.15908255 0.018476574 0.31349275 -0.004568373 0.028913982 0.060207076 0.066774234 0.25242692 0.21345557 -0.06396689 -0.109549664 -0.053550657 0.04957171 -0.3827026 0.03817563 -0.11709562 0.18100315 0.06372795 -0.028567465 0.41545716 0.2499144 -0.4321197 0.16102609 -0.03307863 1.3149233 -0.16155887 0.25993004 -0.443461 -0.017935835 -0.23435393 0.021046853 -0.13223632 -0.1769488 -0.56753767 0.24377033 -0.19372132 -0.10537581 0.031648833 -0.043308534 0.033575796 -0.123969354 -0.3432094 0.10317805 0.02228765 0.048800677 -0.0031832014 -0.3928379 0.10775323 0.011016897 -0.16109437 0.045646913 -0.33605152 0.08151314 -0.65460557 -0.23085429 0.21952304 0.2521432 -0.3111152
6632 -0.17047752 0.118039325 0.4789074 -0.6723341 0.01499056 0.07270777 -0.156926 0.09651233 0.2512187 0.053316467 0.10338659 -0.083266206 0.0786323 0.15447481 0.23025106 0.0004928026 -0.194297 -0.09570391 0.12258376 -0.3185249 0.08131627 -0.116273455 0.24611495 0.18394548 -0.03138168 0.34236637 0.2732279 -0.32641885 0.114689626 -0.04746623 1.2804635 -0.19903067 0.20584524 -0.42128402 -0.0063397465 -0.15982483 0.05289162 -0.10780707 -0.17281839 -0.5721886 0.27240005 -0.12928186 -0.10980062 0.049897023 -0.0075544175 0.09119785 -0.22458336 -0.40137768 0.07562604 -0.03141857 0.12345877 0.022413006 -0.30744308 0.04152769 -0.07988152 -0.10154378 0.012966965 -0.3548965 0.09988326 -0.6520292 -0.14446975 0.1645389 0.33562323 -0.30788118
21495 -0.18788417 -0.15457612 0.43272454 -0.65484595 0.07368756 -0.009678935 0.36174804 0.018402983 0.048475996 0.32013127 0.11152724 -0.22788407 0.22677182 0.21611255 -0.05796999 -0.04922927 0.3144022 0.4231812 -0.27440688 0.18471916 -0.11739828 -0.09477591 -0.02984236 0.03718201 -0.13887998 -0.14653462 -0.08203772 -0.14645122 0.15308817 0.64738387 1.3300225 -0.15096274 0.16257936 0.096700944 0.009036387 0.0005481327 -0.011130105 -0.3457972 -0.14312819 -0.5195521 0.08619513 -0.07516247 -0.23561749 -0.001360801 -0.07515182 0.031565834 -0.26919118 -0.020352246 -0.09436239 0.1163372 0.09263715 0.12437653 -0.19149947 0.19643427 -0.06247412 0.4216757 -0.008957137 -0.27758712 0.11263102 -0.6726133 0.00093194796 0.40120193 -0.009203796 0.2212416
10198 -0.18496868 -0.104616106 0.48190355 -0.62893635 0.029142385 -0.002536712 0.25142756 0.028818868 0.16486414 0.23957892 0.10155282 -0.3160781 0.15759858 0.25694197 -0.07116415 0.005626321 0.47391403 0.55438834 -0.21820012 0.27874067 -0.17986473 -0.14698072 -0.083040155 0.045792744 -0.028487058 -0.016259152 0.009609273 -0.17702265 0.23379089 0.11995301 1.2633783 -0.10766996 0.100845076 0.21107472 -0.010533021 0.07617967 0.0006669801 -0.3709595 -0.15095446 -0.6294649 0.007351574 -0.04264039 -0.1662385 0.043159995 -0.05036437 0.061008327 -0.28844705 -0.03347026 -0.059082113 0.010448477 0.12980422 0.1793062 -0.08750293 0.0066849845 0.12623687 0.30576804 -0.061973527 -0.24695721 0.11967892 -0.68133336 0.0843816 0.43841133 -0.0337625 0.058743693
21456 -0.19279002 0.039585073 0.45985568 -0.6740664 -0.07122327 0.44341302 0.047128856 0.39945218 0.27892974 0.2625569 0.10985997 -0.18742032 0.23222929 -0.06682305 0.3007281 -0.012432414 0.09035734 0.12040113 0.130703 0.24973373 -0.11101132 -0.22633351 0.0956597 -0.17042306 -0.066093326 -0.13090706 -0.23076741 0.39001077 -0.05089807 0.07309805 1.3158855 0.31579486 -0.056132954 0.04162706 -0.043554924 0.12198941 0.083001845 0.2002554 -0.16366258 -0.5491532 0.013855715 -0.13147095 -0.28452796 0.063920334 0.04344869 0.036404405 -0.14596549 0.2845987 -0.11879801 0.0049142987 0.058734223 0.17937724 -0.13672948 0.21576604 0.07782638 -0.060654156 0.35580757 0.46829975 0.13172372 -0.65800714 0.09485575 -0.35523614 0.11489278 -0.15007225
10174 -0.15406068 0.025777157 0.4093432 -0.69591427 -0.0388402 0.48091346 -0.05282022 0.4152506 0.245862 0.23406282 0.047605567 -0.10811586 0.14306329 0.0030989484 0.22268152 -0.0047542765 0.01571911 0.13038191 0.17523062 0.2127447 -0.16206214 -0.09458666 0.052680984 -0.11351814 -0.076871276 -0.16284442 -0.25459123 0.3238828 0.009352917 0.026948964 1.3041078 0.23999543 -0.074422784 -0.053789146 -0.039211355 0.2340685 0.08166308 0.19150557 -0.13143636 -0.57395506 0.06669432 -0.13011955 -0.31194723 0.024411697 -0.034187216 -0.0012603104 -0.14697495 0.37988225 -0.027833734 0.0967905 0.040100463 0.064111106 -0.049979053 0.13836421 0.018571312 -0.05349356 0.33046928 0.436344 0.092523426 -0.65876204 0.10345088 -0.30244982 0.124803595 -0.08407773
21501 -0.13277644 0.024087695 0.13901748 -0.78025454 0.21283783 0.04569274 -0.0109012695 0.065553926 0.08432936 0.20884413 -0.05117716 0.09936432 -0.15034927 0.11686074 -0.3604886 0.33258387 -0.012737032 -0.064915344 -0.24893603 0.19635668 0.13212897 -0.25996292 -0.2766486 0.24813692 -0.04763907 -0.040441852 0.19337912 0.0127880955 -0.03284291 -0.14757465 1.0319582 0.09793539 0.13613898 0.04910395 -0.10407386 -0.0030339726 0.31333125 -0.010924677 -0.27879366 -0.6324297 -0.19132586 -0.018510703 0.077101186 -0.12184125 0.014979916 0.22386803 -0.13552311 0.22951819 -0.45793143 -0.19082838 0.037743296 -0.13204764 -0.21270722 0.020268992 -0.0024256597 -0.34866038 0.06535727 -0.22077113 -0.13569447 -0.32707572 0.130249 -0.012113921 -0.23028554 -0.19289948
12280 -0.16638686 -0.1314023 0.38272467 -0.67766887 0.21571587 0.03539004 0.11748725 0.06708019 0.04152346 0.16133295 0.19793676 -0.06958779 -0.18552786 0.005248355 -0.3925723 0.25897434 0.15863198 -0.1230828 -0.2154887 0.24262972 0.13908187 -0.31262434 -0.25563067 0.1914759 -0.081332766 -0.07422625 0.1934252 0.0125718275 0.07322538 -0.046992257 1.2828015 0.08304576 0.028442303 -0.11548159 -0.10039466 -0.008019792 0.06957972 0.037123255 -0.20316021 -0.65473753 -0.11334907 -0.115680136 0.109608755 -0.0289664 -0.11503067 0.04111465 -0.14630882 0.27278307 -0.5658816 -0.11805919 -0.010137563 -0.21987368 -0.24843358 0.039291974 0.0120407175 -0.21978432 -0.010952502 -0.1526971 0.11238057 -0.64654 0.07333036 0.1269246 -0.23815708 -0.11658916
21279 -0.21577816 -0.12939309 -0.035957217 -0.57483035 0.08644106 -0.31274915 0.39418045 -0.12978254 -0.0010155006 -0.06882116 0.04509662 -0.2080786 -0.106558636 0.08755169 -0.06552796 -0.04272148 -0.006669688 0.08400521 0.4424372 0.1334818 0.16999857 0.119022146 -0.09577436 -0.14032012 -0.07575864 -0.15541194 0.11413151 -0.029422764 0.20546593 -0.13318692 1.4175968 0.03378432 -0.16572647 -0.31618622 -0.0067292484 -0.09736718 -0.13847582 0.14456454 -0.38797593 -0.11442507 0.14381333 0.49306098 0.18250455 -0.03732785 0.052017167 0.07343978 -0.64526194 0.07929054 -0.104496725 0.20649974 0.07394584 0.117913626 0.21661648 0.025869612 -0.09991878 -0.012443714 0.059375178 -0.013267819 0.1338978 -0.6520019 -0.18048058 -0.056554418 -0.055455763 -0.28560364
12840 -0.29666603 -0.13818553 -0.5954924 -0.4199319 0.088989794 -0.3914595 0.23061183 0.036565147 -0.004376708 -0.03747904 0.10029137 -0.1182973 -0.17632046 0.099155776 -0.101832 0.040313624 0.030886613 0.08108826 0.47281742 0.061830547 0.11527044 0.13353837 -0.07087421 -0.19660082 -0.037988942 -0.12571561 0.01374428 -0.1430129 0.15709369 -0.19345522 1.3169415 -0.020177769 -0.112556085 -0.31707057 0.034574732 -0.26922634 -0.19886437 0.12779176 -0.58576405 0.5516176 0.0008678047 0.37483072 0.15669371 -0.08882528 0.07595894 0.17098086 -0.5137412 0.023004832 -0.056932174 0.100895464 0.07568939 0.019252619 0.18677612 0.057997707 -0.05066474 0.057675213 0.01126242 0.15874569 0.23138018 -0.63280785 0.023584554 -0.110829495 -0.04455643 -0.1701784
21371 -0.06726013 0.10816509 0.38867658 -0.53313875 -0.10472907 0.033716984 0.3243864 -0.25998324 -0.3994616 0.02840774 0.08831531 0.34927228 0.29284227 0.008462976 0.25729305 0.099873014 -0.21893786 -0.37482807 -0.0462512 -0.040154878 -0.1417939 -0.25058746 -0.15787207 -0.09304082 0.1793108 -0.47959226 0.29117465 -0.3782446 0.16999389 0.054453064 1.0923779 0.01747356 0.039474055 0.15080191 -0.0030603765 -0.24523096 0.07422841 0.039232697 -0.2103672 -0.6700402 -0.0085201105 0.0114730345 -0.055599388 -0.0009157846 -0.1533521 0.028251361 -0.19169258 -0.062408485 0.13658649 0.16337842 0.025745332 -0.051940877 -0.005297327 0.34121424 0.16687618 -0.08797408 0.30840275 0.2457996 0.29161444 -0.85840195 0.060950406 0.047547866 0.16260605 -0.04150504
2346 -0.17962867 0.06528903 0.40663755 -0.66814727 -0.12472378 0.06700884 0.24971113 -0.23584022 -0.27980334 -0.01387475 -0.018272867 0.33007634 0.30762303 -0.07252401 0.20381707 0.08844306 -0.23522648 -0.33790058 -0.010833806 -0.031996336 -0.0338566 -0.19638735 -0.1367798 -0.20574687 0.21611665 -0.4397748 0.42073244 -0.33493537 0.13399787 0.029400798 1.2933 -0.014201476 0.1012965 0.13928735 -0.04495766 -0.13306697 0.15274684 0.10126339 -0.15150316 -0.5945184 0.029960858 0.05957828 -0.08459159 0.063673116 -0.11034187 -0.0017958776 -0.20448098 -0.076536216 0.017366527 0.14177917 -0.054681696 -0.076198295 -0.08087258 0.3331366 0.08739714 -0.03115144 0.34026545 0.16895394 0.13035533 -0.6516719 0.02046967 0.08427064 0.21297067 -0.08995273
21449 -0.25335062 -0.21958396 0.15823035 -0.6122369 0.09649699 -0.18127468 0.11800092 -0.021275098 0.15474854 -0.07976212 0.27115145 0.011983536 0.20085114 -0.38840047 0.21974368 -0.16791819 0.01570125 0.046426877 -0.4432301 -0.116888575 -0.11819796 -0.093565635 0.022305919 0.042189788 0.0374485 0.07608029 0.055136576 0.06633215 -0.024438787 -0.17766097 1.2959194 -0.301679 -0.056612957 -0.009900776 -0.05010784 0.39260033 0.10780238 -0.39102352 0.29995155 -0.6713437 -0.22704871 0.20828001 0.39651963 0.092735596 0.0043806555 0.0703024 0.025937077 -0.466385 -0.15244046 -0.1058625 -0.07523537 -0.00050398347 0.111179136 0.11478015 0.10043657 -0.057980444 0.37003043 0.35555205 0.03327227 -0.6129204 0.067330375 0.117659755 0.24005164 -0.15308501
9277 -0.39984694 -0.13643892 -0.23897727 -0.5204689 0.101632155 -0.17170371 0.12070097 -0.018191077 0.09304181 -0.06878389 0.1962558 0.06769059 0.2168888 -0.3569459 0.1007985 -0.15753013 -0.06660455 0.017573573 -0.37456885 -0.11026226 -0.068066634 -0.12411067 0.008196693 0.10884532 0.07934612 0.03661535 0.08685691 0.113306984 -0.029719919 -0.24221332 1.1907105 -0.24591126 0.008477913 0.007846476 -0.08930792 0.31232604 0.12505521 -0.38164788 0.74967873 -0.79217905 -0.1276121 0.18247989 0.35062653 0.06929721 0.007607289 0.14475504 -0.038298313 -0.4412691 -0.16109352 -0.10542075 -0.07654731 -0.06679976 0.10203521 0.049168453 0.07883972 -0.09281877 0.27632526 0.2415134 0.07675008 -0.5013209 0.08943045 0.08154578 0.25260183 -0.13697025
22791 -0.6901386 -0.1674257 -0.7761643 -0.47187984 0.06568802 -0.23601502 0.10426183 -0.020545747 0.12610258 -0.16837303 0.14993536 -0.024354434 0.1679443 -0.34822208 0.03979272 -0.11779072 0.05214815 0.055110227 -0.29366195 -0.0140812 -0.05745491 -0.15923303 -0.03997024 0.10720695 0.08907202 0.05566121 -0.0069780303 0.109770544 -0.060212173 -0.16797566 0.7909365 -0.22257644 -0.060799792 -0.051210877 -0.051845737 0.16996218 0.063871 -0.4802989 1.158819 -0.89902455 -0.042557728 0.20025404 0.42410338 -0.12872076 0.06463379 0.11908079 -0.17077617 -0.40357545 -0.13132784 -0.1364405 -0.09496034 0.020779608 0.14330427 0.109914064 0.046402305 -0.044394556 0.36560017 0.2167568 0.053248294 -0.32701114 0.01795119 0.05157879 0.34004292 -0.038257085
37782 -0.7055919 -0.0065240646 -0.95270854 -0.412573 0.06492849 -0.0047108345 0.058414504 0.12038465 -0.18923709 -0.0595646 -0.023758715 0.0002881627 0.061810154 -0.0699814 0.10688188 0.0013175245 -0.11703234 0.057167176 0.032850903 0.0077374843 -0.043165088 0.10300569 -0.13116479 0.049339637 -0.17071854 0.054226536 -0.04332315 -0.07438387 0.054689392 -0.0005384028 0.5515228 -0.08530265 -0.053239718 0.020517336 -0.0072005205 -0.070806585 -0.07754266 -0.009044603 1.2499623 -0.8020184 -0.120625265 0.08203214 -0.036965307 -0.12913947 -0.020552844 0.044466577 -0.08713673 -0.1102643 -0.12054148 -0.043524858 0.12107202 0.08542639 0.022149066 0.032165855 0.009216118 0.15921739 0.11754274 -0.0038531958 0.02280156 -0.24161713 -0.05341565 -0.031955298 -0.06241551 0.06736185
22802 -0.7699086 -0.16483499 -0.99869615 -0.48600182 0.32864136 0.2759097 -0.14044689 -0.14556772 -0.17439839 -0.060981102 0.116212726 0.01083802 0.085478276 0.21078636 -0.10693054 0.043796726 0.086003155 0.15808447 -0.09823573 0.16170521 -0.09962176 -0.05267716 0.43103406 0.016595947 0.0019515365 -0.048684426 0.19118877 -0.1331739 0.08649255 0.0021726284 0.5429788 -0.15941389 0.018710677 0.08686359 -0.013954536 0.009126236 0.11161308 -0.33762905 1.3323557 -0.8804593 -0.3879245 0.005782775 0.10016318 -0.16237265 -0.12785242 0.078976475 -0.051753275 -0.12719351 0.20281525 0.38170257 -0.08721483 0.08844286 -0.19918355 0.019289935 -0.06561859 0.083131865 -0.010733033 -0.07665261 -0.041995168 -0.23650514 0.022893213 -0.048056144 -0.013845666 0.12797284
9393 -0.7575305 -0.14728014 -0.99232227 -0.47721553 0.31686315 0.25322035 -0.08939733 -0.19997577 -0.11023212 -0.07809523 0.10243962 -0.028862948 0.10855127 0.2206969 -0.16819131 0.052607093 0.115116335 0.14974493 -0.03616835 0.09834394 -0.04994236 -0.015845537 0.40585482 0.011409324 -0.08681901 -0.06310374 0.19724904 -0.20268166 0.03246382 0.0091981795 0.5308659 -0.11898214 -0.037451398 0.051582534 -0.0045784265 0.019321986 0.21081947 -0.24061567 1.3208437 -0.89285076 -0.34990343 -0.070301525 0.042801354 -0.1791952 -0.076226406 0.073222876 -0.030746678 -0.11486192 0.2209043 0.37537605 -0.032413725 0.05566534 -0.18699972 -0.041778497 -0.077969246 0.06258339 0.03275227 -0.04241795 -0.0093093 -0.24145716 -0.03541923 -0.15684223 -0.06957981 0.0890206
22860 -0.75509685 -0.050805375 -0.9922504 -0.4852992 -0.01606948 -0.08340318 0.05777893 0.26901674 0.17176276 -0.010112409 0.18726262 -0.2595002 -0.095609725 0.17033887 0.40856966 -0.053477693 0.24615502 0.09865147 -0.42399666 -0.07209591 0.24880311 -0.110315055 0.004021652 0.026361655 -0.27384868 -0.100842446 -0.11768935 -0.0136319855 -0.024170706 0.011597655 0.56363344 0.014340402 0.34396458 0.041853003 -0.037215825 -0.06662393 0.22422855 -0.13961141 1.3211173 -0.8461432 -0.013645529 -0.12413526 -0.29991287 -0.2237438 -0.11556743 0.043001126 -0.0055525745 0.02599318 -0.11336816 -0.21843834 -0.024568027 0.14305681 -0.04081625 0.037022796 0.1515452 0.13559403 -0.17655742 0.109598696 0.068082735 -0.26215553 0.0856392 -0.15232754 -0.09938402 -0.18926893
9279 -0.73671937 -0.03036059 -1.0092334 -0.4752229 -0.042601377 -0.11807389 0.13599962 0.18780641 0.15720995 0.06429726 0.15673934 -0.28923887 -0.10471494 0.13958816 0.3673256 0.0027888115 0.22345409 0.07940226 -0.37679526 -0.08736496 0.22566591 -0.06466662 -0.042826835 0.08811699 -0.2784082 -0.05932444 -0.11234128 -0.13442269 0.05833494 0.014679018 0.551312 -0.034535643 0.28127763 0.051283278 0.012856206 -0.0392541 0.24657904 -0.077682585 1.3030403 -0.8626601 -0.001830218 0.0062115123 -0.25266683 -0.23842965 -0.088915564 0.021539789 0.06595886 -0.032632355 -0.121319756 -0.08534752 -0.025547298 0.12751608 -0.14386202 0.08066696 0.12537912 0.11085907 -0.2133521 0.11830073 -0.014519328 -0.2683298 0.08581967 -0.046365898 -0.0780136 -0.20648323
22849 -0.85624903 -0.14346874 -1.1128379 -0.39428213 -0.1596689 -0.2922278 0.17855461 0.044723954 0.16359192 -0.06646626 0.27621263 -0.037272 0.23179102 0.22347158 -0.03883904 0.19651482 -0.20300889 -0.08308709 -0.20364118 0.097135425 -0.014631639 0.32204518 0.04011429 0.2079241 0.1590376 0.12298506 0.0549031 0.09922917 0.08110408 -0.019173263 0.548182 -0.010857108 -0.05737253 0.14037567 -0.044375718 0.12487321 0.28695667 0.2191851 1.0385427 -0.78360444 0.12259839 0.056104247 0.0013082459 -0.23501386 -0.0031761117 -0.13304874 -0.20628504 0.13477741 0.07814784 0.10027685 0.048982866 0.0882684 -0.17926559 0.0005953701 0.08606047 -0.1499649 0.094446845 0.015813228 0.043921165 -0.17482798 0.08478476 0.20234345 -0.1471786 0.12247108
6380 -1.0977768 0.0035720915 -1.0645956 -0.23183654 -0.2556799 -0.09069166 0.07198313 0.1834587 0.18550842 -0.027093977 0.3422509 0.06501287 0.059859548 0.043245714 0.028282933 0.11644903 -0.3524192 -0.2566831 -0.2192276 -0.038823936 0.099585 0.0676485 0.16064736 0.13029538 0.22147784 0.1780169 0.02850381 -0.0012830255 -0.08895543 -0.057621907 0.4627227 0.08738433 -0.11331618 0.12421497 -0.03418273 0.1360529 0.1869123 0.2667032 0.59101677 -0.60740197 0.03755733 0.2359294 0.0001112028 -0.15474163 -0.0057085035 -0.49827087 -0.2091225 -0.022114957 0.2480362 0.05434532 0.05406005 0.011835125 -0.3121475 0.124715045 0.036313247 0.09318614 0.15199864 -0.02443156 -0.08320027 0.015436417 0.15489033 0.08965426 -0.068917766 -0.0379344
15387 -1.6375978 -0.09639591 -0.5988107 0.0030390066 -0.2947494 -0.31939843 0.09216762 0.21397586 0.15540117 0.14110623 0.3689319 0.18596642 0.09195281 0.018934544 0.07349844 0.120148756 -0.41455522 -0.33900094 -0.12443715 -0.07558349 0.10346919 0.095963664 0.06427398 0.04152319 0.23312734 0.18667679 0.05062134 0.012117187 -0.06258911 -0.104230575 0.015988532 0.17134042 -0.14040338 0.15550767 -0.10747684 0.11821482 0.1588197 0.13800354 0.4104639 -0.13868977 -0.046361774 0.16293937 0.04218689 -0.06763081 -0.06739592 0.11959679 -0.18413505 -0.12760021 0.08460729 -0.10553283 -0.95224965 -0.08385747 -0.39673916 0.14253765 -0.10179064 0.21736601 0.18421029 -0.07203841 -0.17257224 0.07873777 0.114133246 0.034902874 -0.01278411 -0.035205
15548 -1.7598588 -0.41415295 0.122588485 -0.009621639 0.13782164 -0.13706894 0.32503527 0.30386743 0.02382438 0.08921463 -0.099803306 0.24642645 0.098343164 0.016275654 -0.053981144 -0.011579127 -0.365397 -0.25680003 -0.3047733 -0.09922522 0.6307183 0.077991 -0.51902527 -0.2014029 0.039908286 -0.3212724 0.14608103 -0.06724558 -0.11093204 -0.15971035 -0.23789476 -0.021232136 0.0054342444 -0.113636896 -0.12783644 0.08070173 -0.38070843 -0.104529545 -0.010939917 0.062913105 -0.0070765275 -0.05750239 -0.32575008 0.17491136 0.10882492 0.28965825 -0.13372801 -0.15084949 0.054007947 0.16215234 -0.13253301 -0.3709268 0.15474781 -0.08405563 0.24740885 0.0040341755 0.04645953 0.110250376 0.13302727 0.04602452 -0.05689089 0.080255 -0.033872496 0.03253826
6268 -1.7434651 -0.39834943 0.1885644 -0.015318572 0.12543121 -0.065829836 0.23268309 0.26811314 0.05162643 0.059459485 -0.121989556 0.27433956 0.08432739 0.03424956 -0.087483086 0.030754067 -0.38342774 -0.20448409 -0.31589895 -0.119495034 0.62822795 0.11079274 -0.46976578 -0.2175588 0.017675707 -0.26044777 0.1273783 -0.10956578 -0.18408719 -0.16332477 -0.22232611 -0.014340767 0.045377385 -0.06798651 -0.12217947 0.13052122 -0.39681694 -0.11161802 -0.022345927 0.02179017 -0.008787032 -0.020100387 -0.3777627 0.15850149 0.11572796 0.29105905 -0.1022334 -0.15553103 0.059275873 0.14268832 -0.10469699 -0.30499455 0.12392366 -0.14233807 0.19039452 -0.029599914 0.036580544 0.13204117 0.0867457 0.058034975 -0.08918655 0.07461525 0.004235506 -0.038039878
15593 -1.7840167 0.08072286 -0.13940673 -0.007879505 0.07643768 -0.1588116 -0.23819815 -0.033363137 0.1253505 0.15957412 -0.63550407 0.08983873 0.02564134 -0.0054485383 -0.19820681 -0.33167362 -0.055885736 -0.28091294 -0.27957016 -0.007945905 -0.17112249 -0.1410891 0.16674727 -0.318968 -0.15750328 -0.2931799 0.07449757 -0.09530865 -0.09311092 0.14079861 -0.4219582 0.09103455 0.08404832 0.17813128 -0.2375058 -0.026900822 0.17399277 -0.21835092 0.25661558 0.19633307 -0.19849905 -0.004023298 -0.24887744 -0.20804378 0.11936891 0.20160301 -0.05115471 -0.13749751 -0.019138357 0.1728447 0.01647299 -0.050492268 0.109496176 -0.30941674 -0.1662223 -0.078948826 0.31539914 -0.14903343 -0.2210239 0.06915666 -0.083792925 -0.019290125 0.16709943 0.34265408
6192 -1.7625086 0.04275256 -0.09959201 0.021134643 0.037462752 -0.121459745 -0.23055683 -0.045541972 0.13317631 0.11769365 -0.5432676 0.09893038 0.05150652 0.025247619 -0.21408212 -0.31575012 -0.074800126 -0.27333984 -0.27034533 0.036724463 -0.1543631 -0.16902046 0.14248444 -0.30706635 -0.14529881 -0.22475813 0.034186702 -0.100726835 -0.06924758 0.20145705 -0.39457864 0.09226972 0.043853268 0.16839324 -0.24133588 -0.026898505 0.14041132 -0.26208448 0.21949184 0.1609341 -0.21418053 0.01880188 -0.21950893 -0.19046615 0.1158687 0.19506958 -0.05557535 -0.14533156 -0.034671348 0.2007125 -0.0012480785 -0.04648674 0.17840181 -0.34151873 -0.1619869 -0.056504592 0.28686005 -0.13247551 -0.18007872 0.032289237 -0.091594964 -0.038138654 0.13184166 0.3209007
15460 -1.7580118 -0.12685071 0.1624346 0.036626715 0.14412022 0.34226435 -0.01475223 0.12220251 -0.058938764 -0.07983434 -0.29502842 -0.067545004 -0.17958152 0.25570187 0.05958624 0.2813106 -0.17459176 0.3852811 0.085764505 0.20398387 -0.23882258 0.10344204 -0.42138058 -0.12480795 0.13992746 0.036536187 -0.068385355 -0.060001917 -0.11797114 -0.20428452 -0.08443569 0.009945634 -0.36083063 0.00812858 0.0833767 0.020450208 -0.018888803 -0.11320015 -0.11485209 0.0021325473 -0.516822 -0.0041342783 -0.04079296 -0.20078197 -0.02380455 0.3449404 0.059872232 -0.14489758 -0.015752494 0.43039575 -0.19670753 0.2570545 -0.09896878 0.1505729 -0.13523816 0.047038123 -0.11070282 0.1209441 -0.013926571 -0.001564383 -0.1858623 0.36550942 -0.22224143 0.05674292
15538 -1.7947388 0.27125093 0.09841204 0.0054674796 -0.048518553 -0.042899933 0.19064605 0.03998458 0.30618483 0.012050179 0.030055534 -0.043785583 0.43067935 0.17923006 -0.29272982 0.39011192 0.018801864 0.2663408 -0.05311822 -0.33111745 -0.025185458 -0.15210432 0.18360788 0.07431316 -0.106759615 -0.15362048 -0.13442539 -0.18602055 0.10699607 -0.15127772 -0.20227551 0.058579423 -0.026808232 -0.092209585 0.05745178 -0.06566245 -0.29850802 0.17474413 -0.010745074 0.09540141 0.32310188 -0.0436716 -0.088482134 0.042296436 0.07258025 0.2992242 -0.03747342 0.020305978 0.35026732 0.1113471 0.059896424 0.39390135 0.04920216 0.140648 -0.1679832 0.64280355 -0.11264038 -0.1519863 0.07435991 0.040078957 0.10682762 0.25368014 0.34539598 0.25777343
5523 -1.7976282 0.31784585 0.043550134 0.024375176 -0.005661571 -0.00060790917 0.1162616 -0.0016546984 0.3725248 0.07414712 -0.06166468 0.026508898 0.36896664 0.19293524 -0.23876 0.34253773 -0.02333805 0.25703713 -0.06606246 -0.311077 -0.026906481 -0.048100695 0.19377246 0.05653891 -0.092016995 -0.10866599 -0.16163212 -0.22316357 0.17374235 -0.14127657 -0.21184522 -0.010464156 -0.15225263 -0.02664389 0.07752739 -0.059410054 -0.26772553 0.19449024 0.04366927 0.11968541 0.2055776 -0.0623342 -0.084473796 0.10517794 0.064709485 0.2609919 0.021764074 -0.015927652 0.4044629 0.15583451 0.041527458 0.30552617 -0.011333118 0.12962213 -0.03840534 0.63125104 -0.02330467 -0.096881986 -0.019541215 0.02638322 0.036582623 0.1975433 0.21136698 0.3119934
15580 -1.791258 0.29582283 0.0374679 0.01896012 0.052790996 0.017067272 0.037088975 -0.07117238 0.37811127 0.16247824 -0.041186728 -0.013879554 0.38996878 0.1837093 -0.20556234 0.3800974 -0.03846323 0.21019256 -0.026504355 -0.3486121 -0.0598073 -0.05278439 0.17234524 -0.012665469 -0.08410723 -0.088628545 -0.16180816 -0.22074273 0.14932394 -0.11943747 -0.19661605 0.012888715 -0.19821003 0.0001883863 0.084174186 0.0030758576 -0.27115273 0.20175403 0.057256136 0.115700796 0.22953254 -0.10171234 -0.12015319 0.12627469 0.08107511 0.27621302 0.05707638 -0.07704558 0.4526531 0.22979213 0.04225565 0.31810942 -0.042833373 0.17143807 -0.12186942 0.6551339 0.03972028 -0.11122625 -0.02621715 0.02660436 -0.024764702 0.108941965 0.1682421 0.36115375
15380 -1.7715776 -0.1938842 0.19670045 0.0064876894 0.021588106 0.00014317043 -0.2296508 0.040004123 -0.093263075 0.07324341 0.18488902 0.07786068 -0.028561197 -0.36468714 -0.28193933 0.37255675 0.19602631 0.1278202 -0.012438827 -0.23289606 0.1462428 0.112970985 -0.15475619 0.25677747 -0.029363727 0.09188073 0.09094521 0.17307772 -0.3743002 0.30172348 -0.10188362 -0.014482477 0.17051728 -0.37198034 -0.01924099 -0.21976538 0.34460708 0.55148685 -0.09913189 0.012516 0.021547116 0.15572251 -0.21655133 -0.21757104 0.019480977 0.37580124 -0.216273 -0.08220806 0.18466394 -0.0033237303 -0.061538927 -0.23112203 0.29357624 0.047427576 -0.09207266 0.10514519 0.052899193 0.13555987 0.052421276 0.025363887 0.07801529 -0.32488692 -0.29931805 0.1855433
5799 -1.7617874 -0.1533447 0.21808787 0.004598854 0.052680753 0.00042554596 -0.22639269 0.012060357 -0.082992725 0.078809924 0.18523766 0.02718785 -0.089885026 -0.373167 -0.2732739 0.348784 0.1813746 0.15977104 -0.009719298 -0.21924473 0.1880028 0.08821982 -0.12500525 0.23826863 -0.02928212 0.103201926 0.12606096 0.17594357 -0.34484246 0.3070734 -0.11726372 -0.0015293448 0.14553082 -0.3639116 -0.12555334 -0.15048951 0.29048544 0.47253338 -0.12386712 0.03192865 0.002565268 0.17694543 -0.19442257 -0.19850071 0.040033165 0.3494368 -0.16338277 -0.09860704 0.2007538 -0.005136852 -0.10886278 -0.22563837 0.30885428 0.011054656 -0.06828151 0.10595329 0.068536155 0.14358057 0.042118754 0.030513437 0.02386449 -0.3701416 -0.25794786 0.19350013
15597 -1.7687964 -0.062047917 0.2326078 0.007952648 5.7156223e-05 0.08008485 0.1166576 -0.07420694 0.11192274 0.047479846 0.11880491 0.2806185 0.17492087 0.11447841 -0.009349825 -0.15490153 -0.034607302 -0.13491246 -0.29396096 0.18035643 0.2863433 0.4072003 0.21769002 -0.27064124 0.013346483 -0.13405627 -0.075144485 -0.058672156 0.051445093 -0.33865246 -0.14531401 0.03286823 -0.04146344 -0.16235816 -0.12181625 0.48364106 0.17654966 0.1536197 -0.14068383 0.070808046 0.22618258 0.15967907 -0.23282634 0.1537608 0.0077954447 0.2977803 0.6266826 -0.020019088 -0.0421445 0.15405057 -0.035162397 0.2770885 0.03657547 -0.07406547 -0.06852678 -0.16965927 0.099719666 0.21656087 0.37236986 0.02438336 -0.31662408 0.06946647 -0.060490265 0.4050152
6652 -1.7347529 -0.010941626 0.24150217 0.01780671 0.014307891 0.14824533 0.08400775 -0.097271875 0.049771685 0.059017397 0.034052078 0.3044213 0.2073267 0.1309391 0.02796755 -0.25791004 -0.0030991165 -0.044290785 -0.2931668 0.04743274 0.19810835 0.38629562 0.17631947 -0.3082838 -0.03141626 -0.11558243 -0.13191773 -0.035831176 -0.00919066 -0.28294316 -0.19783527 0.077772886 0.0040698806 -0.18322639 -0.15881713 0.47387093 0.120609894 0.12819897 -0.06589472 0.07412581 0.18474044 0.15003501 -0.27428946 0.20379455 0.12545452 0.305105 0.57373166 -0.056034975 0.0063975537 0.10876875 -0.023665309 0.15074153 0.07775765 -0.081456736 -0.17709666 -0.12295953 0.124415085 0.1729144 0.33442804 0.006866512 -0.34408084 0.06693437 -0.046535913 0.41759956
6396 -1.7551111 -0.030222213 0.13783857 -0.010572855 -0.18440816 0.08736857 0.24528307 0.18839705 0.19536439 -0.09774302 -0.05993587 0.054173317 -0.1104376 -0.26768053 0.07466175 -0.024843711 -0.04825075 -0.009626481 -0.24378328 0.2923698 -0.15663128 0.13594986 0.041742187 0.31916413 -0.018042179 -0.035261042 -0.26987022 -0.06203488 -0.18763791 0.19200216 -0.16633512 0.08363688 0.10635676 -0.3027305 -0.17182371 0.076673776 0.4839939 -0.13925931 -0.037956137 0.06752269 -0.38795662 0.3235824 0.26242787 -0.117581666 0.047240004 0.31182766 0.2691435 0.28788581 -0.046211913 -0.23977545 -0.14656152 0.242981 0.3811487 -0.29732487 0.07383116 0.075609274 -0.3680647 0.07688892 0.013976798 0.05809241 0.29876646 0.17003134 -0.070840865 0.042249776
15425 -1.7895739 -0.3408325 0.004771463 0.0101532405 -0.14353853 0.26572037 0.31888926 -0.026532648 -0.016255263 -0.1196618 -0.18495364 0.21504043 0.29527423 0.29826716 0.12518013 -0.08597884 -0.025148831 0.10149909 -0.009477096 -0.15648368 -0.14118154 0.08472861 -0.15282637 -0.03561712 -0.1483621 -0.15380648 0.3450572 0.28318906 -0.031055802 0.22837855 -0.25678718 0.12976898 -0.47324958 -0.07469682 0.040117405 -0.081940286 0.21555007 0.023895267 0.14113365 0.16599187 0.17964825 -0.18605095 -0.16700408 -0.117422 -0.09462788 0.25669378 0.0632455 -0.1348983 -0.018442484 -0.2989049 0.15166554 -0.4760332 -0.2616415 -0.11443255 0.13499594 -0.19560862 0.03633818 -0.31126833 -0.20040128 0.030280575 -0.07522353 0.3068582 0.14986086 0.1324116
6438 -1.7835581 -0.33661348 0.0015649284 0.015654478 -0.14602154 0.22546618 0.3088226 -0.05731883 -0.016328197 -0.13148837 -0.18301137 0.19246769 0.2846283 0.28494024 0.135792 -0.08175923 -0.019141842 0.05470728 -0.016122002 -0.13049214 -0.10956248 0.09076076 -0.13563153 -0.03701946 -0.10986008 -0.16427569 0.3237706 0.29226843 -0.011826499 0.21222292 -0.2577815 0.10552155 -0.461536 -0.079230055 0.06127506 -0.09523369 0.18833001 0.025816115 0.11205834 0.17935304 0.17500953 -0.19392303 -0.15301941 -0.099937074 -0.06868165 0.2484212 0.057709035 -0.15583977 -0.014932762 -0.25995302 0.1500255 -0.45903 -0.25726262 -0.10052867 0.16250102 -0.17388102 0.06205279 -0.2790742 -0.17465621 0.026716629 -0.06640733 0.2950846 0.13722149 0.13942063
15503 -1.7968671 -0.037841316 0.118125826 0.015486183 -0.16805156 -0.25310186 -0.020154469 0.40489435 -0.14134867 -0.2911582 0.14047785 -0.30397582 -0.090025455 0.23586786 0.16074921 0.0057214075 0.4272854 -0.05034678 0.28615052 0.06330291 0.24111071 -0.09737281 0.34283844 0.25354493 0.120391764 -0.116255395 -0.3902636 0.1549958 0.3535627 0.1492171 -0.1880423 0.10645569 -0.08514128 -0.052197956 -0.08773318 -0.288161 -0.09317474 -0.45362633 -0.0073372 0.06260871 -0.033078365 0.030393614 -0.48241073 -0.08532717 -0.03785297 0.2784131 -0.07388256 -0.38470003 0.15811081 -0.056489248 -0.09953628 -0.088418595 -0.04232969 -0.2982231 0.18646696 0.1347457 0.09415627 0.17149606 -0.020174848 0.021566212 0.06880775 0.019383086 -0.23616125 -0.0636346
6533 -1.7513186 -0.022273704 0.13914457 0.039823923 -0.1197182 -0.26662445 -0.0841625 0.4071308 -0.09363158 -0.35037103 0.20294577 -0.293697 -0.0398775 0.21860492 0.16375828 0.016006691 0.42479855 -0.04210891 0.2036692 0.037782107 0.25533277 -0.15956908 0.32709247 0.25076655 0.07161919 -0.07190167 -0.48273176 0.19832057 0.27792194 0.08729421 -0.17917751 0.11342792 -0.14887106 -0.08243743 -0.007887297 -0.2386841 -0.088505894 -0.43572772 -0.032631237 0.05121973 -0.0049762605 0.007923773 -0.46179357 -0.087838456 0.07551751 0.26433492 -0.024391653 -0.38555035 0.09447756 -0.035557214 -0.053347602 -0.013438978 0.025252556 -0.28183776 0.15622471 0.13477553 0.083646506 0.09375608 -0.011312777 -0.0132878255 0.030265918 -0.020299021 -0.18549308 -0.08968349
27642 -1.7855496 -0.20918718 -0.035156794 0.0062327893 0.09740539 -0.008236349 0.07531771 -0.07670517 0.038616512 0.2877953 -0.33874086 -0.027794288 -0.09936247 -0.27774027 -0.047945682 -0.046252523 -0.03916836 -0.14820325 -0.0551668 -0.42493957 0.1143238 0.12808356 0.47242826 -0.22778738 0.42402372 0.10033692 0.1856766 -0.007004088 -0.026486546 0.07311771 -0.28403208 0.082648546 -0.18291117 -0.036273614 0.04057854 -0.095081106 -0.03809582 0.42309862 0.05822876 0.1479751 0.012545291 0.2506943 -0.29070446 0.18512255 -0.0052631726 0.2504041 0.28697294 -0.05662008 -0.5184687 -0.06426586 0.12092616 0.14077127 -0.13124865 0.048169013 0.22709425 -0.06952124 -0.2565495 0.46922478 -0.18844676 0.03660202 0.23162471 0.0645092 -0.06905093 0.015591007
3505 -1.778186 -0.18960513 -0.107620046 0.0274684 0.038221166 0.0030889101 0.15663856 -0.120265044 0.014327234 0.28256968 -0.39172864 0.0022550232 0.030199965 -0.26996243 0.013434348 -0.069988914 -0.0032383243 -0.21788028 -0.111958526 -0.38948885 0.105136216 0.060588494 0.43922278 -0.14373302 0.44338033 0.07840877 0.18225595 -0.030377556 -0.013087607 0.03671308 -0.28853583 0.07946753 -0.22314902 0.08715792 0.08356351 -0.115659155 -0.09533159 0.3752635 0.11498247 0.19429617 0.01528887 0.14061126 -0.25646797 0.056961752 -0.038431536 0.25918895 0.2996301 -0.2051896 -0.41310793 -0.029912896 0.19805184 0.14485946 -0.15313035 0.060112596 0.211552 -0.13073842 -0.30383277 0.36675578 -0.2537297 0.018220656 0.13911864 0.075759746 -0.070804775 -0.063039884
