1127 64
14794 -0.15991928 0.043812487 -0.021125615 -0.12443058 0.0070092543 0.25864783 0.04031668 -0.08734617 -0.0752741 -0.11015524 0.3629288 0.19030449 0.022524042 0.12362404 0.08940338 -0.30268013 0.052438978 0.13084826 -0.10429185 0.01596217 0.013980816 0.09554618 -0.076130226 -0.022698378 -0.2826729 0.002237057 0.0012433479 0.02297788 -0.07175074 0.065648146 -0.08773493 -0.024926407 -0.03455261 0.07383452 -0.120986275 0.0155072315 -0.08950036 -0.07527424 -0.06212423 0.17187023 0.10003912 -0.018215131 -0.25006407 0.05178282 0.01837308 -0.018930845 -0.09589065 0.057856806 0.015621579 -0.04089894 0.12974305 -0.026643591 -0.025630763 -0.101507254 -0.13433203 0.06179086 -0.11242976 0.37208638 0.011858757 -0.040653408 -0.12671265 0.21770284 -0.07506491 0.20868155
37786 -0.0052614654 0.045426544 0.01050048 -0.003024742 0.014208876 0.22637291 0.009370799 -0.028291363 0.021456815 -0.00455814 0.064765304 0.12187776 -0.07592297 -0.027183572 0.019840065 -0.19147846 -0.018500673 -0.054838557 0.024772163 -0.02038155 -0.0494512 0.02536246 0.044100095 -0.014333038 -0.017952017 -0.027335927 0.012133352 -0.013986851 0.033634413 0.02335334 0.04194633 -0.020079985 0.0011906344 -0.049337205 -0.02801682 0.0040061167 0.035363063 0.01866624 0.09315014 -0.0112650795 0.029457886 -0.047876824 -0.06454685 -0.05522435 -0.028851641 -0.022403544 -0.034802023 -0.0004085504 0.0003976464 0.003712352 0.14759463 0.03772865 -0.007768812 -0.005228852 0.016635034 0.020000124 -0.09477769 0.32069096 0.0043175453 0.0020995147 -0.02436013 0.11892293 0.011663615 -0.061871957
15553 0.06038652 0.1718822 -0.048706073 -0.028062552 0.031230586 0.14252411 -0.14130558 -0.059351828 -0.17915294 -0.018759968 0.27587625 -0.23929034 0.2195817 0.14326662 -0.0694056 -0.065714344 -0.013778884 0.0020767848 -0.064185224 0.025268318 0.015448574 -0.11686974 0.05651523 0.04397062 -0.07021175 -0.0077094426 0.06784754 -0.05745979 -0.25496423 -0.05764142 -0.08873547 -0.03608447 0.100946456 -0.14156231 0.09529136 0.07791012 -0.055461455 -0.1112659 0.09924892 0.018388929 0.1392499 0.023176981 -0.015610958 0.12963563 -0.07508128 -0.014657557 -0.04104314 0.048346672 0.061643355 -0.05552828 0.18422157 -0.031569187 -0.049023252 -0.12836379 0.025648298 -0.036529128 -0.068629846 0.6160477 0.08086218 -0.02209896 -0.02085337 0.21661724 -0.061797835 -0.10889423
15453 0.011292335 0.10297435 0.039616723 0.008356508 0.09133412 0.2491685 0.049768087 -0.056806203 0.014822346 -0.007092235 0.13286957 0.09962095 0.025398867 0.06942065 0.0688401 -0.14522456 -0.040284015 0.20338963 0.09273418 0.03696311 -0.013377073 -0.100541234 0.042547252 0.10469058 -0.0030368455 0.027323714 -0.063774325 0.005371127 -0.0006302759 0.0067601474 0.12219647 0.026130946 0.16762298 -0.17277251 -0.12809017 -0.011331304 0.20974033 -0.027248677 -0.046385877 0.16148071 -0.034466118 -0.020201944 0.22190596 -0.013342689 0.08108735 -0.3323846 0.015154799 0.055688906 -0.16211316 -0.0075162365 0.2436722 -0.121826015 -0.18329673 0.023767756 -0.03826914 -0.1397721 0.038849253 0.5322382 -0.21773542 0.015752388 0.09120033 0.07556273 -0.019101368 0.0716758
15554 0.07953209 -0.15237816 0.07686115 -0.07641568 0.016973983 0.37360993 0.049633794 -0.14220092 -0.06462456 -0.10808263 0.1924526 -0.20367947 -0.085782364 0.13886839 -0.052805632 -0.16768347 0.023136152 -0.18342774 -0.1438973 -0.116537064 0.043050602 0.05902809 -0.02345677 -0.08644536 -0.121155694 0.081255086 -0.0072785574 0.12579152 0.07874848 -0.013538374 0.07679216 0.006832811 0.11163781 -0.051646262 0.042722136 -0.086501494 0.06876023 0.060924657 0.15029715 0.039573446 0.11567998 -0.06692224 0.07627121 -0.08537756 -0.12675186 -0.00047463257 -0.015745653 0.037064698 0.08744106 -0.041026305 0.23809333 -0.020529259 0.0109975645 -0.1152037 0.005550275 0.10624788 0.15621904 0.35139826 -0.06339637 -0.20906429 -0.08810948 -0.04961853 0.05268918 -0.15478446
15481 0.1198588 0.116087094 -0.025713075 -0.0689082 0.15678981 0.24456221 0.06901917 0.023712056 0.063077874 0.13066585 0.20740685 0.27273342 0.15477027 0.047554668 0.007118621 -0.18245283 -0.06540845 0.015074085 -0.046407804 0.014287633 0.030656992 0.09880145 0.07194368 -0.062062792 0.13976903 -0.03931436 0.12032775 -0.22411962 -0.2314273 0.015697272 0.016701907 0.013870188 0.023834871 -0.06484563 -0.03449906 0.0761099 0.06488243 0.085031345 -0.02235534 -0.17872031 -0.06132012 -0.1830086 -0.042721197 0.1815374 0.0027377107 0.020631032 0.0430665 -0.009594321 -0.109995164 -0.21301171 0.105114944 -0.04058546 0.04583842 0.1478223 0.23927745 -0.102282576 0.14032446 0.39305267 0.027022656 -0.055368353 0.050501898 0.07469125 -0.05772983 -0.010124274
15597 -0.15622337 0.060693316 -0.16445339 -0.07815122 0.039335106 0.20028323 -0.053375132 0.06310579 0.008175724 0.058395635 0.25537935 0.13391654 0.076102905 -0.0014089709 0.056700993 -0.22747114 0.02288013 -0.21101762 -0.07305876 -0.08078327 -0.0059040687 0.026163606 -0.04477944 -0.011738823 0.10865437 0.0029723935 0.10357214 0.012572316 0.06816663 0.0068985648 0.015464968 0.0118962815 -0.13080966 -0.069973834 0.037146006 -0.05784687 0.012376449 -0.09609448 0.03002218 -0.017381808 -0.03862883 -0.09285303 -0.04618427 0.019209784 -0.034536228 -0.019404132 -0.07397154 0.07887316 0.13994381 -0.04273395 0.1538647 0.0375209 0.0489105 0.009258066 -0.13747938 -0.16563888 0.23653781 0.47227204 -0.03385299 0.027773699 0.0147852395 0.20064384 -0.060561948 -0.020836676
15576 -0.05586866 0.05035871 -0.013259393 0.033873606 -0.067885496 0.32197103 0.2686916 -0.0403505 0.19233094 0.113194324 0.16031049 -0.40315232 0.11734653 0.062170383 0.21421646 -0.25570723 0.10370136 -0.07646971 0.13877396 0.009511784 -0.009781985 -0.15180595 0.11500555 0.049547955 0.08495348 0.06962776 -0.07509865 -0.061220646 -0.14808251 -0.015952917 0.14715225 0.031352255 -0.019445589 0.16579016 -0.0028690717 -0.082994595 -0.15395735 -0.033984695 -0.009827872 0.05515242 -0.0149864 0.13755667 -0.085918225 -0.07743726 0.09081248 -0.06605218 0.04249876 -0.0019433965 0.04123304 0.055591103 0.21775046 0.120405234 -0.021932838 -0.02266245 -0.29745513 -0.0300342 -0.11883483 0.44221255 0.09367297 -0.098568074 -0.009101588 0.015674435 -0.07078872 -0.17528924
15584 0.021393215 -0.09472591 -0.20793581 0.004702474 0.013709491 0.24881704 0.023680625 -0.08744813 0.10026966 0.100913994 0.15913685 -0.034957323 -0.19395442 0.042805906 0.08564331 -0.058655553 0.0035907757 -0.09408299 -0.18011907 -0.085332274 0.051966053 0.1324767 0.17043898 0.0028700803 -0.05722245 -0.057219952 0.2956443 0.0026590314 0.06811496 0.04474321 0.034814466 0.018733123 -0.11675635 -0.14379652 0.12824199 0.28001466 0.11752882 0.11214094 -0.012395928 -0.035725866 0.06476221 -0.03310663 -0.03301566 0.056620076 0.06794503 0.08050469 -0.027775766 -0.0891384 0.07477308 0.109642506 0.32918945 0.00024746024 -0.047672246 -0.13595875 0.05214055 -0.028514603 0.22616337 0.5308138 -0.24038191 0.015350402 0.07655121 0.057205733 -0.01617345 -0.09899662
15458 0.08598482 0.09123992 -0.22177382 -0.12895095 0.06781641 0.36243966 0.12938465 0.051876158 -0.28996292 -0.09462696 0.199895 0.31404674 0.10472226 0.118490145 0.046848893 -0.17691018 0.080841966 -0.092694655 -0.058630764 -0.13826 -0.032961924 0.06951622 -0.016043132 -0.0725042 0.09143936 -0.03829228 0.06699561 -0.08416493 -0.041503984 -0.045950193 0.06126535 -0.005075886 0.16842607 0.10451859 0.08539819 0.09899885 0.13836777 -0.07155983 0.023922132 -0.023319248 0.025727442 0.19359708 -0.085367605 -0.054718185 -0.055511672 0.07410654 0.061022893 0.13436729 0.029543353 -0.0028600884 0.129878 -0.13974483 -0.07131423 -0.15489827 0.003918454 -0.12670346 0.030015666 0.5408027 -0.01618079 -0.03201531 -0.016600426 0.07393684 -0.032791156 0.062206432
15594 -0.06657207 0.19027579 -0.014153141 0.04024309 -0.042492658 0.4437446 -0.013195527 -0.09786774 -0.0042121457 0.14666645 0.051178306 0.12717186 -0.023564566 0.07369189 -0.017690513 -0.0446905 -0.11685418 -0.027421124 0.102636814 -0.018492952 0.0279534 0.109610416 0.102973536 0.087987095 0.08854133 0.040746424 -0.15394028 -0.15220308 0.14162526 -0.0254022 0.033162642 -0.11940979 -0.05509367 -0.06182533 -0.14395893 -0.030322535 0.033864863 -0.17360687 -0.018503001 0.02014963 -0.108353905 0.027539184 -0.03984851 -0.16610633 0.030594237 0.020319594 -0.03288381 0.075491644 -0.15034595 -0.083641104 0.27263197 0.0363609 0.0023453226 -0.19781911 0.011429409 0.10831846 0.18464683 0.49800363 0.04736584 0.038801923 0.029708588 0.19237506 -0.14641187 -0.021190695
15533 0.00025694698 -0.08758577 -0.059578683 -0.0050247847 -0.038802765 0.38093397 0.029167848 -0.08559909 -0.14440411 -0.04390737 0.08553516 -0.1423242 0.14727688 -0.055122722 0.2053021 -0.117118314 -0.09316016 0.005277306 0.07285609 0.04233321 0.0105954865 0.14369512 -0.10174448 -0.010931174 0.221595 -0.0030237732 0.056996066 -0.017882884 0.14931197 0.04407225 -0.15273675 0.053379502 -0.06811678 0.03223431 0.045299232 0.0918561 0.037348352 -0.0062169223 0.14705989 -0.062735714 0.038625453 -0.10387566 -0.017804716 0.12795731 -0.20498194 0.025565218 0.024630265 0.078458786 0.20258689 0.009701339 0.23286453 0.024848016 0.021313146 0.12380616 -0.18843044 0.036435567 -0.12815183 0.48203623 -0.09578998 0.076905705 0.26584765 -0.11439439 -0.13922086 0.15034173
15488 0.14123741 -0.083614826 -0.088664606 -0.014257403 0.09503201 0.13086192 0.2768141 -0.01445524 -0.10382562 0.012650371 0.28100693 0.10189003 -0.018156014 0.16917314 0.22662535 -0.18410325 0.03911923 -0.16193359 -0.16233052 0.15721661 0.02445552 -0.096312635 -0.053292517 0.10887595 0.20985536 -0.10122858 -0.05733268 -0.063748494 0.21574911 -0.035127196 0.06355623 0.09211682 -0.0018777001 0.00928985 -0.24637814 0.12695505 0.057457067 0.096647136 0.048683885 0.09582228 -0.027215743 -0.06390822 -0.08227542 -0.04114191 0.03570859 -0.04960607 -0.115385704 0.05015899 0.0577236 -0.05335668 0.114141285 0.05816987 -0.03870297 0.08781182 -0.13634063 -0.046029612 -0.06705875 0.4269748 -0.052711368 -0.0689271 -0.037204593 -0.03773085 0.21225354 -0.048784427
15580 -0.05495421 -0.02413788 0.04123997 0.0038464763 -0.06330553 0.31576085 -0.12639324 0.071741134 0.16312939 -0.0382063 0.17629868 -0.18442078 0.004141535 0.09896726 -0.044945445 -0.15136524 -0.047452495 0.020360366 -0.13340484 -0.07002062 -0.0076214094 0.04116803 -0.21339424 -0.011972252 0.077813216 -0.07942874 0.09900299 -0.12808138 0.09443654 0.024347652 -0.106655225 0.011713301 -0.017854888 -0.100581355 -0.21283445 0.11960744 0.011859887 0.1431183 0.07678696 -0.056649227 -0.14969397 0.035759553 -0.2511758 0.011742465 0.06625646 0.015386136 0.06966841 -0.077428706 0.06720123 -0.028718801 0.102856606 -0.07624437 -0.012973982 -0.075746305 0.055560358 0.1700697 0.018879905 0.5665473 -0.058901068 0.13010372 -0.11906854 0.07862489 0.10527896 -0.041152366
15532 -0.060086206 -0.08857579 -0.024700709 -0.09127264 0.06773164 0.20465846 0.0645828 -0.029619193 0.023029823 -0.23813984 0.093892016 0.07363123 0.08554809 -0.19455704 0.074029796 -0.28698024 0.003877018 -0.091695 0.036512442 0.25037783 -0.030691015 0.0828849 -0.089744054 -0.112014376 0.062118106 0.053325783 -0.09710209 -0.06032501 0.21399488 0.022592617 -0.049181424 0.08737638 -0.10278297 0.1542186 -0.09817729 0.0655874 0.013386138 0.031835716 -0.041229993 0.049347732 0.013211878 0.06785308 0.1743397 -0.09851468 -0.14522383 0.034917694 0.012684644 0.079378545 -0.06478072 -0.0050825686 0.36240515 0.028320137 0.005245189 0.09926041 0.1905145 0.09632726 -0.36166826 0.49729663 0.04472703 0.118609175 0.13724974 0.122813515 0.0865496 0.21838598
15511 -0.052559357 0.040143017 0.11300965 -0.13563566 -0.09502148 0.33817908 0.13572516 -0.08704381 0.02796323 0.039245714 0.19255532 0.028174194 -0.023996977 -0.020752316 0.16009654 -0.12418254 0.104196385 0.04149748 0.056948833 -0.33542258 -0.009521339 -0.022446001 0.08360567 0.0010137383 -0.017676158 0.04135846 -0.060261574 -0.084152766 -0.08908723 -0.09394852 -0.03536881 0.019093115 -0.1206283 -0.04701098 0.08778418 -0.0038715384 0.06473695 0.19325803 -0.052711643 0.10200464 -0.086637795 -0.06172877 -0.08498125 0.11618135 -0.09678446 -0.042983294 -0.11368231 -0.053618085 -0.12157601 -0.042953536 0.16996641 -0.20834947 -0.051460512 -0.12319462 0.025320379 -0.143035 -0.06702639 0.5685124 -0.056444738 0.049185365 0.19724034 -0.10551184 -0.13105984 0.075076096
15593 -0.11226324 0.26771545 -0.1752076 0.41227877 0.07173498 0.1965002 -0.464934 0.021851493 -0.090575166 -0.0011993406 -0.54879564 -0.06598535 -0.106913835 -0.16731416 0.22735894 -0.7569158 -0.0012937489 -0.5551835 -0.000619469 -0.10787687 0.5975459 -0.30022082 -0.111958206 -0.23219639 0.45412472 -0.19150162 0.3467062 -0.30947173 0.0011829124 0.7341425 0.18182938 0.023711136 0.5351887 -0.22313465 -0.17730513 0.20211096 0.30523625 -0.03310367 0.26490167 -0.5809402 0.07838358 -0.5650889 0.17285311 -0.30114278 -0.060849287 0.0034735855 -0.15336402 0.33084697 0.16505267 0.23893115 -0.6425975 -0.2550827 -0.07824847 0.19062881 0.11980656 -0.4486692 -0.6076859 0.48777044 0.061713107 -0.13269986 -0.30167577 0.39336142 0.097398795 0.12182157
15496 0.051842738 0.03299353 0.0094708605 -0.23182884 0.11213802 0.2844419 0.04496672 -0.026609454 0.2535976 0.061071947 0.2058364 0.06488432 -0.0054477346 -0.104600444 0.05675044 -0.20522761 -0.0122183245 -0.019741757 0.01166103 0.16698247 0.0016787656 -0.24291416 0.055486783 -0.08430021 -0.05293862 0.075777486 -0.123151824 0.112813614 -0.12007375 0.023198586 -0.06581169 -0.009919962 -0.08731312 -0.16109344 0.007787517 0.22775531 0.14444393 -0.21571797 0.16107245 0.023935115 -0.064750515 -0.059315275 -0.09861043 0.06934027 -0.120113194 -0.019114878 -0.0766019 -0.060399693 -0.050067846 -0.17298874 0.025132598 0.06479629 0.0841308 -0.0057702926 0.036558207 0.062025607 0.046332933 0.4463371 -0.1350382 0.038506337 0.0037055355 -0.08729171 0.081693225 -0.07494809
15534 0.03032342 -0.13620462 0.0951426 0.094716854 -0.027730988 0.27203155 -0.058896292 -0.13010709 0.010604094 0.009545428 0.20346864 0.21465868 0.28802595 -0.01903437 -0.026774399 -0.24997284 -0.0047591357 0.00066013756 0.010529029 0.0025732948 0.010797877 -0.2826409 0.050620034 0.035919603 -0.009453116 0.022279285 0.008292164 -0.0012844153 0.00983373 -0.09863961 0.017906995 -0.15098043 -0.07656508 -0.026027072 -0.04250613 -0.08165589 0.23455591 0.012463122 -0.120189786 -0.054414958 0.0073376824 -0.024378564 0.018032044 -0.008336255 -0.0032467532 0.03106778 -0.05034509 0.08038069 -0.10898476 0.027479157 0.29037836 0.05900448 0.046630308 -0.19156511 0.07612427 -0.08362105 0.058127835 0.39035562 -0.049193095 -0.22018385 -0.056308437 0.11328338 0.07122766 -0.08902864
15459 0.10300585 -0.18589579 0.08898796 -0.1698093 0.041535642 0.14132579 -0.08876927 0.0048053917 -0.1274835 0.11760821 0.18452398 0.018578721 -0.07860486 -0.11816518 0.030975608 -0.23155244 -0.09224802 -0.016530972 0.10626708 -0.07114369 0.008771409 0.012810496 -0.014658537 0.0066145305 0.10571774 0.1814065 0.19473562 -0.12461175 -0.08757871 -0.037234347 -0.049136687 0.043272194 -0.13105364 0.04018076 -0.041326143 0.020010078 -0.014372932 -0.0009185647 0.13432436 0.032271925 -0.10002022 0.08715221 0.172876 0.1183866 0.12576193 0.02957165 -0.04886443 0.1308651 -0.012019955 -0.14076065 0.23532324 0.05416997 0.0021401464 0.026927104 0.075149514 -0.2497474 -0.07062916 0.37714097 0.08774103 -0.08686993 -0.076656125 0.29785275 0.14985941 -0.065984756
14943 0.035016302 -0.15851356 0.25074255 0.12164762 0.035365693 0.21072789 0.085344546 0.040613875 0.18782131 0.034530282 0.18396118 0.22144787 0.021841962 0.01948998 0.059614528 -0.3933745 -0.0076003172 0.08186157 -0.11331074 -0.14773928 -0.09494671 -0.099216975 -0.26453528 0.046815507 0.25030077 0.046054773 -0.02320344 -0.07370312 0.009944232 0.025558366 0.070879966 -0.096705996 0.088431686 0.029609552 0.13126673 0.16229162 0.255505 -0.013047134 0.056681152 -0.17854209 0.0037890004 0.0315872 -0.0077325786 -0.0058328966 -0.055540975 0.09781284 0.07746067 0.07043301 -0.029240089 -0.03127863 0.05519382 -0.08526433 -0.018673744 -0.056153167 0.14704525 0.06810588 -0.030578857 0.54969186 0.19036357 -0.07716626 -0.03339023 -0.07755475 0.12489909 0.078508
15484 0.103667945 0.070627734 -0.07699418 -0.11280724 -0.13321076 0.17622212 -0.11790478 0.039040886 -0.08390858 -0.016603757 0.06339906 0.21075745 -0.15301603 -0.008984986 0.030123156 -0.12919605 0.009337398 -0.10665632 0.09887387 -0.015422774 -0.0045895367 0.066921234 -0.18912415 -0.066067494 0.06400769 -0.07705908 0.0023937826 -0.018542748 0.10266094 0.072326675 -0.010820054 0.11022366 0.012014163 0.059392434 -0.05445719 0.0011753476 0.07875566 -0.19169557 0.024008103 -0.07942738 0.1533967 -0.038420305 -0.13662557 -0.06389874 0.07867898 -0.15723011 0.11140113 0.08434669 -0.061558608 0.0619982 0.28501314 0.038635097 -0.0348213 -0.055183187 0.021328533 -0.18911895 -0.18764457 0.520043 -0.040785357 -0.18951418 -0.21858755 -0.043981533 -0.093406096 0.13237372
15555 0.097283535 -0.0008838851 -0.070869945 -0.21479988 0.031063812 0.28520396 -0.16448495 -0.08448459 -0.0071789576 0.20978703 0.06717667 0.08866829 0.006692659 0.1331951 0.15041551 -0.22339644 0.01548815 0.10086872 -0.030142838 0.11352916 -0.014720964 0.12014426 0.0031479348 0.041798834 -0.0040525845 -0.051979724 -0.14245364 -0.055356093 0.0075156633 0.079315186 0.055861123 0.11504677 -0.066143095 -0.02436916 -0.041017644 0.20067514 -0.12461129 -0.050599393 0.09042433 0.067132875 0.0015532974 0.11980441 0.00874133 0.08139978 -0.21852694 0.15793048 0.1009571 -0.06678566 0.0062171747 -0.0830103 0.13064314 -0.16032824 -0.05242744 -0.14586669 -0.22607832 -0.055365562 -0.35412833 0.52134305 0.027598394 0.13081904 0.005059357 -0.22070853 0.012171035 0.06631004
15471 0.03243507 -0.07437201 0.24344935 0.020658363 -0.104520135 0.18918717 -0.08805327 -0.067306474 -0.08844112 -0.0104372315 0.09617957 0.19339718 -0.010996979 -0.061250027 0.15599363 -0.109038845 0.08711041 -0.20736317 -0.008510032 0.4019835 0.004370323 -0.18123128 -0.10881015 -0.0040717293 0.21150526 -0.025671205 -0.28052825 -0.10352062 0.04887124 0.0038358755 0.025350142 -0.039958753 0.12109281 -0.0037231809 -0.06877541 0.10668421 0.06215939 0.19626619 0.018454459 -0.058838416 0.06357696 0.060886808 0.039499134 0.116825186 -0.063192666 0.15817906 -0.056995478 0.04560712 -0.07880102 -0.018301291 0.27435443 -0.038912576 0.01578731 0.0039975313 -0.21921575 0.108858146 -0.007044062 0.5689896 0.030570617 0.0076863496 -0.026277617 0.27161178 0.069918774 0.04788238
15542 -0.14407226 -0.06500947 -0.015738199 0.07802241 0.043614533 0.37367943 -0.15298855 0.022480818 -0.10977716 0.1117842 0.15034984 -0.06312097 0.1467648 0.040982608 0.079085544 -0.26617202 0.0034256256 0.37536353 0.07363511 -0.046079688 -0.019819524 -0.0015829109 -0.034719057 -0.010144929 0.2477451 0.024639431 0.047211163 0.057371598 0.180107 0.09562228 -0.023623798 -0.05140124 -0.119251065 -0.07436095 0.009878417 0.047897168 -0.043323867 0.010626957 0.059820995 0.06289521 0.13218562 -0.16194588 -0.048425514 0.015894372 -0.10384227 -0.052945964 0.027898714 0.22642742 0.1361051 0.03150086 0.17276327 -0.0975394 0.07123132 -0.08244053 0.0762185 -0.12241543 0.21472079 0.46821702 0.020015601 -0.059022408 0.04479713 0.039096475 0.02969471 -0.06538802
15507 0.112286784 -0.15015559 0.20158361 -0.04254971 0.16963947 0.26605392 -0.14198583 -0.026246764 0.09209865 0.008579094 0.15573625 -0.15287222 0.08614891 -0.12759273 0.050760843 -0.1915882 -0.07979863 -0.13438258 -0.02376331 -0.045482237 0.01573213 0.22074568 0.09963592 0.067141145 0.039640456 0.0944802 0.15301353 -0.0023406479 -0.07985424 0.011609961 0.031371098 -0.14104517 -0.117998526 -0.033116095 -0.09381605 -0.036979005 -0.21166497 0.041624885 -0.0137153035 0.06764472 0.01701098 -0.029458508 0.04928867 -0.015469567 -0.09121743 0.23276818 0.15800968 -0.1223633 -0.079701446 0.06730705 0.19652367 -0.03104031 -0.11939681 0.10651611 0.072971806 -0.03621534 -0.013355776 0.4760868 -0.19595303 -0.12650473 0.017350854 0.19490737 -0.18603106 -0.07608482
15392 -0.06019819 -0.052849025 -0.10505578 -0.28669053 -0.0018874356 0.120989405 -0.13598275 0.09597928 0.026147323 0.17917012 0.20335285 0.0132323345 -0.013287754 -0.04932805 0.13801618 -0.3351379 -0.018817807 0.1864307 0.04190172 -0.0022086692 -0.035563603 -0.1413863 0.0002622195 0.0084965415 0.04768154 -0.037884664 0.22737172 0.007922195 0.14657895 -0.014995232 0.097112715 0.057685707 0.08040201 -0.025610542 -0.045847658 0.118640095 -0.31333748 -0.08309817 -0.014191041 0.19725762 -0.07954335 -0.036471125 -0.13479352 -0.2291403 -0.19555624 0.013220199 -0.014276909 0.052853186 -0.19450782 -0.061426796 0.13740906 -0.003543078 0.012765549 0.013834454 0.055772837 -0.038235802 -0.054909386 0.49078506 -0.033424 0.05021141 0.075262986 -0.09148499 -0.18436131 0.069004305
15577 0.038582616 -0.13831306 0.080746606 0.01616911 -0.22713463 0.20732136 -0.059492692 -0.06648918 -0.021767423 -0.28748488 0.057596285 0.08678203 0.058935992 -0.11587444 -0.119261526 -0.23672423 0.0030209315 0.15676238 0.10544511 0.1911547 -0.009242945 -0.027648047 0.0038040148 0.022428833 -0.19584146 -0.046107225 0.04820268 0.060628694 -0.04368031 0.12901337 0.024029916 0.02430549 -0.013710229 -0.1963672 -0.05238436 -0.09093096 -0.27381536 -0.03673098 -0.07422896 -0.128857 0.040601686 0.0908055 -0.025258146 0.08644797 0.06959935 0.024378633 0.061616816 0.004029735 -0.07470588 -0.09318351 0.3268974 0.0024811781 -0.013688447 -0.05708949 -0.051127214 0.08238497 0.13371289 0.5756461 -0.035511352 -0.055716652 0.11815456 -0.1357109 0.08041918 0.13616933
15540 0.16953157 -0.108195126 -0.08085538 -0.036368925 0.15638906 0.27398172 -0.20567192 0.091134585 -0.10885841 -0.061323855 0.18479396 0.11037583 0.09481591 0.11883134 0.14554116 -0.24500793 0.04613948 0.027437668 -0.021682685 0.051221956 0.0017481241 -0.091971576 0.076959215 0.050638523 -0.020321457 0.07930272 -0.0055159703 -0.006203724 0.3802138 -0.012443184 0.030818406 0.019057045 -0.027343998 -0.10877958 -0.10568753 0.116760865 -0.0317275 -0.0934402 -0.17712787 -0.25102577 -0.051907226 -0.021056974 0.05114599 -0.057449628 -0.20971264 -0.04727654 -0.16478081 -0.010448885 0.055328805 -0.085425444 0.19223547 -0.13743794 0.007025999 -0.10815693 -0.042377524 -0.22559233 -0.033974852 0.40038574 0.012171485 0.09959422 -0.033756897 -0.18334998 0.18981275 0.06178627
15588 0.13740808 0.050430987 0.048750114 -0.02676217 -0.0060035023 0.44079214 0.14667118 0.048115164 -0.17750376 0.03442415 0.1399873 -0.10767701 -0.010319441 0.07921745 -0.095408626 -0.138074 -0.018390194 0.011362722 -0.02876928 -0.11961996 0.0094830645 0.009498601 0.12137565 -0.078984834 0.06911637 0.1237878 -0.020870738 -0.014791697 0.4372286 0.020256327 0.036277283 -0.10963504 0.025516704 -0.15975657 -0.12551221 -0.04358145 -0.006613498 0.041680418 -0.09003851 -0.092796475 -0.05247358 0.006748922 -0.0033410105 -0.0014138462 -0.109816425 -0.09144426 -0.038498234 -0.046322074 -0.103713594 -0.04793807 0.1662674 0.16290435 -0.039287042 -0.27874628 0.036351524 0.033420064 -0.017943798 0.46538565 0.06767615 -0.15382299 0.085424215 0.065742455 0.09556828 -0.023741761
15479 0.012500211 0.0020402626 0.23761463 0.09775808 0.026564749 0.20481607 -0.029762194 0.035820946 0.007166895 -0.05365436 0.1941954 0.021821942 -0.006273612 0.05634167 0.1629659 -0.009946867 -0.035466984 0.04045932 0.004417979 0.15870215 0.059441254 -0.027783955 0.008857922 0.0052610454 -0.08647529 -0.010959126 -0.29227376 0.073678225 -0.10466264 -0.05570523 0.0710037 0.0050484836 -0.025248216 -0.11089637 -0.029319005 -0.054869965 -0.09085607 0.15934096 -0.054760855 -0.051024232 0.12740521 0.038678043 0.080166206 -0.17685354 -0.16671863 -0.030235728 -0.13044487 -0.12091102 0.034339163 -0.12057899 0.04258331 -0.119183786 0.032696255 -0.0036117788 -0.06669852 0.069479555 -0.3343226 0.45226967 -0.07607432 0.07791738 0.13016264 0.21639468 0.25868893 0.080773994
15549 -0.02141891 0.06809877 0.052760158 -0.13544187 0.100834675 0.17941014 -0.008907602 0.032423507 -0.023428079 -0.04373565 0.11891435 0.08238569 0.07527924 -0.24299827 0.07706477 -0.19933641 -0.07700003 -0.38412976 -0.099651724 -0.14002635 -0.002313649 0.047294434 0.12579443 -0.052203216 -0.07485635 0.10640551 -0.100452036 -0.11515693 0.23003289 0.08092002 -0.18619812 0.07174418 -0.03100472 -0.20464341 -0.022329455 0.046188865 0.11065827 0.068895094 0.042852595 -0.10554787 -0.049783695 -0.104095325 0.11200994 -0.025098918 -0.12961115 -0.021608487 0.1029542 0.031944986 -0.1300811 -0.05431162 0.17205144 0.18392986 -0.041842677 0.032120794 -0.11861371 -0.0052401708 0.020234881 0.5317953 -0.12164746 -0.26497152 0.21330626 -0.010384767 0.008019909 0.015783753
15498 -0.040753476 0.06230326 0.15384232 0.08365855 0.0246107 0.33263546 -0.13243644 -0.061732702 -0.040933408 0.122219875 0.25194675 -0.0019626906 -0.118045226 0.043120228 -0.01969109 -0.14769107 -0.019945288 -0.10029332 0.15697838 -0.066160165 0.03735052 0.15903115 0.11049403 0.022752265 -0.12056759 -0.0027012439 0.11776825 0.10387891 0.08719333 0.15390944 0.118478484 -0.039556958 -0.0047884663 -0.04639523 0.18284039 -0.18112779 0.06718503 0.07438751 0.061756823 -0.0135032255 -0.05549295 0.0026100946 0.026218735 0.0030255278 -0.12723033 0.028421761 -0.21375886 0.035272896 -0.15293682 -0.09037751 0.284085 -0.02271167 -0.046830397 0.03854869 0.062213477 0.024672883 -0.10668074 0.4163043 0.143313 0.04924636 -0.0032122901 -0.17249858 0.075908154 -0.059931643
15523 -0.18769197 -0.19593886 0.017325936 0.024716035 0.024475086 0.29386413 0.11435529 0.043864504 -0.03592556 0.119590156 0.25884238 0.21187025 0.025023691 -0.12330198 0.12095721 -0.15287764 0.10258958 -0.004671425 -0.2356171 -0.046592604 -0.0011939472 -0.07020169 0.089933954 0.05394648 0.12829582 -0.12544611 -0.08728149 -0.11013106 -0.14817776 0.04884814 0.024804298 -0.1336955 0.17045881 -0.11118851 0.05497419 0.040812675 -0.07035649 -0.10090937 -0.17455277 -0.023723831 0.12213344 0.009147804 0.11593255 -0.15428205 -0.15311958 0.035794098 -0.02314632 -0.057321243 -0.080264166 0.0076420596 0.076559685 -0.16683689 -0.08363533 -0.17962173 -0.039622575 0.07867866 0.19509757 0.5695652 0.17645444 -0.02021413 -0.04494773 0.07585918 -0.20815808 -0.016293576
15373 -0.14021823 -0.11834344 0.09127024 -0.22052683 0.04726998 0.15691607 -0.23255888 -0.02644833 0.075786985 0.028700873 0.2643202 -0.029077705 -0.026602827 0.10161729 -0.01804676 -0.21342057 -0.06368369 -0.119584195 -0.18645766 0.052783456 -0.014047202 0.05702728 0.08119316 0.07741824 0.14771456 -0.04347631 -0.1961432 -0.20267236 -0.041359805 0.13217801 0.049826257 -0.14699012 0.1159882 -0.11518123 0.06265589 -0.14953715 0.021026552 -0.06836646 0.12546647 0.01825368 0.06692221 -0.0054435655 -0.0635436 0.06141113 0.18806641 0.025874592 0.11452748 0.04396265 -0.071898945 0.012290851 0.059540372 0.02075714 0.012043771 0.036438327 0.15718 -0.05765782 -0.16656244 0.48887777 -0.0641511 0.046984747 0.2117104 0.056210916 0.1065059 -0.17723168
15590 0.040407717 -0.015793175 0.0021187826 -0.08603773 0.073957734 0.41160482 -0.073808834 -0.072122216 -0.06256208 0.10726417 -0.033644497 -0.038748264 -0.2065332 -0.13246626 0.14550713 -0.27528742 0.09766709 -0.062316332 -0.19296044 0.09938313 -0.0046818596 -0.09744509 0.034409825 0.033047255 0.1015233 -0.01517603 -0.014434633 0.09347825 -0.1017846 0.021728292 0.04638132 -0.051216513 0.07982861 -0.09272995 0.12252494 -0.049676657 -0.10658661 -0.090729415 0.16795829 -0.060688637 0.12728356 0.045724295 -0.039001226 0.066634454 0.040313505 -0.025827738 0.18675005 -0.052061282 0.22874783 0.01980907 0.19501549 0.14181322 -0.01668255 -0.08974113 0.052858546 -0.004340495 -0.08019065 0.42054626 0.15679511 0.14213683 0.050149985 0.109107524 0.10960894 -0.1464313
14974 0.14739934 -0.101632416 -0.110958956 0.09758302 0.11322832 0.34269756 -0.08172477 -0.042418674 0.007907294 -0.08311838 0.3984302 0.13254258 0.03619227 -0.22528152 0.04932679 -0.11516352 -0.09627359 -0.15618107 -0.037480034 0.12041119 0.04473323 -0.16666986 0.2264909 -0.031391148 -0.104176566 -0.10384989 -0.047620326 0.0067887674 -0.07837169 -0.00010413731 0.105808236 -0.11985891 -0.014196804 0.020499455 0.091429226 -0.0652785 0.044650298 0.020621108 0.030279672 0.0028487851 -0.20837119 -0.06889455 0.04689252 -0.1928287 -0.069862485 -0.14366764 -0.055394523 0.10987216 0.044005983 0.08157824 0.09448614 0.11808529 -0.06419575 0.12489407 0.05590449 -0.024827378 -0.009421334 0.33572102 -0.003505274 0.04591368 -0.06013935 0.16910404 -0.15710475 0.041945547
15585 -0.015236537 -0.16649677 0.06568217 -0.043571357 -0.07909619 0.02123576 0.10275549 -0.02669406 0.068380855 -0.1317545 0.09124417 0.28662688 -0.03844672 0.26207548 0.08732719 -0.36867726 -0.09811835 0.0674143 0.034980536 0.06910549 -0.05207282 -0.014870789 0.13119835 0.038574595 0.08373262 0.17651558 0.031588916 -0.04568849 0.22476795 -0.06333002 0.06293154 0.055710386 -0.059578072 -0.03019727 0.10415577 0.07224873 0.0105992975 -0.108402275 0.06307014 -0.03843611 -0.06170776 0.038570747 -0.06485438 -0.10687014 -0.08778878 -0.030726464 0.10244879 0.15689765 0.038629774 -0.055640858 0.20985033 0.14859474 0.041271757 -0.032184377 -0.107329704 0.13424207 -0.06515001 0.4972825 -0.03525808 -0.039059144 0.21237095 0.23742758 -0.0077093225 -0.048993573
15487 0.0785969 -0.007500761 0.064799786 -0.065478966 -0.060420856 0.34820163 0.039123666 0.038558573 -0.15984264 -0.0074096895 0.19083852 0.06793769 0.09973121 0.15040676 0.03966665 -0.051908713 -0.04775153 0.024261363 -0.057506334 -0.20724069 0.014969431 -0.20345601 0.013421901 -0.040881738 0.15854357 -0.014434477 0.1655426 -0.12313091 0.020952435 -0.032405008 -0.05589116 -0.1694376 0.09491998 -0.094578184 0.031311926 -0.19156814 -0.24732263 -0.08444527 0.13637313 0.0515545 0.04755825 0.049842626 -0.020533176 0.0054617734 -0.02159009 0.12806746 -0.10091294 0.122351825 -0.10887162 0.042103413 0.14408737 -0.15143569 0.033134468 0.03603022 -0.115465164 0.009456261 0.039368365 0.5439734 -0.08652946 0.014344875 -0.06694157 -0.025275828 0.09820345 -0.0022979102
15467 -0.025695788 0.07040493 0.13746147 -0.12293202 0.045431975 0.18290722 0.20354965 -0.07855286 0.07821758 0.113435626 0.12998207 0.27908528 0.020424232 -0.25690112 0.08928611 -0.07385267 -0.046021674 -0.010332881 -0.041980077 -0.008221592 0.04169161 -0.102148905 -0.10280769 0.021315454 -0.13392319 -0.07440152 0.10236593 0.138025 0.17025182 0.1372595 0.021680107 -0.066812135 0.044566102 -0.10641467 -0.03457311 -0.016636051 0.09539728 0.13077022 -0.026937397 0.036507215 0.14625563 0.016133288 -0.14975351 0.19297421 -0.017277528 0.08865993 -0.015316661 -0.071642995 0.17587718 -0.025482379 0.2033155 0.04938387 -0.012225135 0.0027158807 -0.25730717 0.07034943 0.01831673 0.5706613 0.14630894 0.048982788 0.0027484586 0.02324353 -0.29243279 0.10115442
15556 -0.11041695 0.039540965 0.082042314 -0.019720916 0.19281039 0.38471594 -0.0195499 -0.04726979 -0.0213911 0.14164197 0.010376977 0.24853802 -0.029466596 -0.10284492 0.1537625 -0.041453313 0.010857772 -0.029204177 0.04977607 0.27782255 -0.0057160095 -0.081150904 -0.027410133 0.016606348 -0.031958617 -0.016828962 0.038972136 -0.08593364 0.0043576923 -0.10553339 0.037539557 0.064046316 -0.014632966 0.1443629 0.08960519 -0.016997948 0.08551823 0.13552509 0.108463846 0.010361551 0.13159792 0.026520204 0.105087735 0.037168268 -0.015898691 -0.014043944 0.09696487 0.076938905 -0.09885856 -0.2717254 0.05517073 -0.04394918 -0.030760162 -0.011668504 -0.013876462 -0.11166164 0.13078156 0.5157153 0.08646809 0.0045808475 -0.012350946 0.13406168 0.101377346 -0.1272428
15547 -0.47150376 0.031976398 -0.38784912 0.08036124 -0.011202828 0.5558303 -0.31744677 -0.8164489 0.23995295 -0.3649768 0.09022092 -0.11819068 -0.19043174 -0.064832225 0.052093673 -0.4311439 -0.24378785 0.013454672 -0.8658684 0.09489422 0.70333976 -0.4185839 0.055124708 0.008084725 0.5464261 -0.40338773 0.30140606 -0.47096473 -0.020842386 0.56043905 0.5480679 0.40327397 0.107951604 0.15106365 -0.36672372 0.4702291 0.060261156 0.10658012 0.19300282 0.030223662 0.22338195 -0.8894367 -0.31097898 -0.17332533 -0.5983533 0.024565825 -0.6383488 0.50024813 -0.53756523 -0.10608477 -0.40416247 -0.20507258 0.16796003 0.20055756 -0.29316372 -0.6606817 -0.13904758 0.6405766 -0.35388353 -0.4810495 -0.010807562 -0.16147828 0.025570622 -0.23378056
15552 0.052205104 0.07358472 0.20929503 -0.10804691 -0.11642352 0.30742764 -0.03843805 0.07117652 0.022145454 0.083809055 0.16544111 -0.008400272 -0.08734443 0.10258502 -0.09481602 -0.1733365 0.17486854 -0.0058809933 0.06667216 -0.011160493 -0.055713456 0.01903316 -0.027145766 0.024686724 -0.20602266 0.0034636878 -0.2023897 0.060307194 -0.08715202 -0.053412817 -0.08946562 0.07520034 0.05512566 0.03285478 -0.03623879 0.10679827 -0.19470777 0.22981368 0.027876616 0.11517395 -0.05190248 -0.007518128 -0.023466213 0.025209326 -0.005584748 0.084498405 0.0047110533 0.19784603 -0.019655958 -0.0019737978 0.16774291 0.05130614 0.08857975 -0.0019922648 -0.26789564 0.14231393 0.22929808 0.5660343 0.08042168 -0.03424793 0.26573467 0.22846311 -0.29030246 0.13095434
15494 0.0143207405 0.012859192 0.023397725 -0.0474303 -0.057595976 0.377687 -0.07518849 -0.11634162 0.22413474 0.20876272 0.18390697 0.22176832 0.022280397 -0.050853293 0.232621 -0.18748048 0.02345376 -0.1009 0.13681288 0.2025684 0.026097085 0.12401502 0.06353016 -0.006098048 0.029100796 -0.109083466 -0.05398974 -0.059283312 0.19263177 -0.0564925 0.04321483 -0.18006906 -0.0060772975 0.030880485 -0.089611106 -0.09031566 -0.16238123 0.15748553 0.008858964 -0.011073372 0.104329936 -0.069126755 -0.02644527 0.17607796 -0.08214524 -0.1309927 -0.052288108 0.05867987 0.0055221347 -0.09450874 0.07806325 -0.020731894 -0.032625385 -0.06051457 0.02600913 0.033709798 0.017582908 0.37264648 0.05615568 -0.016756633 0.007792093 -0.023906555 0.13177471 0.029206233
15548 -0.14577098 -0.2564677 0.127135 -0.052077077 0.07637085 0.30893794 0.034536533 -0.040190242 0.12651694 0.019270513 0.11272606 -0.17133164 0.025943827 0.034877278 0.1300543 -0.040049665 -0.057799496 0.1544952 -0.02134645 -0.038854133 0.039471123 -0.06487702 0.054239027 -0.043280978 0.06820841 -0.09057983 -0.14721958 -0.0056541734 0.16897297 -0.059528735 0.04337926 0.27773783 -0.018879635 -0.038412455 0.04160624 0.10126971 -0.041915692 0.03818464 0.09129236 -0.12578794 -0.11232908 -0.04560374 -0.03415537 0.059365768 0.16330262 0.07290142 -0.14870127 -0.094908915 0.12508833 -0.053677723 0.34930208 -0.039135132 0.060453974 0.0044592815 0.06595271 0.16179574 0.053220555 0.51803946 0.015700001 0.098323405 0.05688595 -0.018941589 -0.114103265 -0.03915311
15442 -0.0066907825 0.049983434 -0.05697329 0.10634424 -0.08606314 0.13381235 0.054930232 0.072096124 -0.09594358 -0.082995936 0.3310322 0.04410541 -0.14257313 0.04336504 0.11895857 -0.16311607 0.032683395 0.12601133 0.05492366 -0.05762904 0.049040418 -0.110625595 -0.034708958 -0.010702171 -0.17424385 -0.024340253 0.024774252 -0.108897574 0.054027967 0.06765 -0.07291419 0.048558567 0.12438422 0.040955566 -0.13181138 -0.011416516 0.12076648 0.04970032 0.02191302 -0.1366841 0.049213387 -0.03412244 0.1934414 0.038170554 -0.03582038 -0.02383414 0.0055105146 -0.085173905 -0.08302877 0.13078284 0.19094819 -0.09303904 -0.17276683 0.05738772 -0.024029812 -0.08713816 -0.0437205 0.4087479 -0.05049308 0.07834712 0.21658973 0.109484494 0.1889797 0.04944656
15558 -0.14459503 -0.0632073 0.10159812 0.12847859 0.058603223 0.35147816 -0.010451904 -0.013345509 0.08703602 0.097511984 0.2659459 -0.0065057543 -0.13404588 -0.12480054 -0.010241106 -0.13591635 0.035127502 -0.10104503 0.044011284 0.14402932 0.0108803 -0.06662514 0.038650256 0.010705508 0.23491499 0.12593569 0.05459052 -0.019454572 -0.23040308 0.16000643 0.110223174 -0.033749923 -0.094268374 -0.08639933 -0.0423925 0.027181666 0.13195804 -0.058737397 -0.00046118838 0.09611643 -0.08609805 -0.033139165 -0.07640698 0.015311437 0.043196287 -0.011102101 0.04326794 0.035468835 0.01771568 -0.09545422 0.014468871 0.002847247 -0.07513049 -0.079279706 -0.018265598 -0.12478911 -0.19611982 0.42878935 -0.0010924205 0.013624095 -0.104626894 0.23854141 0.08945705 0.08563733
15370 0.022783905 -0.057623606 0.042070042 -0.07819023 0.02425174 0.26076397 -0.04047575 0.11415504 0.13940333 -0.10102478 0.061872665 -0.16187082 0.060934726 0.2605269 0.09685346 -0.19697452 0.0599678 0.13102128 -0.1447323 0.2662409 -0.010919751 0.056104913 -0.017586907 0.0008146015 -0.13702002 -0.06454892 0.078010656 0.032195438 0.22460763 0.09806263 -0.07921926 -0.079837464 -0.09916707 -0.002711379 0.22566801 0.112496205 -0.03366302 -0.0026505622 -0.0013689414 -0.071783535 0.036749393 -0.10699894 0.04802414 -0.04242117 0.07117952 -0.12155092 -0.08547543 0.07865059 -0.34433416 -0.151128 0.22875421 0.10922976 -0.011954755 0.035639778 0.08422147 0.01787284 0.07585482 0.50024205 -0.067031786 0.017522128 0.12453687 0.16111043 0.0002568612 -0.05096817
14980 -0.058485482 -0.047048584 0.10199328 -0.105305694 -0.17398235 0.3228165 0.09799491 -0.06146946 -0.02617707 0.08765728 0.16809805 -0.076630406 -0.05564471 0.17612776 0.1423823 -0.2984668 -0.06446571 -0.0041534957 -0.059716832 -0.030273207 -0.028915597 -0.0012916434 0.08901306 -0.046356305 0.044963107 -0.06376713 0.11763056 0.11753749 -0.026089769 -0.08922686 -0.018485876 0.13990182 -0.17297666 -0.1458184 -0.22447757 -0.065388665 0.0052703284 0.056203887 -0.12412372 -0.05010214 0.15191908 -0.17353575 0.10176592 -0.04558693 0.03269519 0.21700369 0.05955804 0.17958589 0.017176501 -0.028856605 0.1297578 -0.049131982 -0.006222597 -0.0595318 0.17063794 0.118700884 0.1369991 0.4751234 0.13664305 0.021651804 -0.09294622 -0.016639475 -0.0386357 0.22116558
15243 0.20337759 0.19875088 -0.05981358 0.049689468 0.108785324 0.18054524 -0.03968296 0.083046794 0.059116304 0.12590095 0.13371366 -0.099167176 -0.119007476 -0.06282711 -0.009237886 -0.015805783 -0.008882868 0.05819194 -0.010785089 0.10319314 0.021144211 -0.082648 -0.12855458 -0.016055854 0.12953368 -0.0010895809 -0.09067818 0.08335967 0.04064305 -0.13610727 -0.0016370652 0.0067712525 -0.25078642 -0.09648387 0.021341788 -0.20497817 -0.015098943 -0.022528728 0.26602235 -0.030703662 0.06426754 0.05509014 0.020948775 0.041954555 -0.018728487 0.13220163 -0.029034717 0.1531406 0.07385222 -0.08627996 0.1936017 -0.18317917 -0.042004842 -0.2189052 -0.034329213 -0.059647784 0.14653915 0.5316712 -0.062852055 -0.021841215 -0.028275352 0.09218008 -0.019605834 -0.09405211
15512 0.0078246 -0.15275215 -0.3077747 -0.20803487 0.019012429 0.37218475 -0.012763021 0.016453633 0.20587294 0.17595807 0.17246845 0.10673437 -0.3060432 -0.09196585 0.044176314 -0.22197141 0.008379306 -0.020682447 0.047216028 0.17127927 -0.001155081 -0.090734676 0.009059914 0.001939426 0.08695544 0.08960042 0.027693063 0.0294268 -0.021142203 -0.059004474 0.036652647 0.08618716 0.10933828 0.08258523 -0.15133673 -0.0076888045 0.10297304 -0.033624277 0.088006325 0.17066449 0.15539168 0.03665408 0.16549551 -0.020329632 -0.0715952 0.09437584 -0.09874222 0.05241826 0.13504367 -0.010382394 0.25907817 -0.06846615 0.016740361 -0.032594535 -0.06916711 -0.091760226 -0.17451827 0.40588564 -0.10670315 -0.15737998 -0.09691426 0.092086926 -0.20028415 0.0077169933
15466 -0.00449103 -0.09099182 -0.14036633 0.15840498 -0.063740194 0.17785028 -0.111598946 -0.043733463 -0.00036311193 -0.195238 0.24060456 -0.025143865 0.004399697 0.205854 0.115575746 -0.21475418 -0.0696105 0.11887297 -0.04927665 -0.05193311 -0.011965555 -0.044480827 0.095389985 0.0005149544 -0.16694652 0.074576825 -0.05362361 -0.044507824 0.24823764 0.022755524 0.01385022 -0.116916195 0.08321578 0.049696144 0.045549963 -0.31039166 0.085176535 0.06444183 0.08008625 -0.18129788 0.06651593 -0.06513709 -0.10097692 -0.17386335 0.051720828 0.071631685 0.13924275 0.019739848 0.21780582 -0.09851867 0.04480674 0.09054856 -0.07397773 0.018995792 -0.036394812 -0.024268465 -0.024147708 0.45504454 -0.110322885 0.13574728 0.011624266 -0.015398146 -0.07949923 0.1391766
15379 0.06733117 -0.20863894 0.050314628 -0.055936124 -0.0014322319 0.2805614 0.001997183 0.0058076126 -0.0055225636 0.09552217 0.22659355 -0.04471912 0.05763109 0.18522282 0.1872912 -0.07809372 0.087358505 -0.05272064 0.26580712 -0.06545237 0.031060718 -0.08376526 0.08482495 0.027648907 0.24032316 -0.060415532 -0.02585532 0.019247942 -0.08665255 0.05489705 -0.009324197 0.1912999 0.024439434 -0.087950446 -0.049428176 -0.016966816 -0.035363678 0.085325494 0.027727967 0.044239588 -0.12569691 -0.13008174 -0.01768988 -0.053942356 0.06705846 -0.03529523 0.0557444 0.23053475 0.09693264 0.11703183 0.0545433 0.018693406 -0.10387423 0.09202869 0.03017387 0.1235765 -0.06414602 0.46307927 -0.0062283725 0.119049616 0.08417081 0.19663574 0.12139852 -0.10672092
15448 0.05546298 0.06957514 0.31100518 -0.10394344 0.09284817 0.40096295 -0.046964724 -0.037945062 0.06937532 -0.098153815 0.21644281 0.14673993 -0.021286102 -0.052440517 0.10295753 -0.18690383 -0.08533523 0.0778034 -0.13336356 0.09054658 -0.016570928 0.04135522 0.056145016 -0.05999291 -0.0010464115 0.1621845 0.13628753 -0.11608076 0.10037341 -0.08335462 -0.08539912 0.16537248 -0.091310024 0.054103218 -0.093185954 0.00870485 0.0418965 -0.030382093 -0.080239736 0.08768915 0.066001326 -0.024406958 -0.024805399 -0.1317838 0.038882107 0.06749444 -0.027480546 -0.10668597 -0.19267434 -0.048376802 0.139351 0.013524682 -0.103135586 -0.20437403 -0.14560753 -0.06830555 0.070808224 0.48107496 0.0115000345 0.059172355 -0.007054049 -0.09780456 -0.27535236 0.007703981
15583 0.052714657 -0.026118737 0.107326835 -0.16408806 0.014007892 0.3178875 0.023351043 0.09030855 -0.03550201 0.10136836 0.03234532 0.030931877 0.049434096 0.082795106 0.15919374 -0.09090251 0.035816737 0.015108985 -0.13063766 0.14165601 -0.030404992 -0.20147572 0.017016469 -0.09875294 -0.1925913 0.14796072 0.2169942 0.23711385 -0.042445835 0.08159355 0.05613851 -0.1309346 -0.13216417 -0.041680947 -0.0027623328 -0.14332496 -0.16847304 0.08431803 -0.06994432 0.05102383 -0.0625547 0.002850503 0.2245316 -0.042484593 0.080938146 0.06847415 0.034634754 0.029933741 -0.0053185443 0.007983642 0.19138382 -0.017962128 -0.023353115 -0.12987235 0.090197295 0.16195264 -0.09049892 0.6295585 -0.13386439 0.061477553 -0.24961737 -0.34705028 -0.07314133 -0.0067359824
15474 -0.08593987 0.025766956 0.17886432 0.037425935 -0.006671086 0.3192643 0.20118974 0.031992137 0.061582804 -0.18414363 0.094475046 -0.20192161 0.09887097 0.1620601 0.07879159 -0.3313714 0.024027275 0.019664219 0.1286435 0.01592493 -0.019108206 -0.003953564 -0.1994291 -0.023328371 -0.02154269 0.0801 0.09297952 -0.08492544 -0.0878954 0.037618194 0.0026736786 0.06940592 0.11455545 -0.13227746 -0.0076228525 0.13706298 -0.2234875 0.08548948 0.07221863 -0.091720685 0.036812562 0.0020670518 0.0034164367 0.046765853 -0.015331676 -0.08326928 -0.070177324 0.054303825 -0.0430038 -0.041797165 0.27653864 -0.052113436 -0.038699314 -0.137524 -0.12575665 0.062033597 -0.0045471485 0.420849 -0.112597294 -0.017994756 0.16027959 -0.013466776 -0.41525438 -0.17528258
15462 0.039681762 0.00509702 0.03756179 -0.029475283 -0.11405208 0.09252302 -0.018809756 0.053480525 0.008200244 0.101710826 0.31764784 0.014391662 -0.12585118 -0.010638567 0.030824352 -0.27010924 -0.17330909 -0.074372165 0.013456396 -0.05377015 -0.010057887 0.1319325 0.055904016 -0.08360752 -0.13555442 -0.044072174 -0.13545166 -0.0484615 0.0229833 0.016855929 0.14041556 0.011040604 -0.09871459 0.019224454 0.061976034 0.07084229 -0.024464695 0.21179658 -0.0038104244 -0.16545665 0.021719879 0.087958924 0.11711693 -0.02528358 0.13092816 -0.054436687 -0.18532993 0.16657953 -0.043059427 0.006801546 0.16332018 0.076761454 0.051573228 0.15594366 -0.007676025 -0.10317617 0.16777106 0.5204885 -0.1749296 -0.08187409 0.14394176 -0.025066368 0.1476933 0.068597525
15516 0.08538154 -0.0072177276 -0.14940494 0.06999647 0.0029866067 0.2621171 -0.050695904 0.033059794 0.15064888 -0.06569643 0.13134587 -0.14947756 0.109978355 -0.1251915 0.11161446 -0.1315107 -0.13499787 0.031328913 0.043239154 0.21103811 0.026978232 -0.058307473 0.19914007 0.026030308 0.10227472 -0.077022895 -0.13876942 -0.0733673 -0.05802184 -0.026592892 0.018172167 -0.012171198 -0.061907947 -0.0694515 -0.16877979 0.058748692 0.07897286 0.16604637 0.075399 0.114648454 -0.051672023 -0.14432156 -0.07702278 -0.051279847 0.12055281 0.07826914 -0.0029208732 0.15452412 0.10127497 -0.16663656 0.10803064 -0.2006617 0.024820209 -0.109498635 -0.03242178 -0.061658543 -0.20128065 0.39350957 0.0015541619 -0.036658976 -0.13702852 -0.17815137 -0.040106695 -0.36711273
15578 -0.07372162 -0.17998487 -0.11316038 0.09320236 0.034770343 0.37030125 0.032132123 -0.025019761 0.011060788 -0.12288784 -0.025951961 0.1289079 0.07226712 0.17410849 0.04198816 -0.20357928 0.07767865 -0.024488294 0.02272979 -0.09357299 -0.045277286 -0.036518853 0.15890597 -0.08866198 -0.028060209 -0.0020193346 0.05642778 -0.063939266 -0.1925504 -0.0051264996 0.020371575 -0.21116091 0.023658814 -0.13092928 0.03846303 0.0045635444 0.09768063 0.09032471 -0.04396843 -0.069441214 -0.1005789 0.08237756 -0.05272242 -0.3659124 0.09307955 -0.11955665 0.021871159 -0.05534086 -0.058021713 -0.06689706 0.28064662 0.18783148 0.01008348 0.03474529 -0.05647506 -0.032240234 -0.18420662 0.579663 -0.052899927 -0.14162397 0.04704973 -0.14280598 0.16050647 -0.0023092455
15490 -0.11769154 0.51995367 -0.6962543 0.3897164 0.4202197 0.33766282 0.22634384 -0.8095312 0.5643538 -0.08810252 -0.5492574 0.21261564 -0.47802997 0.099225394 0.15115424 -0.5966359 -0.20530452 -0.47073385 -0.40902954 0.240613 0.27782482 -0.87353194 0.22144757 -0.2535214 0.24532747 -0.4725122 0.23010853 -0.15472168 0.10984211 0.96089286 0.75098175 0.42296544 0.19477014 -0.041787654 -0.3230709 -0.038419142 0.21454293 0.11100338 0.13050032 -0.5742902 0.40004647 -0.6980804 0.027110362 -0.11608146 -0.3826435 -0.1055095 -0.6493947 0.47423077 -0.17077574 0.26424173 -0.15540126 -0.071260035 -0.54853606 0.630538 -0.24177095 -0.32876474 0.07450004 0.5975771 0.07969643 0.45090207 0.25495306 0.29236364 -0.1742595 -0.13170941
15473 0.08606339 0.12811661 0.06226645 0.09441455 0.033056997 0.3435529 0.051514983 -0.061644122 0.0972093 0.06670144 0.16336249 -0.1426387 0.035086922 0.12282962 -0.026420165 -0.21217892 -0.203244 -0.021703668 -0.12433705 -0.059166 -0.021767208 -0.011632803 -0.1912306 0.047591724 -0.13142079 0.031754047 -0.06928197 -0.022870505 0.2693922 0.10245036 0.070524275 0.081648864 0.14138578 -0.015761022 0.03414103 0.0803163 -0.13967489 -0.03566225 -0.025999868 0.06575328 0.09123964 -0.13617305 0.19164865 -0.11916754 -0.013628393 0.063596986 0.112337895 -0.057210296 -0.14891082 -0.011466623 0.1692642 0.07187084 0.022145027 0.13748178 0.040711828 0.009115636 0.010523559 0.54024315 0.039507937 -0.19324887 -0.035678446 -0.30154315 0.23167612 0.062441647
15545 0.18367085 0.011585831 0.11840708 0.05371739 -0.05085808 0.2525105 -0.06423369 0.021357993 0.101880915 -0.2010119 0.32278317 -0.1418725 -0.10227917 -0.01840179 0.1538487 -0.24374512 0.0645772 -0.11405947 0.082529165 0.28786325 -0.0027414637 -0.028551048 -0.13273247 0.002509462 0.10747756 -0.09061777 0.09511029 -0.0154834 -0.18842497 -0.022662561 -0.08722532 -0.0027674714 -0.044483915 0.08881183 -0.26089883 -0.09895068 0.13618366 -0.19733268 -0.060709763 -0.0863301 -0.057447627 0.00017893591 0.12922701 0.05465638 0.01257438 0.056775965 -0.0045726085 -0.005622357 0.07805582 0.13735566 0.11332978 -0.1571941 -0.023862755 0.18278942 0.16344078 -0.16037579 0.22253592 0.4069152 -0.011091968 0.030763743 0.118710384 0.097574264 -0.004163372 0.03412541
15526 -0.05519715 0.07590371 -0.22785282 -0.09830669 -0.046471614 0.28638658 -0.1726107 -0.013326542 0.03620166 -0.19188274 0.10175805 0.17616832 0.21707545 -0.13053077 0.07400681 -0.16358872 -0.058679406 0.019274408 -0.0048825466 -0.110909335 -0.016397037 -0.112783976 0.22546834 0.121066384 0.1731302 0.08697763 -0.009835179 0.05050997 0.025534177 0.06610852 -0.040666725 0.005515646 0.061864126 -0.2151126 0.012925653 -0.0061034746 -0.053846814 -0.097608835 0.23169048 -0.0051545673 0.034066897 -0.144421 0.09392223 0.10933417 0.051208872 -0.02202413 0.029955942 0.050466858 -0.022430819 -0.07138939 0.110201806 -0.027286569 -0.035636246 0.11017908 -0.03198775 -0.03734199 0.1157604 0.55210406 -0.002490887 -0.14135402 -0.19621563 0.050914247 0.2381502 -0.061420925
15486 0.039786696 -0.004678697 0.13236316 -0.1996179 0.023286005 0.3081573 -0.0059572747 -0.016195523 0.088640004 -0.19925052 0.17657875 -0.16870943 0.03735591 0.0032599692 -0.014904232 -0.21299116 0.043795485 0.103190675 -0.12137199 0.1233149 -0.061472982 -0.12750791 0.17274714 -0.030498356 -0.02280127 0.0035796408 0.09789206 -0.16817461 0.20654358 0.12363746 0.04085239 0.18921691 0.021964837 -0.15918465 0.027439704 -0.12521383 -0.17658405 -0.027020669 0.15459718 0.017280243 0.07854387 0.04265356 0.31961706 0.068102576 -0.028630314 -0.022579515 -0.02278869 0.14487556 -0.08730601 -0.09232148 0.09310284 0.09125194 0.0044580116 -0.07608147 0.20734994 -0.13475592 0.09764775 0.6032818 -0.17031091 -0.03763642 0.08849951 -0.038728334 0.06267395 -0.023586981
15579 -0.080517 0.045940876 -0.0693911 -0.13886084 -0.060305987 0.36473307 0.029319419 -0.07792544 -0.12269642 0.04840505 0.058419935 0.09382126 0.04491071 0.024900304 0.10901016 -0.11431274 -0.021535935 0.11714591 0.0054728207 -0.017485328 0.034107175 -0.11251439 -0.04400518 -0.057256326 -0.07419826 -0.025128398 0.050373398 0.01677534 -0.17233863 0.06819872 -0.043532625 -0.04973999 -0.07857886 -0.157939 0.025249837 0.009566856 -0.12936161 -0.10611499 0.23049074 0.09691791 0.24230595 -0.0922805 -0.055223636 -0.20235689 0.01360439 -0.14290394 0.07739472 -0.1159609 0.02899182 -0.11145017 0.1758466 0.0041993 -0.09984148 0.08321391 0.18182279 -0.055870615 0.16593075 0.5119879 0.07821938 -0.15004626 0.14934003 0.19884498 -0.026892895 0.12274631
15485 -0.110533014 0.19676162 0.09737893 -0.10629329 0.10823649 0.19564818 0.00069262524 -0.06393701 -0.015391437 -0.027086535 0.2269793 -0.12260186 0.013664148 0.15774398 0.13888627 -0.2454574 0.008911032 -0.06668256 0.11371907 -0.30735075 -0.007124693 -0.10178855 -0.10536495 0.049343854 -0.11331919 0.12018051 -0.21740717 0.024480067 -0.029646562 0.045243233 0.01841734 -0.025941221 0.11842288 0.01939686 -0.033556048 -0.056082714 0.19589697 0.16500829 0.048316136 -0.014536573 0.0042495583 -0.09505356 -0.07173981 -0.121399656 -0.07750174 0.0348776 0.065087974 0.11998214 -0.16340186 -0.05242694 0.07125782 0.024756707 -0.014027067 0.08447052 0.09317756 -0.01573252 0.0036583622 0.38889703 -0.027848747 0.07693847 0.007984518 0.13365933 0.16006431 -0.22902064
15521 -0.026189858 -0.10638033 -0.26047188 -0.08436911 -0.08371809 0.34288847 0.1645516 -0.015063527 0.029131403 0.18730302 0.17032245 0.035609584 -0.071240224 0.0858036 0.074320525 -0.12915286 -0.016423654 -0.17711331 0.13095109 -0.46347603 0.010668224 -0.046165667 -0.089980565 -0.07548115 -0.09640715 -0.10770082 0.07385264 -0.019363908 0.057528794 -0.092240974 -0.091369 -0.20532703 -0.117514804 -0.06217696 -0.085948944 0.012952774 -0.03344175 0.06474872 0.019021995 0.17398435 0.0019688013 -0.027150331 -0.07322278 0.03638965 0.04232785 0.03795514 0.05630735 -0.039405365 0.06693575 -0.06356044 0.0778802 0.14756042 -0.06923982 0.13789706 0.1538417 0.09095834 0.029859165 0.5316221 0.052746695 -0.08767199 -0.11131515 -0.100143306 0.14426762 -0.302505
27642 -0.14224967 -0.09467982 0.16433889 -0.0756411 0.12411822 0.39572507 0.21609929 0.09865675 0.018460795 -0.13681348 0.13000599 -0.021367822 0.03980854 -0.08015896 0.07873233 -0.044204935 -0.084240355 -0.11469868 0.11565143 -0.17735222 -0.019200372 0.09409817 -0.076483116 0.041564524 -0.031042563 0.018301614 0.16736932 0.18203087 0.20748647 0.10721123 -0.015826236 0.023197431 0.10152674 -0.03994573 -0.009048929 0.23938215 0.13945058 0.20671666 -0.011667697 0.042390853 0.012784599 -0.09503749 -0.107476465 0.016010964 -0.12065881 -0.23494184 0.06298512 -0.013185237 -0.10524917 -0.051811073 -0.012852724 -0.18646584 0.07222899 0.0008249789 -0.10516128 -0.07500917 -0.020980297 0.6451387 -0.14246802 0.009486188 -0.09133346 -0.021970237 -0.008715556 -0.09997059
15465 -0.1018791 -0.0030648245 0.29386458 0.036274463 0.007309095 0.2134565 -0.051689494 0.04527087 -0.089103326 0.11406301 0.17925811 0.087594 0.0504922 -0.14581119 -0.048722032 -0.110233866 -0.04469927 0.05133815 -0.003711374 -0.048784353 0.016099382 -0.104689755 0.14249103 -0.09625744 -0.13931179 -0.066269726 0.11791078 0.008844973 -0.0786554 0.026178798 -0.0027028949 -0.018856337 0.02918421 -0.18780875 0.09933468 -0.20299909 0.028453356 -0.07996108 -0.030029314 0.010264588 0.0051376033 -0.0036032328 -0.06811457 -0.0027635598 0.07090698 0.0052906587 -0.019815164 -0.07415767 -0.15570235 0.111940935 0.32122144 -0.119937755 0.0281453 -0.05052874 0.083883084 0.21404593 0.010121283 0.64976627 -0.12324824 0.2612723 -0.10391845 -0.056792233 0.2247531 0.15728751
15571 0.010748924 -0.18085484 0.06792945 0.09533735 0.034590892 0.24633321 -0.0876798 -0.09149192 -0.1314545 -0.0955097 0.26121 -0.13581108 -0.078544475 -0.05571836 0.04731609 -0.11086476 -0.07361851 0.26657632 0.0148901865 -0.11903025 0.032712497 -0.2697542 0.024788791 0.039460175 0.13148573 -0.04222317 0.06288898 0.016088963 0.07478615 0.07992078 -0.01619471 -0.021258105 0.0685284 -0.06929675 0.061075103 0.011780277 -0.14953971 -0.061165646 0.06679011 0.054300122 0.11702585 0.0625028 -0.04473586 0.012770522 0.1014705 -0.1473687 -0.015265144 -0.09160294 -0.05172799 -0.06775458 0.15642029 0.059208475 -0.16626567 0.121849425 0.15197954 -0.26323453 -0.10951184 0.5002963 -0.13771534 0.0706809 0.12980683 0.13778897 -0.12071941 0.15681258
15489 0.0021402175 -0.17127703 0.027660254 -0.07757995 0.08944256 0.31353483 0.097885095 0.03965871 0.07246399 0.07752498 0.1503082 -0.18288408 0.115622684 0.017422933 0.06310621 -0.19656116 0.010450866 0.06469524 0.026252454 0.27271688 -0.011779099 -0.094699115 0.15857126 -0.047504403 0.15268071 -0.10863708 -0.016738918 0.16161907 0.19301257 0.016790837 0.035973664 0.07350755 -0.021458866 -0.01299982 0.039137423 0.051183347 0.12410242 -0.09746037 0.092833124 -0.028762361 0.17281821 0.042168956 0.18435223 0.081426024 0.2132406 0.16783072 0.01654192 0.08207312 -0.0029600605 0.07615676 0.22704667 0.1316944 0.030706469 0.15282159 0.07609487 -0.07172297 -0.08515588 0.52310133 0.0426599 0.0033108008 -0.149188 0.16921864 -0.15838835 -0.029587882
15544 -0.09849235 0.065261126 0.03392767 0.12792075 -0.05458683 0.28365988 0.0077290013 -0.024287805 0.09786057 -0.03700463 0.20038523 -0.026465416 -0.13997863 -0.11133323 0.07407538 0.04506688 -0.13017493 0.14149849 0.06841575 0.17146218 0.07167365 -0.01451144 -0.18077472 -0.0768918 -0.02380306 0.14877975 -0.092348635 0.032932926 0.06095044 -0.022422867 0.052408874 0.103999764 -0.055151712 -0.07980244 0.023394106 0.16195671 0.06488841 0.060363322 0.07846225 0.015599402 0.07476674 0.04130629 -0.049814425 0.031753313 0.031620815 0.043597415 -0.07856065 0.0094389785 -0.1893053 -0.17755505 0.054401465 -0.047609903 -0.018937245 0.105981335 -0.08204397 -0.10312239 -0.27015784 0.4333062 -0.042278398 -0.06781171 0.11349016 -0.041443814 0.16329221 -0.29259393
15592 -0.039608825 -0.14133254 0.0851237 0.04664878 0.05544259 0.40578774 -0.06699451 0.086376905 0.02066583 -0.1980475 0.06103644 -0.024100654 -0.17895631 -0.05566649 0.080851704 -0.32814947 -0.09242499 0.2099022 -0.19667605 0.11930443 -0.058767468 -0.08482345 0.06883678 0.100084715 -0.100838795 0.15861417 -0.03947972 0.011605694 0.16406482 -0.015232142 0.06570853 -0.09441608 0.16413626 0.10600465 -0.12377421 0.092691384 0.08533963 0.2097526 -0.11117273 0.070545085 0.025783574 0.0916869 -0.08892435 -0.12044082 -0.11841996 0.012508873 -0.028279092 -0.042132415 0.06094652 -0.08452119 0.22073008 -0.051075466 0.10467561 -0.058541887 0.08258174 -0.041654073 0.014983456 0.4734008 0.07678415 0.12099666 -0.025881307 -0.036567975 -0.07842829 -0.048484836
15514 -0.3171296 0.13504098 -0.7181385 0.1961677 0.734299 0.38503236 -0.5523382 -0.6121331 0.37929565 0.052098036 -0.31339604 -0.057662465 0.07853635 -0.0009103477 -0.0062055583 -0.33516484 0.0027147736 -0.57190573 -0.28250548 0.4762265 0.45877856 -0.282186 0.23439537 -0.29639855 0.39029017 -0.2548804 0.39035463 0.08708874 -0.22288635 0.92379665 0.39437526 0.36282298 0.10120694 0.16616789 -0.6497449 0.027280904 0.16654819 -0.09372808 0.25632513 0.033287052 0.18470684 -0.6147547 -0.37115526 -0.15428342 -0.38630715 0.12242815 -0.57195383 0.49928662 -0.020721659 0.1712298 -0.20995016 -0.31396538 -0.6814408 0.23020141 -0.19368602 -0.1385177 -0.3214612 0.89067346 0.024264768 -0.029441003 0.2307358 0.0659388 0.34509388 -0.3647697
15564 -0.11816525 0.079430595 -0.024569873 0.18221073 -0.13356006 0.28218496 0.13251816 -0.00024943653 0.11776647 -0.039645806 0.12946087 0.13008638 -0.032787625 0.06553121 0.00064681144 -0.101587005 0.16753753 -0.22139896 -0.020643981 -0.08586367 0.040531866 -0.08030623 0.026284842 0.09497997 -0.033974726 0.014058909 0.024343375 -0.059672482 0.12928121 -0.01627422 0.054392766 0.06726693 -0.057626013 -0.09612874 -0.17383853 -0.0084971795 0.083168 -0.09664854 -0.07749312 0.106473334 0.04812721 -0.17316638 -0.037416957 0.04790887 -0.058850892 -0.05228773 0.036586072 0.11059656 -0.09669193 0.033930343 0.2585465 0.01128535 0.07617498 0.04756694 0.04476377 -0.2727717 -0.1801947 0.42172095 -0.020411598 -0.039158758 0.18770362 -0.24642113 -0.029053992 -0.004438579
15401 0.12695628 0.057172295 0.00077033654 -0.08797382 0.11309107 0.38596323 0.15824504 0.12291846 -0.0096731335 -0.083990894 0.23829857 -0.10831286 -0.087337404 0.11677287 0.00839685 -0.16577433 0.093477964 -0.19486009 0.007562802 0.21201837 -0.017429 -0.0004407364 -0.0980154 -0.106350504 0.2443227 0.042792987 -0.027684366 -0.03777562 0.12508729 -0.033893168 0.07964923 0.022091225 -0.20431219 -0.11182242 0.0487785 0.015717423 -0.15990111 -0.083667554 0.0029333823 0.062512435 0.06855288 -0.020292604 -0.069893695 0.10277179 -0.023361178 -0.1283086 0.03252278 0.056703392 0.20670274 -0.07992148 -0.009884146 -0.0838 -0.06656124 0.0033604638 0.10760979 -0.0708231 -0.1326011 0.44805953 0.1680772 -0.20456797 -0.05943584 0.10788734 0.24288167 0.039505407
15472 -0.0021182392 -0.10685629 0.10803037 0.04993238 -0.08871207 0.20918328 0.057043057 -0.028553784 0.116644695 -0.1062113 0.1434777 0.118959785 0.08876948 0.07585236 0.16487469 -0.14138491 0.029720418 0.08034582 0.04413053 -0.19363621 0.029513402 -0.08419666 0.024236672 -0.00042038088 -0.033912025 0.04299064 -0.038212612 0.118063144 0.026754376 0.08152217 0.08812885 -0.018695412 0.1269696 -0.06801863 -0.24216625 0.047473002 -0.027472856 -0.12720191 -0.055477235 0.045966644 0.08567464 -0.17326121 -0.019500397 0.04512879 0.17676242 -0.1359156 -0.057555985 -0.037673328 -0.053550698 0.15111654 0.3179926 0.009055654 0.12023872 -0.03890729 0.08408836 -0.14703254 0.0025371679 0.5022078 0.012719068 0.07782618 -0.05665088 0.036382392 -0.053170547 0.024252245
15469 0.08202226 -0.06798241 -0.16081275 -0.06258205 -0.046760518 0.14007908 0.063205674 -0.082619764 0.059518617 0.07259494 0.19991829 -0.18095382 -0.08244334 -0.16955912 0.14399628 -0.21470104 -0.059918936 0.15999375 -0.100464866 -0.076043345 0.022440491 -0.061947502 -0.22533017 -0.069095604 0.035332102 -0.05244965 -0.05508702 -0.025834039 -0.17774895 -0.042149056 0.09035329 0.01758697 0.035699684 -0.05170129 -0.09551651 -0.07754839 0.03771982 0.02875568 -0.0053366115 0.058317535 0.10238608 -0.17714372 -0.05102843 0.059953358 0.071343824 -0.12005628 -0.0035536017 -0.20241731 -0.16095437 -0.1288617 0.20649832 0.05868886 0.005026809 0.06808703 0.09984392 0.08762379 0.13578731 0.50123274 -0.037825376 0.25201482 0.26958665 -0.1886929 0.015810328 -0.12898187
15567 -0.07493376 0.005212289 0.27234355 -0.055707965 0.040205218 0.2301152 0.086003974 -0.005451996 0.0596495 0.10972579 0.16970628 -0.12815924 0.11584268 0.10260093 0.254468 -0.14287457 -0.033149727 0.005241738 -0.062074963 0.19340023 0.039435808 0.060784616 -0.09117676 -0.038632262 -0.09712863 -0.028491871 -0.09793671 -0.026834287 -0.050525818 -0.07932032 0.07757787 -0.05397516 -0.13874629 0.051671945 0.017318273 0.10095428 -0.026432974 -0.08201526 0.055360936 -0.21364205 0.011182824 -0.042627797 -0.18898547 0.12655947 -0.12572215 0.04777983 -0.095196664 0.0090297805 -0.20733905 0.014020749 0.26467392 -0.048600983 0.035268385 -0.10455883 -0.21944578 -0.18709974 -0.055330683 0.39400926 -0.2029503 -0.024596987 0.050413247 0.013522513 -0.035547044 -0.011109912
15528 0.072271705 0.034232173 -0.18237978 0.0018543727 0.08904476 0.3975614 0.28239894 -0.015395416 0.02741674 0.048213344 0.26461473 0.018788436 0.0070533045 -0.011706042 -0.011375169 -0.18169908 0.08707973 -0.028098794 -0.09192063 0.001251166 -0.021391131 0.008769854 0.30078813 0.007741727 -0.04652462 -0.041234635 0.17603591 0.097231396 0.030781463 0.13338837 -0.05296985 -0.038727507 0.00885492 0.016853776 0.12480751 -0.19882302 0.029246362 0.24570721 0.1184956 -0.0846069 -0.023580637 -0.08547347 0.024375658 0.058827728 -0.04946829 -0.046821732 0.023460047 0.017098546 -0.34299552 0.008975941 0.060033455 -0.040125895 0.08767903 0.011870066 -0.008788587 -0.0603341 0.04734913 0.5146174 -0.008997051 0.16093421 0.10402913 0.19381823 -0.03887307 -0.04016166
15237 -0.04563416 0.2138309 -0.051936973 -0.14918202 -0.16266958 0.31249642 0.066725254 -0.035970237 0.058706664 -0.1406521 0.06904817 -0.042035457 -0.034951102 0.014968517 0.15074241 -0.23268957 -0.16125101 -0.10608963 0.08980982 0.28324646 -0.018529672 0.08585345 0.12153259 0.01861375 -0.070159554 -0.025453232 -0.0007101784 0.07328803 -0.1483023 -0.042718466 0.06190431 -0.08492338 0.11948247 -0.18396546 -0.08435104 -0.018971255 0.18800513 0.14680973 -0.11786071 0.07938837 0.034558073 -0.09826753 -0.16222471 0.025576103 0.10716311 0.085545115 0.05060676 0.08510145 -0.22001675 -0.084785596 0.13879013 0.15727673 -0.065465905 0.11568314 0.09428312 -0.170244 -0.07793826 0.48350608 -0.030484876 0.10218613 -0.1179894 0.11934267 -0.097201176 -0.060557906
15536 0.022777276 -0.07552377 0.08710836 -0.09262253 -0.052565686 0.34520957 -0.12452999 -0.0050882515 0.038735077 -0.15716322 0.16471821 -0.053082686 -0.10136026 0.23031189 0.08027228 -0.09833023 0.03156614 -0.19524679 -0.101970345 0.11350664 0.0031834403 -0.2857056 -0.017380837 -0.013469759 -0.020267485 -0.09005437 0.21751937 -0.052202206 -0.07833759 0.15402375 0.0719464 0.046064712 0.112445146 0.085573904 0.021133875 0.26139548 -0.075010285 -0.017292853 -0.0028036959 -0.06465197 0.042747103 -0.106032945 -0.020404685 0.116822004 -0.15225309 0.033977997 0.0376985 0.07468609 -0.0051691113 -0.094812974 0.13132632 -0.25871074 0.08085579 -0.14281029 0.02352616 0.09499608 -0.16379373 0.5382264 0.13792127 -0.11258054 -0.15117545 0.012146148 0.04010938 0.16247012
15460 0.059361096 -0.10290043 -0.25990793 0.078206666 -0.071390964 0.13236193 0.020538406 0.022120614 0.050712068 -0.16215663 0.40680245 0.0068202717 0.051159285 -0.12828346 0.014259785 -0.26404983 0.015699355 -0.06891033 0.13271645 0.093583025 -0.007888054 -0.018885644 0.19852726 -0.055800777 0.07716834 -0.06187258 -0.1185509 -0.060181007 0.030861985 0.10397083 0.052581757 0.12153384 0.0062980116 -0.064346515 -0.08393106 -0.061088912 0.0056067337 -0.10365276 0.059089676 0.013261107 0.15021859 0.14599788 0.08290922 0.19370389 0.13168639 -0.10451244 -0.119553246 -0.027125293 0.14439172 -0.017549505 0.116053216 -0.17109437 -0.035479505 -0.14611723 0.08029848 0.12587103 -0.066846766 0.5027528 0.1583113 -0.035836145 0.012013652 -0.1853263 -0.041065462 -0.051114134
15530 0.09132245 0.07995326 -0.116212025 0.086048275 0.14155558 0.1646796 0.015922738 0.021575931 -0.059749335 -0.08720322 0.2233449 -0.05815692 0.18326566 0.07354551 0.11210596 -0.24435715 0.0037576905 -0.06278074 -0.0050368626 0.06388645 0.022192068 0.03135814 -0.013374008 -0.09467704 0.18656085 0.056830585 -0.013682645 -0.100129776 0.10782605 0.028972117 0.07471647 -0.15838365 0.18951866 -0.039296307 -0.025371592 -0.14604315 -0.11954307 0.1512113 -0.03851383 0.097042486 -0.009607065 -0.17490418 0.061838422 0.13666624 0.054690152 0.14944799 0.03142635 -0.024380106 -0.04891322 -0.11586079 0.18176831 -0.093918875 0.021616505 -0.1525091 -0.07543466 0.15806721 -0.0033501603 0.4490376 0.001554939 0.08703884 0.138834 -0.11011236 -0.04966178 -0.24980758
15398 -0.18606026 0.040510427 0.26393628 -0.060503297 -0.10192852 0.2969271 0.065435566 0.0065619084 0.033663344 0.00670038 0.20023197 0.088337176 0.047877498 0.064597234 0.02801649 -0.28946382 -0.036347345 -0.17977601 -0.079054594 -0.090699166 -0.02681935 0.094796926 0.012686069 0.007855657 0.29491407 -0.08712904 -0.111557364 0.054881133 -0.027129732 0.039218716 -0.15155801 -0.13418959 0.10599574 -0.015741045 -0.057971265 0.01906652 -0.1435022 0.17494398 0.07974332 0.023392169 -0.11623755 -0.035499543 -0.11842461 -0.27092296 -0.061942343 0.005139028 0.11764574 -0.10364694 -0.33260542 -0.03888032 0.11113833 0.12791882 0.0001651497 -0.021397723 0.11218719 0.106088266 0.047639553 0.5360902 0.0511605 0.008995269 -0.0013452804 0.15629713 0.055744905 -0.06336172
15589 0.17072006 0.16863208 0.1934327 -0.021856697 0.0693006 0.24124025 -0.21180688 -0.019735554 -0.052158307 -0.009524111 0.14533676 0.02024375 0.024086015 -0.08445609 0.05024169 -0.28096566 0.049281817 -0.09367675 0.10717847 -0.059895918 -0.010065517 0.12546137 -0.16694014 -0.017774053 0.031409718 0.016368758 0.0952088 -0.06263597 0.11559576 0.036590856 -0.0031348038 0.103575915 -0.07991231 -0.03344862 -0.18293357 0.118987076 0.13623185 0.11239584 0.060781013 0.06561103 0.059609704 -0.08827007 -0.104498245 -0.18550979 0.03424149 -0.10105829 0.022535533 0.088436574 0.08886259 0.071915515 0.2877975 0.0271415 0.024884066 -0.2108579 0.041271277 0.11878645 0.032032903 0.40696922 0.20504387 -0.00963273 0.027746227 0.017023727 -0.07739373 -0.09973594
15482 0.028167894 0.15542454 -0.004083599 0.10234302 -0.05525336 0.30738574 -0.011872138 0.13891158 -0.0059572705 0.100032516 0.20693503 0.22243035 -0.03596635 0.09533361 0.06925277 -0.25437477 -0.0012851349 -0.008580631 -0.09914446 0.09895953 -0.03833317 -0.040035866 0.063567854 -0.024245564 -0.10151249 0.058305096 -0.16840051 0.18147981 -0.10866813 0.054027483 -0.04988063 -0.005875578 -0.11595445 -0.109813586 -0.04086193 0.07599062 0.24164863 0.022951633 0.173367 0.17307977 0.09704588 -0.11042697 0.071528725 -0.13022041 -0.027257359 0.25244614 -0.021425378 0.06957038 0.033924468 0.0828604 0.12428326 0.07812218 -0.034512643 -0.052458066 -0.027759409 -0.054162543 -0.06891899 0.5480458 0.0023154889 0.046433765 0.02503823 0.044395115 0.12401814 0.031946663
15569 -0.10984872 -0.15725921 -0.0963926 0.12639986 -0.03585292 0.30798373 0.020345058 -0.022844471 -0.13029815 0.2016563 0.20652065 -0.04988813 -0.0121556325 -0.088060334 0.022896152 -0.11254365 0.045910727 -0.027004408 0.033424176 0.28333536 0.0026277748 -0.023537375 0.10270188 -0.082291126 0.30373308 0.1346634 0.071943626 0.051835973 -0.017583659 -0.041678876 -0.092142545 -0.13512076 0.077310756 -0.000709365 0.025065009 0.09501023 0.016592102 0.023433307 0.18213508 -0.03143992 0.037045114 -0.11258433 -0.1550895 0.05805121 0.13305932 0.079342455 0.088378236 -0.08454412 0.19851851 -0.063886195 0.094776586 -0.20665742 -0.023867056 0.16200459 0.0238704 0.051948294 -0.045076277 0.5314159 -0.22053896 -0.07873226 -0.042150997 -0.034516267 0.18240972 -0.06351737
15572 -0.03171214 -0.09197105 0.12289825 0.06356597 -0.14579579 0.4767107 -0.00269717 -0.041180298 0.05057307 0.10558443 0.25946075 -0.019199738 -0.051826943 0.11727114 0.11187621 -0.2734526 0.0702743 -0.13845721 0.16156773 0.088692375 -0.033248223 0.064986825 0.118590444 0.002682001 -0.05850969 0.051930197 0.19377732 -0.018280633 -0.022771727 0.124772936 0.05137617 0.12942405 -0.02521564 0.057545926 -0.022330116 0.0210494 -0.17959136 0.09618932 0.081039645 0.03927414 -0.042278774 0.011954255 -0.09387667 -0.022386584 -0.18520063 0.1315496 -0.11610855 -0.14792237 0.15582949 -0.0050212424 0.10750891 -0.16509002 -0.07702832 0.0475397 -0.035239875 0.049002867 -0.05624617 0.48086637 -0.07772418 -0.17722133 0.04541135 -0.09841861 0.019789146 -0.17420563
15513 -0.25812754 0.56693935 -0.67255276 -0.10343528 0.10324683 0.39445627 -0.38339972 -0.5184432 -0.049237277 -0.5746464 -0.5359209 0.19789213 0.090568654 -0.048267853 0.5294628 -0.5380375 0.06843757 -0.25121692 -0.19281311 -0.18643165 0.6395039 -0.43136898 0.10449376 -0.25043222 0.679507 -0.4359034 0.08637449 -0.021554561 0.08714899 0.52595323 0.32759735 0.3825178 0.060357932 -0.18081729 -0.6174563 0.054379433 -0.13549265 0.108328745 0.28844735 -0.26737246 0.677533 -0.29863474 0.3954148 -0.37198415 -0.22760984 -0.1610875 -0.58057576 0.34487242 0.23767559 0.1646987 0.13731593 0.0888107 -0.12244377 0.14784253 -0.16066678 -0.70466155 -0.10790707 0.40492454 0.37969762 -0.09523027 -0.023382714 0.16621059 0.38250092 -0.22179401
15468 0.085888594 -0.09378416 -0.041637782 0.12518057 0.10414106 0.22643994 0.035987955 -0.080512695 -0.028448964 -0.11804114 0.07376532 -0.07837442 0.00568615 0.10676749 0.04476715 -0.17141248 0.0385493 -0.22150664 0.14358976 -0.063718185 -0.00206283 -0.08344428 0.09648613 -0.057562172 -0.1121003 -0.05028198 0.16063179 0.13801004 -0.0075149355 0.07850827 -0.07294587 0.03436462 -0.00066668604 -0.12940253 -0.06557592 0.08517969 0.11068696 0.013126609 0.03363469 -0.05126358 0.14705054 0.068132445 0.09040581 -0.28751388 0.042226057 0.113732055 0.11713999 -0.09330386 0.07854879 -0.0348894 0.20085974 -0.055242322 0.0894027 -0.12483042 -0.17658447 -0.15748742 -0.026466375 0.5599476 -0.13572623 -0.10260478 0.02104484 0.058126137 -0.007537825 -0.075601384
15551 -0.022929655 0.23102172 -0.032506507 0.07799926 -0.041908875 0.22439657 -0.100679554 0.05806495 0.0033806874 -0.10046942 0.115997225 0.16693352 0.011381972 0.06473754 0.12758169 -0.16789071 -0.012618332 0.08203937 -0.22820391 -0.06684341 -0.010015293 0.019838257 -0.0041353735 0.0011401783 0.13290368 0.083250254 -0.00225108 0.0903403 0.13233775 0.010612202 0.25342682 0.01822861 -0.13690458 0.105496 -0.070382394 0.048875805 -0.20636591 0.058585323 0.022701297 -0.00047947827 -0.057223704 0.01033751 -0.057330538 0.07269009 0.16904305 0.13020504 -0.0064245756 -0.028958142 -0.03312499 -0.10151555 0.20256783 -0.07301069 0.023751138 -0.02444534 -0.14536978 -0.09099673 0.036811296 0.50692725 0.18626133 -0.1304346 0.064583704 0.24862872 0.0025776355 -0.10888341
15517 0.01804429 0.17534563 0.16670482 -0.12516038 -0.06544395 0.1945151 -0.005643645 -0.05574489 -0.2104548 -0.007262173 0.3276394 0.0054474287 -0.069892794 0.2071299 -0.044867408 -0.26132497 -0.06299025 -0.05253403 -0.010109864 0.1271631 -0.021732476 0.026400026 0.03379798 0.039926153 -0.05535442 -0.07468097 0.008490092 -0.10104754 -0.02457969 -0.017339984 -0.047773696 0.11421485 -0.009480196 -0.13663362 -0.108188495 0.062381957 0.0710546 -0.004034868 0.0809079 -0.02111225 0.15428647 -0.07048269 0.2233706 -0.17424217 -0.072114915 -0.11403774 -0.083967954 0.015119857 -0.03366327 -0.0028216126 0.08653606 0.07197201 0.09686676 0.13682917 -0.24117851 -0.12306072 0.07187164 0.43424785 0.14562139 0.111304805 -0.06433945 -0.029949483 -0.1299136 0.05972332
15396 -0.033640288 -0.043131683 0.016011452 -0.06831712 0.0042373217 0.16139741 -0.0794299 0.07040213 0.0101362895 0.04991357 0.2400976 -0.07851975 0.060260706 0.07266107 0.06762853 -0.26741484 -0.10178139 0.02712069 -0.031412512 0.0391762 -0.012885463 -0.1275306 0.24452612 -0.0652019 0.06256047 0.09416003 -0.115649134 0.056523524 -0.15804726 -0.04192489 0.039474107 -0.00659742 0.06496846 0.06971682 -0.043677453 0.02916419 0.057388574 -0.29436472 -0.02195584 -0.102003075 -0.036338974 -0.062348742 -0.014197612 -0.10912993 0.19712877 -0.09214803 0.060783952 0.06505159 -0.21797864 -0.0028253356 0.20353796 0.030565115 -0.08602414 0.17041025 -0.1028081 0.11221168 -0.16465533 0.4077015 0.1454535 -0.18278064 0.04995276 0.22585683 0.074160874 -0.021481315
15587 0.1661428 -0.16391933 -0.061982576 -0.04248415 0.03347257 0.4048397 0.19232802 -0.056375675 -0.074401714 -0.18229243 0.20381933 -0.012979766 -0.047187805 0.06004577 0.10829876 -0.26614663 -0.0018016379 -0.08846293 -0.13175985 0.104297616 -0.035586257 -0.111765966 0.10005582 -0.058935773 -0.18398485 0.068985604 -0.058230627 0.06160022 0.025476255 0.02927732 -0.07909651 0.07944951 -0.103479765 -0.19249262 -0.036425944 -0.24131082 0.11247365 -0.14565335 -0.100083984 -0.0003394656 -0.06958865 -0.144501 -0.018749947 -0.044417273 0.16156222 0.23455557 0.07423677 0.037992686 -0.10519775 0.026748568 -0.005240946 -0.15291521 0.019939799 0.078472905 0.13942184 0.23737444 -0.033910792 0.48672563 0.17193894 -0.018367264 0.031630445 0.19205046 0.008751592 0.005850497
15499 0.025371285 0.19052835 0.15382837 0.055491045 0.06876059 0.21995214 -0.122117124 -0.003182376 -0.027289884 -0.08094071 0.22222187 -0.21312687 -0.020593287 -0.07614436 0.08342442 -0.157161 -0.025536126 -0.06881298 0.10445589 0.16173203 0.03224966 -0.3356034 0.06943584 0.0107016405 -0.052504625 -0.03315809 0.193284 -0.012017144 -0.11058301 0.05148291 -0.009761527 0.099540316 0.23212667 -0.043769572 0.05285273 -0.004409817 0.16500764 -0.09181589 0.014925617 0.027399054 -0.09584967 -0.081999026 -0.029113773 -0.024440723 -0.05777387 0.05196611 -0.014431069 0.09223144 0.03059195 -0.18769772 0.08592768 0.16656515 -0.04347499 0.16609514 0.13485456 -0.035285722 0.12966003 0.42785564 0.03870105 -0.041032106 0.17538814 -0.08512319 -0.07130178 0.07960635
15450 0.0041241217 -0.011793496 -0.15370384 -0.22442801 0.02657003 0.29240844 -0.18585694 0.044592608 0.043391332 -0.3089557 0.25857985 0.075595684 -0.16227989 0.09041721 -0.08311482 -0.1873164 -0.059221867 -0.035642333 -0.11987095 0.119596615 0.032234956 -0.06404113 0.09773397 0.000108792476 -0.0065957797 0.10025136 -0.08771807 0.07143372 -0.1686912 0.09410419 -0.00052829337 0.14632061 -0.08151684 -0.03857479 -0.06347929 -0.04090009 -0.0114004165 0.087412246 0.016466962 -0.06806128 -0.02296688 -0.095167264 -0.1098085 -0.0625049 -0.10013063 0.04487061 -0.037641272 -0.15174349 5.6306588e-05 0.0037712015 0.20329724 -0.15703793 0.024884688 0.09031718 -0.19839431 -0.017882518 0.105672754 0.40330985 0.12964757 0.05011466 0.1300428 0.22216712 0.09264321 -0.08727534
15529 -0.091576844 -0.07795513 -0.22901587 0.03699708 -0.043541715 0.14896125 0.04338195 -0.03453465 0.1472541 0.31917274 0.14708467 -0.12166091 0.047243383 0.051601022 0.039835617 -0.16297662 -0.030358367 -0.09638694 -0.19768228 0.2614203 0.0059597334 -0.13265789 0.049911734 -0.04938792 0.26676616 0.10256269 0.115857325 -0.0013876926 0.19238119 -0.038474187 0.0487668 0.047399305 -0.012455994 -0.17903344 -0.09587284 -0.05045769 0.087668665 0.17240933 -0.10075943 -0.0005674537 -0.10024902 0.0148771675 0.043369003 0.11873359 -0.03427307 -0.044314414 0.040109653 0.09776769 -0.0045215585 -0.051835395 0.16656253 -0.037516 -0.018150946 0.03358268 0.026895633 0.13327962 -0.04003243 0.51825875 0.17837724 -0.05662392 -0.02178754 0.10854379 0.080063865 0.04908448
15395 -0.058028217 0.104385816 0.087256186 0.094293356 0.041955963 0.22255976 -0.07710631 0.022291886 -0.1365748 -0.043113068 0.16920264 -0.045913722 0.008989033 0.039657645 0.14384688 -0.20266102 -0.097414255 -0.116307475 -0.075367965 -0.023038799 0.024171798 0.047075275 -0.0021067834 0.01599218 0.114573225 -0.16506177 0.030568479 0.21018645 -0.094839364 0.03638836 0.042198386 -0.2074156 0.016463201 -0.038549565 -0.15728207 0.056219004 0.051872678 -0.049213108 0.07624764 -0.08717824 -0.077433884 0.0012371029 0.060031187 -0.072625525 -0.06402081 0.035818677 -0.04897176 0.039992325 -0.20128398 -0.009272673 0.2355523 -0.25448084 0.092040546 0.26219195 -0.028889187 0.20209743 -0.04042289 0.51088405 0.012091566 -0.123489544 0.06153369 -0.0135831125 -0.064849496 -0.108620465
15397 -0.009969705 0.03485284 -0.07385443 -0.052361287 -0.11049193 0.19972362 0.2478089 -0.046130147 0.120178744 0.033746835 0.10778563 0.009512452 0.029448075 0.0060787085 -0.022433486 -0.18022166 -0.11023664 -0.10182617 0.32655358 -0.09086851 0.0045517297 -0.011958972 0.07075707 -0.012873495 -0.11840594 0.021939214 0.01668385 -0.022471672 -0.01961127 0.0037169103 0.08661073 -0.11505679 0.013241785 0.036896076 0.02254457 0.03168519 -0.17020321 0.1621283 0.17966817 -0.13396676 0.09900136 -0.023663834 0.108509235 0.0056020985 -0.14159347 0.037876252 0.099565215 -0.033206183 0.04646585 -0.106706925 0.24901378 -0.03559011 -0.012708091 0.2665045 0.05373643 0.14483267 -0.3121867 0.50176597 0.0018563443 0.023903254 0.07912447 0.14426218 -0.019201139 0.17200044
15503 0.05728189 -0.04833193 -0.0921296 -0.023357745 0.13456763 0.26831236 -0.12507959 -0.052183464 0.14776474 -0.030232253 0.21548761 0.16938265 -0.08849039 0.13716494 0.041252922 -0.28271735 0.07238859 0.19788025 0.17741759 -0.12174823 0.016051486 0.13799924 -0.056807395 0.045866016 0.15013379 -0.16181059 -0.05002195 0.09010475 0.0025586092 -0.05831242 0.030130364 -0.031706914 0.17466635 -0.002853087 0.110995226 0.121583946 -0.051462173 -0.002137384 -0.06979449 0.16886166 -0.010668073 -0.11353715 0.1154451 -0.08165969 0.030378746 -0.06981445 0.0799887 0.0064484347 -0.17821428 0.012622266 0.24036947 -0.0678951 -0.031098312 0.048526287 -0.10000983 -0.11357493 -0.022458687 0.36477333 0.13862999 -0.023295194 0.012392851 -0.091756344 0.20273447 0.018792883
15451 -0.014925497 0.13611974 0.08231939 0.15263006 -0.07839405 0.4100431 -0.021651885 -0.0809774 0.15771125 -0.07059265 0.13635907 0.25428826 -0.09297162 -0.016869096 -0.007078817 -0.23958778 0.10313872 0.069533035 -0.072727986 0.053664517 0.022367889 0.08768197 -0.1052571 -0.04119164 0.16792382 -0.0070922137 0.12633343 -0.16774617 0.063552804 -0.042180084 0.08372071 0.049006786 -0.0023807061 -0.11210071 0.069020584 -0.09395152 0.025274307 0.20136495 -0.050614808 -0.030812446 0.025043782 -0.1725522 -0.060436834 0.10826911 -0.027235225 0.016740903 0.14378624 0.040556647 -0.05226627 -0.052579414 0.101381645 0.04733791 0.010773527 0.10344892 -0.12124711 -0.08637214 -0.10268786 0.33434907 0.15339598 -0.05374789 -0.008921578 0.07035594 -0.06478024 -0.13462234
15400 -0.064371645 0.074340805 -0.09828694 0.023113696 -0.03108983 0.10541907 -0.02962773 -0.04041786 0.020539682 0.019267026 0.12107371 0.0034861905 -0.14098342 -0.106767096 0.110908836 -0.21001966 -0.081572995 -0.35592416 -0.0409858 -0.014295651 -0.017811915 0.05418126 -0.09661794 0.12086691 -0.09739894 0.034171898 0.061330784 -0.014121825 0.05313577 -0.052861143 0.03601826 0.08452462 -0.098458305 -0.089901686 -0.014810006 0.030222755 -0.11803704 -0.1054829 -0.07599851 0.0178697 0.026637798 -0.12361198 0.16235675 0.29417124 0.0099734 0.038540054 0.054588694 -0.07039249 -0.13516018 0.00044952656 0.22516927 -0.11448083 0.029442826 -0.031761177 0.024251344 -0.0019120324 0.05984222 0.5964725 0.16070642 -0.046840876 -0.25765273 0.24213396 0.13837464 -0.19290295
15519 0.053727474 0.21632004 -0.17260987 0.037306115 0.014008855 0.1915582 0.09986786 -0.07547678 0.008587128 -0.10000926 -0.058012754 0.12151984 -0.0063766926 -0.1377008 0.12693153 -0.14134468 0.11632217 -0.110111825 -0.024515387 0.2483919 0.024523756 -0.24466354 -0.14193802 -0.07638281 0.22583994 0.054241486 -0.0043241414 -0.067727946 -0.2018064 0.025613725 0.07754898 -0.07487258 0.03710914 -0.13926429 -0.025021149 0.044242464 -0.0004715834 0.108031645 0.11448536 -0.07379248 -0.07141944 0.016916368 0.07893741 -0.26301554 -0.118907385 -0.097068906 0.12123043 0.06832105 0.0057779034 -0.007080743 0.28819916 -0.043988664 0.04658328 0.09464825 -0.14291035 0.108620286 0.14489393 0.5094252 0.075219445 -0.1076212 0.041777294 0.18488713 -0.08292196 -0.014702026
15476 -0.13276365 -0.13601129 0.027504116 0.028172052 -0.060338743 0.37233207 -0.032299317 -0.11849652 -0.027308648 0.012903626 0.22846584 0.110343516 0.1298028 0.08522572 -0.124780774 -0.18942387 -0.08100053 -0.07413805 0.092310496 0.041390765 0.0030527087 0.05234564 -0.05278984 -0.04153495 0.053763576 -0.05674885 0.12164456 -0.1248407 -0.13042857 -0.22606322 -0.049659204 -0.0628576 0.13884187 0.027601032 -0.02919522 -0.021181274 0.039526 0.039150454 -0.036060058 0.09591492 0.050371215 0.0018840496 0.14526954 0.029652402 -0.15995076 -0.14763144 0.05400273 -0.13507487 0.039645255 0.047003202 0.26622033 0.16512898 0.013339107 0.040588055 -0.10340948 -0.10065357 0.028099755 0.5342599 0.12659739 0.021516474 -0.0626814 -0.057039473 -0.1283741 -0.036759097
15591 0.011788561 0.049639598 5.3920416e-05 0.08718544 0.030893555 0.1364374 -0.11885755 0.09253561 0.05190371 -0.11261186 0.072259754 -0.27021673 0.11254371 0.028550413 0.13788779 -0.21708119 0.11031719 0.0052197785 0.054047756 0.016622262 0.008375775 -0.026347281 0.07492766 -0.07861253 -0.15746102 -0.043587256 0.09581423 0.1371055 -0.13293064 0.059533242 0.04722613 0.13643284 -0.051070392 -0.02741922 -0.17128229 -0.06980303 0.21829095 0.055851966 -0.018168412 -0.06569499 0.048113886 -0.024844557 0.015966259 0.15597413 -0.023320314 -0.044620473 0.14291486 -0.03350278 -0.12424889 -0.11288772 0.20135827 0.07510583 0.0013863993 0.123998635 0.0650016 -0.03170034 -0.04383973 0.47654262 -0.05861939 0.021842685 0.027377736 0.45207015 -0.11191824 0.09721572
15380 0.08273819 -0.14637423 -0.031283513 0.09044922 -0.05511913 0.24549101 0.0055078305 -0.026253188 -0.019170754 -0.15600237 0.18045999 -0.45844027 -0.036158055 -0.14626716 0.110431425 -0.016794803 -0.020179495 0.14092566 0.09330528 -0.19913563 0.031892058 0.13904485 0.17880253 -0.01204859 0.16602351 -0.004209628 0.19592576 0.004458037 0.15160811 -0.045630816 0.113316044 -0.08691842 -0.031760905 -0.058198143 0.05409505 0.035882358 0.06804136 -0.0050402763 0.072888754 0.16333249 -0.085594416 0.014179916 -0.057536863 0.0043442827 -0.069289826 0.090763606 -0.15707417 0.08463694 -0.04790339 -0.033653427 0.1710012 0.090969495 0.072604336 0.0058736173 -0.3157034 0.06849558 0.032237843 0.532812 0.17317206 -0.010951133 0.02412907 -0.18160096 0.099338055 -0.109477565
15560 0.017659761 -0.033840865 0.108646914 0.07363509 0.0062848376 0.4755648 0.075616755 0.017745813 0.0018267812 -0.29067373 0.24501804 0.21636653 -0.1698178 0.04224662 0.13241553 -0.027312651 -0.061750304 0.06646328 -0.09519276 -0.14276919 0.004297289 0.1565864 0.16095483 -0.042154465 0.12182792 -0.06713004 -0.15213779 0.07355127 0.06359717 -0.046731856 0.05884363 -0.07693055 -0.110333264 0.122977614 -4.721126e-05 0.03225686 -0.052160226 0.009588113 -0.03659078 -0.043993644 0.069419175 -0.07778391 -0.004974796 -0.08604553 -0.09025244 0.1438137 0.009347248 0.06495105 0.14885356 -0.036353182 0.024221845 0.04438205 -0.042565487 -0.0819692 0.07287514 -0.08989223 -0.17635293 0.48425052 0.027553985 -0.14362906 -0.032371264 -0.04436009 0.12528563 0.09827663
28808 0.006089319 0.18163267 -0.03320497 -0.047131676 0.07511877 0.1345648 0.05404703 -0.038585626 -0.012606268 -0.06809729 0.19047518 0.21690267 -0.09708851 -0.094737716 0.065830946 -0.18047993 0.01537524 0.14750291 0.03771995 0.03161931 0.009471332 0.045242146 0.20097928 -0.0031846734 0.2991251 0.028400283 -0.048276488 -0.019385811 -0.15831329 0.22668083 -0.08825423 0.037224643 -0.00030471722 -0.027905742 -0.09346819 0.122406095 -0.090307645 0.02712379 -0.0692132 -0.11608175 0.04620602 -0.14216612 0.09134181 -0.05595615 0.0091442885 0.015217214 0.073591344 -0.025197301 0.028443683 0.03111472 0.16833757 0.05255614 0.032570835 -0.09105233 -0.053867556 -0.2450947 -0.15460207 0.43883932 -0.038583048 -0.045951296 0.06922206 0.064423986 0.06385616 -0.2459414
15539 -0.007707171 0.030878961 -0.0459621 -0.072857745 0.1311138 0.40655607 -0.116076306 -0.09277117 0.12106648 -0.25988573 0.14300506 0.05683997 -0.03540786 0.00042605525 0.16228896 -0.17619635 0.0012449981 0.07042292 0.13733432 0.13263358 -0.02800525 -0.15821142 0.057379548 0.052124813 -0.027699305 0.07971279 0.110874124 -0.01680087 0.095213555 -0.020687565 0.055023003 -0.17405097 -0.009759435 -0.06597152 -0.024291078 0.018707111 -0.09030924 -0.026283924 0.05060398 0.009770869 0.16253437 0.0627836 -0.07408768 0.035870835 -0.03263469 0.03016995 0.019807411 -0.09854494 -0.14118588 0.053002544 0.1141824 0.0059394734 0.015721219 0.1591745 0.03747421 0.019616134 0.30655238 0.49472222 -0.14056408 0.05818273 0.11283629 0.22562021 0.07979073 -0.18371147
15527 0.050728686 0.06554909 0.18098097 -0.0017562917 -0.011475954 0.32841516 -0.08967095 -0.0132120615 -0.15075776 0.011471122 0.11760748 -0.1473924 -0.0010965905 0.25512677 0.17277892 -0.113556005 -0.05162964 -0.032884937 0.16418952 0.13453299 0.016441407 0.010790535 -0.115299255 0.04223148 0.122392036 -0.054776676 0.0945548 -0.21356772 -0.18027867 -0.02262565 0.03335851 0.13954797 -0.023045378 -0.036865037 0.14601137 -0.27726388 -0.069165654 0.01095834 0.0019638601 -0.03151636 0.0018442187 0.08101408 -0.16118535 0.075464986 -0.045200035 0.061767206 -0.0036645227 -0.012129534 -0.060970843 0.103289075 0.13450149 -0.07665281 0.055366483 -0.062490985 0.06521059 -0.03249068 -0.20813167 0.52510065 0.026029674 0.06466897 0.071646966 0.3124683 -0.0071235546 0.04978983
15500 -0.015013074 -0.06927253 -0.023202281 0.035324458 0.06946378 0.29103926 -0.09257354 0.08468053 0.037855305 0.26275072 0.07684089 0.015964929 -0.037136585 -0.10491742 -0.02876899 -0.20214255 0.073037215 -0.020667523 -0.060468696 0.21132256 -0.0100702485 0.1799459 -0.11746731 0.16551153 0.07056961 0.05491868 -0.04764733 -0.0784032 0.0057798205 0.2398274 0.056432474 -0.0036825917 0.0009020735 -0.04253827 -0.09427503 0.014864642 -0.08354316 0.022998974 0.094784245 -0.00011067183 0.042088393 -0.009145664 -0.10583585 -0.09910027 -0.011171416 -0.14283223 0.10478265 0.16472737 -0.15776828 0.006640197 0.1866374 0.0093888575 0.023970444 0.3148091 0.07786139 0.020452539 -0.048674744 0.49087247 -0.16194469 -0.07080249 0.04239124 -0.11708844 -0.057556666 -0.147373
15573 -0.0105373105 -0.0024660488 0.1145802 0.030905483 0.014097481 0.39276817 0.15984479 0.03366655 0.13618009 0.032868825 0.26424783 0.16533323 0.08267133 0.02447714 0.029754333 -0.25768346 -0.10295391 0.021882754 -0.19063346 0.12024487 0.028340189 0.056664057 -0.1276617 -0.06009072 0.12244677 -0.0450441 0.14935423 -0.12352591 -0.1763963 0.05753381 0.024374174 -0.05094739 0.10310551 0.008779465 -0.080346465 -0.090921275 0.010425645 -0.10777485 -0.31257632 0.13939902 0.11112422 0.021572797 -0.1287078 -0.0985599 -0.19915663 -0.1438664 -0.09052525 -0.02390643 -0.033377368 -0.083569236 0.1500359 -0.0416948 -0.017397892 -0.2099946 -0.09995579 -0.119819045 0.17552747 0.36592475 -0.020666528 0.00557352 -0.045204986 0.16028082 0.10282245 0.02305973
15371 -0.08889892 0.11473872 -0.028630061 0.09945178 0.1045609 0.44043332 0.13991661 0.044590004 0.034967802 0.03245565 0.09685585 -0.35762966 -0.20396511 -0.07935094 0.045070313 -0.18744093 -0.08573017 -0.024421263 0.07683992 0.14220259 -0.033257052 0.06577321 0.05039002 0.037878234 -0.116676785 0.07362356 0.05040755 -0.24551588 0.1781175 -0.066784784 -0.014330086 -0.06656122 -0.016481478 -0.115085706 -0.08768897 -0.019497616 -0.057058353 -0.043623377 0.056449022 -0.027315771 0.052911714 -0.014525195 0.020832682 -0.14833693 0.03528427 0.046887364 -0.032152995 0.23269552 -0.15403807 -0.055598784 0.100973755 -0.005271844 0.05771154 -0.10953345 -0.15537935 0.004406763 -0.025710586 0.44916764 -0.23329541 -0.042892773 -0.031553824 0.0017174146 0.09738273 0.1836397
15525 0.08544501 -0.2016923 -0.014916232 -0.010349701 0.054085225 0.30879626 -0.11561741 -0.06726607 -0.11472248 -0.17503189 0.08218679 0.088357665 0.0052661686 -0.06887657 0.28392527 -0.17648488 -0.11069514 -0.063005395 -0.07219286 0.053868596 -0.007765734 0.09707603 0.05728431 -0.005748689 -0.026479779 -0.07054521 -0.01570079 -0.0010890401 0.10631252 0.0023210812 -0.080947444 0.004223037 -0.19907121 -0.2792873 0.111776985 -0.07595631 0.11725268 0.055558242 -0.09944653 0.062952325 -0.1762914 -0.028145965 -0.16757575 0.015078635 -0.12554343 -0.08484579 -0.06273916 0.08320167 -0.031289738 -0.06271454 0.1059287 0.09204704 -0.03232437 0.10601599 -0.04285209 0.0012062497 0.033033915 0.5039934 0.021169396 -0.18003006 0.06715452 0.026847398 0.0958443 0.0518191
15378 0.02641825 -0.06787078 -0.15000884 -0.07897553 0.085940585 0.29762244 -0.01682941 0.016644524 0.04414103 -0.06626699 0.1533401 0.0041887364 0.10456038 -0.0007879148 0.2966168 -0.14769953 0.032972272 -0.12824605 -0.11735966 0.06067538 -0.01400185 0.21805643 -0.035054483 -0.051831853 0.10861531 -0.036425214 -0.25649288 -0.19497715 0.10176352 0.035162933 0.034761637 0.13476332 0.11087707 0.06483633 0.0065470072 -0.001997321 -0.053461157 0.015006166 -0.001486915 -0.014761148 -0.025201185 -0.015268516 0.11552536 -0.052554473 0.23041219 0.064230576 -0.012339554 0.009865656 -0.17467524 -0.08049706 0.03565672 0.20300701 -0.011216701 0.06132379 -0.13529599 0.36047348 0.076312296 0.50121915 -0.004355529 -0.21486577 -0.055638496 0.2609573 0.0076077026 0.026130997
15518 -0.06595752 -0.09260139 0.0072808997 0.07424677 0.150401 0.45332602 -0.23954451 0.08775489 0.008825371 0.070636325 0.11167589 0.06271941 -0.021831267 0.09969216 0.039410505 -0.14463814 -0.024474349 0.08288296 0.14230286 0.098222435 -0.01792291 0.06678322 0.03260938 -0.021748327 -0.055992693 -0.113807246 0.10247937 -0.10156769 0.32027876 0.06413022 -0.090732075 0.052471213 0.10737934 -0.09242476 -0.19982979 -0.08064718 0.021748578 -0.109897226 -0.0006041346 0.012457019 0.018822854 0.15294665 0.026082229 -0.037192114 0.062302504 0.013361155 -0.083769076 -0.035059184 -0.06502231 -0.055175085 0.17436342 -0.05031435 0.07122543 0.03390346 -0.016462766 0.24254172 0.0098781455 0.61232054 -0.13540258 -0.12213336 0.026413027 -0.019120712 0.041199155 -0.19675568
15563 0.06386294 -0.013199996 -0.14345104 0.14041011 -0.01809857 0.33131012 0.07312114 0.016282517 0.036811095 0.019540986 0.29791397 0.0049712136 -0.0049507497 0.004466379 -0.016455429 -0.30708343 -0.034382004 0.09601407 0.030679341 0.20396796 -0.047402203 0.15121204 0.0068168384 0.06735575 -0.10724898 0.06963679 -0.11276859 0.05394944 -0.04087213 -0.061403193 -0.09758249 0.15419197 0.040452212 -0.08326324 0.110514544 -0.10251051 -0.04845707 -0.15917674 0.039944824 0.034964908 0.13439003 0.117686726 -0.107174926 0.007142017 -0.29410082 -0.13739382 -0.044797268 -0.037953813 -0.20323165 0.08442309 0.09755736 0.09827098 -0.00938802 0.13188301 0.14489527 0.07199548 0.26894996 0.5158467 -0.06582623 -0.05922496 0.007528249 -0.045497444 -0.13301404 0.008760627
15390 -0.02254615 -0.16071959 -0.035559863 0.03655545 -0.088598005 0.17009947 0.023176247 0.034178764 0.067766815 -0.0017350308 0.038685463 -0.0047289394 -0.08939375 -0.14160208 0.18592 -0.26980603 0.04713084 0.39120936 0.019826815 0.09433752 -0.030927327 0.083266765 -0.03973594 -0.0032806564 -0.07614397 -0.13011673 0.007721647 0.14565769 0.07910309 -0.1087652 -0.0039003678 0.11742547 0.09508215 -0.025723452 -0.22140716 -0.120941155 0.10575996 -0.13715072 0.23479712 -0.042514376 0.03390959 -0.064517036 0.08665658 -0.10087601 -0.09822779 -0.05124399 0.09186707 0.08331684 -0.05380254 -0.14506269 0.19493958 -0.18671837 -0.037575666 -0.08896949 0.023994641 0.17668715 0.036612276 0.4981763 -0.15526348 -0.08150871 -0.04331493 0.029252447 0.061609693 0.00843182
15387 0.015461088 -0.17837349 -0.015514265 -0.123312615 -0.1268222 0.2215346 0.05669439 0.049941238 -0.12222688 -0.23784816 0.12969577 -0.11452493 0.10664996 0.1431415 0.17646116 -0.118668646 0.107094005 0.1454474 -0.027717844 0.06771705 -0.0063377144 -0.063399434 -0.0032074593 0.03935082 -0.06268767 -0.011571743 -0.18071863 -0.11861969 -0.19580549 0.15146239 0.014488482 -0.034395702 -0.087322794 0.015650833 -0.08756147 -0.11554545 -0.08430876 -0.066389546 -0.040315904 -0.11983656 0.005119341 -0.037939552 -0.14725623 0.1398532 -0.07269986 0.026478283 -0.0018217243 0.05818142 -0.055136744 -0.14818324 0.07592138 0.10333705 -0.078022175 0.018051837 0.10313532 -0.057145897 0.0545137 0.49057296 0.021653451 0.20131259 0.012781809 0.20838818 0.02269349 -0.14062293
14969 -0.108819626 0.172648 0.09945677 -0.029548919 -0.02271692 0.2545371 -0.14271337 -0.06338548 0.05547637 0.0064392467 0.26271242 0.06114589 -0.006898945 -0.029722296 0.043176625 -0.13583378 0.1470743 -0.1913756 -0.10822066 -0.022805288 -0.005022871 0.14928223 0.0021075385 -0.0053528035 0.09569271 0.118919924 -0.008565042 -0.06363681 -0.1021893 -0.094034314 0.044020433 0.077010855 0.08259095 -0.12394571 0.004023375 0.21697667 -0.07693296 -0.06993107 0.17236224 -0.1302901 -0.0030420343 0.0833459 0.18106279 -0.15721433 0.066864386 -0.13117182 -0.0678587 0.10711677 -0.054546908 -0.05463538 0.06930222 -0.072387494 0.015146732 0.17019257 0.11526547 0.071285985 0.14618216 0.49591237 -0.1733785 0.12821515 -0.01116322 0.014953233 -0.10198141 0.13040267
15557 0.14780109 -0.06052419 -0.1159781 -0.10037554 -0.095424846 0.4704803 -0.06428307 -0.011329399 -0.06864093 0.056033965 0.10851451 -0.09918244 -0.034383256 0.0018997272 -0.08512966 -0.23442312 -0.02661973 -0.023683093 -0.047112443 0.041186992 -0.059499 -0.20931357 -0.039933328 -0.036162358 -0.108363494 -0.06564443 -0.07750992 -0.026823385 0.05841135 0.015798293 0.109977335 -0.080275714 0.039320733 0.02719719 0.025950603 -0.0015915958 0.16064155 0.10758522 -0.15667152 -0.10105986 -0.016749093 -0.02084265 -0.19270134 -0.0811257 0.01028525 -0.02419273 0.019070476 0.009924838 0.1402857 -0.12570877 0.19655684 0.08691081 0.00503352 -0.024205059 0.11443257 0.18950468 -0.023600655 0.59178716 -0.08302112 0.11762537 -0.2208759 0.34074128 -0.02722499 -0.0969451
15445 -0.05358901 0.09206219 -0.051743478 -0.22040758 0.051470056 0.30931345 -0.046271484 -0.063152105 0.008560005 0.069440976 0.012188319 0.08944402 -0.13952298 0.215011 0.083805084 -0.27094784 -0.039624587 -0.2573683 0.049040895 0.14603625 -0.058488864 -0.07247583 -0.012101111 -0.06792731 0.17397602 -0.13133377 0.14455128 0.06636225 0.022524271 0.09720578 0.1459072 -0.018064426 -0.1281383 0.0036875205 -0.10989407 -0.13358293 -0.14575721 0.05208952 -0.09663906 -0.096834436 -0.074439995 0.010287352 -0.18555628 -0.026240664 -0.043531243 -0.040652443 0.2229814 0.03923418 -0.07970342 0.009934872 0.23828167 0.082563885 0.0042148917 -0.01125734 -0.06256554 0.05289443 0.2053924 0.59318346 -0.08590796 -0.121273905 0.15574059 -0.29725406 0.10319252 -0.03958447
15399 -0.13653682 -0.0811223 -0.029449984 -0.03934892 -0.08065895 0.39277858 0.15707546 0.08133864 -0.02238496 -0.08540338 0.16998537 0.19673589 0.024033573 0.10723442 0.15029404 -0.08051056 -0.0071472344 0.0836468 -0.14965048 0.18184705 0.037333425 -0.1825754 0.1239477 -0.033740234 -0.10294698 -0.042537436 0.009455102 -0.06455531 0.010826762 -0.00035413704 -0.056452703 0.05000562 0.059497014 -0.018996663 -0.0050023273 0.12354646 0.0041708723 0.028593896 0.16470079 0.081458196 -0.10279461 0.121603414 0.0016610285 -0.021676721 -0.13018492 0.1657827 -0.16063349 0.06615118 -0.083524115 0.092947036 0.3081019 0.15398684 -0.08648573 0.20352618 -0.07232544 0.12937604 0.086474575 0.49122697 -0.025115844 0.016714053 0.0043321555 0.15934077 -0.08329534 -0.1203433
15480 -0.10181849 0.03558603 0.13747142 -0.2862185 -0.07857879 0.41388983 -0.05196008 0.026535077 0.07422411 0.0041545574 0.099196166 0.035270818 -0.13861406 0.050419096 0.03723552 -0.20702358 -0.08204752 0.13866992 0.029464392 0.20255749 -0.016311398 -0.06493531 0.16606331 0.07063231 -0.17794909 0.06520373 -0.10724068 0.16599886 0.103060424 0.05849901 0.0067211366 0.11373921 -0.02624462 -0.030411163 -0.09663425 -0.009040718 0.2480509 -0.18141374 0.006278095 -0.017841969 -0.07156017 -0.07279643 -0.079279 -0.046516415 0.021178333 0.061945178 0.02593019 -0.04917058 0.13124706 -0.13948755 0.14733377 -0.012404964 -0.019729266 0.055065356 0.04052866 0.06772393 0.17505445 0.4759213 0.005413736 0.017146759 0.05375677 0.3519 -0.1809796 -0.19362822
15506 0.04004091 0.23979676 0.06154987 -0.010685369 -0.06684114 0.34637207 -0.06739345 -0.12312321 -0.018268663 0.13086547 0.16441035 -0.31019583 0.3029877 -0.07734359 0.048393898 -0.32628822 0.10624111 0.12573102 -0.043197498 -0.29268712 -0.019128023 0.04790735 0.06757687 -0.014911288 0.060535636 0.030254893 -0.12234696 -0.00443013 0.19300938 -0.029720077 -0.021642609 0.040798247 -0.039415963 -0.10918162 -0.18071373 0.01763663 0.18773009 -0.05803353 0.10913339 0.063523 0.017570656 0.03891708 0.13376766 0.038064398 0.03276564 -0.012404881 0.0075209355 -0.08342446 -0.12647425 -0.0042186235 0.2649876 0.048073784 -0.12014225 0.09391585 0.15376733 -0.062542506 0.23654693 0.5178472 0.1393345 -0.09550427 -0.17805445 -0.016909331 -0.012455784 0.17101966
15508 0.28421956 0.01032675 0.06329823 -0.2905219 -0.032410607 0.9190373 -0.56334573 -0.7375264 -0.08377641 0.27098483 -0.45448038 0.19429795 -0.066241056 -0.2939582 0.1423212 -0.39729 -0.59362006 0.12061432 -0.42845365 0.15463945 0.78768206 -0.85245043 0.55619997 -0.30670798 0.45766222 0.06943378 -0.174645 -0.64469725 0.57878757 0.42541704 0.29627073 0.52827656 0.10745667 -0.6329329 -0.8235399 -0.5416739 0.5013795 0.36924714 0.34020945 0.08553463 -0.13285944 -0.8684927 0.29717714 0.36687878 -0.5468045 0.28858966 -0.4703101 0.554967 0.05667491 0.85810995 -0.2417364 -0.18128607 0.39523557 0.81987846 -0.55568516 -0.7407357 -0.757319 1.038189 0.5088186 0.2445681 -0.039644957 0.68834454 0.5857472 0.4722206
15598 -0.008767488 -0.020342851 0.12963147 0.024302362 0.12105772 0.23755482 0.09170789 0.026360407 -0.017411824 -0.09242713 0.17682591 0.07671403 0.0110257305 0.053679816 0.04962232 -0.12305169 -0.04995651 0.025649088 -0.03610398 0.19619194 0.032871332 -0.048315436 -0.0784691 0.0660546 0.001718733 -0.041583706 -0.0049164835 0.029099502 0.048304133 -0.096373506 0.12592562 0.008389016 -0.034478948 -0.0635733 -0.0014827867 -0.033457626 -0.011590101 0.022840574 0.0017667526 0.007971297 0.050708134 -0.10578399 -0.03845381 -0.1281893 -0.13337946 -0.026387319 0.052475758 0.10146592 -0.03476393 0.051299363 0.20373462 -0.059209876 0.026703525 0.025255559 0.05976819 -0.115290195 -0.13656116 0.4804946 -0.056169104 -0.07280005 0.060977694 -0.053873263 -0.04348188 -0.015168567
15368 -0.13455653 0.23513614 0.050906092 -0.050761413 -0.05585637 0.17693797 -0.19189292 0.037085332 -0.07350695 -0.022830283 0.16151477 -0.31490248 -0.10956246 0.09048752 0.15202247 -0.40071914 -0.066012315 0.085712105 0.02874372 0.028005268 -0.05792847 0.036216307 -0.10470794 -0.030048747 0.13231759 -0.016269896 -0.044067755 0.10006661 -0.033338763 -0.045738842 0.123790585 -0.081018336 0.024434596 -0.04366719 0.0586437 0.019688152 -0.027457051 0.1393364 0.059067976 0.06262412 -0.100555256 -0.045240074 -0.0075723967 0.0906071 0.14379627 -0.15439186 0.01246308 0.18831666 0.060411032 0.00306498 0.18693388 -0.12871881 0.080962956 -0.21983114 0.04197276 0.07199382 -0.15926598 0.45269758 -0.14939067 0.004593103 0.023952018 0.017974615 0.09969397 0.081170626
15509 -0.066040576 0.14699014 0.015572007 -0.20642301 0.047662538 0.27846152 -0.06790887 0.03784181 -0.04813879 0.09145703 0.17880571 -0.042850163 0.030250918 -0.0071527506 0.17009407 -0.3132436 0.070729196 0.3042526 0.018791644 -0.12175942 0.0026882922 -0.17373909 0.22626138 -0.029022207 -0.052936245 -0.10131982 0.040114705 -0.007461357 0.1342837 -0.046713326 0.051718045 -0.1391877 0.041458678 -0.017784346 -0.09607473 0.07928671 0.070372544 -0.13421233 -0.14588109 0.015759839 0.039199755 -0.07076691 0.12613933 -0.08156216 -0.20169294 -0.10595519 0.13039233 0.09894909 -0.15926754 0.04575781 0.1406289 -0.1794311 0.0014845928 -0.047400337 -0.016546354 -0.09484636 -0.1400641 0.31432277 0.032071043 0.102157556 0.06462048 -0.058931224 0.22508423 -0.20954864
15562 -0.003832682 0.04387769 -0.11031857 0.08866445 0.14258927 0.44683808 -0.0863926 -0.006084955 -0.21871156 -0.016076315 0.077334 0.027077368 0.1565534 -0.014429677 0.15078878 -0.12223857 -0.11463588 -0.07160527 -0.12485998 0.009687694 -0.024188116 0.04997002 0.09854844 -0.020453867 -0.23610584 0.07449369 -0.022830473 0.012203931 -0.19302805 0.0144113405 0.13157365 -0.094976686 -0.11929783 0.14856885 -0.12117047 0.07831918 0.103770934 0.022327598 -0.043467447 0.12613879 0.07149927 -0.08770716 0.0024426035 -0.06906006 0.10580106 -0.22073525 0.21452543 0.12897784 0.084229395 -0.006404859 0.12371829 -0.18463992 0.055166125 -0.07591187 0.027828943 0.0862919 0.11156775 0.50594133 -0.044000253 -0.019429464 0.11866627 0.13231367 0.05597065 -0.06343993
