3389 64
14794 0.23206212 0.11948997 -0.017574264 -0.13922875 -0.11409829 -0.53203684 0.37049556 -0.031389967 -0.30901417 0.01234052 0.6071477 -0.062412396 -0.08637861 0.24947935 0.3253288 0.06673864 -0.24778645 0.30621007 -0.28715292 -0.35593513 -0.095255755 -0.36256373 -0.6348739 -0.13112514 -0.17874159 0.0795428 -0.030432334 -0.14566654 0.1461022 0.4542135 -0.19916667 -0.20434573 0.2235944 0.099737525 -0.010078792 0.58034337 0.25707576 0.0384989 0.11058612 0.29563007 0.074112214 -0.1517223 0.13449615 0.12530588 -0.10283643 -0.4397988 -0.16892453 -0.24933991 -0.02824938 -0.21425901 0.07514804 -0.55167794 -0.18601035 0.15654512 0.5835337 0.22633384 -0.2312312 0.14656366 -0.3804601 0.20865202 0.26298326 -0.10415271 -0.36491016 0.08484119
33728 -0.118065044 -0.11826662 -0.39666685 -0.045429833 0.00994199 -0.4819172 0.20000379 0.013065884 -0.21936424 -0.35206804 0.6463896 0.15825649 0.038049348 0.1366749 0.37343195 0.44249728 -0.24251904 0.22856934 -0.27376747 -0.49281448 -0.07740261 -0.5019567 -0.48423532 -0.10527213 -0.3217172 0.18884382 0.00048597137 -0.028291909 0.17389584 0.24983479 0.06231944 -0.20183574 -0.065111004 0.027695887 0.11800015 0.41745916 0.45152307 0.044087205 0.009863216 0.27785844 -0.000820706 -0.35130394 -0.15677087 -0.10273799 0.030297292 -0.31327096 -0.34726554 -0.14677931 0.011077508 -0.18631028 -0.32570025 -0.6653978 -0.083181046 -0.10817792 0.26989174 0.40755412 -0.3401222 0.28551188 -0.26077527 0.33334503 0.22286294 -0.11493575 -0.41904625 0.18166426
21490 -0.09483764 -0.18154567 -0.44881445 0.1458236 0.18704054 -0.17795692 0.033855252 -0.019171055 -0.2762696 -0.002460143 0.6217582 0.04717811 0.16613494 0.2306578 0.082592025 0.6750615 0.07990441 -0.25707114 -0.49963337 -0.17685297 0.18080653 -0.2723218 -0.16091198 -0.24733208 -0.27546236 0.41166133 0.10519662 0.10722486 -0.029865073 0.31738153 0.18955328 0.012695534 0.09982758 -0.14731699 0.1948247 0.082985066 0.3994499 0.16502735 -0.013212664 0.118594386 -0.35084635 -0.3349052 -0.0880776 -0.0014180157 0.2905432 0.034620207 -0.47678742 -0.21793224 0.09062317 0.044054992 -0.15402772 -0.25474018 0.02422136 -0.34428698 0.06165311 0.31377217 -0.20847917 0.26777405 0.09075293 0.10602259 -0.11722731 -0.11196007 -0.33162 -0.13429552
35146 0.107920855 -0.28025076 -0.19210064 0.20180711 0.22458626 0.009295589 0.22454187 0.105914585 -0.098368235 0.38702118 0.65890527 -0.4498456 0.20849194 -0.11024641 -0.35141072 0.59172946 0.2526617 -0.113701016 -0.7632704 0.21082368 0.16986598 0.24145167 -0.33702564 0.25837487 -0.20096721 0.07486246 0.2941905 0.011720524 -0.09341775 0.17872219 0.12235351 0.104921855 -0.32310492 -0.57385325 -0.29423502 0.27408928 -0.014869079 0.14148745 -0.29465148 0.06490065 -0.34138227 0.12667668 0.15342067 0.1318373 0.054978266 0.25162974 -0.16111217 0.1373576 0.16813728 -0.3106446 -0.10584727 -0.04473033 0.06923903 -0.18921843 0.07330571 0.10961552 -0.0016835487 0.021441342 -0.030551817 0.27641496 -0.63723445 -0.036901787 -0.0658823 0.21770735
15749 -0.40041777 -0.09888474 0.09687445 0.12471017 -0.047985993 -0.14549159 0.008131587 -0.21681283 0.03474187 0.16022326 0.6114841 -0.04383986 -0.27548337 -0.055760555 -0.39869037 0.4104351 -0.07270188 0.019098148 -0.3975911 0.081727654 0.063601345 0.21803346 -0.38111058 -0.22918151 -0.02967074 -0.17425795 -0.02942438 0.1627987 -0.21172883 0.050828144 -0.051535092 -0.15661839 -0.0842202 -0.45244017 -0.3708793 0.34094003 0.04890902 -0.092484266 0.00077770185 0.02936755 -0.24261224 -0.20678501 -0.12824316 0.14014019 -0.10949082 -0.13692935 -0.44958004 0.3282407 0.734331 0.32635626 0.1027791 0.15239264 0.09776919 -0.24134028 0.030546723 0.098418325 0.34670433 -0.1958417 0.18961507 0.1537151 -0.40592873 -0.2941288 -0.2567085 0.18323894
31206 -0.4584001 -0.1617035 0.13231315 0.1320803 -0.11026406 -0.14431682 -0.01773163 -0.24299493 0.025089499 0.2420082 0.6680233 -0.06884721 -0.35537603 -0.03777913 -0.42445403 0.453015 -0.033057045 -0.0030818603 -0.45347092 0.051347207 0.0064931223 0.18071519 -0.36948287 -0.24159089 -0.06380187 -0.17014101 -0.06633916 0.1666954 -0.25384903 0.11852021 -0.1416543 -0.12813252 -0.107563466 -0.43961394 -0.45589387 0.37306273 0.10762124 -0.04579013 0.011586584 0.06556438 -0.2425682 -0.20443411 -0.12945236 0.15121955 -0.14941649 -0.15358117 -0.5052174 0.34980342 0.8205121 0.30807287 0.052813035 0.16702224 0.16273269 -0.31830624 0.07426973 0.088905625 0.40785444 -0.23810844 0.22177266 0.2006494 -0.47632164 -0.3109997 -0.2831737 0.2082809
35733 -0.34345552 0.076261394 0.11574917 0.051425673 0.07033379 0.21750107 0.034480896 -0.40899426 0.0011918017 0.14536087 0.60783327 0.24687794 -0.49130106 -0.09414706 -0.13286687 0.11751704 -0.075722985 -0.15891235 -0.2728864 0.18672404 -0.16709334 0.14167777 -0.3145492 -0.3321969 0.22311974 -0.3003955 -0.14443481 0.20085213 -0.34927294 0.10094874 0.16458753 0.04366574 -0.023696529 -0.5807055 0.070378326 0.21659386 -0.0725105 0.3203411 0.30623135 0.3169126 -0.45716995 -0.36550504 -0.19817123 0.20980571 -0.1643078 0.16572952 -0.6542768 0.3223276 0.5067593 0.3850308 0.18807216 0.23942517 -0.1412878 -0.17827941 0.13363716 0.19893509 0.3080409 -0.2777016 0.031028563 0.13453202 -0.35568833 -0.4484359 -0.081598006 -0.12007918
31513 -0.38660777 -0.08462586 0.27657878 0.062823564 -0.09891033 -0.29415345 -0.06877313 0.02505831 0.093343034 0.27369645 0.6422018 0.036701363 -0.33171922 0.025817024 -0.1971194 0.29540518 -0.1848576 -0.109083794 -0.37157798 -0.13375859 0.06946663 0.22860715 -0.3466042 -0.09601199 -0.047815643 -0.15287559 0.19059807 0.22497603 -0.14463556 0.25521082 -0.23986298 -0.26588672 -0.24112144 -0.5447588 -0.2523206 0.61924434 0.11731625 -0.07567746 -0.06485037 -0.097822115 -0.32319883 -0.23779057 0.0005279787 0.2384599 0.061982114 -0.070882484 -0.30594796 -0.015502772 0.8757717 0.41678813 0.3270866 -0.065352194 0.2873779 -0.32100785 0.01853607 -0.07880918 0.3392008 -0.50622433 0.31234702 0.24334167 -0.37811208 -0.19020782 -0.19209947 -0.23060262
21441 -0.15918466 0.024110697 0.4177687 -0.07372284 -0.12555203 -0.35792327 -0.081823446 0.2450522 0.11216621 0.27779824 0.6146334 0.17609054 -0.20004064 0.12130176 0.060640294 0.10915353 -0.16853718 -0.16016795 -0.23249488 -0.31215337 0.110808775 0.13938886 -0.27248496 0.05624115 -0.08192761 -0.15148051 0.29577854 0.2241346 -0.07822229 0.29410315 -0.24887627 -0.32012802 -0.3534463 -0.46606815 -0.015698738 0.5958425 0.136657 0.0127646355 -0.22020616 -0.13715236 -0.261936 -0.18844873 0.2010963 0.23479702 0.26311496 0.06793673 0.013963876 -0.34559172 0.63811904 0.38855883 0.3410601 -0.27325103 0.46456707 -0.2436732 -0.020354608 -0.22873832 0.2521956 -0.55959564 0.26107803 0.18794279 -0.17657122 -0.006848375 -0.13727872 -0.5809456
31868 -0.24352707 -0.12772235 0.60208184 -0.04417372 -0.23858146 -0.32442406 0.5987309 0.18858926 0.27131456 -0.09287382 0.6142517 0.05859474 -0.050943837 -0.038060624 0.03424206 -0.14836426 -0.31557947 -0.10357407 -0.025373219 -0.13694592 0.37933663 0.34895068 -0.5695967 0.037059773 0.009286213 -0.07138985 0.34844857 0.26789668 -0.14299561 -0.1620442 -0.052135386 -0.21428068 -0.0457891 -0.4024901 -0.16774277 0.1475365 0.17954741 0.28272343 0.09545912 0.015703065 -0.15195687 0.096984856 0.3636024 0.2048809 0.5772174 -0.15645124 -0.08211614 -0.39842337 0.42131895 0.46762124 0.36284208 -0.7033304 0.40175113 0.05285201 0.19322827 0.09005549 0.066746764 -0.6390916 0.24693353 0.2002133 0.13597581 -0.017618004 -0.117606185 -0.43032536
24053 0.17764233 -0.046027668 0.31047556 -0.10148777 -0.418519 -0.44727555 0.2392634 -0.057462256 0.3508604 -0.004851146 0.5247335 0.09020542 -0.36224324 0.015716478 0.075882964 -0.3579361 -0.06251813 -0.14090036 0.10792896 0.051881865 0.10844463 0.29128197 -0.418882 0.101402745 0.047179803 0.082950234 0.15683514 0.4952366 -0.16802189 -0.3820871 -0.029760309 0.11607986 -0.10872029 -0.13131207 -0.18874238 -0.28436384 -0.23744816 -0.12543423 0.0920585 0.08215555 -0.11151226 0.20090587 0.037082404 0.08420135 0.5362755 -0.11886008 -0.1356362 -0.21407522 0.19289148 0.14337818 0.100602925 -0.49139687 0.0939964 -0.0639042 0.22409344 0.1911829 -0.12660794 -0.4150524 0.43941024 0.08268566 0.39028764 0.09300952 -0.08483121 0.07287525
34718 0.23883067 -0.09368417 0.2984751 -0.10756377 -0.3679854 -0.5018152 0.30231813 -0.039014008 0.38546622 0.059958037 0.5688516 0.18275985 -0.36033547 0.05556106 0.095885135 -0.39652494 -0.13497797 -0.11377555 0.12207007 0.1060851 0.074038826 0.34038517 -0.5197821 0.16204251 -0.011263236 0.13397084 0.12848535 0.5473995 -0.16893311 -0.47061634 -0.08547601 0.14103271 -0.03958712 -0.20555906 -0.19027597 -0.3095761 -0.29455742 -0.11423635 0.13450776 0.12956229 -0.14296207 0.1885595 0.035603758 0.047763705 0.5591657 -0.060618427 -0.16083194 -0.26103818 0.181043 0.17975925 0.16981885 -0.5221528 0.05814408 -0.11223684 0.24052325 0.25374985 -0.15592562 -0.40860245 0.4936249 0.051723428 0.44017863 0.11752024 -0.06340871 0.1136358
28851 -0.07076556 -0.2565652 -0.18116486 0.031490143 -0.049661998 -0.033268422 0.07903504 -1.0562791 0.2529744 0.023261385 0.51333666 0.112132065 -0.3871962 0.23133045 -0.04423122 -0.28020465 -0.060002875 0.046772357 0.048380338 0.05230843 -0.11604479 0.18390077 0.04396674 -0.24403788 0.05227292 0.009878784 0.009380177 0.09497103 0.09492439 -0.24017727 -0.11817572 0.13267717 -0.04637635 -0.094980426 -0.22844826 0.11196457 -0.0045528673 -0.19867925 -0.15029958 0.114387006 -0.17319405 -0.118078105 -0.06818909 0.09498815 -0.07872837 -0.14358209 -0.048293646 -0.08275083 0.06348802 0.35366637 -0.3295628 0.038653005 -0.096801035 -0.14654393 0.030221432 0.0023368679 0.050859187 -0.18232349 0.31897444 0.27280775 -0.0005502083 0.43159735 -0.32916456 0.05300634
22217 0.069174446 -0.19365291 -0.09235104 0.30028927 0.0790775 0.24412106 -0.09287614 -0.9608133 0.4681022 -0.05323154 0.6021682 0.20543288 -0.037251435 -0.42763168 -0.028967356 -0.09091438 0.0015374526 -0.12295107 0.49933708 -0.12128761 0.1065459 -0.17097123 -0.007367064 -0.14716394 -0.06879986 0.18486594 -0.24330999 0.006629608 0.21307704 0.4607994 0.073510766 -0.1988287 0.021579936 0.16014858 -0.19513717 0.165999 -0.11485514 0.18854946 0.31183568 -0.017415894 -0.2116227 -0.09818295 -0.06659538 0.18376432 0.12641153 -0.33734423 0.2585753 -0.1222514 0.059495494 0.29693064 -0.2984424 -0.008808131 -0.030498466 -0.2837908 -0.021199588 -0.011301194 0.059509646 -0.23346938 0.045479286 0.42954162 -0.24042751 0.22824688 0.053321216 0.113176055
37551 0.008053942 -0.3588906 0.00812238 0.3088531 0.0033230467 0.25203258 -0.22100408 -0.47956178 0.3835216 0.25953057 0.5683488 -0.07414715 -0.07293472 -0.51943433 0.28173792 -0.1995082 0.097827725 0.24760155 0.70606947 0.24122477 0.16433762 -0.23006497 0.10560438 -0.008610936 -0.117271945 0.029506646 -0.3314217 -0.14820185 0.22743148 0.6893527 0.10039843 -0.547606 -0.088933855 0.17132112 -0.03737509 0.20006807 -0.40216365 0.28287524 0.49770534 -0.3507411 -0.028522352 0.15591785 0.34036157 0.36024126 0.25272074 -0.38492748 0.2701005 -0.15932971 0.18697158 0.2099787 -0.09801442 0.26325282 -0.11046556 -0.15606746 0.014206363 -0.021750601 -0.118363194 -0.047915917 0.079861365 0.3162994 -0.09805645 0.14181757 0.036627878 -0.14205843
25588 0.001588849 0.29810676 -0.094733916 0.33175418 0.24996907 -0.012727662 -0.06577397 -0.7807338 0.23983538 0.08341641 0.6389724 0.4903125 0.123593315 -0.47116464 -0.61869574 -0.0036732997 -0.024683574 -0.3853378 0.14123228 -0.17981702 -0.20663065 -0.42683396 -0.4881433 -0.013394678 0.15248919 0.24059448 -0.33607447 0.024644615 0.13749741 0.093109965 0.1588623 -0.14165448 -0.36407357 0.30169323 -0.20040347 0.23531893 0.21027175 0.202068 -0.08355866 0.0982586 -0.12920733 -0.03820063 -0.010980668 0.12049955 -0.016153522 0.002836266 0.22053453 0.078523666 0.0019035748 -0.054281186 -0.34726223 -0.30980974 0.012393388 0.061772633 0.053673565 -0.20504512 0.060714614 -0.2501449 0.13537368 0.3755526 -0.4426984 0.1871734 0.16049168 0.0948683
17587 0.28283173 0.000367429 -0.1409197 -0.26546505 0.1754758 0.012060922 -0.062490657 -0.41042814 0.30293742 -0.24752994 0.63087904 0.38867924 -0.3631918 -0.17773126 -0.10122011 -0.16290997 -0.045719594 -0.58616453 0.28450304 -0.3930093 0.13255394 0.0027822347 -0.38668555 -0.12294113 0.013822643 0.08334491 -0.24884716 0.0082552675 0.18286143 0.47008052 -0.18939827 0.032984275 0.013105005 0.09920731 -0.15989664 0.071146406 -0.010101428 -0.0561828 0.22037113 0.025437208 -0.536376 -0.06100608 -0.3611919 -0.36552358 -0.061655242 0.146187 0.26154822 -0.05188145 0.26328227 0.34277374 -0.37580052 -0.088271335 0.03846194 -0.3020154 -0.16383415 -0.1901554 0.14525186 -0.15592355 -0.17528892 0.26978084 -0.21212283 0.07791165 0.07469058 -0.09838565
16259 0.21033727 -0.43539932 -0.12839371 -0.30796123 -0.21964449 0.0019774847 -0.15451498 -0.1510148 0.33741868 0.5144565 0.6402067 -0.17159426 0.017808078 -0.014518779 0.14717953 -0.22902004 0.027709909 0.10103192 -0.14634465 0.77604574 0.12425916 0.0965046 0.0025980077 -0.14233476 0.07515549 -0.16425256 0.26117873 -0.048014935 -0.02462719 -0.056704435 -0.057949997 -0.14472744 -0.06327892 0.042574987 -0.42589512 0.59095734 -0.31739008 0.15299807 0.31249535 0.5096042 -0.42574498 -0.38044247 0.014924683 -0.15608686 0.20671642 -0.18812487 -0.1767696 0.078315526 0.09309529 0.2371588 -0.19074273 0.19344714 -0.42926928 0.2210459 0.13034008 0.029152079 -0.26029816 -0.14826678 0.060754824 0.11732702 -0.6187223 -0.15065336 -0.13010778 0.1211798
35009 0.29102892 -0.2304579 -0.18767141 -0.31087682 -0.09651673 -0.068385474 -0.50036854 -0.0689892 0.30986214 0.2508999 0.61636937 -0.34474888 0.046020474 -0.34094632 0.27341264 -0.27353847 -0.14860351 0.07903561 0.030249162 0.76545197 0.26184562 -0.02079802 0.5217054 -0.11953551 -0.07767958 -0.3411711 0.09023301 -0.22775508 -0.099644646 0.017598689 0.2667388 -0.39969411 -0.083123535 0.32988968 -0.10720085 0.70061386 -0.112286605 0.049207952 0.40364498 0.30440614 -0.116463125 -0.35992768 0.19812189 -0.0045212703 0.3478824 -0.45549244 0.17802437 0.29624844 -0.1240444 -0.15911603 -0.08910085 0.15910445 -0.24088757 0.3512235 -0.09560817 -0.21390952 -0.2780814 -0.088782825 0.19092005 0.44543898 -0.35646334 -0.13445105 -0.037888225 -0.28101853
24238 0.11799421 -0.020231225 -0.021018537 -0.03612067 0.45475742 0.2110965 -0.09573655 -0.3225467 0.30386052 0.2509697 0.521117 -0.4867189 -0.088725194 -0.1394497 0.46865585 -0.1867644 -0.113322094 -0.093229964 0.153344 0.10274136 0.19800365 0.30017242 0.2948054 -0.16251281 -0.10915602 0.020696592 -0.1353261 0.14046599 -0.414836 0.056499578 0.29504237 -0.4453238 0.1340651 0.16783479 0.22154275 0.2347351 0.21677618 -0.019823426 0.16328277 0.2976261 -0.035651363 -0.24573709 0.33428127 0.00955123 0.0014290934 -0.34788942 0.39845732 0.47461995 0.010733679 -0.16318099 -0.1928604 0.25375336 -0.21873182 0.14859194 -0.1426502 -0.16580358 -0.21245204 -0.05291648 0.30814075 0.40388355 -0.036308862 -0.15266378 0.071782425 -0.1147833
29460 -0.088782266 -0.017556323 -0.3990895 -0.004143008 0.19957925 0.12180118 -0.0956861 0.105146006 0.18014959 -0.029745277 0.5382652 0.11602685 0.21268497 0.18832621 -0.018638652 0.23284931 0.06512467 -0.08426635 -0.093783475 0.07825624 0.018976409 0.13974983 -0.06360711 0.020475158 0.21504223 -0.27534658 -0.19805658 0.057256218 -0.4330683 -0.21740247 0.05313767 -0.10252077 -0.048475564 -0.16173758 -0.016682466 0.11935745 0.27710336 -0.094249204 -0.040570788 -0.2017519 0.12217668 0.20467614 0.7699667 -0.26473072 0.05027686 -0.11473107 0.14461511 -0.14962147 -0.0362791 0.2494055 -0.30626884 0.3278635 -0.11653401 0.335131 0.12434231 0.14858693 0.5085884 -0.02454079 0.6632042 0.41290498 -0.049660724 -0.16018215 0.02652578 0.23457305
27381 -0.03354999 0.10061715 -0.28282607 -0.24252048 0.09601092 0.023921601 -0.3217692 0.14637335 0.20988302 -0.09170425 0.5824284 0.13977511 0.01931774 0.29276595 0.009358697 0.13228777 -0.069022864 -0.18478653 -0.07420516 -0.26902416 0.2555982 0.1329496 -0.01816708 0.020104513 -0.26319942 0.19559017 -0.07222362 0.103947826 -0.44216862 0.12679265 -0.5949212 -0.2988567 0.005694622 -0.25443453 0.09427064 -0.019964198 0.1293259 0.17890796 -0.27560726 -0.17377906 0.014104155 -0.1203414 0.32328087 0.0035115443 -0.49377856 0.02285365 0.337943 -0.32430142 -0.2477951 0.14554782 -0.1522976 0.019163018 -0.04030554 -0.24607138 -0.021533733 0.26628983 0.16153085 -0.3838454 0.3980709 -0.046458807 -0.0816292 -0.43904993 0.20055827 0.38498688
29687 0.18976735 -0.06483476 0.018375799 -0.37801462 -0.18113652 -0.09048237 -0.056998417 -0.10108344 0.30994162 -0.28941503 0.5729964 0.21256085 -0.02119587 0.28473604 -0.21117221 -0.06900378 0.028733617 0.019144135 -0.0045285826 0.14338155 0.02874477 0.31583264 -0.0356399 -0.07517394 -0.10236166 0.10160602 -0.030582694 0.51622254 -0.01994962 -0.11537547 -0.26594117 0.08748125 0.10229322 -0.109379105 -0.29004043 -0.124931626 -0.3285684 -0.11611642 -0.05436757 -0.14249583 0.026125604 -0.1835637 0.402673 -0.005064459 0.11666195 0.11025957 0.08343914 0.028541872 -0.43761477 -0.26861554 -0.17277254 0.16214703 -0.23740345 -0.13243338 -0.049672548 0.058641538 0.128499 -0.67370516 -0.392172 -0.48150912 0.07162969 -0.014006112 -0.07982831 0.24791208
24051 0.015755178 0.22283746 0.16439354 -0.32607728 -0.29392332 -0.24833284 0.10656692 0.2975705 0.025307264 0.09415395 0.5900592 0.3229713 -0.0019916836 0.2000184 -0.26179457 0.054541603 0.06260536 0.19864556 -0.11120959 -0.040145915 -0.2685686 0.1627589 -0.16381194 -0.07269105 0.32064638 0.105718695 -0.110352464 0.23857047 -0.51273715 0.18599047 0.07177024 0.14660498 -0.124266006 -0.025742264 -0.26102972 -0.5061446 -0.10229399 -0.12723754 -0.035248403 -0.119634375 -0.24921046 -0.025039636 0.4740309 -0.0661404 0.002797668 -0.28934094 0.13238873 0.386908 -0.3379092 -0.035720214 -0.32979143 -0.013265315 -0.20150419 0.22632842 0.084976435 0.08993051 0.17717113 -0.058776945 0.35759065 -0.04115175 0.17440532 -0.00206236 0.1110893 0.036657516
36725 -0.16221504 0.24231854 0.3856192 0.15236925 -0.19004641 -0.44155586 0.18005268 0.20888568 0.095362134 0.3587683 0.58863693 0.18426958 0.16546556 0.11836468 -0.17033319 0.0019400574 0.14193395 0.058292296 -0.022254894 -0.18213747 -0.05909014 -0.09130424 0.13304788 0.0056496896 0.061262734 0.16990171 -0.07206777 0.4023037 0.16205005 0.32319963 0.13763283 0.4648411 0.035332575 -0.011081023 -0.045987234 -0.08329553 -0.4435169 0.12681556 -0.09308219 -0.27568367 -0.32485896 -0.20418386 0.3333174 0.12561294 -0.18052807 -0.59550804 -0.005621741 0.6454944 -0.063293174 0.06875679 -0.3295489 -0.13546678 -0.16591936 0.019855823 0.057703864 0.17581378 0.14517695 -0.046890847 0.53065264 -0.1475469 0.07454746 -0.055886984 0.4095635 -0.20395108
25585 -0.22127627 0.10252777 0.47648907 -0.17335196 0.23803869 -0.29557773 -0.5533155 0.12496195 -0.17796865 -0.02054734 0.58058864 0.08637682 0.4273652 -0.09854957 -0.004360186 0.064742275 0.13928092 0.32991448 0.16144678 -0.08294626 -0.26742768 -0.07007072 0.25473166 0.09580431 0.15290517 -0.24573496 -0.014735964 -0.041196615 0.120824814 0.091303125 0.2827486 0.61751425 0.121114284 0.06495625 0.25252232 -0.1899645 -0.21120006 -0.09405891 -0.14481694 0.07302735 -0.4027591 0.14463744 0.1996739 0.19431774 -0.24631937 -0.45443627 0.26015174 0.671832 -0.028582418 0.0354222 0.0741939 -0.1680664 -0.42944464 -0.05769103 0.4310667 0.17425975 0.10664711 0.18241967 0.14945464 0.08311611 0.082156345 0.015909512 0.11156034 -0.32990614
31736 -0.13059992 -0.15300742 0.1422839 -0.06442384 0.33750477 -0.5151508 -0.085041866 0.27011618 -0.031124301 0.470472 0.53361523 -0.29909533 -0.10449302 0.13804933 0.012308755 0.052137796 -0.08855268 0.0073549156 -0.16805336 0.29954633 0.106671214 -0.01648322 -0.24354501 0.119700484 -0.0215318 0.080953225 -0.09959053 -0.24570043 0.101221174 -0.21524028 0.20090704 0.08452321 -0.008071047 0.123780586 -0.013502896 0.048236176 0.09880626 -0.0033946915 0.02904569 0.18352805 0.10793505 0.33962995 -0.10487865 -0.037806403 -0.2611757 -0.15287635 -0.2720855 0.25447702 -0.06965138 0.28383186 0.02121215 0.14383867 -0.20299885 0.058554698 0.06418756 -0.033572547 0.16280687 0.102833584 -0.1501931 -0.08306738 0.18720143 -0.21228534 -0.017123902 0.12981847
15777 -0.06818321 0.011990038 0.1949025 -0.07191309 -0.3710988 0.057520602 0.108805306 0.48253524 0.28789505 0.38259932 0.6340625 0.04576014 0.07839231 0.35209045 -0.28836492 0.15850651 -0.029357644 0.034489762 0.13698596 0.23350708 -0.12986736 -0.12907045 -0.0803995 -0.22958274 0.19435404 0.016767738 -0.2877527 0.21291365 -0.012346772 0.15583782 0.19307686 0.1803735 0.07967054 -0.08773416 -0.14859562 0.3520255 -0.3664826 -0.027217563 0.34791026 0.13239288 -0.5338345 -0.17068504 -0.11068136 -0.2500618 -0.11484373 -0.37214985 -0.21766552 0.67715317 -0.10355401 0.07864189 -0.16005702 -0.29014906 -0.20676503 0.34501302 0.055052888 0.20473279 -0.015701316 -0.1438885 0.19685157 -0.05021088 0.06801316 -0.115160346 0.10996492 0.084237464
31809 0.1541007 -0.31202945 0.15240239 -0.26405936 -0.1584204 0.15874305 0.099724986 0.123028815 0.3092556 0.32887176 0.69469345 0.061112773 0.038566772 0.33589977 -0.2110268 0.15432352 0.19004968 0.013529756 -0.029001227 0.5674378 0.023607638 -0.08635327 -0.053385302 -0.25299343 0.07485855 -0.1604275 0.07637109 0.2732994 0.12558435 0.029192394 0.36145967 -0.10656616 0.18610185 -0.21281528 -0.13290858 0.687341 -0.35648742 0.26075318 0.41022637 0.4211406 -0.5479725 -0.2786961 -0.28752652 -0.37002704 0.1223384 -0.13889252 -0.3154077 0.39879507 0.09462068 0.02263117 -0.16155185 -0.16834587 -0.43647304 0.18592924 0.15322736 0.21142326 -0.22292791 -0.47017524 0.35018775 -0.092050724 -0.41584852 0.16046633 -0.03705397 0.21677817
24050 0.10328884 -0.33824858 -0.16418312 -0.33755505 0.07533919 0.052719392 -0.14612912 -0.35903576 0.3107799 -0.095806986 0.63150364 0.12701473 -0.052687097 0.43239084 -0.18556926 0.095163845 -0.096230865 -0.26672402 0.03391523 0.3015122 0.17071098 0.064615324 0.014104425 -0.39552572 0.016930632 0.03223973 0.14139585 0.39611426 0.044282664 -0.1150592 0.19735037 -0.3591358 0.3455037 -0.136541 -0.31533945 0.34331635 -0.30284944 0.31694537 0.18711798 0.06260961 -0.16589098 -0.4451083 -0.2993511 -0.32037455 -0.12995401 -0.19440141 -0.24977516 0.012369339 -0.10643452 -0.25512573 -0.19990021 -0.09816641 -0.2221355 -0.09363013 0.05927666 -0.03407659 -0.061663505 -0.3995583 0.5109895 -0.25408015 -0.060327537 0.36054283 -0.20074378 0.23396496
21470 0.2869031 -0.21682705 0.10999262 0.29677203 0.049158465 0.27080408 -0.107525066 -0.3960551 -0.23890135 0.2218565 0.5758491 0.18183932 -0.18028356 0.26742706 0.072201736 -0.21502079 0.046410225 -0.2276805 -0.034193818 -0.06725129 0.2779138 0.095698215 -0.26045758 0.1388463 0.08990695 0.08413583 0.21403325 -0.46635818 0.158075 0.008482541 -0.029478293 -0.0727633 0.31984338 0.06843946 -0.37077847 -0.26142338 -0.010276469 0.10672519 -0.31260756 -0.10480011 -0.096785784 0.2605041 0.42924473 -0.39294094 -0.13441977 0.2360142 -0.35692295 -0.0010196023 0.047614694 -0.014501367 0.1655158 0.16588978 0.023988554 0.14589837 -0.13395521 0.08229076 0.18265793 0.54380083 0.21248028 0.5077266 -0.32964066 0.19073813 -0.56083006 -0.044667777
30189 0.3166709 -0.022592891 0.023719497 0.09960609 -0.11032454 0.04678103 -0.013604197 0.019392796 -0.081532694 -0.15537494 0.6491928 0.114759624 -0.4638838 0.5357792 0.0028626611 -0.2122862 -0.07871452 0.05073115 -0.29989332 -0.2263426 0.051370617 0.35262677 -0.2998935 0.269642 0.103449255 -0.16349997 0.029230393 -0.38450456 -0.14597802 0.12404481 0.033557188 -0.60962075 0.40428138 0.14616759 -0.26998448 -0.3429648 0.28062886 0.0327548 -0.18935955 -0.1924399 -0.4566049 0.1220503 0.6559572 -0.5391022 -0.055714305 0.21649887 -0.16142753 -0.030033788 0.060744952 0.33837047 0.24212022 -0.17427087 -0.15968096 0.21079634 -0.33000493 0.16901577 0.27025574 0.64717406 0.47010633 0.14716469 -0.34680822 0.12970985 -0.48606437 -0.38729534
24147 0.3042461 0.0023211434 -0.29561326 -0.035557117 0.02465602 0.0031796242 -0.36363328 0.20509137 0.16775192 -0.038855 0.6258108 0.2620907 -0.21833463 0.39502695 -0.031374976 -0.27116412 -0.025932282 0.18106966 -0.18499339 -0.30772227 -0.12700261 0.17809656 -0.20468992 0.024299063 -0.15547796 0.21313158 0.21931727 -0.2955617 0.092892624 -0.062217284 0.009514682 -0.52878666 0.27427799 0.051571794 0.15946144 -0.28749117 0.2774003 -0.08686729 -0.091153204 -0.08654246 -0.4711037 -0.08693246 0.55086434 -0.29185417 -0.20447253 0.15698008 -0.06942371 -0.18697168 0.08584383 0.5052235 0.27262732 -0.030679712 -0.25127774 -0.027525418 -0.1599844 0.2476742 0.07792578 0.55567354 0.45368886 0.0147852795 -0.32153538 -0.22885112 -0.32009497 -0.81593853
33274 -0.14889416 -0.55956304 -0.4037954 0.076518685 0.01974599 0.088897355 -0.5875971 -0.06587761 0.34792304 -0.09310776 0.55707973 -0.1027101 -0.025549766 0.04586849 0.18412812 -0.29711646 0.15103859 0.107529566 -0.15335616 0.022972347 -0.04737613 -0.03401939 -0.059628375 0.12879881 -0.11884877 0.47877458 -0.0032620663 -0.41041705 0.47953588 -0.16856074 0.16195361 -0.24038899 0.26818576 -0.046079367 0.25543997 -0.401844 0.17073017 -0.3471757 -0.29263812 -0.13225116 -0.3446216 -0.13397385 0.3618632 -0.1306607 -0.15549304 0.21341214 -0.35733405 -0.02896711 0.099115066 0.24275538 0.2989017 0.02739663 0.08110494 -0.19055098 0.0550507 0.041700847 -0.12751329 0.084971435 0.36751956 0.14079513 -0.064800166 -0.060903892 -0.18294607 -0.4424326
15769 -0.09473481 -0.077645354 -0.3864456 -0.011046939 0.15949942 0.28384674 -0.25380895 0.116675735 -0.06248656 -0.2325935 0.5521551 0.15484771 -0.0034357167 -0.055877764 0.058924284 0.10438946 -0.26456067 -0.413124 0.06733714 -0.0024027303 -0.14379 0.03572024 -0.17024103 0.23859459 0.18269265 0.3727466 -0.018491903 0.015779883 0.1326995 -0.21713172 -0.12039156 -0.25094256 0.37312412 0.19704524 -0.21218774 0.0758519 -0.14970776 -0.08026483 -0.63166076 -0.013476359 -0.076802336 -0.0043246257 0.48942247 -0.041104723 0.036063388 -0.23255864 -0.5851231 -0.28858286 -0.058049567 0.21257195 0.4424602 0.32424548 0.06344051 0.18337794 -0.29389644 0.22297937 0.08359105 0.036708117 0.469463 0.19692264 -0.25295225 -0.30875307 0.63802963 -0.3247393
34608 0.27122334 -0.13868983 -0.23908448 0.124064475 0.100171715 0.106052615 -0.33161858 -0.45455766 -0.15862525 -0.54437846 0.5528166 -0.14322238 -0.22317892 -0.16539328 -0.2548066 -0.09511784 -0.043178707 -0.3569555 0.032948975 0.07278135 0.12060721 -0.1701561 0.29330137 -0.10754525 -0.24509388 0.4720048 0.23263514 0.042325318 0.019637529 0.012569482 0.0025797463 0.09094525 0.6723462 0.2590034 -0.1169584 0.14463176 -0.2633128 0.05980014 -0.5521199 -0.32090077 0.2798158 0.15975702 0.08159994 -0.507404 0.10826555 -0.2976333 -0.2992667 -0.04797888 -0.23124456 -0.081933655 0.24879958 -0.3155712 0.22021194 0.5498558 0.10803648 0.19458753 -0.122491576 -0.2762319 0.4350491 0.18646857 0.18127844 -0.5613051 0.25721884 -0.42529538
25572 -0.11144212 -0.1522014 -0.32344103 0.34451595 -0.07636194 0.21646401 -0.20519851 -0.71629536 0.16177247 -0.14764605 0.51965314 -0.31339762 -0.275548 0.23207109 -0.10232816 -0.15152961 0.37278122 -0.22307378 0.06281101 -0.13310951 -0.15646559 0.1221925 0.09848736 -0.06319425 -0.15897474 0.13566211 0.122850515 -0.18628898 0.077330485 -0.2867296 0.0764435 -0.031080617 0.55771464 0.5057108 -0.13845848 -0.3263847 0.05897642 0.04902759 -0.29763073 -0.07838895 0.057421155 -0.00989494 0.03601775 -0.42408717 -0.052106988 -0.12684628 -0.060379244 -0.009151534 -0.01691517 0.07995729 0.113014445 -0.05080134 0.06398925 0.100536294 -0.025110349 0.15690038 -0.15363215 -0.34669307 0.45671272 0.10723048 0.2914965 -0.22092001 -0.024034824 -0.59321326
35442 -0.21232872 -0.015507687 -0.15471579 0.18648459 0.014946021 0.2763489 -0.0046058125 -0.29829037 0.08329194 -0.1963754 0.5695997 -0.6980508 -0.33376738 0.33370084 0.10937852 0.20583889 0.4619569 -0.2667847 0.15344475 -0.38118064 -0.24641877 0.36843032 -0.061708562 -0.08521919 0.124379374 -0.27375025 0.30629307 -0.39694875 -0.6216799 -0.21967329 0.013320442 -0.2892054 0.3968457 0.85114694 0.029741516 -0.23332137 0.2681823 0.15882592 -0.24530737 -0.20456281 0.072352014 0.2703298 0.10800833 -0.32339656 -0.09975054 -0.26548076 0.115533814 0.053141322 -0.17976533 0.13294798 -0.033151157 -0.06326013 0.059432756 -0.17669345 -0.12745418 -0.005381517 -0.20328115 -0.29036885 0.3268694 0.064431496 0.30499136 -0.20610623 0.29697096 -0.24598472
22475 -0.101802595 0.026021238 0.22135557 0.018180663 0.12555759 -0.08679575 -0.090887465 -0.04066915 0.074000604 -0.08683862 0.61354375 -0.8014755 -0.18646541 0.24362715 0.10272545 0.08692237 0.43462718 0.097683735 -0.07751167 -0.13391952 -0.023943037 0.4758696 -0.25030556 -0.005585087 -0.37624153 -0.4708022 0.18604325 -0.28010225 -0.57540584 0.02217682 0.26163644 -0.18803228 0.45259944 0.6023702 -0.13387348 -0.24598151 0.0373603 0.16589034 -0.025728326 0.08821265 -0.18388303 0.30800986 0.2553888 -0.45566517 -0.16332705 -0.22736171 0.042994935 0.31649217 -0.32430115 0.23750329 -0.13270503 -0.017442316 -0.06362352 -0.32593188 -0.008461411 -0.12402136 -0.05732643 -0.08775112 0.15188847 0.06827873 -0.019730646 -0.13545106 0.4587471 -0.14323252
35820 -0.1241578 0.3590859 0.16093831 0.022449967 -0.1618237 -0.15494101 0.5269667 -0.38867626 0.314668 -0.16992629 0.6839235 -0.7939692 0.16970722 0.3157122 0.025283778 0.029066373 0.21476063 0.2745243 0.09563727 -0.17164013 -0.015974432 0.4437137 -0.10235868 -0.09878234 -0.6914566 -0.57978046 0.3470885 -0.30691233 -0.41626182 -0.16433586 0.14930868 -0.14857958 0.4458103 0.29175588 -0.13026334 -0.18583068 -0.12257136 0.43836272 -0.25800532 0.14860114 -0.37387148 0.2269725 0.010232818 -0.20826915 -0.1725314 -0.10988179 -0.20004353 0.421863 -0.35991663 -0.013288758 0.10224839 -0.14054346 -0.19575186 -0.4386732 0.0037104662 -0.059974086 0.3785234 -0.07951416 0.03806684 -0.03890681 -0.09158134 -0.052038398 0.509326 0.17095757
34106 0.017329665 0.01775022 0.06555494 -0.42453417 0.15925303 -0.058596622 -0.64667773 0.08141984 -0.154846 -0.22980651 0.57553065 0.13542786 0.09564415 0.01568134 -0.21499583 0.23207834 0.19914426 0.27771318 -0.053977985 -0.12586024 -0.29909933 0.18125777 -0.36029094 -0.36241964 -0.021229088 -0.03673751 0.07776839 -0.034249444 -0.32530692 0.09512317 0.076527566 -0.032560565 -0.02632988 0.18535398 0.032896284 -0.44221428 -0.021558527 -0.00977868 0.18901941 0.007129305 -0.1641506 0.3011182 0.059184365 -0.024106888 -0.06460572 0.052096855 0.03168467 0.25222066 -0.18363556 0.13123047 0.07172961 0.28923696 0.16612756 0.030793717 0.1964331 0.0044678696 -0.3359117 -0.11030696 -0.31991172 0.34559 -0.01968119 0.20120247 0.07014613 -0.26511887
25446 0.054365885 -0.07801481 -0.11872816 0.04696436 -0.32852215 0.30782157 -0.6414373 -0.12639135 0.30454472 -0.16397484 0.5772063 0.0005468658 -0.3916194 -0.051363256 -0.10066429 -0.012389633 -0.17395343 0.2689757 0.04973269 -0.25854915 -0.10701915 -0.1701033 -0.17970847 -0.35374388 -0.114079535 -0.07966405 -0.11686779 -0.007352792 0.07689455 0.20985569 -0.06655717 -0.17526174 0.13673404 0.20562121 0.4768301 -0.21150202 -0.30091166 -0.08365603 -0.033453535 -0.15659848 0.4700506 -0.032222867 -0.10813918 0.25528544 0.009176294 0.0863715 0.009177564 0.2091214 0.05288048 -0.11615109 0.275715 0.115396865 0.29597414 -0.11095828 0.2616067 -0.25966576 0.23206398 0.49239203 -0.38224143 -0.14349166 0.12712894 0.08962698 0.1289165 0.08194196
33200 -0.047508877 0.009583056 0.06791215 0.45834348 0.05472488 0.17826205 -0.26160946 -0.27398884 0.43576926 -0.34143728 0.4977417 0.0052739303 0.12127345 -0.20530806 -0.1027844 -0.08574953 -0.009406037 -0.21935977 0.18400668 -0.29734474 0.37571955 -0.08107674 -0.046010517 -0.029251333 -0.0415066 0.127936 0.03102239 -0.29769334 0.043966547 0.32801634 -0.056560837 0.29371217 0.09060709 0.0024994174 0.100782886 -0.098854646 0.3151786 0.023515096 -0.018015023 0.041609492 -0.18236339 0.1815265 -0.1726413 0.42234665 0.18230021 0.040428303 0.13093027 -0.32056212 -0.13399245 -0.08681208 -0.0065724296 -0.09707243 0.038962003 0.17247452 0.17720176 0.15265177 -0.087695256 0.14601529 -0.17950098 0.13317353 -0.05058666 0.07530668 0.10638632 0.5279779
16202 -0.889563 0.02472567 -0.1741493 -0.18957356 -0.06613448 0.16288732 -0.4701146 -0.172668 -0.019885803 -0.13069654 0.56233126 0.29016933 0.51095086 -0.15036324 0.28443483 0.043839876 0.04846206 0.29509273 -0.017593112 0.24813847 0.13175978 -0.03464646 0.30322343 0.30887944 -0.3871848 0.16011596 -0.060207542 0.2450037 -0.20298524 0.6143614 0.19830082 0.18756229 0.25812447 -0.375037 -0.0029656275 -0.020959603 -0.4470569 0.13780642 0.50337595 -0.26288772 -0.13140856 0.2515207 -0.10235741 -0.084534466 0.1616114 -0.26518133 -0.17571163 -0.08189434 0.17128326 -0.072833955 0.13374424 -0.16622312 -0.31996298 0.2536023 0.14651296 -0.014713899 -0.13603379 0.10541029 -0.31834662 0.087306045 0.19088031 0.017030494 -0.13355762 0.17570429
34878 -0.54097277 0.28940785 -0.08317264 -0.5826122 -0.1308263 0.20983146 -0.48855063 -0.21249136 0.030531345 0.28489336 0.57271063 0.49030134 0.17401566 0.22336817 0.08747196 -0.048208494 -0.14068392 0.01716416 -0.08246374 0.014656252 0.63299066 -0.04046523 0.23433146 0.52811384 -0.23937263 0.294847 0.034771506 0.031347398 -0.075178206 0.5595257 0.32935733 0.2309536 0.29963556 -0.15330087 -0.031385362 -0.1705683 -0.34110534 0.2644623 0.28795487 -0.76563174 -0.06119422 0.28144324 -0.06599001 0.18712515 0.38564453 -0.29732746 -0.06784679 0.24009208 0.29249322 0.19498052 0.029243583 -0.07203216 -0.10356987 0.1949292 0.04513541 -0.030515812 -0.023971407 -0.05086685 -0.29666287 -0.20437433 0.30631366 0.028421074 0.23373914 0.08697366
29380 -0.9968518 0.08568739 -0.13038753 -0.20857139 -0.08245575 0.14551233 -0.4281888 -0.1586971 -0.02814774 -0.1439995 0.6133333 0.37423903 0.5376906 -0.17312679 0.29820293 0.07690467 0.014815142 0.3343509 -0.03134478 0.26269302 0.16581605 0.0059344405 0.3247449 0.3115075 -0.4905536 0.16035958 -0.026576618 0.2476274 -0.1761596 0.6599067 0.20922191 0.16009663 0.3242722 -0.3989334 0.062128093 -0.045563206 -0.5124898 0.17623793 0.5493173 -0.24165177 -0.16251597 0.34110793 -0.107387945 -0.05848745 0.1479502 -0.28049982 -0.20686138 -0.10053405 0.18061921 -0.058837663 0.15651233 -0.13043278 -0.33042964 0.302978 0.13612568 -0.09168277 -0.10982423 0.1093823 -0.35422263 0.114816524 0.18708545 0.08916879 -0.17351203 0.21002969
32014 -0.8783703 0.14198896 -0.38414633 -0.19665535 -0.06591355 0.14638695 -0.3670109 0.08141501 -0.2870823 -0.0661737 0.5857985 0.2547746 0.2625539 -0.19516975 0.162412 0.05645062 -0.060020536 0.28760904 0.08461789 0.11337182 0.06027192 -0.09783009 -0.084439404 0.16580446 -0.4408224 -0.105581276 -0.15064012 0.5855457 -0.3482806 0.3704573 0.16784951 0.24111453 -0.11589437 -0.35842273 -0.28781903 -0.047924634 -0.44039306 0.16922206 0.5436101 -0.15560298 -0.06857051 0.2318531 -0.16442837 -0.49242252 -0.33614045 0.10562517 -0.24308698 0.18024278 0.2922032 0.078589335 0.1782325 -0.2476869 -0.063248634 0.13967815 -0.052078903 0.1773678 -0.11685931 0.10600123 -0.20218004 0.0808461 0.20935039 -0.01619577 -0.2240426 0.17150511
22860 -0.6208259 0.09844849 -0.3609709 -0.3464747 0.37392154 0.094741724 -0.40612108 0.1115195 -0.31540745 0.050223023 0.5919652 0.063245535 0.017589828 0.016614372 0.17025101 0.13503887 0.0036815607 0.1551995 -0.0017545033 -0.09145149 0.02721547 -0.16132788 -0.16453296 0.111155815 -0.4276135 -0.082586564 -0.33577606 0.22171113 -0.29380786 0.16365387 0.13798611 0.08819068 -0.25461474 -0.4044794 -0.023627995 -0.026238177 -0.41842604 0.4703122 0.10012367 0.0127807325 0.005135979 -0.14596654 -0.32617766 -0.59712946 -0.19201212 0.2942269 -0.116745174 0.20115472 0.1329657 0.14247671 -0.07939444 0.12745693 0.13820261 0.28566125 0.01243301 0.18222004 -0.32859832 0.25754982 -0.12499044 -0.0073766164 0.18244277 0.04994337 -0.25868618 0.1976056
32505 -0.8085096 0.25645608 -0.13027053 -0.17166367 0.22125936 0.101684034 -0.5826155 0.05076573 -0.23528774 0.12514155 0.6186863 -0.11139168 0.09267966 0.0704328 0.14614473 0.1396945 -0.011895618 -0.15423334 0.1283859 -0.164626 -0.04386351 -0.19086102 -0.054226328 0.063018195 -0.4708174 -0.11866315 -0.44171748 0.19222927 -0.4272542 0.14276196 0.2811973 0.04934428 -0.4349053 -0.52194643 0.0019594543 0.049525376 -0.43427166 0.49387568 -0.094898656 0.013282987 0.22047938 -0.0982288 -0.15076284 -0.584301 -0.2903701 0.28461865 0.012916105 0.12134646 0.16250128 0.02715642 -0.097426146 -0.0026786705 0.29523468 0.36823508 -0.10125702 0.07307748 -0.36513788 0.20078966 -0.25780448 0.033167526 0.2019766 0.1302318 -0.2248603 0.22058642
24206 -0.041900244 0.08339306 0.23945089 -0.25862178 -0.010387375 0.01897859 0.4636606 0.09299992 0.0218893 0.4545928 0.623748 0.01706497 0.06421791 -0.0379532 -0.06812242 -0.33152482 0.5606731 0.09947628 -0.18861099 0.24130887 0.25921482 0.10252248 -0.16313122 -0.28258818 0.12122787 0.072812356 0.13237584 -0.17794348 0.39523625 -0.12128019 0.4711497 0.15498656 -0.23239586 -0.13933118 0.016314434 -0.09547112 -0.09250629 -0.15614721 0.06041491 0.44807342 -0.011254441 0.19101697 -0.033556253 -0.05211706 0.360052 0.111943126 0.11538959 0.30064204 -0.052380897 0.27044705 0.13270827 -0.62966955 0.38892636 -0.039322633 -0.0644178 -0.22438872 -0.48063275 -0.2045566 0.27715448 -0.1588314 0.06282361 0.022641532 0.1036118 0.276864
35752 -0.08256667 -0.055836085 0.43807936 -0.33095008 -0.42278135 -0.1300527 0.18907507 -0.06484496 0.30515057 0.13698803 0.5850358 0.031956315 -0.1573624 -0.36893794 0.03344421 -0.097448505 0.08868691 -0.2260843 -0.22735928 0.1258515 0.13290711 0.22233915 -0.301825 -0.11407239 0.21842888 0.04988171 -0.00029572737 0.3387258 0.2331716 -0.274137 0.05689935 0.120087884 -0.14522213 0.2534561 0.06336002 -0.19814727 0.016630767 -0.38874048 0.10794036 0.35081616 0.054152872 0.4835063 -0.105629124 0.3785345 0.45848313 0.027041197 -0.10999968 0.20870142 0.15144052 0.18659225 0.3351472 -0.45182785 0.22707799 0.18686283 -0.042708907 0.04860238 -0.45558113 0.10943087 0.7261056 -0.11685839 0.2529957 -0.22506636 -0.07635929 0.5633932
24177 -0.550182 -0.03595466 0.12814362 -0.35183504 0.001965379 -0.16420847 0.34155136 0.23303927 0.17928836 0.2119851 0.60396856 0.009627508 -0.40736786 -0.13430317 -0.07144068 0.118777 -0.2799297 -0.14430314 -0.037288252 -0.1528938 0.17189842 -0.069729775 -0.09487398 -0.27132252 0.29059127 0.16567686 -0.12546448 0.060040697 -0.1844884 -0.03986792 -0.15597264 -0.24545114 -0.04722766 0.22295713 -0.20393673 -0.2482788 -0.08487649 -0.2092073 0.084599935 0.21030349 0.01815665 -0.0310266 0.05992509 0.20058447 -0.12607406 0.013928357 -0.13434377 0.40203097 -0.018044397 -0.107402846 0.09857702 -0.28935382 0.028302051 0.2648881 -0.16525593 0.060544778 -0.31309897 0.4578219 0.4905814 -0.23703484 0.21132246 -0.17338052 0.06374132 0.48367104
29637 -0.6472125 0.1118686 0.09553623 -0.39768267 -0.24662648 -0.07903771 0.48800722 0.23383024 0.09084501 0.13693933 0.65553284 0.007997921 -0.3729204 -0.22520389 0.0304779 0.24742842 -0.18148422 -0.11134882 0.117302835 -0.31865638 0.068747334 -0.10425603 -0.05199601 -0.22701694 0.47129685 0.2526504 0.008437737 -0.23100351 -0.3195303 -0.16443898 -0.10756839 -0.16614316 0.0030497063 0.37242693 -0.5231755 -0.35317373 0.064005174 -0.10890742 0.03228796 0.19936283 -0.04498961 0.008014477 -0.1209246 0.16406266 -0.26340732 -0.082249 -0.2578267 0.453581 -0.08092063 -0.08638733 0.29208735 -0.13395979 -0.08202009 0.43431655 -0.18600309 0.23785703 -0.35442728 0.37073812 0.50536567 -0.47708085 0.04106773 -0.2549468 0.19194414 0.4440309
24144 -0.42338392 0.25670052 0.13206103 -0.24430731 -0.4568706 0.034065172 0.51169336 0.23564607 -0.020674605 0.10427888 0.64430445 0.011789596 -0.21470958 -0.21354054 0.01734185 0.16666171 -0.03421337 0.08101364 0.23119788 -0.46966013 -0.057917733 -0.119957566 -0.006833366 -0.17709066 0.45385158 0.27733302 0.059908 -0.44322777 -0.3373716 -0.102285646 -0.075917594 -0.036790244 0.03125563 0.430343 -0.6794278 -0.37057894 0.21557608 0.051026814 -0.040495604 0.18320055 -0.13268088 0.14954932 -0.24975316 0.09270657 -0.26394308 -0.1334509 -0.3942511 0.44602293 -0.09475925 -0.1733844 0.32460064 0.030924998 -0.13395452 0.462594 -0.21325204 0.34751308 -0.15511896 0.10742163 0.41721967 -0.48392576 -0.09526105 -0.31204358 0.266859 0.2886806
34163 -0.3282814 -0.05033786 -0.053201918 0.08881075 -0.1181119 -0.055653445 0.008929326 0.36886543 -0.15532869 -0.11507374 0.62137514 0.15690653 -0.21292624 -0.27456945 -0.34157288 0.11294286 0.0827551 0.24648386 0.14512447 -0.23683901 0.25533175 -0.050477944 0.119681165 -0.043190464 0.13858654 0.18900475 -0.37056682 -0.055829745 0.08786963 0.06758888 -0.14166483 -0.24341127 0.17765492 -0.066263855 -0.4638622 0.20287561 -0.022992596 -0.096438564 0.0014053447 0.27628848 0.059688017 -0.24990126 0.0057124454 0.32737386 -0.37935477 -0.1618342 -0.3992249 0.44555664 0.014420736 0.06408761 -0.19548447 -0.10765936 0.11226388 -0.22284761 -0.21512425 0.09669145 0.2175696 0.076004624 0.5372172 0.16326208 0.045191366 -0.37300166 0.18496369 0.470637
16294 -0.30591914 -0.013859428 -0.40478104 -0.10220102 0.2963305 0.047398362 -0.3461409 0.36809146 -0.18311611 0.043428145 0.6175651 0.12116755 -0.23443936 -0.029856421 -0.078780085 0.018298684 -0.110425524 0.014351697 0.10414149 0.075609304 -0.09477124 0.3164527 0.17382365 -0.040988185 0.26999187 0.43394408 -0.18364197 0.055030987 0.23512775 -0.2256765 0.13280791 -0.18074794 -0.20333262 0.18558246 -0.31520233 0.22994548 -0.05154564 0.0037907406 -0.10716526 0.36754304 0.26107404 -0.14327946 0.27999213 0.10995407 -0.047401972 -0.36679503 -0.75071704 0.3188035 0.05824478 0.09585957 -0.21297072 -0.1675894 0.018377693 -0.10056996 -0.3246331 -0.02448879 0.306763 -0.019643674 0.024526808 -0.31604376 0.05838581 -0.23585828 0.8178466 0.16317052
24219 -0.40370885 -0.03466512 -0.09724358 0.19115713 -0.09954001 -0.41314125 0.11658526 -0.032972023 0.11536684 -0.039126024 0.5520557 0.09156675 -0.061409052 0.12537317 0.15147536 -0.2348845 0.11545901 0.250762 -0.10364813 0.020903412 0.20547856 0.16688713 0.028120037 -0.0027405699 0.19553863 -0.1668499 -0.5035581 -0.21713226 0.0058293436 -0.0045429645 -0.08710554 0.037287377 -0.18475938 -0.34437335 -0.03039903 0.19515793 0.4311394 -0.08586159 -0.14504555 -0.017918786 -0.029960014 -0.36410803 0.50854367 0.16956748 -0.1128919 -0.043750808 0.33782429 -0.009608849 0.020445287 0.23451433 -0.25316307 0.16103487 0.4920983 -0.24035491 0.025686245 -0.18245043 -0.015805824 -0.14930138 0.44346705 0.25873074 -0.13758722 0.010593911 -0.14782777 0.11121375
34514 -0.11197506 0.035351016 0.25037983 0.26639846 0.016766215 -0.093027815 -0.025029352 0.2820619 0.25294086 -0.13463058 0.5886956 0.24705301 0.31798774 -0.017049469 -0.086697534 0.11105771 0.1389585 0.7184696 0.22126724 0.20961897 0.43615115 0.37386972 -0.11119101 -0.058040157 0.42733657 -0.1797829 -0.022307506 0.16882093 0.017056027 -0.17015897 -0.21826826 0.32003245 -0.056379605 -0.12026023 -0.2416863 0.011960942 0.13708073 -0.007863662 -0.3054964 -0.03519469 0.3741663 -0.10767489 0.34306008 0.03775207 0.020534491 -0.25065434 0.22592829 -0.2525736 0.12283171 0.46206498 -0.025579125 0.09946507 0.45081574 -0.29070583 0.12301431 -0.58764756 -0.12069037 0.13781817 0.28494284 0.26321647 0.06424166 0.041528102 -0.5370568 0.08918518
25541 -0.37346685 0.120014295 -0.13660775 -0.0760866 -0.02373497 0.111894004 -0.514128 0.17601162 -0.04401149 0.09873746 0.57238394 -0.080848515 0.32434127 -0.33207324 0.005892392 0.0696302 0.16922663 0.18929093 0.15276295 0.19210002 0.1729304 0.11681178 0.013350608 -0.24666244 0.31599888 0.0399539 0.12433558 0.032718737 -0.13302587 -0.11523497 -0.37805066 -0.19023968 -0.16414241 -0.1709581 0.090225875 -0.1716477 0.12195879 0.099534035 -0.21938936 -0.29657042 0.21755186 -0.0898076 0.67446464 -0.20722613 0.21561714 -0.34261915 0.40288073 0.024349878 -0.039215628 0.3762333 -0.18313693 0.08263642 0.36472034 0.1032565 -0.24319533 0.020653471 -0.039096694 0.3292316 -0.14528143 0.11467934 -0.10395553 0.10316572 -0.062166404 0.026690725
25532 -0.51210916 0.08787825 0.02502545 -0.02759408 0.13613884 0.3488016 -0.25583383 0.28131476 0.07677586 0.21951428 0.54586434 -0.2015215 0.09515355 0.4492252 -0.16403948 0.11700355 0.10294042 -0.2577286 0.09745661 -0.20145293 -0.39486048 -0.053411625 0.128717 -0.19202025 0.02057313 -0.50002915 -0.28999177 0.09127616 0.1868775 -0.28776458 -0.0857736 0.009773404 -0.22760756 -0.18453315 -0.005589928 0.0046696686 0.11633654 -0.1770934 0.12644356 0.0068369983 0.040084496 0.79810476 0.196221 -0.48684308 -0.33305964 -0.39633188 0.0068835355 -0.25389925 0.15164705 -0.28296244 -0.20722555 -0.09701033 -0.29255387 0.16385171 0.26279494 -0.15874983 -0.04346234 -0.39891088 0.25058344 0.2412211 0.17745483 -0.3591958 -0.10440019 -0.03284365
29291 -0.5362787 0.15090737 -0.0013879272 -0.1395266 0.056413047 0.6051622 -0.11904317 -0.19530316 -0.026122123 0.11557026 0.5896744 -0.24127729 0.36324528 0.7281901 -0.08812661 0.06197383 0.032012567 -0.07048519 -0.0057612867 -0.32656503 -0.19606742 -0.025332274 -0.009774406 -0.10699848 0.7263665 -0.28104007 0.067028984 -0.36847806 0.21795805 -0.67279214 -0.17023042 -0.10635924 -0.2678938 -0.030522285 0.20785668 -0.005834238 0.14304899 0.031303067 0.40555403 0.16931824 0.091440775 0.63599175 0.04547303 -0.24115607 -0.0037862272 -0.17278951 0.21830243 -0.022965439 -0.1506018 -0.34998512 0.07367534 -0.14307863 -0.21883708 0.41092902 0.13506195 -0.31954518 -0.043263875 -0.36986378 0.19370021 -0.10947763 0.2690219 -0.37912485 -0.08236047 -0.2904686
15458 -0.036505353 0.20052923 0.10885803 0.011048044 0.07797333 0.4915098 0.18332416 -0.6348778 -0.10472119 -0.27788422 0.57907945 -0.31458768 0.09896546 0.5450437 0.108543195 0.22726782 0.38416255 -0.029423688 0.1842937 -0.14386874 -0.35917354 0.2752632 -0.15786575 0.018628038 0.5352553 -0.39556503 0.24857086 -0.25922257 -0.26571116 -0.26775905 -0.15747207 -0.43821847 0.004990006 0.5002265 0.38284183 -0.078504406 0.3661336 0.054556247 0.29184565 -0.042732675 0.21539567 0.3873358 -0.09610632 -0.27066106 0.122534074 -0.17872944 0.11372653 0.24457946 0.0099987155 -0.2456843 -0.11662911 -0.28526333 -0.09339012 0.039143205 -0.07480348 -0.16966738 -0.10675615 -0.1326949 0.20035936 -0.011806397 0.14084989 -0.4655255 0.19936214 -0.23689859
31235 -0.050855465 0.21910416 0.26722157 -0.07037936 0.050652687 0.3723671 0.27953318 -0.69432175 0.15029797 -0.092586085 0.6423448 -0.18031347 0.11120828 0.4429758 0.26731277 0.34322494 0.46633133 0.025970118 0.45335513 0.21073663 -0.24203293 0.14626326 -0.19996458 0.37653166 0.365594 -0.24859878 0.35147634 -0.1023581 -0.20689394 -0.27036718 -0.31855577 -0.5659978 -0.005416927 0.29253727 0.4024294 0.06440672 0.62942183 0.03614514 0.18646838 0.04693044 0.35459703 0.29100248 -0.19155969 -0.15988499 0.07175542 0.0068647587 0.23985663 0.36015633 0.013700273 -0.35846552 -0.14159255 -0.034520883 0.048541356 -0.03141504 0.16149734 -0.21607076 -0.110986695 -0.136212 0.21091415 -0.29304087 -0.050051093 -0.38176402 0.16877714 -0.5671198
19172 0.004664235 0.25523236 0.28816548 0.09300065 0.04449027 0.30281025 0.2854149 -0.5247051 0.22887261 -0.1787658 0.6024414 0.07764487 0.27251795 0.06307129 0.20606355 0.4404034 0.4705227 0.043831844 0.20040949 0.3088996 -0.07290195 0.067366764 -0.23378426 0.43447748 0.23125283 -0.0870326 0.35779178 0.0573424 0.008015987 -0.36144763 0.052289415 -0.511212 -0.07450934 0.2784677 0.34292334 0.15450108 0.558402 0.113634884 0.46464446 -0.008809398 0.40806505 -0.07825603 -0.16218975 -0.0025432003 0.020672988 -0.14911334 0.1431683 0.22408885 0.010807729 -0.13256662 -0.17847915 -0.028349811 -0.11889101 -0.19142854 0.21029072 0.06843907 0.109716065 -0.09698077 0.15605849 -0.5164327 0.055228397 -0.3564608 -0.09041318 -0.701675
19241 -0.06835029 0.23194113 0.25461912 -0.24646692 0.04467604 -0.10406551 0.27072036 -0.7193192 0.06583119 0.22322644 0.64707214 -0.0064371503 -0.08459204 0.39314625 0.26137957 0.08624005 0.25318182 0.13865675 0.7528722 0.3365937 -0.14157686 -0.03318787 -0.093451746 0.49137032 -0.045518868 -0.025950452 0.24571678 0.05747727 -0.17718852 -0.07261381 -0.5872835 -0.53260493 0.040804565 -0.03169618 0.18850143 0.13219985 0.6207847 0.1802717 -0.120606326 0.02888928 0.24972472 0.34649014 -0.1746716 -0.058613047 -0.020300388 0.2620954 0.25359505 0.572619 0.11828584 -0.51681966 -0.12844941 0.07987912 0.31191993 0.060958277 0.16890137 -0.2958841 0.014214119 -0.07024273 0.17417185 -0.09970435 -0.26020938 -0.15843968 0.32222912 -0.28435165
36946 -0.13752809 0.031231608 0.08908067 -0.22323109 -0.16720276 -0.23234437 0.07534444 -0.22475284 0.1833878 0.35609588 0.6491381 -0.22181152 -0.27790228 0.7302752 0.105398245 0.31894565 0.20831582 0.24753937 0.61461484 -0.29267314 -0.2649556 -0.06881313 -0.2606309 0.33029193 -0.15641372 0.2840381 0.07976672 0.23956926 -0.22917472 0.12997858 -0.5096664 -0.49078733 -0.2025913 -0.1370938 0.21504554 -0.13892949 0.19252345 0.23563163 0.03416374 0.42957875 0.16528748 0.3098608 -0.22459905 -0.09455743 -0.3475514 0.14110883 0.27990124 0.25102258 -0.20913562 -0.274396 0.5181972 0.12952372 0.05540127 -0.093389064 0.06753451 -0.25592688 0.10606075 -0.45399198 -0.0070290994 -0.11895175 -0.049881995 0.080590904 0.006205489 -0.24256442
25565 -0.6786627 -0.030621462 0.20698766 -0.0013230572 -0.29417115 -0.036029298 0.020930812 -0.28037632 -0.04609472 0.28615877 0.58035976 -0.360789 0.16340765 0.549143 -0.01277324 0.14985627 0.2087879 -0.016005682 0.08743916 -0.284314 -0.08998749 -0.2814317 -0.0052600084 0.04247078 0.07615185 0.421937 -0.054675773 -0.09889077 0.17844701 -0.3413349 -0.2046409 -0.1380128 -0.18365593 0.038937658 0.08815444 -0.19305487 0.20792377 0.37810302 -0.09613887 0.1547898 0.005994126 0.43563402 -0.389073 -0.25891072 -0.0879056 -0.02010316 0.025254304 -0.1745373 -0.2101544 -0.16628005 0.45566195 0.24755116 -0.207502 0.44202873 -0.026376942 -0.27330092 0.028912285 -0.4686378 0.128566 -0.2986701 0.2559709 -0.106027886 -0.1573181 -0.4807032
30284 -0.69619286 0.013634665 0.18104424 0.00025310533 -0.34935415 -0.004424706 0.003329113 -0.25999397 -0.13274863 0.27962765 0.6093066 -0.4329361 0.14703274 0.623144 -0.037132777 0.12942056 0.20037547 -0.018714434 0.10046783 -0.33814803 -0.11223608 -0.33308855 0.029265005 0.07180802 0.09058685 0.44753927 -0.04918843 -0.073509775 0.21972056 -0.42243665 -0.16344191 -0.08647262 -0.2524791 0.054017562 0.10278438 -0.23325835 0.27447212 0.44761026 -0.13190813 0.21963702 0.022743762 0.48670635 -0.39748076 -0.310195 -0.06542344 -0.039124817 0.003933326 -0.17429096 -0.1654008 -0.1896766 0.49210042 0.2912194 -0.20951785 0.5199862 -0.03739285 -0.21106263 -0.0343312 -0.52481365 0.15518531 -0.28559497 0.2459476 -0.08339909 -0.15525232 -0.47392038
35023 -0.42407876 0.14034368 0.5057564 -0.17214698 -0.5084536 0.042707954 0.29965508 -0.27711338 -0.3624504 0.01763344 0.5893287 -0.27661848 0.10464848 -0.34362513 0.30104974 0.2559455 -0.1993002 0.015281688 0.12584922 -0.27732053 -0.12269104 -0.39492622 -0.014689403 -0.017848937 0.47785023 0.2378175 0.18939105 -0.37050644 -0.21891466 -0.35823935 -0.24883099 0.14121892 -0.2537676 0.22603764 -0.21109775 -0.16653213 0.2347612 0.17710827 -0.32963285 -0.00019244083 -0.18795812 0.6859403 -0.34392282 -0.12527259 -0.19077593 -0.21605279 -0.46689957 0.11517893 -0.10816879 0.17039642 0.51930475 0.40636876 0.0014952213 0.3907978 -0.03196633 0.08661428 -0.17966399 -0.15980235 0.54963243 -0.5869546 -0.10043171 0.1578327 0.09415336 -0.104750946
15740 -0.27608758 0.12072149 0.29366937 -0.13722156 -0.523548 0.11018784 0.12319979 -0.132752 -0.19767943 0.14839402 0.5294986 -0.5243773 0.07062409 -0.25256425 0.08592267 0.35084638 0.12931418 -0.09367101 -0.21902174 -0.27629182 -0.2459302 -0.2666587 -0.081533894 -0.035313915 0.17514871 -0.27049994 0.39580896 -0.18132733 -0.41962424 -0.24636003 0.08429154 0.24987657 -0.21404119 0.39278692 -0.33070087 -0.0049286485 0.31564495 -0.098888345 -0.12996638 -0.24302727 -0.01954864 0.13898072 -0.34022912 0.13747464 -0.2591085 -0.6223484 -0.31737936 0.16480057 0.23542145 0.21455252 0.2984766 0.31829646 0.010056298 0.05660857 0.032638796 0.093300276 0.09571611 -0.019627454 0.23633255 -0.58066803 -0.18012416 -0.1960679 -0.12170581 0.2286571
17610 -0.2347545 0.38681525 -0.24079575 -0.22486715 0.15599489 -0.07516829 -0.07966417 -0.11827151 0.3591531 0.14361548 0.56913006 0.14827338 -0.14822191 0.15138617 0.30632964 -0.21350624 -0.12829506 0.25879127 -0.18435898 0.16551553 0.09870095 0.14067383 -0.031457044 -0.099182434 -0.056133017 -0.080450244 0.06621799 0.3850871 0.081004806 -0.19824666 0.2904533 0.10121892 -0.7227416 0.0030454497 0.07804065 -0.24889337 0.3053011 0.43325913 -0.6120793 0.18318067 -0.07943555 -0.36138186 -0.4256794 -0.29769227 -0.05389223 0.11043546 -0.22926961 0.04414068 0.10386963 -0.3852454 -0.12891696 -0.14167647 -0.055718016 0.19133936 -0.051483203 -0.16300754 -0.12051783 0.10590629 -0.12564223 0.15741533 -0.020853806 0.152292 -0.19997795 0.3035394
34083 -0.29225495 0.18153234 -0.2574251 -0.115103 0.6589879 -0.23139259 -0.11908785 -0.014551494 0.34602788 -0.09718732 0.5717137 -0.15508933 0.076213874 0.10846454 0.15588665 0.10483629 -0.18455422 -0.19295463 0.04375596 -0.3624091 0.33385453 -0.15082006 -0.095077336 -0.28725713 -0.030024027 -0.04388748 0.020442942 0.24529444 -0.3965251 -0.2495281 0.094122045 -0.3623276 -0.07834033 -0.16882046 0.037687544 0.093400486 -0.15110432 0.41736025 -0.18691437 -0.10858222 0.07877339 -0.19276717 -0.026280185 -0.2495408 -0.10535814 -0.08662784 0.2688631 -0.016223706 -0.027456218 -0.39918312 -0.105454706 0.0016317659 0.11068703 0.16623326 -0.2715443 0.07443914 -0.29037705 0.16923523 0.57329583 -0.32423925 -0.095383875 0.07715654 -0.107581064 0.2466104
24061 0.085291274 0.52628607 -0.006204342 -0.34969762 0.3398172 0.06324905 -0.100170486 -0.03651478 0.32709762 -0.6502319 0.6532175 -0.101581864 -0.0381214 -0.023739124 -0.012246816 0.34398803 0.18921524 0.008587545 0.06476096 -0.16784905 -0.054513868 -0.20459308 -0.06433817 0.523552 -0.30393302 0.306522 0.39204326 0.2094428 -0.08942916 -0.019001104 0.0030712362 -0.47228622 -0.07373663 -0.12979242 0.18718253 0.46736124 -0.35392857 0.22320782 0.041361842 0.06933444 0.3369701 -0.12366339 -0.04168153 0.30720508 0.1786892 0.35430506 -0.060969044 0.13195774 -0.008585182 0.17661457 -0.17332718 0.4668994 0.13051842 0.03174466 -0.225345 -0.28247258 -0.19843115 0.09925828 0.8490353 -0.0850629 0.23376103 0.47314826 -0.5753107 0.16033693
32785 -0.18198498 0.36496493 0.016006311 -0.3044754 0.24631122 0.22875044 -0.23352027 0.18638282 0.11921092 -0.6897912 0.6611645 -0.0057146936 -0.13346109 0.196069 -0.26190236 0.20505929 0.27674332 0.08309043 0.014140202 -0.14044459 0.03980606 -0.389608 -0.12572518 0.43350443 -0.3033509 0.112505436 0.53383106 0.15755063 0.2209684 -0.35701138 -0.23868799 -0.8391719 0.26053086 -0.06799996 0.2165199 -0.061738174 0.14810377 0.0851068 0.59770215 -0.116549775 0.40582216 -0.21131223 -0.15597133 0.2519135 0.08535026 0.11032772 -0.36391807 0.2073255 0.46066767 -0.080451824 -0.21258274 0.26148248 -0.11856951 -0.049963135 -0.033245597 -0.26801717 0.15937456 0.018480377 0.5231707 -0.036943845 0.3060757 0.2455458 -0.16660248 0.07467005
21438 0.015525159 0.18588455 0.19134331 -0.36606103 0.34170794 -0.06658453 -0.25780854 0.18318419 -0.1614724 -0.30854374 0.60506207 -0.09410911 -0.3420565 0.135515 -0.23883665 0.03592556 0.2297513 0.055865437 -0.22406897 -0.35459894 -0.39814436 -0.49855408 0.12335607 -0.03571238 -0.14386117 -0.28287995 0.18054122 0.26039168 -0.0008621494 -0.031728543 -0.38137558 -0.5933841 0.08500635 -0.2388946 0.0381913 -0.45224157 0.025141714 -0.2337407 0.4745282 -0.12988636 0.05317909 0.14201927 -0.10922565 -0.03282064 -0.066308565 -0.06346848 -0.2945323 -0.51577276 0.42330375 0.092553645 -0.31272832 0.20167512 -0.058265008 -0.16075978 -0.005777001 -0.25168166 0.10177354 -0.11639432 0.34014902 -0.009428269 0.026425773 0.28360564 0.027737742 0.036114022
17715 0.0580411 0.0053941887 0.007253166 -0.16624488 0.24534151 -0.48315188 -0.48641697 -0.061159283 0.2078908 0.011329623 0.63142884 0.13662148 0.37941796 -0.4451365 -0.19640666 -0.12196191 0.025499461 0.31843662 0.07632804 0.047232896 -0.69668144 0.034250755 0.08561759 0.38178965 0.2634598 -0.08866546 0.5155316 -0.5085461 0.060966477 -0.19217455 0.4075399 -0.08430367 0.044197865 0.007148472 0.12382596 -0.14979286 -0.16726157 -0.10725521 0.026355712 0.01768907 -0.02367747 -0.04699972 0.069746435 -0.498887 -0.41998726 -0.5559252 0.06445956 0.16357648 -0.006054703 -0.076968886 0.27755085 0.09840854 0.133186 -0.3559059 0.06977996 -0.32887232 -0.0062338375 -0.085355625 -0.44305936 0.041947912 -0.0118702445 -0.40505973 -0.04724691 0.035286263
30844 0.24336961 0.054869838 0.096043706 -0.1252901 0.20310824 -0.46097654 -0.2593296 -0.29359236 -0.006434587 -0.19282979 0.6241539 0.077059165 0.15760794 -0.21846056 -0.41820544 -0.11738378 -0.080153875 0.17967924 0.13769269 0.15338771 -0.63498896 0.12078904 0.08112599 0.4020098 0.39193094 -0.011139029 0.6210564 -0.40856212 0.22174723 -0.3719584 0.22735853 -0.04223285 0.020004397 0.031149019 0.16106 0.034744605 0.004264471 0.068203576 0.22510786 0.071348526 0.13085546 -0.03515866 0.40622213 -0.37301114 -0.26022136 -0.52921396 -0.081244655 0.17571005 -0.050498463 -0.35848266 0.23405688 0.029050801 0.25469503 -0.4382344 0.039083753 -0.23227966 -0.032816622 -0.09450466 -0.47783068 -0.15421586 -0.0076612798 -0.4919391 0.2831407 0.0037594165
22802 0.15795287 0.3375371 0.08365643 -0.28065446 0.20357423 -0.1923471 -0.27878672 0.14422306 -0.22346649 -0.03149004 0.6384926 -0.03191149 0.15860872 -0.07012268 -0.18356235 -0.0006694468 -0.095361136 0.057517037 0.15856083 -0.08947656 -0.45988294 0.3210698 -0.20522031 -0.15982673 0.24323013 -0.10168195 -0.050609 0.8555617 0.11772773 0.045833554 -0.14419444 -0.10646054 0.18789005 -0.21148023 -0.6460707 -0.1460121 0.42063835 0.13408521 0.13472278 -0.31155327 -0.058615364 0.28258222 -0.5272328 0.13156042 -0.31407663 0.1604468 0.08359716 0.1992262 0.04404503 0.08806956 -0.079451755 0.09116146 0.077338554 0.08469993 0.03047528 0.07321405 -0.18366963 -0.018244259 -0.469925 0.3117083 -0.14894025 -0.19543725 0.0069279927 -0.4149966
29072 0.18841542 0.2833203 0.08463269 -0.38614184 0.3295265 -0.3233325 -0.39768448 0.23556198 -0.27208918 0.023279421 0.6977075 -0.03612033 0.15974778 0.002512751 -0.1700015 0.011606407 -0.17013556 0.037370663 0.113638975 -0.09365588 -0.50793386 0.27348554 -0.35265332 -0.18842626 0.24066468 -0.123760305 0.06286982 0.8315341 0.03648983 0.05869906 -0.27531904 -0.16033614 0.15935539 -0.26424623 -0.60521567 -0.10589373 0.423114 0.07928512 0.12300751 -0.2539754 -0.10397383 0.31953645 -0.49166816 0.13161488 -0.46090278 0.1845194 0.07643805 0.13001353 0.022107072 0.1385687 -0.030205997 0.22533602 0.050919745 0.059380144 -0.01256448 0.026759932 -0.17840602 0.044295304 -0.4686871 0.35778713 -0.1311365 -0.3204727 0.0060352767 -0.51126665
29062 0.20891698 0.32538408 0.050128132 -0.36315113 0.32408634 -0.26482716 -0.42447212 0.23675339 -0.2786861 0.030422606 0.67779607 -0.029741429 0.1436909 -0.002658813 -0.16366652 0.023794524 -0.19627476 0.023712471 0.11840201 -0.10260335 -0.5506668 0.30139467 -0.35764873 -0.18764986 0.23853694 -0.0990749 0.00833694 0.82594734 -0.0065911314 0.011276049 -0.21060793 -0.1431754 0.22853127 -0.2532298 -0.5443974 -0.08168058 0.44083253 0.04169207 0.10025553 -0.29855514 -0.10877873 0.3013596 -0.49847123 0.10900655 -0.47318202 0.19199939 0.02726071 0.12054209 0.06501474 0.1622412 0.04305957 0.10830428 0.050236885 0.08443749 -0.02414894 0.05683023 -0.24815787 -0.0352572 -0.46615577 0.26849577 -0.2125922 -0.36037627 -0.017831337 -0.49885038
21838 0.16385645 0.2074509 0.03561288 -0.3521512 0.34939677 -0.32901183 -0.4747354 0.33202 -0.18686935 0.052357327 0.62367654 -0.048815675 0.11752554 0.038099755 -0.109971434 0.032341536 -0.24065006 0.02409909 0.074994355 -0.13819857 -0.44454426 0.25024295 -0.3237088 -0.099522255 0.15275022 -0.07863113 0.11670418 0.5806566 -0.024701292 0.02146467 -0.27876353 -0.14251746 0.14358465 -0.2971849 -0.41797605 -0.022725794 0.35469577 0.0184935 0.07819306 -0.22372179 -0.10065574 0.38082543 -0.35895458 0.10162953 -0.41128385 0.17928112 0.002002945 0.033818174 0.0035424682 0.2024457 0.009605649 0.17772508 0.021331985 0.035180837 -0.04424451 -0.034716778 -0.14867175 0.103993684 -0.43733653 0.2570103 -0.14863987 -0.3327212 0.040138125 -0.4923433
34041 0.23574328 0.041883845 -0.13309312 -0.17084976 0.29782653 -0.1578189 -0.43186948 0.25111023 -0.08940881 0.19504987 0.6096088 0.27454615 -0.10431882 0.25205934 -0.14376196 0.08424289 -0.17358524 -0.19313161 -0.008201564 -0.44292796 -0.026731445 -0.17370822 -0.24906823 -0.028746488 -0.041983012 0.062779926 0.31172925 0.04883645 -0.33134347 0.22729386 -0.50457495 -0.28374207 -0.08542989 -0.097875394 0.069809705 -0.040956024 -0.050797805 -0.11434837 -0.052538324 0.14642417 -0.28367606 0.08419279 0.034997743 -0.0007331067 -0.047782943 0.08391982 -0.04890902 -0.5977789 0.018354202 0.41886726 -0.06600139 0.09846997 0.06714129 -0.4588865 -0.38259974 -0.14166309 -0.04718093 -0.10225503 0.024173375 -0.026769847 -0.22874792 -0.44551528 0.05149568 -0.56845945
15546 0.16043656 0.11859477 -0.03775734 -0.11137397 0.40841293 0.035961058 -0.42944947 0.005565577 -0.053277098 -0.10638567 0.55496144 0.11886931 -0.0024351508 0.037468288 -0.070782326 0.26561812 0.13372767 0.09751581 -0.33394337 0.016329827 -0.60451216 -0.20348513 -0.016173264 0.05509539 0.0076574334 -0.40780008 -0.013819198 0.09061549 -0.5542155 0.17614117 -0.06643828 -0.20489438 0.065844424 -0.0216587 0.004760933 0.06240428 0.07623393 -0.076260135 0.23582971 -0.1368749 -0.13909982 0.16010964 0.113813706 -0.19365904 0.058342364 0.18655203 0.0012524686 -0.5149876 0.34136167 0.33019984 -0.08536234 0.07845384 0.010181484 0.15452948 -0.14124465 -0.08938377 0.38916597 -0.1343385 0.22403084 0.09036185 -0.29035792 0.39347675 0.049633846 -0.27561966
22791 0.123084635 0.0005072638 -0.47717553 -0.324878 -0.0014314549 -0.1332373 -0.19112548 -0.091899306 -0.4001375 -0.15646346 0.5714575 0.40553492 -0.08179454 0.5275514 -0.118618965 0.0023845101 0.14329484 0.022312598 -0.0045097643 -0.3134919 -0.15170838 0.3186718 -0.40535942 0.18959494 -0.24622394 -0.2422569 -0.19316575 -0.1707858 0.14403208 -0.25690877 -0.009558813 0.38721654 0.14705774 -0.10203379 0.19295621 0.36856475 -0.10064725 0.09144146 0.16521038 0.036498994 -0.23100364 0.18969378 -0.39545715 0.14815992 0.30761313 -0.0865307 0.12131602 -0.23323171 0.042576257 0.20822866 -0.22547923 0.27063972 0.237547 -0.33143595 0.10841907 0.057357173 -0.059780743 0.14771922 0.04366834 0.017299829 -0.2685666 0.09557328 0.1962037 -0.4311576
28852 0.5525343 -0.06569729 -0.22163433 -0.04264994 -0.023830509 0.12975948 0.5780967 -7.2242525e-05 -0.345935 -0.56405044 0.5532201 0.036365774 0.2083299 0.2664753 0.036048546 -0.00977291 0.14928418 0.37493098 -0.06430092 0.06948551 -0.098544024 0.12377602 -0.19861259 -0.07781805 -0.22398193 0.036806755 0.082935885 -0.18222998 -0.19374685 -0.026755402 -0.061544877 -0.09700174 -0.03728822 0.09655469 0.4316382 0.4388406 -0.15702298 -0.11641865 -0.22186145 -0.023635363 -0.03540798 0.07401344 -0.057198126 -0.035403274 0.18411364 -0.3351707 0.07613814 0.24774335 0.21809977 -0.4176526 -0.09308879 -0.30507743 0.057118613 0.09874134 0.1604087 -0.21484986 -0.1688437 0.18005566 0.012607557 0.07030821 -0.12646537 -0.42328492 -0.04756086 0.13041773
24181 0.17055748 -0.29450294 -0.690209 -0.12104175 -0.075361036 -0.060663313 0.5377898 -0.13735928 -0.25494945 -0.20254168 0.71861887 -0.3350624 -0.08750404 0.39992863 0.08924375 -0.029986167 0.332496 0.43591166 -0.2961783 0.45487216 -0.21069148 -0.19303955 -0.6265519 -0.10334134 0.0758775 0.08126431 -0.0058044535 0.010241803 -0.10698152 0.23345448 -0.16993749 0.052558884 -0.45896733 0.14729728 0.5977096 0.8357433 -0.22740968 0.004004853 0.061738722 -0.034000352 -0.01195125 -0.022729771 -0.161201 0.123580754 0.09456945 0.09829716 0.340648 0.26209018 0.058714315 -0.059680875 -0.09496737 -0.4306947 -0.45168862 0.031693306 0.23726481 0.08171795 0.13112755 0.12545955 -0.024740202 0.024574688 -0.3475729 -0.16984776 -0.47354868 0.34199136
34149 -0.11190089 -0.35213587 -0.6928403 0.011300752 0.012167649 0.0642513 0.1667315 0.13646364 -0.20835248 0.026312573 0.66045004 -0.2553017 -0.106765024 0.004884508 -0.0049328553 -0.0065377303 0.27051976 0.02755405 -0.3049991 0.6242581 -0.10027403 -0.14287113 -0.4990252 0.11193841 0.26218036 -0.11190425 0.1783487 0.2756108 -0.0843649 0.18828724 -0.081731446 0.28219444 -0.43935716 0.1435349 0.41265047 0.6628381 -0.23103328 0.060320526 0.115807414 -0.14233339 -0.1600953 -0.075563945 -0.14422366 0.16907798 0.36137232 0.37751678 0.21870598 0.26480156 -0.12315917 0.14981027 -0.19042052 -0.15875408 -0.47309288 -0.13057569 0.11296927 0.41456312 0.25895888 -0.07566053 0.04514493 0.052366756 -0.37690586 0.15855058 -0.45137984 0.37109488
24069 -0.11337391 -0.41378626 -0.41237074 0.08286537 0.26878858 -0.12769106 0.16056915 0.20887882 -0.20960343 0.41521674 0.6793426 -0.5142118 0.0054658167 0.040745832 -0.18995544 0.2609033 0.23705861 -0.03304146 -0.63195014 0.55932206 0.057150602 0.015374448 -0.5237545 0.24565905 0.012866493 0.05471222 0.1664873 -0.008897505 -0.054864593 0.082345195 0.10179702 0.23170087 -0.4132227 -0.15205884 0.10403682 0.4801947 -0.110429086 0.075017564 -0.050288793 -0.047117703 -0.21269603 0.22858888 -0.12037157 0.13828531 0.13983038 0.26535642 -0.075042166 0.37675706 -0.06831727 0.050531268 -0.15403612 -0.11078693 -0.33020443 -0.1539817 0.14372465 0.2878481 0.21141201 0.05650491 -0.057705525 0.08443354 -0.4593449 0.0059507387 -0.28561375 0.36072573
21868 -0.33238474 0.2598493 0.020591555 0.1057737 0.3242053 -0.07345353 -0.4807697 0.33192816 0.105125226 -0.055014536 0.6082571 0.16272072 0.15063804 -0.15207478 0.123490155 0.19149682 -0.036044948 -0.20576948 -0.35609448 0.14773802 -0.2080662 0.23119661 -0.622592 -0.02390683 -0.20767386 0.087247916 0.031991847 0.105829105 0.04035835 -0.18484169 0.08159961 0.0069112615 0.011129156 0.30787426 0.11943591 -0.22329752 -0.14767304 -0.04462563 0.015737357 0.4479725 0.29617614 0.23810744 -0.21813494 -0.2890781 -0.17842561 -0.15380645 0.23781082 0.58109695 -0.06394269 0.09354526 0.24068776 0.24668284 -0.51921695 0.14645305 0.20927173 0.03482149 -0.3365662 -0.14043501 -0.008402157 0.08434867 -0.2459734 0.2507025 0.2610811 -0.35185233
32035 -0.53714174 0.3648576 -0.3674638 0.32930028 0.23470317 0.04378826 -0.095712915 0.12946592 0.119786896 -0.40876737 0.67321575 0.40474737 0.11566648 -0.3463206 0.16799442 0.13407852 -0.30153653 -0.31677648 -0.52097225 0.25404033 -0.032742646 0.22289065 -0.83198017 0.18214683 -0.23368171 0.31493896 0.1706735 0.42426327 -0.10738699 -0.13139741 0.07857132 -0.28892115 -0.028207362 0.25235805 0.06279468 -0.059532575 -0.05358223 -0.15031826 -0.1232081 0.4978957 0.31404087 0.23658003 -0.24306366 -0.39705226 -0.01315646 0.04113157 0.3062913 0.5864844 -0.015303512 -0.1342201 0.2229109 0.2792143 -0.51092124 0.11654155 0.23988655 -0.036383484 -0.37121308 -0.1867162 0.15864651 -0.015719146 -0.5057551 0.1766301 0.3670837 -0.21796869
21864 -0.4336186 0.35541365 -0.37165093 0.39399412 -0.22724268 0.026448587 0.35932145 0.28534493 -0.023810906 -0.6304864 0.6632043 0.43791354 -0.060274195 -0.15816411 0.23533648 0.20386678 -0.3285623 0.066162534 -0.35518116 0.13177782 0.2650061 0.26070577 -0.5361987 0.29889354 -0.2727348 0.37155247 0.348969 0.30167007 -0.11055083 0.0948233 0.015090404 -0.26162136 -0.057041623 0.1238747 -0.0569039 -0.2967694 -0.027946226 -0.3089937 0.20299263 0.16472879 0.24100769 0.17869219 -0.41067615 -0.55693924 0.10632353 0.07458985 0.14502488 0.5854335 -0.04635888 -0.14814651 0.19287024 0.330971 -0.44865358 -0.004206939 0.30360174 0.04622174 -0.09093977 -0.31999528 0.16233364 -0.007954393 -0.4108079 0.120063685 0.17956325 0.006322298
31458 -0.49837235 0.4401568 -0.418897 0.4586014 -0.22526446 -0.0028419814 0.4046825 0.3334714 -0.029763546 -0.69334304 0.7345168 0.43303132 -0.14441293 -0.16899823 0.239178 0.28132862 -0.3570036 0.111456454 -0.4473293 0.08336584 0.30575868 0.3185704 -0.57246476 0.3624019 -0.26987854 0.39417326 0.45025206 0.36352322 -0.11338603 0.1575057 -0.0071572238 -0.22282673 0.010919498 0.11476419 -0.041885156 -0.32360438 -0.05448292 -0.32636052 0.17076164 0.19764802 0.25966102 0.20959131 -0.55979145 -0.605626 0.08767475 0.0958202 0.13111451 0.63658625 0.005737028 -0.16051516 0.29566926 0.3493357 -0.54380375 0.020858156 0.3290587 0.035639443 -0.08757238 -0.35636282 0.1961885 0.017397987 -0.39059472 0.1492562 0.1608731 0.028315399
31512 -0.20919803 0.026286393 0.10060503 0.1683022 -0.23368238 0.35734722 0.20407961 0.2629273 0.080262415 -0.9156823 0.6244886 0.1583471 0.22171713 0.25660834 0.2517612 0.12958091 -0.22071885 -0.20379348 -0.21306352 -0.10392625 0.31428367 -0.033279516 -0.36248627 0.38066873 -0.3627539 0.36447734 0.27151144 0.2685465 0.04553981 -0.08705048 -0.1397994 -0.40824163 -0.26805726 0.062740326 0.03208069 -0.25902563 -0.06237414 -0.49840835 0.64015776 -0.14758399 0.1260209 -0.18740602 -0.31302464 -0.22579652 0.27763006 -0.060587525 0.024057914 0.40014273 -0.006818466 0.006442856 0.07691971 0.22994195 -0.08895927 -0.00982592 0.54280084 -0.00958539 -0.0096301725 -0.13057712 -0.16023375 -0.054681666 -0.1534686 0.15205352 -0.08050731 -0.33755255
24288 -0.44650373 0.13479842 0.03248202 -0.073232315 0.16233614 0.34580448 0.033382658 0.3306336 0.14506796 -0.788374 0.6410784 0.048003692 -0.019277731 0.32096928 -0.17908533 0.2120609 -0.18872337 -0.05748147 0.11029375 -0.17570528 0.22482334 -0.23702529 -0.32662174 0.45868522 -0.43938717 0.2290833 0.47990963 0.38044018 -0.014358721 -0.18971585 -0.23728676 -0.6467189 0.029064093 0.06395589 0.026050743 -0.25440404 0.017587883 -0.32886815 0.8857159 -0.24920848 0.35986626 -0.38646317 -0.08577331 0.041104432 -0.014957796 0.29156557 0.028777843 0.4405258 0.37344187 -0.21616566 0.047377687 0.15344925 -0.16910398 -0.07272629 0.2802463 -0.17573021 0.03810388 -0.048232235 0.24331854 -0.09660902 0.14942557 0.28002995 -0.11115223 -0.012172188
15459 -0.037174307 0.15010154 0.024655074 -0.017190224 -0.2033515 0.18966806 -0.05403757 0.10621711 0.14988557 -0.425014 0.60268426 -0.024933819 -0.13545936 0.27605483 -0.09576015 0.1720299 0.483085 0.1343671 -0.070056 0.3542506 0.35817572 -0.26662853 -0.07089146 0.07486512 -0.20257959 0.19571747 0.44345814 -0.0048323367 0.33245957 -0.064977184 -0.15686129 -0.4316846 0.3529983 -0.21398214 0.3300443 0.004888743 0.11726354 0.14278334 -0.0025550276 -0.030309347 0.3199959 -0.02511603 -0.3345837 0.24788891 0.11491784 -0.22671543 -0.027774313 0.07708686 0.46535975 -0.5084832 -0.09018423 0.15756941 0.017518023 0.22994997 0.17364798 -0.27713752 0.17397654 0.3002684 0.03773457 0.051589534 0.2993223 -0.004379267 0.00026324956 -0.1694984
31578 0.2620345 0.17550512 -0.03575365 0.080402866 -0.23344325 -0.31776497 -0.112611726 -0.40789443 -0.12253408 -0.003979742 0.65676725 -0.047569357 -0.34809375 0.35912997 -0.03730738 0.2503872 0.54370576 0.10706779 0.18813418 0.6041322 0.41834936 -0.29016596 -0.14436407 0.026724983 0.07704675 -0.17819951 0.5144828 -0.22907732 0.26829356 -0.012698151 -0.5916968 -0.19417645 -0.043410886 -0.21733992 -0.22741532 0.21339357 0.28943545 0.087144576 -0.21317442 0.114346266 0.29040828 0.0524923 -0.037148353 0.10924904 -0.020283077 0.07831854 0.14065693 0.3226502 0.5103111 -0.93283623 0.05566791 -0.048053175 0.20958939 0.13397783 -0.0027155185 -0.22083238 0.01037414 0.15556411 -0.19427165 0.012026236 0.07750503 0.020082455 0.1966277 -0.31780818
28808 0.18817095 0.28252122 0.07326347 -0.07038809 -0.27282202 -0.16477953 -0.24767955 0.045532115 0.01335172 0.165151 0.578602 -0.34910867 -0.13742614 0.25254658 -0.14722267 0.17273521 0.43922263 -0.09435718 -0.029842345 0.67314166 0.42666984 -0.08215688 -0.087196946 -0.034250062 0.33414748 -0.01664782 0.3312272 -0.19596712 0.52823275 0.036553252 -0.21809565 0.0100479135 0.14769925 -0.15462585 0.109393306 -0.122344725 0.3014084 0.17603512 -0.13566856 0.23938845 0.30292106 0.21824981 -0.0553372 0.13509156 -0.29932538 -0.27758288 -0.09117856 0.07330341 0.21375585 -0.30248505 0.16729082 0.029780338 0.13687237 0.03453158 0.23176597 0.03267512 0.16140428 0.15881664 0.055746593 -0.33657995 0.20591035 0.15572527 0.2781116 -0.32194084
35243 -0.07398181 0.19078512 -0.029671224 0.07854258 0.103345014 0.26783618 -0.3122913 0.16199641 0.17562763 0.14456667 0.47261137 -0.008769073 -0.10123212 0.08937379 0.16752072 0.010390208 0.21020858 0.14154355 -0.17265095 -0.1696853 0.15709502 0.039246865 0.18522657 -0.05536544 -0.20329615 -0.113554776 0.006695631 -0.12797555 0.5291211 -0.33497146 0.17693835 0.12850352 0.25831336 0.12315131 0.22283371 -0.121953286 0.06505709 0.00024124654 0.11638895 0.14536214 0.22421078 -0.22358744 -0.04719262 0.2270918 -0.048341297 -0.00858619 0.21298589 0.15578339 -0.117252685 0.14996323 0.10993782 -0.30220512 -0.31909773 0.14799787 0.022318497 0.16726603 0.08488088 -0.03678294 0.2769619 -0.3241652 -0.094715014 0.10621306 -0.09447215 -0.65360826
34792 -0.09432056 -0.117782 -0.491488 -0.03481957 0.118789844 -0.3549605 0.047846034 -0.09627413 -0.68291676 0.019533874 0.6251529 0.20428124 0.06110507 -0.046946894 0.16501468 0.33508196 0.12632589 0.06615052 0.09244811 0.2188205 0.043577075 -0.147465 0.31037208 -0.42804262 -0.17070147 0.38291353 0.09260619 0.1961816 0.102314375 0.49067304 0.3533659 0.22585122 0.0978633 0.2164913 0.3451719 -0.13933292 0.62072843 0.21072476 0.26701275 0.12279653 -0.355136 -0.041069098 0.04816036 0.0011304981 -0.18040505 0.39534864 -0.6011448 0.1875412 0.16578929 0.30048165 0.18547359 -0.0028869251 0.18316767 -0.5363259 0.05402318 0.3459732 -0.07069876 0.24985856 0.45271823 0.2862919 -0.0149677545 0.039241895 -0.15492089 -0.014670712
24078 -0.1004023 0.087940626 -0.36063835 0.029719187 -0.14924137 -0.2220259 -0.018607454 -0.05010223 -0.64164525 0.14301176 0.6177385 -0.013427235 0.389693 -0.42846596 -0.28273934 0.1575485 -0.027454315 0.095584586 0.06363856 0.17695636 0.13293011 -0.16001563 0.04781781 -0.118622236 0.24678424 0.24427801 -0.16381903 0.2115698 0.29191342 0.29521677 0.30651918 -0.1840492 0.07192165 0.09891127 -0.14830723 -0.060917024 0.4916668 0.13177077 0.4132713 0.29319575 -0.26563963 0.08907878 -0.15714677 -0.17677237 -0.53648496 0.056659296 -0.5698677 0.027081288 0.10532864 0.19644424 0.32910123 -0.1607643 0.22922687 -0.41772723 -0.11901388 0.20972803 0.16055204 0.13495155 0.3970092 0.089574434 0.1449921 0.06581042 0.05707685 0.13569197
21408 0.15437488 -0.49929604 0.12999469 0.40281257 0.35551423 0.112007216 0.45214027 -0.3948132 -0.17667188 0.6416302 0.68514794 -0.007495925 0.1431152 0.03983386 0.08247015 0.634378 -0.22433272 -0.09108186 -0.11061725 -0.11174137 -0.010565121 0.64897025 -0.1864546 -0.027252702 -0.07139406 -0.06382025 0.31420213 -0.13918726 0.08043169 -0.017235715 -0.03530205 0.16672643 -0.2561568 -0.33626634 -0.13584644 -0.44280937 -0.20724276 0.31346747 -0.16384864 0.042668294 -0.123356484 0.27369863 0.18084389 -0.16225033 -0.08497411 0.18206805 -0.15538032 0.11183727 -0.05737274 -0.063086204 -0.0592007 0.31107923 -0.011407446 -0.3563588 0.032532483 0.033352852 0.38573572 0.68454707 -0.16107918 0.20547265 -0.16088729 0.09748634 -0.24637632 0.23882066
32397 -0.048774768 0.035216447 -0.23008344 -0.3486934 0.36540166 0.15033011 0.6470518 0.27825347 0.14291045 0.17148305 0.6506842 0.16549666 -0.07897088 -0.5582694 -0.19269714 0.7160054 -0.10917369 -0.03415556 0.02302709 0.10981373 0.20946485 0.4430784 -0.022153327 -0.24238577 -0.023584409 0.09094929 0.20453651 0.069897756 -0.004338006 -0.3197865 -0.3733626 -0.06400885 -0.18693623 -0.047536384 0.092273094 -0.17256899 -0.3220794 0.13578606 -0.19018932 0.023621729 -0.038793534 0.28916597 0.14579101 0.18064228 -0.20322898 0.018310737 -0.15884344 -0.17722248 -0.17558913 -0.109731235 -0.39818424 -0.28110278 -0.22176813 -0.39754674 0.30315486 -0.18602335 0.0082927765 0.47483993 -0.25940615 0.13688323 -0.32219353 0.10993605 0.06439035 -0.26627213
22851 0.21459317 -0.092655465 -0.23297478 -0.5173717 0.3975209 0.2028953 0.97562045 0.33139333 -0.19160892 -0.106105804 0.6555653 -0.05506484 -0.21422732 -0.11028875 -0.033913873 0.17326361 0.00025201752 0.12323987 0.15054393 0.12705332 0.14241058 0.28428045 0.08902984 -0.37568375 -0.17505355 0.13578263 0.1821312 0.107030645 0.07818379 -0.2982467 -0.39205757 0.11765396 0.0064470437 0.09297283 0.31237626 0.12280515 -0.25155926 0.05885766 -0.1283945 -0.31795824 -0.03844239 0.07338218 0.22919208 0.20173335 0.07257783 -0.019567417 -0.04002728 0.061778054 0.02438998 -0.38170636 -0.011425033 -0.3849391 -0.15318714 -0.1219799 0.10019963 -0.35975754 0.115490586 0.35508624 -0.3469484 0.14258166 -0.17350987 0.051447716 -0.16804959 -0.025600454
29875 -0.04629477 -0.24403733 0.0116892075 -0.53970206 0.35690913 0.1898468 1.0256912 0.48568365 -0.17727959 0.1454852 0.6608367 -0.20317478 -0.27503633 -0.0013137945 -0.0020807413 -0.14911743 0.02058249 0.07934039 0.27071512 0.053734742 -0.007394388 0.07471789 0.27159363 -0.45789602 -0.1124602 0.03428447 0.1495179 0.24613044 0.24746127 -0.176426 -0.288122 0.20530018 0.1875407 0.11596858 0.16656883 -0.10729781 -0.10362411 0.07031448 0.054562923 -0.37021947 -0.09252237 -0.06554714 0.33413097 0.13536409 -0.054063216 0.18075563 -0.1191209 -0.019385356 -0.101835825 -0.31192017 0.17416643 -0.24661462 -0.15809652 0.009976967 -0.065137886 -0.22361757 0.25265962 0.1032674 -0.36640313 0.22765838 0.12154486 0.25264278 -0.24628904 -0.04732281
18836 -0.18625367 -0.4676681 0.015412672 -0.26364654 0.17446437 0.23953396 0.85713506 -0.12512484 -0.06785485 0.015358977 0.5992309 -0.13489471 -0.10395969 0.14142857 0.061685573 -0.33809248 0.10607256 0.10646085 -0.004317058 0.29002437 0.18431716 0.091456056 0.30347246 -0.4058183 -0.23259467 0.29614216 -0.0734196 0.21452379 -0.05536048 0.08382624 -0.09905391 -0.1920272 0.15656127 -0.09485372 0.22823226 -0.08603973 -0.14657423 -0.16831861 0.216399 -0.19114496 -0.14224403 -0.07398095 0.28907862 0.0690575 0.18395245 -0.3105131 0.16362526 0.19364586 -0.13257495 -0.28088972 -0.09248703 -0.11707033 -0.007694969 -0.07432621 -0.19942321 -0.27652177 -0.057685737 -0.16117844 -0.24391653 0.20222068 0.023410736 0.068518154 -0.18806864 0.07894732
24232 0.25313866 0.12212241 -0.03537691 -0.22822712 0.2523454 0.37794384 -0.027569266 -0.10177777 -0.2337479 0.12537801 0.5406427 -0.020340847 -0.08930725 -0.5014783 -0.17018007 0.34647813 -0.14782667 -0.3580981 0.14953335 0.15303922 0.072033174 0.5405853 -0.18980815 -0.13428415 0.31565595 0.34131613 0.112480134 0.14261235 0.15714602 -0.062521935 0.0010552354 0.030554486 -0.08346757 0.004933141 -0.02380443 -0.22600876 0.050200287 -0.00077755156 -0.07043993 0.29996634 0.31014097 -0.2048411 0.116837375 0.15086827 -0.08868156 -0.2984846 -0.5256988 -0.42664492 -0.11226829 -0.42527604 -0.07116607 -0.38594133 -0.09129664 -0.33698323 -0.09542042 0.07084004 0.0360423 0.19822286 0.12521645 -0.33047146 -0.088084646 0.18455598 0.7608074 -0.39066914
33616 0.27189958 0.095474586 0.11476926 0.033508603 -0.048907816 0.24084236 0.123510145 -0.82312953 -0.16323715 0.014702613 0.509285 0.06222278 0.2954231 -0.14111993 -0.07071504 0.24168761 -0.05886246 -0.22848146 -0.12711124 0.010889445 -0.10460301 0.038613353 0.07348127 0.0057106195 0.15592228 -0.056291558 -0.09697363 0.23402178 -0.018678524 -0.0025522227 0.11435371 -0.1430341 0.11571555 0.2154828 -0.36613786 0.04591119 0.19513807 0.14291672 0.29941946 -0.2678244 0.11233703 -0.2992071 -0.29002616 -0.2606684 0.1494753 -0.15991096 0.04786812 0.0847619 0.2289887 0.31468517 0.17442605 -0.21735057 0.033873335 -0.3486877 -0.18941571 0.06636556 0.09462671 -0.061668888 0.050624415 -0.12400131 -0.06192633 0.0338686 -0.052433748 -0.18167117
15553 0.28581682 0.03771186 0.05650852 -0.15175036 -0.4408876 -0.13167787 0.5578607 -0.20437758 -0.35265476 -0.06456341 0.60833126 0.12354678 -0.12405439 0.3662537 0.08151196 0.17871074 -0.08292266 0.15401857 -0.047570087 -0.14699641 -0.27368462 -0.20772342 -0.42706725 -0.21971002 0.13819581 -0.025003439 -0.3218457 -0.18010646 -0.07082875 0.87363935 -0.08569527 -0.21277736 -0.038283948 0.046239007 -0.041278526 0.58261335 -0.053099822 0.14742959 0.29400712 0.17279837 0.22497454 -0.03842392 0.040093422 0.1485781 0.020577174 -0.31288025 0.15514344 0.17510566 0.09015613 -0.14239073 -0.050545953 -0.42521167 -0.21733743 0.13505585 -0.0035452337 -0.16770254 -0.07764252 0.22602598 0.2056919 -0.18199444 0.1600226 0.05021545 -0.29657096 -0.15510519
33734 0.2704735 0.00079894776 0.08173568 -0.1270613 -0.5202492 -0.13916728 0.58443636 -0.2260867 -0.3410497 -0.074256964 0.6437576 0.20437574 -0.08100671 0.37833968 0.034652002 0.16102909 -0.0774974 0.10220856 -0.026036968 -0.17058168 -0.29492614 -0.17172758 -0.4579659 -0.22736496 0.15952949 -0.055392873 -0.42100573 -0.16552316 -0.08532232 0.9414263 -0.124756575 -0.21889934 -0.0901749 0.12007142 0.07308462 0.66313624 0.018782824 0.23142336 0.30251417 0.21727905 0.23775522 -0.008691387 0.020152759 0.16587487 0.035162605 -0.31299132 0.15619303 0.17594916 0.07140735 -0.15568599 -0.054714523 -0.5049783 -0.30510503 0.17917302 -0.040865142 -0.14376926 -0.12655829 0.22812565 0.2292797 -0.20811245 0.18968293 0.0303085 -0.34141433 -0.1924297
15558 -0.2569862 0.17187324 -0.06540694 -0.021145921 0.18005507 -0.39305127 0.046123505 -1.1485165 0.122411 0.1378835 0.60964 0.05866235 -0.064939894 0.29099226 -0.28901586 0.05116105 -0.17387079 -0.29179698 0.20857732 0.29681927 0.19437598 -0.107343316 -0.1306139 0.4272996 -0.18718672 -0.27846134 0.22085536 -0.120180845 -0.11803858 0.33932334 0.007107551 -0.00513527 0.33662564 -0.31030053 0.21697102 0.047098596 0.09179136 -0.12247892 0.13565871 -0.16537179 -0.20017345 -0.47285596 0.03241513 0.14164133 0.17959128 0.28486013 -0.46821657 -0.117196 -0.021909572 0.116207965 -0.3033056 -0.11284999 0.4003866 0.041855853 -0.06675636 -0.15132783 0.0003775151 0.16037858 0.02172334 -0.27378854 0.33024126 -0.2349113 0.35879076 0.044312805
20205 0.35738343 0.038317595 0.21581349 -0.17415251 0.08022307 -0.074956395 0.046688996 -0.9805655 0.0024474857 -0.16382788 0.5735298 -0.049383968 -0.1812579 0.090708956 -0.17338417 0.06664024 0.29088148 -0.10726078 -0.06440274 -0.005630788 -0.15353484 -0.3063156 0.30883288 -0.13735285 -0.05932952 0.06126868 -0.055002037 0.51742655 -0.011943641 -0.12508948 -0.019641636 -0.3274508 -0.24410765 -0.28820378 -0.22755153 -0.3274196 0.3471118 -0.33388653 0.35943985 -0.18472646 -0.032968074 -0.07116002 -0.033685535 0.20887841 0.094906636 -0.1832418 -0.47550386 -0.450266 0.23179841 0.29103822 -0.2941931 -0.10196297 0.24188828 -0.26825216 0.11181786 0.11337355 0.14928195 -0.17240223 0.2706444 -0.35935614 0.12230884 0.26777872 -0.16319798 0.27165157
32132 0.36785838 0.026419444 0.34902808 -0.37761635 0.119338565 -0.32154346 -0.08832378 -0.29235253 -0.12538779 -0.224174 0.64969814 -0.027538905 -0.27787444 0.24601664 -0.29166025 -0.014354572 0.38441616 -0.070293374 -0.02553088 -0.14530386 -0.369659 -0.5094871 0.18603243 -0.11575803 -0.112690106 -0.03756906 0.037608374 0.47702545 -0.016860634 -0.27034432 -0.17558636 -0.60080886 -0.26958337 -0.3760345 -0.24792232 -0.55111545 0.15408716 -0.40575233 0.34633026 -0.37965682 -0.000987836 -0.04210947 -0.07074173 0.18070613 0.076147 -0.10052543 -0.50298595 -0.5994957 0.24789153 0.09513818 -0.38219848 0.03781082 0.11917682 -0.15473573 0.026837796 0.07210404 0.28399047 -0.21483462 0.29905665 -0.37163505 0.20175064 0.28473276 -0.08491923 0.38801378
27414 0.45125097 -0.20217282 0.38154438 -0.32439193 -0.039082818 -0.54745996 -0.1499377 0.16738011 -0.09994216 -0.12437654 0.6644681 0.13523531 -0.006837944 0.2935962 -0.32934833 -0.1555309 0.29502138 -0.041785263 0.09840588 0.025259782 -0.26778457 -0.38317826 0.09434614 -0.07314007 -0.025007168 0.2005861 0.054750483 0.40316036 -0.07714339 -0.49691573 -0.016418999 -0.5384297 -0.5169422 -0.28085357 -0.42391774 -0.5269881 -0.10208119 -0.36796862 0.008696595 -0.47477165 0.039756563 -0.16541694 0.0015926552 0.18275659 0.06581256 -0.093486905 -0.22906864 -0.43739146 -0.05852112 -0.1745413 -0.26440746 0.021758432 -0.00613523 0.05101736 0.11885608 0.31445518 0.38735193 -0.18462963 0.027601467 -0.36311755 0.25068638 0.023673523 -0.09789743 0.5870141
34666 0.30965605 -0.12956907 0.3689881 -0.055790637 -0.4731526 -0.69139 0.007746811 0.40360433 -0.088167906 0.022678806 0.68622035 0.25041804 0.0055369427 0.32321844 -0.17858917 -0.034955982 0.023520257 0.25423303 0.2892456 0.13477229 -0.23358738 -0.38046786 -0.013988531 0.077996865 0.24771601 0.07474616 -0.033254433 0.22132242 -0.14645126 -0.376105 0.09308247 0.056818455 -0.39211527 -0.13030052 -0.5391659 -0.63933134 -0.18274379 -0.29293457 -0.16475995 -0.281166 -0.07887926 -0.22333258 -0.030930068 0.17902482 0.12677115 -0.45578867 -0.25893536 -0.17038006 -0.047710463 -0.111696556 -0.48291314 -0.0070760925 0.080780126 -0.10849451 0.1760338 0.3288314 0.19931035 0.039646383 0.38402045 -0.14754473 0.5430855 -0.106516846 -0.34558064 0.511297
24049 0.1792736 -0.019429116 0.5390014 -0.33679956 -0.77038944 -0.36892647 0.12973446 0.4073136 -0.258711 0.029474143 0.71337646 0.1663719 -0.032187376 0.18304211 -0.17542335 0.13318397 0.25041205 0.18215811 0.037461754 -0.009258336 -0.49944437 -0.5101358 -0.10091945 0.25624898 0.36481908 -0.041963033 0.043258704 0.10696643 -0.48784852 -0.25698182 0.30933002 0.32146809 -0.3697211 -0.047577 -0.43040377 -0.58364713 -0.08609532 -0.2582979 -0.25938284 -0.26581523 -0.28536934 -0.17251913 0.1719529 0.2750597 0.04051408 -0.49178547 -0.11163588 0.058880784 -0.08939427 -0.12141635 -0.596025 0.0060057994 -0.0030180386 -0.013441045 0.28525403 0.08842281 0.11900252 0.20007384 0.46939704 -0.43363956 0.28581467 -0.19523214 -0.38976765 0.36792096
23620 0.42540568 -0.12233416 0.29788098 0.10281173 -0.31055245 -0.5658852 -0.10884771 0.33129346 -0.070920326 0.04680498 0.5467786 0.015458201 -0.11995055 0.12271447 0.12001388 -0.24735957 0.10475899 -0.16273287 0.47416395 0.12549789 -0.08559936 -0.1945872 -0.1351375 0.3352413 0.11688812 -0.028749963 -0.09178666 0.3713474 -0.12187618 -0.51496303 0.1809871 0.075850606 -0.2539292 0.028618235 -0.1649167 -0.44126016 -0.4629565 -0.2983787 -0.05048983 -0.07046232 -0.0077068885 0.03316095 -0.15783145 0.024811858 0.1470963 -0.3962674 -0.21038958 -0.18625662 0.18291987 -0.0129802665 -0.26571864 -0.20905708 0.060031485 -0.090265244 0.36199147 0.3116946 -0.06791255 -0.034234446 0.48578194 0.057250075 0.5310435 -0.053615473 -0.15589795 0.18831961
35337 0.47336334 -0.06402967 0.1171501 0.01936374 -0.29177487 -0.4761022 0.08500958 0.11126092 0.23020244 0.09857553 0.55456936 -0.023493195 -0.2886253 0.120959535 0.27998802 0.034687396 0.09385539 -0.14163199 0.07493718 0.21944574 0.119865604 -0.061747354 -0.21372388 0.47145766 0.27570775 0.21781881 0.16559334 0.38764325 -0.117651135 -0.3837877 0.37443554 0.29034504 0.08078416 0.2075384 -0.007883774 -0.18930222 -0.50324917 -0.25193396 -0.09627715 -0.12468489 0.1777508 0.29601786 -0.24036679 -0.028151682 0.2199686 -0.36402866 -0.2658545 -0.019458715 0.4106682 0.22783859 -0.14935765 -0.4976362 0.26761052 0.10132435 0.3263095 0.26652247 -0.37885585 0.014070967 0.64210075 0.15070346 0.633269 -0.12910663 0.027519586 -0.057117168
34698 -0.18201295 -0.09320602 0.3233965 -0.020116715 0.021001091 0.1878729 -0.12317175 0.30675006 0.110246666 0.5211473 0.57658505 -0.025871964 -0.23712833 0.5243327 0.33639425 0.03227711 0.19039755 -0.094301954 0.08678259 -0.4448511 0.31714407 0.1382145 0.17990753 0.46382758 0.24121715 0.19950752 0.2009954 0.48200443 0.38840148 0.2326116 -0.063124225 -0.36773598 -0.28124708 -0.10918859 -0.0071617933 0.38800046 0.050077792 -0.20902237 -0.41434523 -0.23083763 0.01686613 -0.1670533 0.060492612 0.04882166 0.07920936 0.05239274 0.22441277 -0.29142764 0.36724395 0.27147081 0.46291772 -0.45716187 -0.091387816 -0.21882044 -0.01267428 -0.074170694 0.094049886 0.010226181 -0.32924426 0.07268915 -0.045570582 0.10926438 0.10035469 -0.21611542
15744 -0.33469057 -0.09139249 0.1997108 0.219499 -0.10825706 0.5286022 -0.008173821 0.49180812 -0.015606566 -0.006550312 0.53558844 -0.14567097 -0.030873086 0.40561712 0.31563002 0.04177836 0.07859393 -0.15174206 -0.10669333 -0.12725958 0.22665484 0.10429046 -0.15786444 0.2810123 -0.062289644 0.24928452 0.09568707 0.37190986 0.36099666 -0.28172663 -0.049578298 -0.1643347 -0.1929339 0.06148945 0.11126696 -0.041693408 -0.32767308 -0.34912544 0.43173897 -0.023679819 0.0006905702 -0.093261614 -0.33276117 -0.12815249 0.2979933 -0.18482009 -0.0874867 0.063719876 0.17721695 0.13566464 0.39993337 -0.1665642 0.20240538 -0.0042312355 0.20844358 0.07849165 -0.22957003 -0.02849287 0.10013739 0.019951815 0.0041401894 -0.13960078 -0.42195794 -0.16350593
17682 -0.22536312 -0.14482738 -0.0543426 0.011553015 0.07106147 0.08235328 -0.8167296 0.23335241 0.12604412 -0.120837085 0.58655775 -0.18078147 0.2964681 -0.054266285 0.13062796 -0.110681415 -0.020687636 -0.0044028605 -0.012466733 -0.08793508 -0.076787956 0.36655715 -0.24823819 0.06679083 0.23767067 0.11172371 0.39480644 -0.1752445 0.43501905 -0.16787532 -0.07949321 0.10536316 0.1941896 -0.09973478 0.3855772 -0.6294924 0.076854296 -0.28160456 0.108502515 -0.27384442 -0.30717224 -0.1052564 -0.07790229 -0.3441261 -0.012311329 -0.20009209 0.1587427 0.13793112 -0.1585814 0.13412239 0.41061 0.08944365 0.32421392 -0.17306082 0.19282474 0.15724568 -0.5539068 0.045409486 0.12532452 -0.03586065 -0.1790554 -0.19167702 -0.43884403 -0.21824335
33148 -0.20968305 -0.18443498 -0.06281656 -0.027992649 0.14004277 0.109181404 -0.86639595 0.282439 0.12552263 -0.16383652 0.6361226 -0.19555998 0.35521027 -0.09382754 0.118280806 -0.04821155 -0.03213196 0.04466581 0.024623144 -0.12333109 -0.067911595 0.43947795 -0.25002903 0.13068895 0.2816144 0.096018665 0.46524012 -0.20673284 0.46742263 -0.17394932 -0.07578633 0.09119582 0.1521549 -0.037389148 0.46845484 -0.7188728 0.08896509 -0.304477 0.13292126 -0.38350278 -0.3638334 -0.06821482 -0.054955162 -0.34806627 -0.010505717 -0.23258448 0.17845371 0.1339691 -0.20996065 0.22999224 0.3903766 0.063686535 0.3924023 -0.16071407 0.19500934 0.21727629 -0.57315266 -0.023254847 0.15956873 -0.068858646 -0.20428064 -0.19639087 -0.48234662 -0.21623793
34186 -0.38115427 -0.3179003 0.000102137325 -0.020096235 -0.13535336 0.37569308 -0.29035985 0.4106275 0.09767905 -0.12182053 0.5905694 -0.22456793 0.27071387 0.26077613 0.19249873 0.06468762 -0.35171002 -0.39671564 -0.111520804 -0.25101346 -0.061324954 0.19984226 -0.40142465 0.24924266 0.179499 -0.05391095 0.3752579 0.19227943 0.55319816 -0.25787523 0.079845175 0.16360044 -0.04799225 -0.08656448 0.4433168 -0.21369445 0.013425737 -0.29801238 0.52399987 -0.29698014 -0.14263016 0.015067589 -0.31613746 -0.13985753 0.20057611 -0.10267581 0.2554322 0.14126924 -0.012669577 -0.08341461 0.33861908 0.07780369 0.40456444 0.15427299 0.37692043 0.03647409 -0.44092748 0.16349363 0.28568596 0.22608154 0.008339363 -0.407353 -0.4686094 0.06338821
30333 0.029641487 0.2935524 -0.28477016 0.40504965 0.014669294 0.25380006 0.30538708 0.115036115 0.028560849 0.32989842 0.54919267 0.053236403 -0.07233362 -0.04512905 -0.04268984 -0.18664853 0.56239593 0.28807157 0.33366665 0.09558001 -0.020974081 -0.20884047 -0.23123716 -0.3816101 -0.07790762 -0.059429094 0.12372888 -0.2303225 0.18608461 -0.6035279 0.022643965 0.112812996 -0.12796035 -0.097899534 -0.40946075 -0.060132887 -0.2711868 -0.1607537 0.11771705 -0.10564928 0.12001337 -0.2422411 0.045160517 -0.079059966 0.025251387 0.28248796 -0.15180643 0.07937567 -0.112422 0.30719498 0.22269453 -0.17403659 0.41012833 0.04018076 -0.15924789 -0.013089832 -0.5877973 -0.038770687 0.13305992 -0.21004125 -0.10329687 0.03638781 0.0998419 0.048277296
15467 0.24128075 0.101063766 -0.055307653 0.34461808 -0.1866612 0.4547862 0.0098027745 -0.57137626 0.088909574 0.08621031 0.5341112 0.22976215 -0.33364746 0.1184764 0.20554063 -0.032419585 0.110741206 0.15281951 0.31468102 0.3533634 0.15612584 -0.28076428 -0.092025034 -0.3389721 -0.074431896 -0.23659118 0.23071927 -0.37044257 0.29045126 -0.32199672 -0.049587715 0.1665458 -0.17695019 -0.17318706 -0.5352239 0.27682433 0.095556624 -0.056491703 0.10924233 -0.39069423 -0.23705982 0.088996135 -0.21491066 0.03874733 0.10781235 -0.036076218 -0.025967015 -0.16619794 0.15086031 0.32294527 -0.046483472 0.054463945 0.23044048 0.015112547 -0.029080387 0.49742046 -0.40569466 -0.111299396 0.0835076 -0.11843293 -0.17096025 0.31928048 0.14699982 0.16347326
27394 0.04137718 0.3954517 -0.5455589 0.071262635 -0.52371526 0.013822391 0.25775176 -0.14523982 0.20372532 0.2723285 0.57384235 -0.030779729 -0.116424374 -0.1787171 0.3425667 -0.63519377 0.28366914 0.119572245 0.4506099 0.20606747 -0.14380452 0.20735335 0.13931708 -0.23146315 0.09178123 0.32944065 0.12075337 -0.09892766 -0.3345385 -0.2852199 0.11691959 -0.011611326 -0.25958875 -0.09780449 -0.61509275 -0.13954915 -0.21477659 -0.13074847 0.30695078 0.31709307 0.0036656004 -0.41050413 -0.008265267 -0.20115818 0.22105715 0.18144624 -0.26809558 -0.45071158 -0.1943682 0.1323377 -0.15238498 -0.038966157 -0.027064923 -0.17431878 -0.013235809 -0.021938197 -0.2654281 0.06212101 0.09852396 0.10779193 -0.052492864 0.26465318 -0.04880675 -0.11664329
27408 -0.13760144 0.06622774 -0.43008512 0.13610986 0.14332381 -0.1946913 0.14782262 -0.43262717 0.12280001 0.15190712 0.5382124 0.112776116 0.044228815 0.0013645869 0.2765141 0.0070040114 -0.38346276 -0.3267594 -0.10527571 -0.10974876 0.21309946 0.1846368 0.1524916 -0.21823815 -0.18179524 -0.067738935 -0.1297649 0.26541853 -0.16641124 -0.104135275 -0.15995602 -0.0097439205 0.14279105 -0.10282749 0.13560607 0.12553495 0.31016323 -0.43366602 0.19522947 0.1617757 0.116982624 0.021522345 -0.16498777 -0.36322606 -0.27188817 -0.14101562 0.48518127 0.55738753 0.12439209 -0.11430936 -0.095602 0.3414517 0.18414274 0.3227129 -0.015335793 0.010398305 0.3338012 -0.021747522 0.36028317 -0.054842964 0.0442789 0.06489227 0.13566835 0.21689376
21493 -0.028066609 0.3079594 -0.26717284 -0.3746267 0.3451536 0.4085661 0.030051528 0.19482435 0.23177513 -0.07503834 0.60109067 -0.58480227 -0.24376628 -0.06384544 -0.17192203 -0.49146354 -0.0860642 0.068408966 0.10225717 -0.15653639 -0.14409754 -0.24430999 0.26182833 -0.2483411 -0.28172782 0.4328256 0.19015916 0.0028311026 0.07224532 0.034133773 0.039554756 0.24186906 0.1859949 0.13452724 -0.09595917 -0.05855322 0.16161528 0.25884986 0.12568083 -0.052932225 0.0075965994 0.21852492 0.146913 0.029691854 0.4178467 0.122669265 -0.19161609 0.24657945 0.08016579 0.17941494 0.14531988 -0.18508247 0.357726 0.16528569 0.23510337 -0.28432223 0.38316393 0.2464238 -0.5937071 -0.08113283 0.15697864 -0.0050051627 0.02997473 0.40479392
34799 -0.36368987 0.16333073 -0.39758018 -0.07818413 0.15259662 0.09085415 -0.34452528 0.26109526 -0.16052943 0.036159866 0.5934061 0.22015232 -0.015189902 0.059406918 0.19480337 -0.11943515 -0.13097027 -0.052810084 0.06359529 0.066233665 -0.43113726 0.22605069 0.28702772 -0.011668257 0.20614126 0.07609672 0.18745568 -0.12324162 0.27193776 -0.25716764 -0.06649349 -0.26895577 -0.51130563 0.18455327 0.090051174 0.15135057 0.2252818 0.26642224 -0.0104846675 0.32406694 0.16090357 -0.13198116 0.11265309 -0.036431946 0.5732673 -0.12619196 -0.068798356 0.10841473 0.36676988 -0.12785794 -0.3534437 -0.08419142 0.20207842 0.0076347757 -0.24706616 -0.07582155 0.066732615 0.0827139 -0.656452 -0.16088933 0.042868596 0.037277143 0.20339201 0.3174079
24055 -0.08897348 0.0039321193 -0.9442836 0.18205796 -0.12863752 0.049112238 -0.106301114 -0.0053055487 0.06244739 0.045658913 0.56698143 -0.21631905 -0.120682165 -0.060979083 0.029096557 -0.06746181 -0.23562507 -0.10754234 -0.20619954 0.27611893 -0.18759519 -0.16179742 0.050995126 0.39838323 0.5433719 -0.16889168 0.12217088 0.3236727 -0.10006048 0.034402177 -0.06084251 0.16604498 -0.14342293 -0.02084915 0.6744059 0.104976356 0.1072844 0.11548927 -0.09080371 0.14239332 0.08019058 0.08992661 0.04842013 0.112004094 0.3151852 0.1523882 0.29798242 0.16642113 -0.027192269 0.056539714 -0.098910995 -0.039691266 0.10633131 0.0949065 0.15917777 0.42610723 0.21593082 -0.07436305 -0.08416253 0.21566574 -0.22956936 -0.08791374 -0.1448099 0.4212219
15559 0.2917621 0.032359622 0.08605596 0.0025932738 0.16221282 -0.26185748 0.062691756 -0.40513995 -0.21665788 -0.24361344 0.5722867 -0.039982792 -0.09427544 0.09319509 -0.45640594 0.023794502 -0.12246817 -0.06741189 0.10477071 0.19729717 -0.22324961 0.07700313 0.072601385 0.22195157 0.3495821 0.117222205 0.49131238 -0.21027559 0.27886194 -0.40762296 0.03234147 -0.1179097 -0.076071665 -0.0001256072 0.1373021 0.2812247 0.24251664 0.2285528 0.27372724 0.07708772 0.24066643 0.010033981 0.44134453 -0.16010523 0.034638565 -0.3020182 -0.2166611 0.08597154 -0.07151292 -0.5191701 0.03655341 -0.07061331 0.22750369 -0.19556215 -0.12983207 0.0100386655 -0.049705815 -0.02120813 -0.40650198 -0.27079278 0.02999848 -0.3225104 0.46723577 0.113163464
30175 0.23537587 -0.022535777 0.18884742 0.0530611 0.4472138 0.3780268 -0.13666025 -0.1584162 -0.23808609 -0.10801596 0.5556412 0.042834707 -0.16406366 0.0017049006 -0.19072191 0.09467639 -0.03422236 -0.06657661 0.06665162 0.17107895 -0.22718275 -0.20167825 -0.27323836 0.10996334 0.2500125 0.3184515 0.051458973 -0.2007922 -0.082040645 0.039607648 0.27035433 0.36896828 -0.2939541 0.24825178 -4.469769e-05 -0.17413333 0.12602429 0.29174656 0.06317832 0.16045643 0.8978879 -0.3100843 0.057326026 0.13230114 -0.18969375 -0.17974111 -0.3801978 -0.28812495 0.050865036 -0.69693494 -0.14025469 -0.22855309 0.07171353 -0.14441746 0.04447839 0.15396965 -0.16611116 -0.15287746 -0.35762402 0.047612682 0.13368602 -0.0766535 0.7245856 -0.32930383
16256 -0.054922644 0.21962966 0.22895399 0.27651992 0.5883324 0.21742275 -0.40074933 0.070287056 -0.11620906 -0.31043923 0.51167357 -0.24686523 -0.056072842 -0.29017907 -0.0920771 0.19520378 0.0137181785 -0.21912186 0.3311983 0.15263979 -0.24877211 0.15519859 0.064210884 0.18296674 0.060696546 0.10996193 -0.09666222 -0.3007965 -0.1964182 0.25350654 0.36199334 0.51894736 -0.39598584 -0.0018774805 0.088427216 -0.00028338935 -0.10317513 0.21168453 -0.11033694 0.1682577 0.4107393 -0.29971096 -0.35429692 0.09673119 -0.3807401 0.024650713 -0.07872343 -0.3022512 0.29880616 -0.3774174 -0.17787172 -0.049791194 -0.29064536 0.13011235 -0.061340064 0.35507408 -0.29526094 -0.20772046 -0.520773 0.16298044 0.04378963 0.46605927 0.2774899 0.10000248
32131 0.34660223 0.06733642 0.2578328 0.3757182 0.72564614 0.17954908 -0.43697718 0.34056827 0.17366265 -0.37153703 0.5797119 -0.38386607 -0.219744 -0.35226637 0.017418867 0.3951495 -0.046813067 -0.09906934 0.19383627 -0.10328422 -0.1665682 0.33311796 0.21755458 0.21530002 0.11699812 0.067124486 0.14606294 -0.50446737 -0.09756094 0.18403795 0.21328162 0.3959168 -0.422115 0.004357785 -0.035370823 -0.029885244 -0.16379315 0.13920255 -0.27830803 0.22632998 0.19999526 -0.5222952 -0.4902679 0.203427 -0.42024994 -0.12423853 0.05118449 0.01518819 0.20011732 -0.19500197 -0.19035192 0.14097783 -0.22167115 0.12817784 -0.25751 0.31299633 -0.47933504 -0.24742228 -0.6030406 0.076034695 0.17127372 0.26388082 -0.06831746 -0.14466402
18878 0.520673 -0.10906107 0.3261996 0.32927337 0.9429218 -0.05653354 -0.039782856 0.37199545 0.22864982 -0.39350584 0.6842462 -0.20813072 0.010420982 -0.35471192 -0.06252098 0.4430945 -0.1022422 0.107298605 0.0116713215 -0.11044725 -0.11785534 0.33623517 0.21052442 0.49636474 -0.054844245 0.06635049 0.2944987 -0.5362921 0.09918981 0.060217302 -0.30716857 0.11252318 -0.31095943 -0.2919556 -0.14011683 -0.12175858 -0.22392423 0.09903443 -0.42865855 0.3328945 0.16069326 -0.38867968 -0.23387578 0.085948855 -0.26080897 -0.10769133 -0.17325836 0.43592504 0.10827077 -0.02925698 -0.22144096 0.17075934 -0.04080687 0.043434262 -0.34732664 0.22046947 -0.25320473 -0.18938196 -0.7524493 -0.16666171 0.29853478 -0.20472917 -0.13987586 -0.028721774
